tree
version=v4
num_class=1
num_tree_per_iteration=1
label_index=0
max_feature_idx=98
objective=quantile
feature_names=temperature_2m relative_humidity_2m dew_point_2m precipitation_mm cloud_cover_pct wind_speed_10m shortwave_radiation is_peak_hour is_night is_morning_ramp quarter hour_sin hour_cos hour dow_sin dow_cos dayofweek month_sin month_cos month doy_sin doy_cos is_weekend heat_index CDD HDD temp_squared temp_x_humidity temp_x_hour temp_ramp_1h temp_ramp_3h season_winter season_spring season_summer season_monsoon season_autumn is_rainy is_heavy_rain is_cloudy is_clear is_daylight solar_high is_holiday is_national_holiday is_festival is_ipl_season days_to_next_holiday days_since_last_holiday is_pre_holiday is_post_holiday aqi_value aqi_severe aqi_poor delhi_mw_rmean_7d delhi_mw_rstd_7d delhi_mw_rmin_7d delhi_mw_rmax_7d delhi_mw_rmean_14d delhi_mw_rstd_14d delhi_mw_rmin_14d delhi_mw_rmax_14d delhi_mw_rmean_30d delhi_mw_rstd_30d delhi_mw_rmin_30d delhi_mw_rmax_30d delhi_mw_rmean_90d delhi_mw_rstd_90d delhi_mw_rmin_90d delhi_mw_rmax_90d temp_rmean_7d temp_rmean_14d CDD_rsum_7d CDD_rsum_14d humidity_rmean_14d delhi_mw_lag_1 delhi_mw_lag_7 delhi_mw_lag_14 delhi_mw_lag_30 delhi_mw_lag_365 delhi_mw_diff_1 delhi_mw_diff_7 fourier_sin_7_1 fourier_cos_7_1 fourier_sin_7_2 fourier_cos_7_2 fourier_sin_7_3 fourier_cos_7_3 fourier_sin_30_1 fourier_cos_30_1 fourier_sin_30_2 fourier_cos_30_2 fourier_sin_30_3 fourier_cos_30_3 fourier_sin_365_1 fourier_cos_365_1 fourier_sin_365_2 fourier_cos_365_2 fourier_sin_365_3 fourier_cos_365_3
feature_infos=[7.4708333333333341:39.083333333333336] [13.666666666666666:93.916666666666671] [5.1583333333333332:26.058333333333334] [0:28.300000000000001] [0:100] [2.5583333333333331:22.762499999999999] [57.708333333333336:247.83333333333334] none none none [1:4] none none none [-0.97492791218182362:0.97492791218182362] [-0.90096886790241903:1] [0:6] [-1:1] [-1:1] [1:12] [-0.9999994220246925:0.99998555065071859] [-0.99997919295908233:0.9999907524084426] [0:1] [7.4708333333333341:38.24563888743748] [0:15.083333333333336] [0:10.529166666666665] [55.813350694444459:1527.5069444444446] [5.0202777777777783:24.858888888888892] none [-7.7083333333333321:6.7500000000000036] [-9.7708333333333357:9.2333333333333343] [0:1] [0:1] [0:1] [0:1] [0:1] [0:1] none [0:1] [0:1] none none [0:1] [0:1] none [0:1] [0:54] [0:54] [0:1] [0:1] none none none [3177.7397837111234:8103.1428571428569] [47.8658840629463:1344.039683285903] [2444:7680] [3292.9447202797201:8568] [3195.9944546191264:7788.8571428571431] [67.484959659143769:1146.7114366738408] [2444:7233] [3343.8276655052268:8568] [3304.222399532388:7769.2333333333336] [116.09055621106256:1048.1875632805934] [2444:6992] [3685.7324561403507:8568] [3451.349253411126:7147.3555555555558] [297.66476580201913:1613.531327188962] [2444:5579] [4172.9755594405597:8568] [8.7886904761904763:38.085119047619052] [9.0598214285714285:37.201190476190469] [0:98.595833333333346] [0:184.81666666666666] [19.520833333333336:88.452380952380949] [2444:8568] [2444:8568] [2444:8568] [2444:8568] [2444:7770] [-1841:1736.2343447541621] [-2912.6026852255131:2667.989340277778] [-0.97492791218184816:0.97492791218187824] [-0.90096886790250974:1] [-0.97492791218188657:0.97492791218194674] [-0.9009688679026322:1] [-0.97492791218188657:0.97492791218198949] [-0.90096886790269859:1] [-0.9945218953682784:0.99452189536827806] [-1:1] [-0.99452189536828117:0.99452189536828672] [-0.97814760073382578:1] [-0.9510565162951945:0.95105651629519605] [-1:1] [-0.99999073973619013:0.99999073973619013] [-0.99996295911626554:1] [-0.99999073973619013:0.99999073973619013] [-0.99996295911626554:1] [-0.99999073973619013:0.99999073973619013] [-0.99996295911626554:1]
tree_sizes=547 565 562 561 490 568 651 647 736 732 651 650 562 566 654 569 649 640 814 648 655 652 744 658 654 730 720 740 815 903 657 657 656 721 821 661 640 736 740 733 738 740 651 731 822 739 833 740 902 834 822 812 908 985 985 993 907 914 746 747 740 906 902 986 904 740 912 908 829 897 983 987 995 1080 997 905 909 830 827 839 905 1005 830 915 1003 1000 997 925 1012 918 915 833 1000 1077 1167 896 973 1000 914 1013 994 995 1091 919 916 994 1089 998 1242 1068 1335 1243 1256 1339 1171 1091 1233 1264 1170 1243 1424 1325 1242 1254 1248 1172 1156 1157 1094 1182 1250 1078 1086 1256 1170 1335 1091 1350 1172 1165 1332 1334 1172 1258 1260 1331 1260 1347 1337 1175 1334 1362 1348 1164 1350 1268 1262 1181 1256 1346 1348 1335 1442 1523 1416 1348 1522 1263 1100 1271 1357 1269 1176 1198 1275 1262 1268 1522 1505 1582 1344 1334 1511 1432 1507 1505 1507 1760 1667 1577 1520 1421 1513 1527 1433 1513 1349 1514 1522 1510 1533 1433 1351 1356 1263 1603 1508 1674 1532 1343 1514 1354 1449 1692 1604 1753 1689 1618 1512 1601 1437 1595 1785 1517 1516 1617 1944 1771 1594 1684 1674 1849 1864 1856 1599 1852 1868 1692 1780 1852 1619 1795 1701 1513 1697 1701 1439 1447 1535 1529 1778 1438 1768 1622 1626 1775 1813 1698 1697 1779 1868 1868 1611 1619 1703 1609 1504 1693 1620 1439 1856 1615 1857 1537 1791 1696 1699 1858 1795 1869 1859 1698 1956 2124 1937 1838 1942 1858 1870 1700 1950 1702 1679 1772 1696 1870 1703 1872 1871 2110 2029 1851 1954 2037 1849 2038 2016 1947 2117 2027 1865 1858 1875 1700 1856 2041 2028 1941 1786 1961 2281 2024 2128 2027 2143 1861 1865 1874 1790 1866 1528 1527 1530 1694 1458 1698 1789 1517 1529 1444 1709 1537 1615 1711 1795 1695 1792 1691 1862 2041 2028 1879 1787 1869 1711 1869 1965 1795 1874 1773 1630 1534 1860 1720 1699 1772 1782 1529 1711 1870 1692 1880 1946 2201 1968 2025 1954 1872 2030 1813 1867 1872 1886 1945 1874 2311 1946 1940 2195 1939 1695 1942 2220 2137 2025 2138 1954 2138 1879 1960 2129 2053 2027 1875 1953 2126 1949 1882 1787 1617 2054 1950 1790 1970 1861 1960 1867 1879 1883 1704 1605 1625 1795 1535 1548 1872 1616 1716 1872 1713 1620 1698 1881 1794 1612 1694 1625 1621 1544 1702 1621 1548 1622 1692 1525 1624 1695 1529 1276 1283 1618 1622 1613 1534 1518 1354 1367 1455 1371 1532 1628 1639 1707 1455 1784 1626 1967 1606 1612 1688 1804 1706 1702 1619 1448 1637 1617 1444 1617 1531 1433 1541 1450 1372 1360 1789 1624 1517 1611 1531 1620 1545 1444 1537 1540 1788 1625 1886 1794 1789 1797 1704 1708 1616 1283 1708 1527 1465 1596 1285 1794 1619 1790 1611 1707 1711 1702 1371 1187 1259 1623 1629 1448 1444 1524 1185 1354 1539 1451 1540 1618 1431 1464 1782 1532 1179 1623 1522 1366 1470 1786 1708 1622 1636 1719 1686 1442 1350 1528 1359 1705 1705 1606 1436 1439 1446 1628 1554 1461 1556 1434 1283 1450 1619 1540 1953 1869 1951 1865 1877 1797 1877 1625 1870 1705 1703 1713 1618 1542 1445 1717 1619 1713 1540 1646 1795 1798 1627 1877 1876 1876 1887 1716 1966 1717 1898 1958 1966 1791 1718 1714 1632 1720 1810 1632 1974 1799 1880 1963 1704 1801 1969 1786 1706 1606 1960 1940 1879 1714 1806 2038 2060 1803 2055 1722 1877 1789 1893 1868 1962 2201 2213 2027 1881 1972 2131 2054 1786 1618 1708 1806 1972 1867 1979 2064 1966 1878 1968 2119 1975 2140 1876 2049 1967 1950 2215 2152 2147 2040 2224 2041 2139 2377 2200 1874 2045 2048 2214 2314 1946 2115 2119 2302 1950 2027 2043 2142 2051 1880 1960 2151 2042 2057 1888 1885 1902 2037 1885 1703 1889 2050 1882 1901 1964 1986 2043 1786 1704 1891 1621 1797 1717 1880 2067 1881 1803 1729 1847 1792 1708 1875 1873 1785 1539 1441 1697 1879 1867 1544 1617 1629 1368 1620 1527 1611 1773 1442 1521 1712 1621 1868 1935 1798 1959 1959 1806 1549 1540 1462 1357 1536 1698 1363 1442 1544 1795 1800 1548 1468 1193 1196 1185 1276 1537 1276 1633 1617 1701 1619 1540 1628 1352 1612 1539 1436 1701 1717 1723 1625 1609 1797 1630 1866 1459 1872 1872 1807 1810 1549 1632 1794 1714 1714 1540 1543 1563 1455 1550 1787 1438 1536 1453 1353 1626 1445

Tree=0
num_leaves=5
num_cat=0
split_feature=74 79 23 77
split_gain=22.265 3.82265 1.43962 0.418832
threshold=7134.5000000000009 -46.999999999999993 34.039070498836807 7342.0000000000009
decision_type=2 2 2 2
left_child=2 -2 3 -1
right_child=1 -3 -4 -5
leaf_value=7122.7969653264418 7191.8773134112362 7204.4673139810566 7167.2773130893711 7161.3448137849573
leaf_weight=874 20 25 23 20
leaf_count=874 20 25 23 20
internal_value=7153.05 7153.08 7153.05 7153.05
internal_weight=962 45 917 894
internal_count=962 45 917 894
is_linear=0
shrinkage=1


Tree=1
num_leaves=5
num_cat=0
split_feature=74 0 56 23
split_gain=19.6062 2.8537 1.75111 0.176782
threshold=7134.5000000000009 34.531250000000007 7330.0000000000009 33.957445738835922
decision_type=2 2 2 2
left_child=2 -2 3 -1
right_child=1 -3 -4 -5
leaf_value=-29.084849302250817 32.041632111072524 49.094133887886983 13.197789587452981 0.036133809089642456
leaf_weight=870 23 22 26 21
leaf_count=870 23 22 26 21
internal_value=-0.000415758 0.0317627 -0.0020036 -0.00238189
internal_weight=962 45 917 891
internal_count=962 45 917 891
is_linear=0
shrinkage=0.05


Tree=2
num_leaves=5
num_cat=0
split_feature=56 0 56 79
split_gain=19.1077 6.01448 1.26431 1.49102
threshold=7429.5000000000009 31.302083333333339 7101.5000000000009 4.5000000000000009
decision_type=2 2 2 2
left_child=2 -2 -1 -4
right_child=1 -3 3 -5
leaf_value=-24.020609397753834 10.667951052379321 45.814426996797287 -2.9895480343341876 8.1210758382014472
leaf_weight=863 20 32 25 22
leaf_count=863 20 32 25 22
internal_value=-0.000363788 0.0290787 -0.00205472 0.00589172
internal_weight=962 52 910 47
internal_count=962 52 910 47
is_linear=0
shrinkage=0.05


Tree=3
num_leaves=5
num_cat=0
split_feature=56 24 56 23
split_gain=18.0795 6.2327 0.709129 0.984615
threshold=7429.5000000000009 7.4041666666666659 7101.5000000000009 32.708427475920971
decision_type=2 2 2 2
left_child=2 -2 -1 -4
right_child=1 -3 3 -5
leaf_value=-22.819578927866132 9.4894701449142307 43.60620566662697 -4.2131124485620619 7.7976063415200194
leaf_weight=863 21 31 27 20
leaf_count=863 21 31 27 20
internal_value=-0.000519697 0.028119 -0.0021646 0.00376858
internal_weight=962 52 910 47
internal_count=962 52 910 47
is_linear=0
shrinkage=0.05


Tree=4
num_leaves=4
num_cat=0
split_feature=74 56 59
split_gain=16.5102 1.79245 0.133954
threshold=7241.5000000000009 7330.0000000000009 6000.5000000000009
decision_type=2 2 2
left_child=1 2 -1
right_child=-2 -3 -4
leaf_value=-24.943730667810769 41.095895304617493 14.752617630368349 -0.16608344361058569
leaf_weight=866 35 33 28
leaf_count=866 35 33 28
internal_value=-0.000675606 -0.00195502 -0.00238228
internal_weight=962 927 894
internal_count=962 927 894
is_linear=0
shrinkage=0.05


Tree=5
num_leaves=5
num_cat=0
split_feature=74 23 56 23
split_gain=19.1923 3.09464 2.81145 0.185299
threshold=7476.5000000000009 33.46446511119251 7145.5000000000009 32.733692242045372
decision_type=2 2 2 2
left_child=1 3 -3 -1
right_child=-2 2 -4 -5
leaf_value=-27.039523946183206 50.096094985425822 -0.36346983789904663 19.199784398429596 0.61500427714945549
leaf_weight=864 30 23 27 20
leaf_count=864 30 23 27 20
internal_value=-0.000420082 -0.00169147 0.0103792 -0.00238095
internal_weight=964 934 50 884
internal_count=964 934 50 884
is_linear=0
shrinkage=0.05


Tree=6
num_leaves=6
num_cat=0
split_feature=56 23 56 56 20
split_gain=19.9406 4.18211 0.748094 0.167302 0.241525
threshold=7464.5000000000009 33.957445738835922 7264.5000000000009 6979.0000000000009 -0.082689790342551819
decision_type=2 2 2 2 2
left_child=2 -2 3 -1 -5
right_child=1 -3 -4 4 -6
leaf_value=-26.286938122789071 12.147603361415744 47.591290236154514 7.267975139784034 0.53806619854767634 -0.30830290335652538
leaf_weight=834 20 30 30 20 30
leaf_count=834 20 30 30 20 30
internal_value=-0.00036822 0.0303393 -0.00205667 -0.0023244 0.000399201
internal_weight=964 50 914 884 50
internal_count=964 50 914 884 50
is_linear=0
shrinkage=0.05


Tree=7
num_leaves=6
num_cat=0
split_feature=53 74 79 27 0
split_gain=19.4076 2.30883 3.38171 0.228619 0.510764
threshold=7338.5000000000009 6841.0000000000009 4.5000000000000009 23.463875000000005 28.858333333333334
decision_type=2 2 2 2 2
left_child=1 3 -3 -1 -5
right_child=-2 2 -4 4 -6
leaf_value=-24.680092025228646 43.411725295193357 -4.3268876415763122 19.956725363044349 -22.96258805521925 1.4144383082251011
leaf_weight=821 32 27 20 44 20
leaf_count=821 32 27 20 44 20
internal_value=-0.00036822 -0.00168973 0.00907643 -0.00226811 0.000546021
internal_weight=964 932 47 885 64
internal_count=964 932 47 885 64
is_linear=0
shrinkage=0.05


Tree=8
num_leaves=7
num_cat=0
split_feature=74 23 79 76 27 1
split_gain=19.0907 2.55493 3.11776 0.38536 0.0898796 0.0855474
threshold=7476.5000000000009 33.46446511119251 265.96944250871098 7281.5000000000009 23.692480902777781 84.750000000000014
decision_type=2 2 2 2 2 2
left_child=1 3 -3 4 -1 -6
right_child=-2 2 -4 -5 5 -7
leaf_value=-25.846082146827939 43.041139459587114 -0.72460370241669647 16.906978214231771 0.45391774524572814 0.44044097320906989 -24.046401786047099
leaf_weight=821 30 30 20 21 20 22
leaf_count=821 30 30 20 21 20 22
internal_value=-0.000316358 -0.00158441 0.00938124 -0.00221129 -0.00237806 -5.94631e-10
internal_weight=964 934 50 884 863 42
internal_count=964 934 50 884 863 42
is_linear=0
shrinkage=0.05


Tree=9
num_leaves=7
num_cat=0
split_feature=74 23 60 1 74 89
split_gain=19.1923 1.85781 1.86598 0.230836 0.14906 0.259479
threshold=7476.5000000000009 32.832316418474811 7429.5000000000009 49.125000000000007 6443.0000000000009 -0.58778525229243939
decision_type=2 2 2 2 2 2
left_child=1 4 3 -3 -1 -6
right_child=-2 2 -4 -5 5 -7
leaf_value=-34.129271905612697 40.889082486607776 -0.56826432296076956 16.007774425912999 0.61420430218324684 0.46145668424039771 -3.076160991028873
leaf_weight=810 30 27 21 20 20 36
leaf_count=810 30 27 21 20 20 36
internal_value=-0.000420082 -0.00169147 0.00624082 0.000583864 -0.00232075 8.9126e-05
internal_weight=964 934 68 47 866 56
internal_count=964 934 68 47 866 56
is_linear=0
shrinkage=0.05


Tree=10
num_leaves=6
num_cat=0
split_feature=74 56 23 56 70
split_gain=14.8405 1.81977 1.18137 0.240192 0.463153
threshold=7397.5000000000009 7264.5000000000009 32.832316418474811 6948.5000000000009 30.63883928571429
decision_type=2 2 2 2 2
left_child=1 3 -3 -1 -5
right_child=-2 2 -4 4 -6
leaf_value=-22.708792358758974 28.202134014585866 -0.13337198031069519 6.2754708584704533 0.40814912089669469 -1.0161404959607148
leaf_weight=819 30 20 20 21 40
leaf_count=819 30 20 20 21 40
internal_value=-0.000652563 -0.00178785 0.00860349 -0.00226679 0.00069558
internal_weight=950 920 40 880 61
internal_count=950 920 40 880 61
is_linear=0
shrinkage=0.05


Tree=11
num_leaves=6
num_cat=0
split_feature=74 56 0 56 80
split_gain=14.7951 1.80067 1.18137 0.367576 0.56115
threshold=7397.5000000000009 7264.5000000000009 30.608333333333334 6938.5000000000009 333.33314606125583
decision_type=2 2 2 2 2
left_child=1 3 -3 -1 -5
right_child=-2 2 -4 4 -6
leaf_value=-21.696875800207863 26.792027313856579 -0.12670338129516595 5.9616973155469175 -6.6234656392580709 0.87149918733758414
leaf_weight=818 30 20 20 37 25
leaf_count=818 30 20 20 37 25
internal_value=-0.000599937 -0.00173351 0.00860349 -0.00220998 0.00144927
internal_weight=950 920 40 880 62
internal_count=950 920 40 880 62
is_linear=0
shrinkage=0.05


Tree=12
num_leaves=5
num_cat=0
split_feature=56 23 56 79
split_gain=11.6696 5.96553 1.28708 2.80792
threshold=7429.5000000000009 33.669431806358951 6938.5000000000009 118.50000000000001
decision_type=2 2 2 2
left_child=2 -2 -1 -4
right_child=1 -3 3 -5
leaf_value=-20.612032010197481 2.286266602867586 25.617425987502795 -4.0836823778728641 2.973600220156881
leaf_weight=818 20 28 56 28
leaf_count=818 20 28 56 28
internal_value=-0.000599937 0.0233888 -0.00188449 0.00398335
internal_weight=950 48 902 84
internal_count=950 48 902 84
is_linear=0
shrinkage=0.05


Tree=13
num_leaves=5
num_cat=0
split_feature=74 56 79 80
split_gain=13.4046 1.81691 3.0893 3.64182
threshold=7397.5000000000009 6863.5000000000009 118.50000000000001 235.03933761360602
decision_type=2 2 2 2
left_child=1 -1 -3 -4
right_child=-2 2 3 -5
leaf_value=-19.882379583933293 24.171554648788607 -4.0283197134402107 -3.3937504319763501 3.2531301779412809
leaf_weight=812 30 65 21 22
leaf_count=812 30 65 21 22
internal_value=-0.000599937 -0.00167917 0.00439408 0.0147912
internal_weight=950 920 108 43
internal_count=950 920 108 43
is_linear=0
shrinkage=0.05


Tree=14
num_leaves=6
num_cat=0
split_feature=74 74 79 76 27
split_gain=11.8692 1.20379 2.59348 0.172021 0.0460634
threshold=7476.5000000000009 6754.0000000000009 85.283199300699394 7084.0000000000009 23.890474826388893
decision_type=2 2 2 2 2
left_child=1 3 -3 4 -1
right_child=-2 2 -4 -5 -6
leaf_value=-19.122211949853888 23.127976955688247 -3.47236172168998 5.6113935261311854 0.032828368979736212 -16.828169980384089
leaf_weight=821 28 39 20 21 21
leaf_count=821 28 39 20 21 21
internal_value=-0.000863068 -0.00184362 0.00503384 -0.00232013 -0.00243439
internal_weight=950 922 59 863 842
internal_count=950 922 59 863 842
is_linear=0
shrinkage=0.05


Tree=15
num_leaves=5
num_cat=0
split_feature=74 23 79 74
split_gain=11.6665 2.65964 2.57352 0.117659
threshold=7476.5000000000009 33.057697256326271 126.50000000000001 6722.5000000000009
decision_type=2 2 2 2
left_child=1 3 -3 -1
right_child=-2 2 -4 -5
leaf_value=-24.66632859211289 21.724078048895219 -1.5247827384952419 5.4124617553470786 0.34719620157693321
leaf_weight=827 31 31 35 32
leaf_count=827 31 31 35 32
internal_value=-0.000611861 -0.00162955 0.00801815 -0.00237749
internal_weight=956 925 66 859
internal_count=956 925 66 859
is_linear=0
shrinkage=0.05


Tree=16
num_leaves=6
num_cat=0
split_feature=74 23 79 74 72
split_gain=11.6665 2.2601 2.2153 0.122223 0.286155
threshold=7476.5000000000009 33.057697256326271 126.50000000000001 6428.0000000000009 78.706250000000026
decision_type=2 2 2 2 2
left_child=1 3 -3 -1 -5
right_child=-2 2 -4 4 -6
leaf_value=-29.541383639622378 20.637874146450443 -1.448543601570464 5.1418386675797256 1.0196386691612602 -0.47286892141413867
leaf_weight=792 31 31 35 20 47
leaf_count=792 31 31 35 20 47
internal_value=-0.000611861 -0.00162955 0.00726172 -0.00231929 -0.00018629
internal_weight=956 925 66 859 67
internal_count=956 925 66 859 67
is_linear=0
shrinkage=0.05


Tree=17
num_leaves=6
num_cat=0
split_feature=74 56 79 56 79
split_gain=9.41845 1.75116 2.68158 0.220234 0.889878
threshold=7476.5000000000009 7264.5000000000009 118.50000000000001 6776.5000000000009 262.50000000000006
decision_type=2 2 2 2 2
left_child=1 3 -3 -1 -5
right_child=-2 2 -4 4 -6
leaf_value=-20.74001130713113 19.605980439127919 -4.0901760774996028 6.133543080932335 -2.0842388235834926 0.8752960514470568
leaf_weight=775 31 29 21 79 21
leaf_count=775 31 29 21 79 21
internal_value=-0.000768749 -0.0016836 0.00738523 -0.00220832 0
internal_weight=956 925 50 875 100
internal_count=956 925 50 875 100
is_linear=0
shrinkage=0.05


Tree=18
num_leaves=8
num_cat=0
split_feature=74 23 54 1 27 1 23
split_gain=7.47472 1.80125 0.986037 0.204795 0.160109 0.241525 0.0389217
threshold=7575.0000000000009 33.057697256326271 418.98793248135809 47.500000000000007 23.692480902777781 84.145833333333357 32.264009345290333
decision_type=2 2 2 2 2 2 2
left_child=1 4 3 -3 6 -6 -1
right_child=-2 2 -4 -5 5 -7 -8
leaf_value=-23.07500003447824 18.95568149584965 3.1724017733822905 3.4105764720511589 -0.46581399538242824 0.91174637510617451 -16.258803278095996 -0.042638182170961728
leaf_weight=786 27 20 28 21 20 30 24
leaf_count=786 27 20 28 21 20 30 24
internal_value=-0.00087334 -0.0016333 0.00611433 0.00103406 -0.00226137 0.000399201 -0.0024318
internal_weight=956 929 69 41 860 50 810
internal_count=956 929 69 41 860 50 810
is_linear=0
shrinkage=0.05


Tree=19
num_leaves=6
num_cat=0
split_feature=56 79 56 79 0
split_gain=5.70022 4.785 0.415693 1.65693 0.204795
threshold=7330.0000000000009 118.50000000000001 6683.0000000000009 265.96944250871098 31.189583333333335
decision_type=2 2 2 2 2
left_child=2 4 -1 -4 -2
right_child=1 -3 3 -5 -6
leaf_value=-22.030160742698488 -4.7340167602298067 17.595397322709506 -1.1936489343610348 1.2802860918934142 6.2123969190668511
leaf_weight=753 21 32 101 29 20
leaf_count=753 21 32 101 29 20
internal_value=-0.000925636 0.0124829 -0.00204111 0.000538047 0.00103406
internal_weight=956 73 883 130 41
internal_count=956 73 883 130 41
is_linear=0
shrinkage=0.05


Tree=20
num_leaves=6
num_cat=0
split_feature=74 79 74 27 0
split_gain=5.44104 1.03344 4.6117 0.101851 0.0387258
threshold=7687.5000000000009 295.50000000000006 6167.0000000000009 23.692480902777781 30.668750000000006
decision_type=2 2 2 2 2
left_child=1 3 4 -1 -3
right_child=-2 2 -4 -5 -6
leaf_value=-5.9549683426508091 36.213820487916053 -19.519425931212954 4.6062205039915884 -0.26957206886550333 -3.4521377634780759
leaf_weight=736 20 87 24 37 20
leaf_count=736 20 87 24 37 20
internal_value=-0.00108755 -0.00166464 0.00242181 -0.00236386 -0.00198413
internal_weight=924 904 131 773 107
internal_count=924 904 131 773 107
is_linear=0
shrinkage=0.05


Tree=21
num_leaves=6
num_cat=0
split_feature=74 56 79 74 4
split_gain=5.44104 1.11951 2.21276 1.65921 0.0389319
threshold=7687.5000000000009 6722.5000000000009 187.50000000000003 6187.0000000000009 92.104166666666671
decision_type=2 2 2 2 2
left_child=1 -1 4 -4 -3
right_child=-2 2 3 -5 -6
leaf_value=-20.400854436951725 34.403129463520273 -1.5175056321321942 -0.29328540018714133 3.9216511115000245 -0.40257227369774817
leaf_weight=741 20 89 22 32 20
leaf_count=741 20 89 22 32 20
internal_value=-0.00108755 -0.00166464 0.00206928 0.0103512 -0.00199358
internal_weight=924 904 163 54 109
internal_count=924 904 163 54 109
is_linear=0
shrinkage=0.05


Tree=22
num_leaves=7
num_cat=0
split_feature=74 56 30 81 86 4
split_gain=4.28681 0.925166 0.638553 1.07075 0.290102 0.0366054
threshold=7575.0000000000009 6683.0000000000009 0.68541666666666867 1.3232499033284617e-13 -0.90096886790241226 92.520833333333343
decision_type=2 2 2 2 2 2
left_child=1 -1 4 -4 -3 -6
right_child=-2 2 3 -5 5 -7
leaf_value=-20.460534553583457 28.617594800158209 4.6778938875535108 -0.062667291622525698 1.9013814746031912 -1.0271446051994972 -0.38244366001285607
leaf_weight=729 25 20 36 24 70 20
leaf_count=729 25 20 36 24 70 20
internal_value=-0.00114165 -0.00171561 0.0015873 0.00574043 -0.000635786 -0.00188679
internal_weight=924 899 170 60 110 90
internal_count=924 899 170 60 110 90
is_linear=0
shrinkage=0.05


Tree=23
num_leaves=6
num_cat=0
split_feature=53 80 75 23 81
split_gain=2.93688 0.584198 0.898629 0.111097 0.392407
threshold=7215.5714285714294 962.50000000000011 5285.5000000000009 30.320030191892368 0.78183148246802048
decision_type=2 2 2 2 2
left_child=1 3 -3 -1 -5
right_child=-2 2 -4 4 -6
leaf_value=-30.997217208173442 16.066179897708562 -5.2809641459105201 1.9652796134772239 -0.42260460539691086 0.97971244528555435
leaf_weight=717 36 30 22 90 29
leaf_count=717 36 30 22 90 29
internal_value=-0.00135808 -0.00193109 0.00316699 -0.00225452 -0.000776659
internal_weight=924 888 52 836 119
internal_count=924 888 52 836 119
is_linear=0
shrinkage=0.05


Tree=24
num_leaves=6
num_cat=0
split_feature=55 80 75 79 74
split_gain=2.22492 0.658214 1.18809 0.160537 1.00495
threshold=6968.0000000000009 890.00000000000011 5483.0000000000009 265.96944250871098 5970.5000000000009
decision_type=2 2 2 2 2
left_child=1 3 -3 -1 -5
right_child=-2 2 -4 4 -6
leaf_value=-7.3788007879385873 26.38340606526485 -1.2168306426015087 3.6985390971446286 -23.149738239264025 1.3638679630870545
leaf_weight=709 25 37 24 109 20
leaf_count=709 25 37 24 109 20
internal_value=-0.00141219 -0.00182683 0.00315057 -0.00219544 -0.000522851
internal_weight=924 899 61 838 129
internal_count=924 899 61 838 129
is_linear=0
shrinkage=0.05


Tree=25
num_leaves=7
num_cat=0
split_feature=74 89 81 80 4 74
split_gain=2.5894 1.2443 1.53336 1.03744 0.138399 0.0434956
threshold=6308.5000000000009 -0.58778525229243939 0.43388373911756867 856.00000000000011 14.312500000000002 6187.0000000000009
decision_type=2 2 2 2 2 2
left_child=5 2 -2 4 -3 -1
right_child=1 3 -4 -5 -6 -7
leaf_value=-28.749504856465634 0.19650141402073859 0.5972519201205515 7.6102590341169751 20.261819331005221 -1.7826727067194239 -2.3260129135609033
leaf_weight=782 28 20 24 28 65 22
leaf_count=782 28 20 24 28 65 22
internal_value=-0.00125632 0.0044367 0.0108445 0.00143678 -0.00126322 -0.00243129
internal_weight=969 165 52 113 85 804
internal_count=969 165 52 113 85 804
is_linear=0
shrinkage=0.05


Tree=26
num_leaves=7
num_cat=0
split_feature=74 79 56 81 14 0
split_gain=2.09418 1.88649 0.379068 0.809502 0.14234 0.080597
threshold=6975.0000000000009 40.500000000000007 6722.5000000000009 0.78183148246803158 0.6078576107927941 31.691666666666674
decision_type=2 2 2 2 2 2
left_child=2 5 -1 4 -4 -2
right_child=1 -3 3 -5 -6 -7
leaf_value=-16.737856659518481 -4.7212387555770539 9.5843922038561882 -1.4161956115035537 1.387688538450949 0.23658240555043619 4.0714489977467307
leaf_weight=789 20 28 72 20 20 20
leaf_count=789 20 28 72 20 20 20
internal_value=-0.0014627 0.00697504 -0.00210576 0.000579839 -0.00135722 0
internal_weight=969 68 901 112 92 40
internal_count=969 68 901 112 92 40
is_linear=0
shrinkage=0.05


Tree=27
num_leaves=7
num_cat=0
split_feature=56 74 79 79 20 4
split_gain=2.00586 0.799915 2.37059 0.198301 0.209649 0.0384017
threshold=8052.5000000000009 6345.0000000000009 129.50000000000003 522.50000000000011 -0.28519255817492867 8.9791666666666696
decision_type=2 2 2 2 2 2
left_child=1 3 5 -1 -5 -3
right_child=-2 2 -4 4 -6 -7
leaf_value=-24.475979401630259 27.891403792214234 -0.19489096938856149 2.3525656418244019 0.23426177217371633 -2.410172888880616 -2.0330832548006481
leaf_weight=767 21 20 35 20 22 84
leaf_count=767 21 20 35 20 22 84
internal_value=-0.00135951 -0.00170341 0.00177929 -0.00230812 0.000950118 -0.00196926
internal_weight=969 948 139 809 42 104
internal_count=969 948 139 809 42 104
is_linear=0
shrinkage=0.05


Tree=28
num_leaves=8
num_cat=0
split_feature=56 79 74 56 76 5 75
split_gain=2.03346 0.606242 2.37377 0.149434 0.0716966 0.0985698 0.0484332
threshold=8052.5000000000009 295.50000000000006 6082.0000000000009 6420.5000000000009 6815.5000000000009 10.49375 6946.5000000000009
decision_type=2 2 2 2 2 2 2
left_child=1 4 3 -3 6 -6 -1
right_child=-2 2 -4 -5 5 -7 -8
leaf_value=-6.3682976251920085 26.49683360260353 -16.939694536946963 2.2710577867823121 0.022573873879491082 -1.4586858466173114 0.062177814482817485 -1.3800675983036199
leaf_weight=752 21 88 20 20 28 20 20
leaf_count=752 21 88 20 20 28 20 20
internal_value=-0.0014627 -0.00180888 0.00136612 -0.00152637 -0.00231069 -0.000311851 -0.00242844
internal_weight=969 948 128 108 820 48 772
internal_count=969 948 128 108 820 48 772
is_linear=0
shrinkage=0.05


Tree=29
num_leaves=9
num_cat=0
split_feature=74 62 14 47 29 77 56 80
split_gain=2.16912 1.09166 0.565038 0.632839 1.02539 0.450938 0.0491663 0.125461
threshold=6187.0000000000009 391.38458530725194 -0.60785761079279388 8.5000000000000018 0.024999999999999471 6282.5000000000009 6502.5000000000009 -228.49999999999997
decision_type=2 2 2 2 2 2 2 2
left_child=6 -2 -3 4 -4 -5 -1 -8
right_child=1 2 3 5 -6 -7 7 -9
leaf_value=-29.814916800716802 25.179756370427331 -4.071130104602239 0.1831472762536466 -1.3947138264122225 5.4017337137595334 1.6418660115429426 -23.489827199205706 0.021445180185536962
leaf_weight=714 20 46 30 41 20 30 48 20
leaf_count=714 20 46 30 41 20 30 48 20
internal_value=-0.00120473 0.00362106 0.00225913 0.00406689 0.00838323 0.000949366 -0.00236543 -0.000954479
internal_weight=969 187 167 121 50 71 782 68
internal_count=969 187 167 121 50 71 782 68
is_linear=0
shrinkage=0.05


Tree=30
num_leaves=6
num_cat=0
split_feature=24 79 74 79 98
split_gain=2.17115 0.577722 0.155583 0.575105 0.0411094
threshold=12.177083333333337 550.50000000000011 6638.0000000000009 187.50000000000003 0.99629817493460782
decision_type=2 2 2 2 2
left_child=1 2 4 -4 -1
right_child=-2 -3 3 -5 -6
leaf_value=-14.623153647590906 19.607173804932188 1.0264199043517508 -1.505277223722584 2.1791833140917318 -1.4914632129242082
leaf_weight=784 26 37 67 20 23
leaf_count=784 26 37 67 20 23
internal_value=-0.00155417 -0.00195736 -0.00221452 -0.000143514 -0.00243155
internal_weight=957 931 894 87 807
internal_count=957 931 894 87 807
is_linear=0
shrinkage=0.05


Tree=31
num_leaves=6
num_cat=0
split_feature=56 79 74 90 5
split_gain=1.48835 0.62788 2.68555 0.0459974 0.0388298
threshold=8052.5000000000009 295.50000000000006 6167.0000000000009 -0.97814760073381068 10.237500000000002
decision_type=2 2 2 2 2
left_child=1 3 4 -1 -3
right_child=-2 2 -4 -5 -6
leaf_value=-8.6786182710225592 22.932645649477781 -5.8260657610603852 1.9150425639388875 -4.0794022023889687 -2.6011192131759877
leaf_weight=21 21 88 23 784 20
leaf_count=21 21 88 23 784 20
internal_value=-0.00160642 -0.00190685 0.00127765 -0.00243138 -0.0019889
internal_weight=957 936 131 805 108
internal_count=957 936 131 805 108
is_linear=0
shrinkage=0.05


Tree=32
num_leaves=6
num_cat=0
split_feature=74 79 58 79 80
split_gain=1.68635 5.07032 1.84369 0.154525 0.130299
threshold=6167.0000000000009 187.50000000000003 568.4816206293716 603.50000000000011 856.00000000000011
decision_type=2 2 2 2 2
left_child=3 4 -3 -1 -2
right_child=1 2 -4 -5 -6
leaf_value=-26.355985201735095 -1.2563451512574417 8.4189221207120877 0.53042052100901305 -0.044951209460716651 -0.041463946281824086
leaf_weight=737 123 29 20 24 24
leaf_count=737 123 29 20 24 24
internal_value=-0.00129297 0.00283019 0.0167515 -0.00236171 -0.0017845
internal_weight=957 196 49 761 147
internal_count=957 196 49 761 147
is_linear=0
shrinkage=0.05


Tree=33
num_leaves=7
num_cat=0
split_feature=80 79 57 60 79 65
split_gain=1.55748 1.85822 0.269627 0.257703 0.829812 0.184705
threshold=753.50000000000011 323.50000000000006 6169.107142857144 7329.5000000000009 205.00000000000003 6689.9222222222234
decision_type=2 2 2 2 2 2
left_child=3 2 -2 5 -5 -1
right_child=1 -3 -4 4 -6 -7
leaf_value=-10.693848871633065 -3.1927786991069671 7.9542043631082979 3.5955141434328795 -2.320338931915193 2.5017078980798049 0.32891305101867802
leaf_weight=770 40 27 20 59 21 20
leaf_count=770 40 27 20 59 21 20
internal_value=-0.00144969 0.00490815 0 -0.00209171 0.000561797 -0.00236679
internal_weight=957 87 60 870 80 790
internal_count=957 87 60 870 80 790
is_linear=0
shrinkage=0.05


Tree=34
num_leaves=8
num_cat=0
split_feature=74 82 87 30 30 27 54
split_gain=1.52548 1.43378 1.2572 0.955774 0.301492 0.184492 0.0379396
threshold=6167.0000000000009 0.62348980185859748 -0.40673664307577007 0.17499999999999896 1.7562499999999999 23.838072916666672 177.24080001998911
decision_type=2 2 2 2 2 2 2
left_child=5 4 -3 -4 6 -1 -2
right_child=1 2 3 -5 -6 -7 -8
leaf_value=-25.071120001583939 -0.40971449214358541 -1.5805633326492574 1.8005689967168821 8.940199420773645 0.25244879442359219 0.2783202497837991 -0.60997668476745814
leaf_weight=741 20 21 30 25 20 20 80
leaf_count=741 20 21 30 25 20 20 80
internal_value=-0.00134521 0.00257522 0.00795007 0.0119328 -0.000791008 -0.00236171 -0.00194805
internal_weight=957 196 76 55 120 761 100
internal_count=957 196 76 55 120 761 100
is_linear=0
shrinkage=0.05


Tree=35
num_leaves=6
num_cat=0
split_feature=23 27 23 95 85
split_gain=1.00958 0.457043 0.328748 0.852959 0.149052
threshold=35.54696225564939 24.047406250000002 30.914588120062589 0.86314212804991286 0.78183148246801581
decision_type=2 2 2 2 2
left_child=1 2 -1 4 -4
right_child=-2 -3 3 -5 -6
leaf_value=-18.904901696669111 3.5696575775574924 0.21239733225899127 -0.42698672130578191 0.85314953648472169 0.20014302822195004
leaf_weight=772 21 29 87 20 20
leaf_count=772 21 29 87 20 20
internal_value=-0.00165157 -0.00190174 -0.00210488 0.000216364 -0.00151727
internal_weight=949 928 899 127 107
internal_count=949 928 899 127 107
is_linear=0
shrinkage=0.05


Tree=36
num_leaves=6
num_cat=0
split_feature=74 79 17 54 53
split_gain=1.16808 2.66259 2.21339 0.492715 0.0427243
threshold=5874.0000000000009 106.50000000000001 -0.5 318.19635843947873 7215.5714285714294
decision_type=2 2 2 2 2
left_child=-1 4 -3 -4 -2
right_child=1 2 3 -5 -6
leaf_value=-35.044762105242107 -2.2695537819951608 0.71586700226857303 1.833131704494865 0.0059360288827883913 -0.68635582348628077
leaf_weight=699 146 25 20 39 20
leaf_count=699 146 25 20 39 20
internal_value=-0.00144084 0.00147941 0.0087396 0.00334179 -0.00216737
internal_weight=949 250 84 59 166
internal_count=949 250 84 59 166
is_linear=0
shrinkage=0.05


Tree=37
num_leaves=7
num_cat=0
split_feature=74 79 96 74 79 5
split_gain=1.30392 2.38529 2.06615 0.641618 0.268532 0.0394158
threshold=6232.5000000000009 40.500000000000007 0.45207220393230535 6923.0000000000009 573.00000000000011 13.510416666666668
decision_type=2 2 2 2 2 2
left_child=4 5 -3 -4 -1 -2
right_child=1 2 3 -5 -6 -7
leaf_value=-20.839598066403127 -2.6687714929455053 1.4688483651810171 -0.074069355805359477 0.78608813918665332 0.20686805705477723 -2.0219704452661289
leaf_weight=735 94 25 24 20 31 20
leaf_count=735 94 25 24 20 31 20
internal_value=-0.00138816 0.0023894 0.00973227 0.00306122 -0.00229735 -0.00201578
internal_weight=949 183 69 44 766 114
internal_count=949 183 69 44 766 114
is_linear=0
shrinkage=0.05


Tree=38
num_leaves=7
num_cat=0
split_feature=61 79 79 56 79 60
split_gain=1.25884 1.79286 0.449949 0.243455 0.648174 1.10251
threshold=6467.5166666666673 292.50000000000006 -20.499999999999996 6434.5000000000009 187.50000000000003 7006.5000000000009
decision_type=2 2 2 2 2 2
left_child=3 2 -2 -1 -5 -6
right_child=1 -3 -4 4 5 -7
leaf_value=-22.456979759920841 -3.9856871118529549 3.2927354691902018 0.45784028691565198 -0.59852463496172137 0.4112384048180216 -0.10233896983355972
leaf_weight=685 51 20 32 111 23 27
leaf_count=685 51 20 32 111 23 27
internal_value=-0.00144084 0.00375849 0.000451263 -0.00208013 -0.000294849 0.00439122
internal_weight=949 103 83 846 161 50
internal_count=949 103 83 846 161 50
is_linear=0
shrinkage=0.05


Tree=39
num_leaves=7
num_cat=0
split_feature=74 79 54 79 90 5
split_gain=1.28783 2.3375 1.2484 0.549044 0.753448 0.04195
threshold=5874.0000000000009 269.50000000000006 380.02473278230974 40.500000000000007 0.3090169943749585 14.045833333333336
decision_type=2 2 2 2 2 2
left_child=-1 3 -3 5 -5 -2
right_child=1 2 -4 4 -6 -7
leaf_value=-31.982646669095683 -2.7730259775953532 3.061438921736336 0.36436055337419426 -0.013972743257085611 0.19908785266546503 -1.8935865915961898
leaf_weight=699 130 21 23 34 22 20
leaf_count=699 130 21 23 34 22 20
internal_value=-0.00138816 0.00167933 0.0121315 -0.000533722 0.00365419 -0.00213191
internal_weight=949 250 44 206 56 150
internal_count=949 250 44 206 56 150
is_linear=0
shrinkage=0.05


Tree=40
num_leaves=7
num_cat=0
split_feature=80 75 54 79 75 59
split_gain=1.51327 2.77692 1.21794 0.646535 0.171127 0.0250663
threshold=473.00000000000006 5874.0000000000009 350.16885311358584 323.50000000000006 7645.0000000000009 6000.5000000000009
decision_type=2 2 2 2 2 2
left_child=4 3 -3 -2 5 -1
right_child=1 2 -4 -5 -6 -7
leaf_value=-11.454151769764849 -3.4802375584204612 8.8541526716742425 3.2482318906995946 0.50971620807599705 1.2683213401480398 -1.2937990958575234
leaf_weight=736 108 22 20 29 21 33
leaf_count=736 108 22 20 29 21 33
internal_value=-0.00135951 0.00277778 0.0140143 -0.000638221 -0.00230351 -0.00242816
internal_weight=969 179 42 137 790 769
internal_count=969 179 42 137 790 769
is_linear=0
shrinkage=0.05


Tree=41
num_leaves=7
num_cat=0
split_feature=23 97 79 80 83 65
split_gain=1.3801 1.86308 0.520698 0.383279 0.214861 0.13809
threshold=30.914588120062589 -0.8190073023741663 295.50000000000006 1169.0000000000002 0.78183148246791978 6784.23888888889
decision_type=2 2 2 2 2 2
left_child=3 -2 4 5 -3 -1
right_child=1 2 -4 -5 -6 -7
leaf_value=-20.080230611279898 4.0416203754466533 -0.34307003690654042 1.6679965665390897 0.36083552812821107 0.19047854988167379 0.28429247779441902
leaf_weight=766 20 73 34 21 28 27
leaf_count=766 20 73 34 21 28 27
internal_value=-0.00135951 0.00294971 0.000795706 -0.00218646 -0.000964392 -0.00236729
internal_weight=969 155 135 814 101 793
internal_count=969 155 135 814 101 793
is_linear=0
shrinkage=0.05


Tree=42
num_leaves=6
num_cat=0
split_feature=56 79 56 74 83
split_gain=1.33626 1.97488 1.5765 0.69658 0.352083
threshold=6400.0000000000009 129.50000000000003 6781.5000000000009 6754.0000000000009 0.97492791218181474
decision_type=2 2 2 2 2
left_child=-1 4 -3 -4 -2
right_child=1 2 3 -5 -6
leaf_value=-22.123414984087958 -2.1492889156014132 2.5340753415328585 -0.21345602185778778 6.4926863989732047 0.23982220803622178
leaf_weight=707 146 35 33 27 21
leaf_count=707 146 35 33 27 21
internal_value=-0.00135951 0.00167875 0.00743954 0.00241264 -0.00157092
internal_weight=969 262 95 60 167
internal_count=969 262 95 60 167
is_linear=0
shrinkage=0.05


Tree=43
num_leaves=7
num_cat=0
split_feature=56 79 56 60 0 61
split_gain=1.38701 2.19966 2.02047 0.706863 0.288265 0.375349
threshold=6358.5000000000009 205.00000000000003 6781.5000000000009 7464.5000000000009 31.691666666666674 6232.4833333333345
decision_type=2 2 2 2 2 2
left_child=-1 4 -3 -4 -2 -6
right_child=1 2 3 -5 5 -7
leaf_value=-24.244259068558968 -2.1103855630318988 2.7869061136248954 -0.18485000076228811 8.6855724525875164 -1.2016775553039787 0.1606923398600793
leaf_weight=697 134 30 30 20 28 30
leaf_count=697 134 30 30 20 28 30
internal_value=-0.00130792 0.00170893 0.00867665 0.00239521 -0.00117127 0.00172117
internal_weight=969 272 80 50 192 58
internal_count=969 272 80 50 192 58
is_linear=0
shrinkage=0.05


Tree=44
num_leaves=8
num_cat=0
split_feature=74 79 14 66 79 86 79
split_gain=1.49733 2.11782 1.02028 1.36122 0.335031 0.551453 0.184186
threshold=5874.0000000000009 126.50000000000001 1.0000000180025095e-35 830.02285384914762 -43.213729971782634 -0.22252093395608544 620.50000000000011
decision_type=2 2 2 2 2 2 2
left_child=6 4 -3 -4 -2 -6 -1
right_child=1 2 3 -5 5 -7 -8
leaf_value=-27.831684228240967 -2.8347655707280754 0.21693070844627302 1.8125853905027602 1.6325394325616089 0.20761536124578406 -0.76348032640523045 0.61541623355131003
leaf_weight=703 118 37 21 20 23 27 20
leaf_count=703 118 37 21 20 23 27 20
internal_value=-0.00120473 0.0021536 0.00896287 0.0144161 -0.000981559 0.00239521 -0.00235445
internal_weight=969 246 78 41 168 50 723
internal_count=969 246 78 41 168 50 723
is_linear=0
shrinkage=0.05


Tree=45
num_leaves=7
num_cat=0
split_feature=23 79 74 79 69 23
split_gain=1.21796 0.617112 0.478728 1.07324 1.52528 0.0483476
threshold=35.23132547869448 573.00000000000011 6187.0000000000009 4.5000000000000009 30.343452380952385 31.177868901153104
decision_type=2 2 2 2 2 2
left_child=1 2 5 -4 -5 -1
right_child=-2 -3 3 4 -6 -7
leaf_value=-20.124398837227861 12.673202708074015 1.8125081958047353 -2.6389172882861827 1.5751868397301512 0.18913856285366695 -0.019412283797848675
leaf_weight=712 32 32 104 20 38 20
leaf_count=712 32 32 104 20 38 20
internal_value=-0.00129423 -0.00163049 -0.00187899 0.000555212 0.0060241 -0.00242453
internal_weight=958 926 894 162 58 732
internal_count=958 926 894 162 58 732
is_linear=0
shrinkage=0.05


Tree=46
num_leaves=8
num_cat=0
split_feature=56 14 90 69 86 14 78
split_gain=1.04099 0.711434 0.891498 0.596975 0.229989 0.132074 0.228612
threshold=6233.5000000000009 0.87837969732492682 -0.49999999999991251 28.306250000000002 -0.90096886790244712 1.0000000180025095e-35 5864.0000000000009
decision_type=2 2 2 2 2 2 2
left_child=-1 3 -3 -2 -5 -6 -7
right_child=1 2 -4 4 5 6 -8
leaf_value=-24.69235130055203 1.2065267828577946 1.6179215318850766 -0.025250663391557373 1.9432596112867841 -0.44121811929429477 -0.099372320650199186 2.6839429552756169
leaf_weight=666 25 20 29 23 122 39 34
leaf_count=666 25 20 29 23 122 39 34
internal_value=-0.0013986 0.0010784 0.00656823 -1.02844e-05 -0.000871161 -0.00144798 0.000170998
internal_weight=958 292 49 243 218 195 73
internal_count=958 292 49 243 218 195 73
is_linear=0
shrinkage=0.05


Tree=47
num_leaves=7
num_cat=0
split_feature=79 56 81 75 98 27
split_gain=1.0625 1.68965 1.17049 0.370871 0.175539 0.107712
threshold=365.50000000000006 6233.5000000000009 -5.6831039248076243e-14 7575.0000000000009 0.99629817493460782 23.793300347222225
decision_type=2 2 2 2 2 2
left_child=3 -2 -3 4 5 -1
right_child=1 2 -4 -5 -6 -7
leaf_value=-3.4887817482927548 -1.6869148231052968 0.1765630738524703 4.8034402529547089 1.1334112692054332 0.68868875824563502 -0.05584913663617224
leaf_weight=779 57 22 24 21 20 35
leaf_count=779 57 22 24 21 20 35
internal_value=-0.00150298 0.00327352 0.0104121 -0.00208455 -0.00225393 -0.00237072
internal_weight=958 103 46 855 834 814
internal_count=958 103 46 855 834 814
is_linear=0
shrinkage=0.05


Tree=48
num_leaves=9
num_cat=0
split_feature=56 14 80 75 56 83 67 0
split_gain=1.59589 0.945898 1.1341 1.5474 0.979935 0.279289 0.5888 0.0392274
threshold=6233.5000000000009 1.0000000180025095e-35 -515.41089160839158 6547.9946701388899 6780.5000000000009 -0.7818314824681053 4294.0000000000009 28.006250000000005
decision_type=2 2 2 2 2 2 2 2
left_child=-1 5 -3 4 -4 6 -2 -7
right_child=1 2 3 -5 -6 7 -8 -9
leaf_value=-23.412028260332342 -0.68717449127235697 -5.5262909865345806 1.6361836248919177 13.644168540140786 -0.67352391711660187 -0.96789346393846509 1.9356784723661908 -0.40971360551221586
leaf_weight=666 27 36 37 26 32 20 22 92
leaf_count=666 27 36 37 26 32 20 22 92
internal_value=-0.00113767 0.00193427 0.00509153 0.0079653 0.00394356 -0.000605215 0.00249491 -0.00200714
internal_weight=958 292 131 95 69 161 49 112
internal_count=958 292 131 95 69 161 49 112
is_linear=0
shrinkage=0.05


Tree=49
num_leaves=8
num_cat=0
split_feature=79 55 29 74 21 76 88
split_gain=0.880093 1.26887 0.283215 0.252061 0.517399 0.130405 0.0396863
threshold=365.50000000000006 5452.5000000000009 0.0083333333333355259 6294.5000000000009 -0.46039597980994923 7504.5000000000009 -0.80901699437494778
decision_type=2 2 2 2 2 2 2
left_child=3 2 -2 -1 5 6 -5
right_child=1 -3 -4 4 -6 -7 -8
leaf_value=-15.97952586808475 4.0318763507404753 5.6161331713511267 -0.5508940042877285 -0.067528663876907549 0.66580672298473387 1.3734708495414596 -0.39899457824582463
leaf_weight=698 21 27 55 20 20 20 97
leaf_count=698 21 27 55 20 20 20 97
internal_value=-0.00155516 0.00278855 -0.000459922 -0.00208455 -0.000238702 -0.00136762 -0.00202818
internal_weight=958 103 76 855 157 137 117
internal_count=958 103 76 855 157 137 117
is_linear=0
shrinkage=0.05


Tree=50
num_leaves=8
num_cat=0
split_feature=23 79 29 54 65 58 79
split_gain=1.05984 1.08534 1.61153 0.461565 0.431376 0.050741 0.123502
threshold=29.671130743846696 199.50000000000003 0.50833333333333119 305.13973349242798 6242.4666666666681 597.32314427617132 155.50000000000003
decision_type=2 2 2 2 2 2 2
left_child=5 4 -3 -4 -2 -1 -7
right_child=1 2 3 -5 -6 6 -8
leaf_value=-20.795709023037187 -0.81870839973892628 5.8814190141265401 0.87972792596518623 -0.48574911909485102 0.36320608992330206 -13.333363104593298 0.76211388888413301
leaf_weight=665 111 26 20 33 28 46 20
leaf_count=665 111 26 20 33 28 46 20
internal_value=-0.00144084 0.00160477 0.00628951 0.00117702 -0.00102444 -0.00235604 -0.000907716
internal_weight=949 218 79 53 139 731 66
internal_count=949 218 79 53 139 731 66
is_linear=0
shrinkage=0.05


Tree=51
num_leaves=8
num_cat=0
split_feature=79 80 65 79 74 27 83
split_gain=1.61906 2.22123 0.278816 0.701803 1.09046 0.124496 0.0457844
threshold=348.50000000000006 356.00000000000006 6149.655555555556 4.5000000000000009 6056.0000000000009 22.259484375000003 0.97492791218186403
decision_type=2 2 2 2 2 2 2
left_child=2 5 6 -4 -5 -2 -1
right_child=1 -3 3 4 -6 -7 -8
leaf_value=-4.6379712247324747 -0.80130527835925669 4.6332766537099417 -2.9583294238219957 -7.0609504439568598 0.64765056597499693 0.44333882892861021 -11.246460723267754
leaf_weight=684 47 39 93 23 22 20 21
leaf_count=684 47 39 93 23 22 20 21
internal_value=-0.00128279 0.00452403 -0.00201933 0 0.00515521 -0.000931446 -0.00242164
internal_weight=949 106 843 138 45 67 705
internal_count=949 106 843 138 45 67 705
is_linear=0
shrinkage=0.05


Tree=52
num_leaves=9
num_cat=0
split_feature=79 80 74 79 23 27 29 0
split_gain=1.53187 2.22123 0.479338 0.938112 2.40849 0.124496 0.0407149 0.0221472
threshold=348.50000000000006 356.00000000000006 6056.0000000000009 4.5000000000000009 31.786493540218988 22.259484375000003 -1.5145833333333332 34.983333333333341
decision_type=2 2 2 2 2 2 2 2
left_child=2 5 -1 6 -5 -2 -4 -6
right_child=1 -3 3 4 7 -7 -8 -9
leaf_value=-20.284504320883457 -0.76124001444130696 4.4016128210244521 -1.1798928925282588 1.8707316322725949 -0.073026130512047649 0.42117188748216156 -1.8219360266382958 -0.20625195020143683
leaf_weight=650 47 39 20 20 23 20 110 20
leaf_count=650 47 39 20 20 23 20 110 20
internal_value=-0.00112475 0.00452403 -0.00184142 0.000323666 0.00534865 -0.000931446 -0.00207533 -0.0012181
internal_weight=949 106 843 193 63 67 130 43
internal_count=949 106 843 193 63 67 130 43
is_linear=0
shrinkage=0.05


Tree=53
num_leaves=10
num_cat=0
split_feature=79 74 23 74 79 23 29 4 1
split_gain=1.53187 2.11032 1.78782 0.479338 0.664687 1.87027 0.132895 0.0299584 0.0221472
threshold=348.50000000000006 5621.0000000000009 32.832316418474811 6056.0000000000009 4.5000000000000009 31.786493540218988 -1.3895833333333332 2.9166666666666674 40.958333333333336
decision_type=2 2 2 2 2 2 2 2 2
left_child=3 7 -3 -1 6 -6 -5 -2 -7
right_child=1 2 -4 4 5 8 -8 -9 -10
leaf_value=-19.270279104839275 -35.010249394956283 1.9700535189963795 4.6629333878419104 -0.096941206899679028 1.7771950506589693 -0.19593935269136301 -1.8471666090350336 -4.435971063800535 -0.069374823986467285
leaf_weight=650 20 21 25 23 20 20 107 40 23
leaf_count=650 20 21 25 23 20 20 107 40 23
internal_value=-0.00112475 0.00452403 0.0125813 -0.00184142 0.000323666 0.00455626 -0.00169101 -0.0015807 -0.0012181
internal_weight=949 106 46 843 193 63 130 60 43
internal_count=949 106 46 843 193 63 130 60 43
is_linear=0
shrinkage=0.05


Tree=54
num_leaves=10
num_cat=0
split_feature=79 74 23 23 24 79 98 29 4
split_gain=1.31429 1.8003 2.17775 0.424171 0.628032 0.141297 0.355764 0.0401078 0.0299584
threshold=348.50000000000006 5621.0000000000009 32.832316418474811 28.612933470077849 5.731250000000002 106.50000000000001 0.82392300575755584 -0.82708333333333595 2.9166666666666674
decision_type=2 2 2 2 2 2 2 2 2
left_child=3 8 -3 -1 -5 7 -7 -6 -2
right_child=1 2 -4 4 5 6 -8 -9 -10
leaf_value=-20.439110965667872 -33.259736925208472 1.87155084304654 4.4297867184498205 0.24197520584734067 -1.0819138318004822 -0.30841972899570558 1.4362723294373532 -1.7070341685710009 -4.2141725106104877
leaf_weight=631 20 21 25 33 20 33 24 102 40
leaf_count=631 20 21 25 33 20 33 24 102 40
internal_value=-0.00117743 0.00405278 0.0114967 -0.00184142 7.07208e-05 -0.00107482 0.000919439 -0.0020475 -0.0015807
internal_weight=949 106 46 843 212 179 57 122 60
internal_count=949 106 46 843 212 179 57 122 60
is_linear=0
shrinkage=0.05


Tree=55
num_leaves=10
num_cat=0
split_feature=74 79 60 79 83 53 0 54 75
split_gain=1.63124 2.45953 3.83765 0.375529 0.555411 0.10394 0.0879678 0.0480983 0.0416154
threshold=5621.0000000000009 187.50000000000003 6948.5000000000009 -43.213729971782634 0.78183148246782075 6511.1428571428578 32.272916666666674 703.99760180905139 7134.5000000000009
decision_type=2 2 2 2 2 2 2 2 2
left_child=7 3 -3 8 5 -5 -4 -1 -2
right_child=1 2 6 4 -6 -7 -8 -9 -10
leaf_value=-26.731073531545555 -2.1907388156897851 2.1548728727821476 -0.2803330040270719 -0.55514355213381261 0.74525870007722483 0.15641424578387719 5.8765250740601234 -25.046150091636232 -2.5215314387642018
leaf_weight=616 124 34 23 31 21 20 20 20 20
leaf_count=616 124 34 23 31 21 20 20 20 20
internal_value=-0.000987515 0.00208973 0.00976005 -0.000624711 0.00228849 -0.000440314 -5.80052e-05 -0.00241314 -0.00211659
internal_weight=929 293 77 216 72 51 43 636 144
internal_count=929 293 77 216 72 51 43 636 144
is_linear=0
shrinkage=0.05


Tree=56
num_leaves=9
num_cat=0
split_feature=74 79 23 79 89 29 54 75
split_gain=1.17624 1.70999 2.0156 0.478033 0.697525 0.274326 0.0480983 0.0416154
threshold=5621.0000000000009 308.89356768414069 32.442697493203717 -43.213729971782634 -0.40673664307582469 -0.41875000000000101 703.99760180905139 7134.5000000000009
decision_type=2 2 2 2 2 2 2 2
left_child=6 3 -3 7 -5 -6 -1 -2
right_child=1 2 -4 4 5 -7 -8 -9
leaf_value=-25.394519854968259 -2.0812018749053025 1.6970232046445155 3.4919936413388037 1.1464335807470296 4.7823350554108872 -0.32091409338660498 -23.793842587054417 -2.395454866825991
leaf_weight=616 124 20 27 31 21 50 20 20
leaf_count=616 124 20 27 31 21 50 20 20
internal_value=-0.00120278 0.00140737 0.010138 -0.000243804 0.00235064 -0.000316456 -0.00241314 -0.00211659
internal_weight=929 293 47 246 102 71 636 144
internal_count=929 293 47 246 102 71 636 144
is_linear=0
shrinkage=0.05


Tree=57
num_leaves=9
num_cat=0
split_feature=65 64 83 56 83 62 71 5
split_gain=1.0299 0.841134 0.455385 0.274139 0.664056 0.135163 0.128352 0.0409237
threshold=6206.1111111111122 6804.5000000000009 -0.78183148246806133 6167.5000000000009 0.97492791218181474 537.44836573024065 36.766666666666673 14.287500000000003
decision_type=2 2 2 2 2 2 2 2
left_child=3 -2 -3 -1 6 -4 -5 -8
right_child=1 2 5 4 -6 -7 7 -9
leaf_value=-18.048577373376929 1.2442351425567735 1.6959847214085926 0.021689298775094047 0.0085277196325285534 1.8404436196125169 -0.57682647284232269 -0.16083463416377583 -0.57719133271170053
leaf_weight=618 32 20 20 21 25 60 113 20
leaf_count=618 32 20 20 21 25 60 113 20
internal_value=-0.00131041 0.00276306 0.00044955 -0.0019916 -0.000237298 -0.00118602 -0.00149254 -0.0020849
internal_weight=929 132 100 797 179 80 154 133
internal_count=929 132 100 797 179 80 154 133
is_linear=0
shrinkage=0.05


Tree=58
num_leaves=7
num_cat=0
split_feature=74 79 20 82 58 58
split_gain=0.951781 1.88827 0.830945 0.240744 0.352389 0.0480833
threshold=5585.5000000000009 411.00000000000006 -0.89406062840022227 0.62348980185871772 464.47288568857113 775.39471043411197
decision_type=2 2 2 2 2 2
left_child=5 2 -2 -4 -5 -1
right_child=1 -3 3 4 -6 -7
leaf_value=-25.209746375638545 1.5351931456445325 3.650119737978585 -0.18807181108488127 -0.8721826992315882 0.99738900610912007 -22.596532129960003
leaf_weight=611 38 28 162 36 34 20
leaf_count=611 38 28 162 36 34 20
internal_value=-0.00131041 0.00100637 -0.000259164 -0.00140026 0.000998573 -0.00241246
internal_weight=929 298 270 232 70 631
internal_count=929 298 270 232 70 631
is_linear=0
shrinkage=0.05


Tree=59
num_leaves=7
num_cat=0
split_feature=56 62 4 79 20 83
split_gain=0.72307 1.20358 0.504845 0.368028 0.15526 0.0444317
threshold=6059.5000000000009 380.24629520788687 2.9166666666666674 442.50000000000006 -0.97509794945709805 -0.97492791218177788
decision_type=2 2 2 2 2 2
left_child=-1 -2 -3 4 -4 -6
right_child=1 2 3 -5 5 -7
leaf_value=-20.556454162455971 11.730223847370651 3.2153787300080481 0.064822411011749723 1.00900437047056 -0.87967150597139576 -0.24796119863230698
leaf_weight=606 26 30 20 30 20 197
leaf_count=606 26 30 20 30 20 197
internal_value=-0.00147186 0.000425564 -0.000462808 -0.00116997 -0.00184521 -0.00224551
internal_weight=929 323 297 267 237 217
internal_count=929 323 297 267 237 217
is_linear=0
shrinkage=0.05


Tree=60
num_leaves=7
num_cat=0
split_feature=75 80 79 80 0 80
split_gain=0.866748 1.36581 1.80306 0.218466 0.517951 0.0850936
threshold=6232.5000000000009 -187.49999999999997 -20.499999999999996 834.50000000000011 29.393750000000001 -503.99999999999994
decision_type=2 2 2 2 2 2
left_child=3 5 -3 -1 -5 -2
right_child=1 2 -4 4 -6 -7
leaf_value=-8.6591980272198672 -4.0651919336401745 -1.2171185371940447 6.0506751093394033 0.79107088126140612 -0.1664098502166691 -0.012050851344248029
leaf_weight=700 85 27 38 20 46 32
leaf_count=700 85 27 38 20 46 32
internal_value=-0.00149246 0.00159253 0.00741167 -0.00223209 0.000453857 -0.0016012
internal_weight=948 182 65 766 66 117
internal_count=948 182 65 766 66 117
is_linear=0
shrinkage=0.05


Tree=61
num_leaves=9
num_cat=0
split_feature=23 0 54 58 81 65 1 58
split_gain=1.11683 0.810632 0.544278 0.791976 1.5846 0.155309 0.121422 0.0482795
threshold=29.576649999564012 29.731250000000006 352.26701058607489 362.39305263238492 0.43388373911755979 6823.2055555555571 62.520833333333336 789.70301313162952
decision_type=2 2 2 2 2 2 2 2
left_child=5 -2 3 6 -5 7 -3 -1
right_child=1 2 -4 4 -6 -7 -8 -9
leaf_value=-16.803731389048295 0.33251701838846676 -2.3366880781656514 -0.40500996744365747 0.13703730517446849 1.2481371293020913 0.00056028024358702742 1.1237708809882549 -22.964530026505543
leaf_weight=683 22 44 80 34 22 23 20 20
leaf_count=683 22 44 80 34 22 23 20 20
internal_value=-0.00133425 0.00175597 0.000724637 0.00287261 0.00721925 -0.00228619 -0.000858035 -0.00242142
internal_weight=948 222 200 120 56 726 64 703
internal_count=948 222 200 120 56 726 64 703
is_linear=0
shrinkage=0.05


Tree=62
num_leaves=9
num_cat=0
split_feature=79 74 79 94 0 78 75 0
split_gain=1.10262 0.76807 0.864216 1.59771 0.32819 0.0483224 0.0382896 0.023936
threshold=573.00000000000011 6167.0000000000009 -20.499999999999996 -0.65840158469804833 35.616666666666674 6694.0000000000009 7134.5000000000009 31.070833333333336
decision_type=2 2 2 2 2 2 2 2
left_child=1 5 6 4 7 -1 -3 -4
right_child=-2 2 3 -5 -6 -7 -8 -9
leaf_value=-10.091097561148194 1.8971064155080004 -1.7900737561385818 -0.032254722739698836 1.2896920124752433 12.69718474724549 -0.49718550037542991 -2.2343627360233564 -0.21747875214601919
leaf_weight=701 35 83 20 20 23 20 20 26
leaf_count=701 35 83 20 20 23 20 20 26
internal_value=-0.00133425 -0.00167287 0.00111921 0.00474186 0.0010492 -0.00242338 -0.00196411 -0.00130152
internal_weight=948 913 192 89 69 721 103 46
internal_count=948 913 192 89 69 721 103 46
is_linear=0
shrinkage=0.05


Tree=63
num_leaves=10
num_cat=0
split_feature=79 74 62 65 79 73 14 20 1
split_gain=1.82746 2.80934 1.84978 0.521264 0.931915 0.112124 0.256233 0.0347501 0.0299584
threshold=348.50000000000006 5461.5000000000009 600.56819433429587 6192.1611111111124 4.5000000000000009 29.752976190476193 0.6078576107927941 -0.42957681104363482 54.666666666666679
decision_type=2 2 2 2 2 2 2 2 2
left_child=3 8 -3 5 7 6 -1 -5 -2
right_child=1 2 -4 4 -6 -7 -8 -9 -10
leaf_value=-2.2153322227782746 -6.2591057307062643 4.1249210700126495 0.093839755796618199 -4.4721565426530034 0.33329779870814175 -5.3671628579906558 1.1363698976843815 -1.5865104539202493 -16.462725281193894
leaf_weight=49 20 21 21 59 39 657 22 20 40
leaf_count=49 20 21 21 59 39 657 22 20 40
internal_value=-0.00101783 0.00528893 0.0152019 -0.00178466 0.00127011 -0.00228677 -0.000316456 -0.00180152 -0.0015807
internal_weight=948 102 42 846 118 728 71 79 60
internal_count=948 102 42 846 118 728 71 79 60
is_linear=0
shrinkage=0.05


Tree=64
num_leaves=9
num_cat=0
split_feature=56 56 0 56 1 91 92 91
split_gain=2.00631 2.08735 1.94051 2.25276 1.19854 0.422028 0.361863 0.239085
threshold=6059.5000000000009 6780.5000000000009 28.681250000000002 6547.9946701388899 72.354166666666671 -2.5968082967653178e-14 0.80901699437493857 0.58778525229245815
decision_type=2 2 2 2 2 2 2 2
left_child=-1 2 7 4 5 -4 -3 -2
right_child=1 6 3 -5 -6 -7 -8 -9
leaf_value=-18.999557915159745 -6.2966756358160545 -0.79421043659249868 0.43532153519952949 0.60057675886825479 0.31873385188589154 -0.6710118386484667 7.1820256261292403 0.039121054626222326
leaf_weight=618 41 143 26 21 20 23 34 22
leaf_count=618 41 143 26 21 20 23 34 22
internal_value=-0.000806878 0.00233263 0.00661332 0.0113208 0.00683792 0.00249491 -0.00134105 -3.96202e-05
internal_weight=948 330 153 90 69 49 177 63
internal_count=948 330 153 90 69 49 177 63
is_linear=0
shrinkage=0.05


Tree=65
num_leaves=7
num_cat=0
split_feature=74 79 23 79 86 70
split_gain=1.94603 2.40233 3.99375 0.529059 0.867244 0.455631
threshold=5585.5000000000009 247.50000000000003 31.663942071835677 -94.853770481343631 -0.22252093395656988 29.975000000000005
decision_type=2 2 2 2 2 2
left_child=-1 3 -3 -2 -5 -6
right_child=1 2 -4 4 5 -7
leaf_value=-23.075283029939705 -4.787928867309847 2.8120858560605941 0.86944921228809846 0.56463801599388197 0.27952053147902539 -0.24343146322982628
leaf_weight=670 111 23 39 34 24 66
leaf_count=670 111 23 39 34 24 66
internal_value=-0.000995244 0.00236452 0.0111111 3.19007e-05 0.00229653 -0.000221976
internal_weight=967 297 62 235 124 90
internal_count=967 297 62 235 124 90
is_linear=0
shrinkage=0.05


Tree=66
num_leaves=9
num_cat=0
split_feature=56 79 62 79 92 4 95 14
split_gain=1.3356 1.69044 2.67385 0.337332 0.534545 0.622204 0.329424 0.0966284
threshold=5757.5000000000009 247.50000000000003 580.69163670971977 -94.853770481343631 0.30901699437503305 36.104166666666679 0.89773508019357551 1.0000000180025095e-35
decision_type=2 2 2 2 2 2 2 2
left_child=-1 3 -3 -2 6 -6 -5 -4
right_child=1 2 7 4 5 -7 -8 -9
leaf_value=-28.227098431718915 -4.9085275588711044 3.9015308277366687 -0.85292083293517396 -0.27262480735892941 1.5525605709224608 -0.0053077841321399928 0.19545908855191005 0.36326316995349617
leaf_weight=620 126 37 27 76 20 21 20 20
leaf_count=620 126 37 27 76 20 21 20 20
internal_value=-0.00109865 0.00137568 0.00755053 -0.000579628 0.00111233 0.00590024 -0.000884496 -0.000265393
internal_weight=967 347 84 263 137 41 96 47
internal_count=967 347 84 263 137 41 96 47
is_linear=0
shrinkage=0.05


Tree=67
num_leaves=9
num_cat=0
split_feature=75 56 80 85 23 55 85 27
split_gain=1.26266 1.1231 2.32046 0.477553 0.377295 0.10189 0.250234 0.0392274
threshold=5984.5000000000009 6780.5000000000009 62.496585244024125 -1.3326880689524189e-13 34.73563856164013 5268.0000000000009 -0.43388373911758621 23.692480902777781
decision_type=2 2 2 2 2 2 2 2
left_child=5 2 3 -2 7 -1 -7 -3
right_child=1 4 -4 -5 -6 6 -8 -9
leaf_value=-14.203686028729468 0.44588664464989081 -0.48683883132136246 1.8387516767126983 -0.35107175650996297 9.3815364325679411 0.1473140619517698 -0.25794820531771612 -0.43869893348952743
leaf_weight=669 27 92 21 33 28 23 54 20
leaf_count=669 27 92 21 33 28 23 54 20
internal_value=-0.00130545 0.00200136 0.00668927 0.0015807 -0.000678088 -0.00229192 -0.000486382 -0.00200714
internal_weight=967 221 81 60 140 746 77 112
internal_count=967 221 81 60 140 746 77 112
is_linear=0
shrinkage=0.05


Tree=68
num_leaves=8
num_cat=0
split_feature=74 79 62 79 20 83 88
split_gain=1.71973 2.40573 2.42473 0.494157 0.908267 0.46117 0.181929
threshold=5413.5000000000009 308.89356768414069 580.69163670971977 -94.853770481343631 -0.86976336936302323 0.78183148246802736 -0.6691306063588548
decision_type=2 2 2 2 2 2 2
left_child=-1 3 -3 -2 -5 6 -6
right_child=1 2 -4 4 5 -7 -8
leaf_value=-27.204038911374102 -4.3472683955637725 2.7011589286563384 0.057984601757964521 0.70514188998322191 0.058638251763616145 1.5153032192224061 -0.23524873128633803
leaf_weight=644 118 29 29 21 32 20 74
leaf_count=644 118 29 29 21 32 20 74
internal_value=-0.000995244 0.00197307 0.0111876 -2.82918e-05 0.00188647 0.000237906 -0.00103676
internal_weight=967 323 58 265 147 126 106
internal_count=967 323 58 265 147 126 106
is_linear=0
shrinkage=0.05


Tree=69
num_leaves=9
num_cat=0
split_feature=74 79 23 79 0 74 21 0
split_gain=1.71973 2.40573 2.5457 0.494157 1.01682 1.99387 0.226965 0.0351246
threshold=5413.5000000000009 308.89356768414069 31.663942071835677 -94.853770481343631 30.964583333333341 6319.0000000000009 -0.6652727025667432 35.616666666666674
decision_type=2 2 2 2 2 2 2 2
left_child=-1 3 -3 -2 5 6 -5 -6
right_child=1 2 -4 4 7 -7 -8 -9
leaf_value=-25.84383696580538 -4.1299049757856059 1.5402640134366781 1.1497572158211626 -5.4436301984852857 -0.32329441703685319 0.49315881871377543 0.83187718781639153 0.70261789118068241
leaf_weight=644 118 25 33 26 61 20 20 20
leaf_count=644 118 25 33 26 61 20 20 20
internal_value=-0.000995244 0.00197307 0.0111876 -2.82918e-05 0.00188647 0.00650529 0.000650759 -0.00181874
internal_weight=967 323 58 265 147 66 46 81
internal_count=967 323 58 265 147 66 46 81
is_linear=0
shrinkage=0.05


Tree=70
num_leaves=10
num_cat=0
split_feature=65 79 61 79 74 74 73 14 29
split_gain=1.55983 2.5092 2.01076 0.519962 1.00191 0.451937 0.113723 0.254303 0.0368953
threshold=6146.5277777777783 199.50000000000003 6199.3666666666677 397.50000000000006 4954.0000000000009 6529.5000000000009 29.752976190476193 0.6078576107927941 0.53125000000000011
decision_type=2 2 2 2 2 2 2 2 2
left_child=3 5 -3 6 -5 8 7 -1 -2
right_child=1 2 -4 4 -6 -7 -8 -9 -10
leaf_value=-0.79149641535066662 -5.953793242845884 2.1899209510728936 1.716526682672437 -23.725865165398375 7.6495357686171594 0.42655603362384753 -4.5437747630227161 0.90328500321346139 -0.13148192423904709
leaf_weight=48 72 22 20 47 29 33 640 22 20
leaf_count=48 72 22 20 47 29 33 640 22 20
internal_value=-0.00092068 0.00345601 0.0140143 -0.00185727 0.00203679 -5.99526e-05 -0.00228137 -0.000285307 -0.00190011
internal_weight=953 167 42 786 76 125 710 70 92
internal_count=953 167 42 786 76 125 710 70 92
is_linear=0
shrinkage=0.05


Tree=71
num_leaves=10
num_cat=0
split_feature=56 80 23 0 92 73 4 14 19
split_gain=1.92081 1.38117 2.26966 1.93015 0.854281 0.24128 0.456554 0.0407149 0.0353051
threshold=5664.5000000000009 62.496585244024125 30.914588120062589 29.100000000000005 0.80901699437493735 78.241071428571431 83.000000000000014 -0.8783796973249266 7.5000000000000009
decision_type=2 2 2 2 2 2 2 2 2
left_child=-1 5 3 -3 8 7 -7 -2 -4
right_child=1 2 4 -5 -6 6 -8 -9 -10
leaf_value=-25.691777658321293 -3.4462784084635958 0.61207039076268654 -0.26985210459008735 0.80698550162887717 8.8926257584768642 0.54924800461974532 -7.2231196965742388 -0.807327152056871 -0.11590801820562553
leaf_weight=586 20 37 62 34 27 27 30 110 20
leaf_count=586 20 37 62 34 27 27 30 110 20
internal_value=-0.000710839 0.00211795 0.00524708 0.0122011 0.000664527 -0.00086852 0.0017951 -0.00207533 -0.00182704
internal_weight=953 367 180 71 109 187 57 130 82
internal_count=953 367 180 71 109 187 57 130 82
is_linear=0
shrinkage=0.05


Tree=72
num_leaves=10
num_cat=0
split_feature=74 79 94 74 71 46 82 86 80
split_gain=1.58059 1.54606 3.11936 0.366993 0.988076 0.242511 0.144912 0.126398 0.0480075
threshold=5352.5000000000009 199.50000000000003 -0.68391942162461195 6529.5000000000009 47.464583333333337 13.500000000000002 -0.90096886790241648 -0.22252093395653547 834.50000000000011
decision_type=2 2 2 2 2 2 2 2 2
left_child=8 3 5 6 -5 -3 -2 -6 -1
right_child=1 2 -4 4 7 -7 -8 -9 -10
leaf_value=-28.872627143774025 0.011935041309742246 -0.17622121872835672 1.7444533751384412 0.50830258238108006 0.87849494915721216 1.1773827676875028 -4.20969698960144 -0.22901408972270454 -8.0858115708930196
leaf_weight=587 22 33 34 27 20 31 130 49 20
leaf_count=587 22 33 34 27 20 31 130 49 20
internal_value=-0.00086822 0.00182028 0.00713558 -0.000261992 0.00213319 0.000546021 -0.00180802 -0.000976846 -0.00240899
internal_weight=953 346 98 248 96 64 152 69 607
internal_count=953 346 98 248 96 64 152 69 607
is_linear=0
shrinkage=0.05


Tree=73
num_leaves=11
num_cat=0
split_feature=56 79 20 79 21 74 82 47 86 20
split_gain=1.19527 0.999515 0.584858 0.431635 0.755946 0.76813 0.39475 0.505242 0.0403445 0.0373074
threshold=5757.5000000000009 411.00000000000006 -0.18492532721306487 -94.853770481343631 -0.54219087765047058 6124.0000000000009 0.62348980185874536 6.5000000000000009 0.62348980185883496 -0.57078386445773377
decision_type=2 2 2 2 2 2 2 2 2 2
left_child=-1 3 -3 8 6 -6 9 -8 -2 -5
right_child=1 2 -4 4 5 -7 7 -9 -10 -11
leaf_value=-17.901413357399093 -2.9564963932867911 2.8015038277497215 1.161811395915133 -0.016967070512871635 0.033550133372813824 0.63200670920856994 1.5556800690062147 -0.40415684208925101 -7.8572160245117395 -0.2797185832880224
leaf_weight=600 105 20 20 20 25 20 20 28 20 75
leaf_count=600 105 20 20 20 25 20 20 28 20 75
internal_value=-0.00113052 0.00116822 0.00860349 0.000199616 0.0017278 0.0073725 -1.74709e-05 0.00363825 -0.00205835 -0.00191903
internal_weight=953 353 40 313 188 45 143 48 125 95
internal_count=953 353 40 313 188 45 143 48 125 95
is_linear=0
shrinkage=0.05


Tree=74
num_leaves=10
num_cat=0
split_feature=56 66 84 59 83 81 58 54 0
split_gain=1.21082 1.0317 0.624572 0.881788 0.506513 0.298307 0.139637 0.0561191 0.10394
threshold=5664.5000000000009 570.09095678004439 0.62348980185891467 5538.0000000000009 0.97492791218184083 0.97492791218182406 241.68854855584664 257.69745819304597 31.004166666666674
decision_type=2 2 2 2 2 2 2 2 2
left_child=-1 -2 4 -4 5 6 -3 8 -8
right_child=1 2 3 -5 -6 -7 7 -9 -10
leaf_value=-22.430330467299996 0.80920217444086429 0.13601523085080133 0.0031971557865765167 1.9257316665635711 1.4778960655558906 0.23119920855568665 0.33363517642826757 -0.37371524991341443 -0.27825208673083268
leaf_weight=586 20 20 35 22 20 33 20 166 31
leaf_count=586 20 20 35 22 20 33 20 166 31
internal_value=-0.00107806 0.00116453 0.000511379 0.00529772 -0.000413651 -0.00099963 -0.00163433 -0.0020152 -0.000440314
internal_weight=953 367 347 57 290 270 237 217 51
internal_count=953 367 347 57 290 270 237 217 51
is_linear=0
shrinkage=0.05


Tree=75
num_leaves=9
num_cat=0
split_feature=74 70 15 88 55 30 55 1
split_gain=0.8931 0.762059 0.959377 1.53633 0.50953 0.198862 0.188523 0.0332765
threshold=5352.5000000000009 30.048363095238098 -0.56174490092936669 0.10452846326763507 5314.5000000000009 1.1479166666666665 5694.0000000000009 83.479166666666671
decision_type=2 2 2 2 2 2 2 2
left_child=-1 2 3 -2 -4 -3 -7 -6
right_child=1 5 4 -5 7 6 -8 -9
leaf_value=-23.679859042374332 1.1933535009250651 -0.35034054311935386 0.47018022669019316 -0.11829087698073358 -2.5923300128260394 -0.27180937907808106 1.1970816812470961 -0.77950461766108115
leaf_weight=632 24 137 37 22 52 23 32 20
leaf_count=632 24 137 37 22 52 23 32 20
internal_value=-0.00137116 0.00065543 0.00327208 0.00932755 0.000664527 -0.00143155 0.00104356 -0.0017337
internal_weight=979 347 155 46 109 192 55 72
internal_count=979 347 155 46 109 192 55 72
is_linear=0
shrinkage=0.05


Tree=76
num_leaves=9
num_cat=0
split_feature=53 79 58 89 73 1 47 91
split_gain=0.763197 0.957718 1.24642 1.14864 0.343531 1.05575 0.259554 0.0441348
threshold=5145.2857142857147 199.50000000000003 454.01305678372148 7.8464052434552988e-15 80.505952380952408 82.895833333333357 7.5000000000000009 -0.95105651629515331
decision_type=2 2 2 2 2 2 2 2
left_child=-1 4 3 -3 7 -6 -4 -2
right_child=1 2 6 -5 5 -7 -8 -9
leaf_value=-26.613555123822074 -1.1242892184571696 0.2561567852266044 0.54313168319135441 5.1534978644686511 0.42297205728407872 -8.0352120906723332 -0.08565469838219851 -0.31618997436117446
leaf_weight=596 20 25 21 20 22 46 43 186
leaf_count=596 20 25 21 20 22 46 43 186
internal_value=-0.00137116 0.000358914 0.00433089 0.0106984 -0.00120394 0.00183554 -7.80037e-05 -0.00223193
internal_weight=979 383 109 45 274 68 64 206
internal_count=979 383 109 45 274 68 64 206
is_linear=0
shrinkage=0.05


Tree=77
num_leaves=8
num_cat=0
split_feature=53 79 70 74 79 4 23
split_gain=0.631147 0.736899 0.476678 1.01298 0.275133 0.0438982 0.0370356
threshold=5145.2857142857147 411.00000000000006 29.796875000000004 6270.5000000000009 199.50000000000003 2.2083333333333335 28.463923028481471
decision_type=2 2 2 2 2 2 2
left_child=-1 2 3 4 6 -4 -2
right_child=1 -3 5 -5 -6 -7 -8
leaf_value=-25.282877367630967 -7.3299191631818097 1.4012276266446666 -0.015176819986991675 0.42104528327237739 0.42486133246935998 -0.28539743029424924 -5.2798368467346037
leaf_weight=596 73 37 20 34 21 178 20
leaf_count=596 73 37 20 34 21 178 20
internal_value=-0.00147329 9.78851e-05 -0.000606762 0.00151924 -0.00070114 -0.0022211 -0.00190655
internal_weight=979 383 346 148 114 198 93
internal_count=979 383 346 148 114 198 93
is_linear=0
shrinkage=0.05


Tree=78
num_leaves=8
num_cat=0
split_feature=53 79 70 74 79 77 0
split_gain=0.631147 0.736899 0.476678 1.01298 0.275133 0.0438982 0.0370356
threshold=5145.2857142857147 411.00000000000006 29.796875000000004 6270.5000000000009 199.50000000000003 4409.5000000000009 28.858333333333334
decision_type=2 2 2 2 2 2 2
left_child=-1 2 3 4 6 -4 -2
right_child=1 -3 5 -5 -6 -7 -8
leaf_value=-24.018733499249414 -6.9634232050226972 1.3311662453124233 -0.11790751672416305 0.3999930191087685 0.4036182658459132 -0.30425630226368011 -5.0158450043978675
leaf_weight=596 73 37 20 34 21 178 20
leaf_count=596 73 37 20 34 21 178 20
internal_value=-0.00147329 9.78851e-05 -0.000606762 0.00151924 -0.00070114 -0.0022211 -0.00190655
internal_weight=979 383 346 148 114 198 93
internal_count=979 383 346 148 114 198 93
is_linear=0
shrinkage=0.05


Tree=79
num_leaves=8
num_cat=0
split_feature=53 66 20 88 74 92 82
split_gain=0.631147 0.454251 0.476928 1.02199 0.516539 0.149052 0.0884185
threshold=5145.2857142857147 570.09095678004439 -0.38242426011641079 -0.80901699437495711 6576.5000000000009 -0.80901699437494123 0.62348980185886638
decision_type=2 2 2 2 2 2 2
left_child=-1 -2 3 -3 5 -5 -4
right_child=1 2 6 4 -6 -7 -8
leaf_value=-22.81779682428693 0.33455060393706509 1.3762363845285563 -0.30404031650008934 0.14728343666410224 0.46973682398151023 -0.38695152147098955 0.12035185369253334
leaf_weight=596 28 26 166 20 20 87 36
leaf_count=596 28 26 166 20 20 87 36
internal_value=-0.00147329 9.78851e-05 -0.000373135 0.00171457 -9.83484e-05 -0.00151727 -0.00197922
internal_weight=979 383 355 153 127 107 202
internal_count=979 383 355 153 127 107 202
is_linear=0
shrinkage=0.05


Tree=80
num_leaves=9
num_cat=0
split_feature=56 80 23 79 84 75 88 47
split_gain=0.955501 0.937861 0.853104 1.69617 1.28148 0.422389 0.145961 0.222923
threshold=5547.5000000000009 69.500000000000014 30.783599888478978 -70.499999999999986 -0.22252093395622022 6387.5000000000009 -0.66913060635885124 10.500000000000002
decision_type=2 2 2 2 2 2 2 2
left_child=-1 6 3 -3 -5 -4 7 -2
right_child=1 2 5 4 -6 -7 -8 -9
leaf_value=-20.190650700520713 0.71241539946353927 -5.3176671925471375 -0.12246723042113516 0.84739957985823333 1.5260051507732078 3.2495941849031569 -0.84345670523879446 -0.2250115837151867
leaf_weight=584 20 36 60 25 22 35 144 25
leaf_count=584 20 36 60 25 22 35 144 25
internal_value=-0.00123278 0.000755924 0.00336889 0.00706979 0.0133227 7.88638e-05 -0.00167901 0.00072062
internal_weight=951 367 178 83 47 95 189 45
internal_count=951 367 178 83 47 95 189 45
is_linear=0
shrinkage=0.05


Tree=81
num_leaves=10
num_cat=0
split_feature=56 79 94 81 90 16 87 14 27
split_gain=0.803095 0.824189 0.900607 1.11826 0.288133 0.242215 0.140753 0.0711262 0.0879678
threshold=5547.5000000000009 199.50000000000003 -0.67758968959607158 -2.6451132900309648e-14 0.91354545764261397 1.5000000000000002 0.86602540378444004 -0.8783796973249266 22.059652777777782
decision_type=2 2 2 2 2 2 2 2 2
left_child=-1 4 5 -4 6 -3 7 8 -2
right_child=1 2 3 -5 -6 -7 -8 -9 -10
leaf_value=-19.181118165494684 -1.8905507370870216 1.1025462513750834 0.051974702144310193 1.4772107931236729 0.97013764168990235 -0.14430538014768554 0.27166902580875169 -0.25967576030779499 0.41911931740785757
leaf_weight=584 23 21 23 22 20 36 39 163 20
leaf_count=584 23 21 23 22 20 36 39 163 20
internal_value=-0.00133793 0.000483519 0.0043095 0.0095898 -0.000971332 4.37822e-05 -0.00145859 -0.00198933 -5.80052e-05
internal_weight=951 367 102 45 265 57 245 206 43
internal_count=951 367 102 45 265 57 245 206 43
is_linear=0
shrinkage=0.05


Tree=82
num_leaves=8
num_cat=0
split_feature=23 0 47 16 79 56 91
split_gain=0.653853 1.55091 0.350278 0.559037 0.125509 0.341397 0.0937632
threshold=29.294295022364611 29.731250000000006 2.5000000000000004 2.5000000000000004 247.50000000000003 5664.5000000000009 0.95105651629513932
decision_type=2 2 2 2 2 2 2
left_child=4 -2 3 -3 -1 -6 -4
right_child=1 2 6 -5 5 -7 -8
leaf_value=-12.276124905777792 0.83151640920595116 10.265140618125955 -0.11700173116432321 -0.2646555434001569 -4.5072173668693347 2.9017598869434731 -0.11277543138185107
leaf_weight=624 27 21 120 21 75 31 32
leaf_count=624 27 21 120 21 75 31 32
internal_value=-0.00149564 0.000870646 -0.000669758 0.00332542 -0.00221887 -0.000565505 -0.00180802
internal_weight=951 221 194 42 730 106 152
internal_count=951 221 194 42 730 106 152
is_linear=0
shrinkage=0.05


Tree=83
num_leaves=9
num_cat=0
split_feature=77 80 29 47 70 58 70 29
split_gain=0.644101 0.695887 0.972046 1.1712 0.208254 0.0454079 0.0481975 0.0404961
threshold=5773.0000000000009 -187.49999999999997 -0.07708333333333249 9.5000000000000018 28.433928571428574 746.25497810057584 10.534672619047621 -1.1625000000000003
decision_type=2 2 2 2 2 2 2 2
left_child=5 7 3 -3 -4 6 -1 -2
right_child=1 2 4 -5 -6 -7 -8 -9
leaf_value=-1.2214399195990464 -1.4615776953476911 9.1996422331613257 0.28026752023872142 0.0062435261829103779 -0.14595321491869895 -3.1794403482165023 -3.6162846462665841 -2.556383157610544
leaf_weight=20 20 23 26 33 51 20 651 107
leaf_count=20 20 23 26 33 51 20 651 107
internal_value=-0.00154821 0.000557477 0.00309917 0.00811052 -0.000486382 -0.00234771 -0.00241767 -0.0020653
internal_weight=951 260 133 56 77 691 671 127
internal_count=951 260 133 56 77 691 671 127
is_linear=0
shrinkage=0.05


Tree=84
num_leaves=10
num_cat=0
split_feature=61 61 76 60 56 79 81 59 5
split_gain=0.881017 0.844619 0.433728 0.277354 0.201091 0.437766 0.580919 0.122611 0.0408552
threshold=6146.5333333333338 6232.4833333333345 5874.0000000000009 8171.5000000000009 5547.5000000000009 199.50000000000003 -5.6831039248076243e-14 5285.5000000000009 13.222916666666668
decision_type=2 2 2 2 2 2 2 2 2
left_child=4 -2 -3 7 -1 8 -7 -4 -6
right_child=1 2 3 -5 5 6 -8 -9 -10
leaf_value=-17.7165293997463 0.73137544272737154 0.038089540323153863 0.14852765438068866 9.6031648025174938 -0.26137894458084593 -0.16755823873723019 2.6819799925048073 -0.35429168271004713 -4.1010759017395122
leaf_weight=584 28 20 24 20 112 23 27 93 20
leaf_count=584 28 20 24 20 112 23 27 93 20
internal_value=-0.00128535 0.00179633 0.000334181 -0.000638221 -0.00203629 -0.000549149 0.00339321 -0.0016012 -0.00208176
internal_weight=951 185 157 137 766 182 50 117 132
internal_count=951 185 157 137 766 182 50 117 132
is_linear=0
shrinkage=0.05


Tree=85
num_leaves=10
num_cat=0
split_feature=74 55 5 89 23 79 1 81 23
split_gain=0.729135 0.827294 0.359191 0.240158 0.368682 0.0574323 0.11162 0.0457214 0.040188
threshold=6082.0000000000009 5320.5000000000009 15.456250000000002 0.58778525229256406 31.903041081808801 433.50000000000006 60.416666666666679 0.97492791218184283 34.923410701563121
decision_type=2 2 2 2 2 2 2 2 2
left_child=5 -2 3 8 -5 7 -7 -1 -3
right_child=1 2 -4 4 -6 6 -8 -9 -10
leaf_value=-5.4892575192895876 0.36068563639079132 -0.12514980594250147 7.5371776376256152 0.50512158281588782 -0.41866616216306218 1.1338575241465634 -0.68633905814540963 -21.585627247008667 -0.13171140425636096
leaf_weight=659 24 103 24 20 20 20 36 21 20
leaf_count=659 24 103 24 20 20 20 36 21 20
internal_value=-0.00154419 0.00103032 -6.68098e-05 -0.00093501 0.00236908 -0.00228909 -0.000623887 -0.00241876 -0.00205118
internal_weight=947 211 187 163 40 736 56 680 123
internal_count=947 211 187 163 40 736 56 680 123
is_linear=0
shrinkage=0.05


Tree=86
num_leaves=10
num_cat=0
split_feature=60 62 92 83 55 83 85 0 4
split_gain=0.689577 0.970708 0.249704 0.416065 0.885487 0.247243 0.110955 0.047991 0.0335041
threshold=6134.5000000000009 377.06978308327115 0.30901699437487645 -8.2306168592887536e-14 5352.5000000000009 -0.78183148246806133 -0.78183148246816025 9.6666666666666679 78.750000000000014
decision_type=2 2 2 2 2 2 2 2 2
left_child=7 -2 6 4 -4 -6 -3 -1 -5
right_child=1 2 3 8 5 -7 -8 -9 -10
leaf_value=-0.516772867983326 4.9821190777588571 0.28048178064748697 0.48186182602973027 -0.27961795706429554 0.46167587463927895 -0.49653483918504987 -0.51219344841732728 -6.8702512350338498 -0.074259610982860588
leaf_weight=20 30 28 25 53 21 38 130 582 20
leaf_count=20 30 28 25 53 21 38 130 582 20
internal_value=-0.00138581 0.000383946 -0.000420502 0.000970719 0.00338882 0 -0.00183428 -0.00240824 -0.00174419
internal_weight=947 345 315 157 84 59 158 602 73
internal_count=947 345 315 157 84 59 158 602 73
is_linear=0
shrinkage=0.05


Tree=87
num_leaves=9
num_cat=0
split_feature=56 57 23 81 85 97 88 27
split_gain=0.506051 0.715602 0.252027 0.277483 0.111132 0.14747 0.0442523 0.119207
threshold=5505.5000000000009 5157.0000000000009 35.985751046371597 0.97492791218182406 -0.97492791218180685 -0.95495791161117471 -0.6691306063588548 22.369967013888893
decision_type=2 2 2 2 2 2 2 2
left_child=-1 -2 3 4 -3 -6 7 -7
right_child=1 2 -4 -5 5 6 -8 -9
leaf_value=-17.268961827255037 0.29865891718363063 -0.018973451209403004 8.4970417266224096 0.40584200619311556 0.020712484221099083 -0.17265225122778846 -0.17672545184040495 0.44231101610050988
leaf_weight=567 22 22 20 34 20 42 200 20
leaf_count=567 22 22 20 34 20 42 200 20
internal_value=-0.00154419 -0.00011839 -0.000670204 -0.00100562 -0.00149622 -0.00177242 -0.00209844 -0.000805154
internal_weight=947 380 358 338 304 282 262 62
internal_count=947 380 358 338 304 282 262 62
is_linear=0
shrinkage=0.05


Tree=88
num_leaves=10
num_cat=0
split_feature=56 57 79 23 81 91 85 29 62
split_gain=0.558331 0.64487 0.622204 0.255096 0.256852 0.119653 0.132121 0.0383098 0.0425875
threshold=5392.0000000000009 5157.0000000000009 -9.5240798611109749 35.985751046371597 0.97492791218182406 -0.95105651629515853 -0.97492791218180685 -1.7500000000000024 380.24629520788687
decision_type=2 2 2 2 2 2 2 2 2
left_child=-1 2 -2 4 5 -3 -7 -8 -9
right_child=1 3 -4 -5 -6 6 7 8 -10
leaf_value=-17.937220088273921 -8.1604318195753027 0.014367017092202587 1.4336136687886381 8.0721896402912527 0.37401063287566505 -0.018024778648922813 -0.072615544194693002 -0.023803270410226649 -0.23907218508656825
leaf_weight=541 21 21 20 20 36 22 20 21 225
leaf_count=541 21 21 20 20 36 22 20 21 225
internal_value=-0.0014386 -2.46251e-05 0.00590024 -0.000705287 -0.00103593 -0.00151246 -0.00178757 -0.00210447 -0.0022755
internal_weight=947 406 41 365 345 309 288 266 246
internal_count=947 406 41 365 345 309 288 266 246
is_linear=0
shrinkage=0.05


Tree=89
num_leaves=9
num_cat=0
split_feature=74 97 92 79 93 65 78 62
split_gain=0.592275 0.735319 0.496441 0.628326 0.260369 0.5972 0.242677 0.0439288
threshold=4954.0000000000009 0.98734944239398637 0.30901699437487645 411.00000000000006 0.3008170219648883 6036.1000000000013 5317.0000000000009 382.47105561166478
decision_type=2 2 2 2 2 2 2 2
left_child=-1 2 7 4 5 -4 -7 -2
right_child=1 -3 3 -5 -6 6 -8 -9
leaf_value=-23.908582031558471 0.0031196528792368562 0.85567507845968294 0.22390942268736902 8.1050796043828548 -0.80550369874399053 0.43859257632750243 -0.072614342476124513 -0.33176245883287458
leaf_weight=532 20 21 36 20 57 24 58 179
leaf_count=532 20 21 36 20 57 24 58 179
internal_value=-0.00138581 1.80673e-05 -0.000456737 0.00131984 0.000328383 0.00169348 -0.000609014 -0.0022225
internal_weight=947 415 394 195 175 118 82 199
internal_count=947 415 394 195 175 118 82 199
is_linear=0
shrinkage=0.05


Tree=90
num_leaves=9
num_cat=0
split_feature=56 79 21 95 29 79 66 95
split_gain=0.703868 1.06732 2.7133 0.48803 0.164949 0.251689 0.137783 0.0945854
threshold=5252.0000000000009 153.50000000000003 -0.19337245081799007 0.71466676797886941 -1.1312499999999994 -236.49999999999997 1086.3800895828469 0.92913280730858838
decision_type=2 2 2 2 2 2 2 2
left_child=-1 4 3 6 5 -2 -3 -6
right_child=1 2 -4 -5 7 -7 -8 -9
leaf_value=-22.481910604962732 -7.6061231299286707 -0.051282153871050312 4.5715791413855369 0.31307667043789567 -0.61048334409945282 0.82147848386210287 0.73715353289537333 0.001011234435470998
leaf_weight=514 29 64 22 36 203 29 20 35
leaf_count=514 29 64 22 36 203 29 20 35
internal_value=-0.00123411 0.000228258 0.00380014 0.000791007 -0.0014691 0.000860585 -0.00124851 -0.00205796
internal_weight=952 438 142 120 296 58 84 238
internal_count=952 438 142 120 296 58 84 238
is_linear=0
shrinkage=0.05


Tree=91
num_leaves=8
num_cat=0
split_feature=56 80 69 75 81 87 87
split_gain=0.763595 0.807719 2.14786 0.524569 0.36388 0.299919 0.0444059
threshold=5252.0000000000009 158.00000000000003 28.306250000000002 6345.0000000000009 0.97492791218182928 0.86602540378443515 -0.95105651629515897
decision_type=2 2 2 2 2 2 2
left_child=-1 4 -3 5 6 -4 -2
right_child=1 2 3 -5 -6 -7 -8
leaf_value=-21.357815074714598 -0.16549748997031358 1.5602884839626867 -0.1243363382922814 1.5732939114809867 0.40129204027444987 0.28938684544193122 -0.90507801797661258
leaf_weight=514 20 37 105 37 20 23 196
leaf_count=514 20 37 105 37 20 23 196
internal_value=-0.0011816 0.000342387 0.00267194 0.00019685 -0.00163067 -0.00128806 -0.00224433
internal_weight=952 438 202 165 236 128 216
internal_count=952 438 202 165 236 128 216
is_linear=0
shrinkage=0.05


Tree=92
num_leaves=10
num_cat=0
split_feature=79 74 29 92 63 93 85 95 25
split_gain=0.732699 0.923226 1.51355 0.619148 0.281432 0.159433 0.142404 0.126398 0.0482135
threshold=209.50000000000003 4850.5000000000009 -0.12499999999999643 -0.809016994374955 5716.0000000000009 -0.99628894895067444 0.97492791218186436 0.56314550935064722 7.9895833333333339
decision_type=2 2 2 2 2 2 2 2 2
left_child=4 -2 -3 -4 5 -1 8 -5 -7
right_child=1 2 3 7 -6 6 -8 -9 -10
leaf_value=0.044691517104256881 -12.611355696985164 6.3432774668217222 0.58650665230002985 -0.23220305645436398 0.023509897518178904 -3.3367748922183651 0.012244144456899073 0.13993674479848348 -4.9028759651243039
leaf_weight=21 87 25 22 49 26 657 25 20 20
leaf_count=21 87 25 22 49 26 657 25 20 20
internal_value=-0.00123411 0.00141556 0.0043497 0.00128979 -0.00195902 -0.00214701 -0.00227888 -0.000976846 -0.0024184
internal_weight=952 203 116 91 749 723 702 69 677
internal_count=952 203 116 91 749 723 702 69 677
is_linear=0
shrinkage=0.05


Tree=93
num_leaves=11
num_cat=0
split_feature=80 67 46 55 82 4 84 79 87 82
split_gain=1.00696 1.02717 0.758116 0.410642 0.47821 0.278521 0.185446 0.431773 0.144642 0.0424988
threshold=485.50000000000006 4380.0000000000009 22.500000000000004 4976.0000000000009 -0.90096886790241648 2.9166666666666674 0.62348980185863889 115.50000000000001 0.95105651629514998 -0.90096886790238084
decision_type=2 2 2 2 2 2 2 2 2 2
left_child=3 2 6 -1 -5 -6 -2 -8 9 -7
right_child=1 -3 -4 4 5 8 7 -9 -10 -11
leaf_value=-14.028362108098086 -0.62192600982909485 0.66623890329904456 6.8659313046287114 0.13378664375649049 0.64480292691642571 -0.16934973906778988 -4.7153760606715265 1.6048857798105816 0.061552549310107632 -0.2481876596863061
leaf_weight=543 71 29 20 39 21 20 28 20 20 141
leaf_count=543 71 29 20 39 21 20 28 20 20 141
internal_value=-0.000971537 0.00252826 0.000700934 -0.0017281 0 -0.00098961 -0.000776659 0.00155925 -0.00164274 -0.00215705
internal_weight=952 168 139 784 241 202 119 48 181 161
internal_count=952 168 139 784 241 202 119 48 181 161
is_linear=0
shrinkage=0.05


Tree=94
num_leaves=12
num_cat=0
split_feature=56 80 69 5 4 75 62 20 95 20 4
split_gain=0.973684 0.882135 0.915917 1.54862 0.620995 0.462443 0.876655 0.149808 0.137564 0.0477931 0.0427243
threshold=5406.0000000000009 15.262742988718403 28.306250000000002 7.4541666666666675 83.166666666666671 6345.0000000000009 618.08746934434612 0.75014288946266361 0.9523687564627995 -0.98803845231459242 3.2708333333333335
decision_type=2 2 2 2 2 2 2 2 2 2 2
left_child=9 8 3 -3 5 7 -7 -4 10 -1 -2
right_child=1 2 4 -5 -6 6 -8 -9 -10 -11 -12
leaf_value=-11.387450034696698 -2.8496218495079462 -0.32315507039273011 -0.069829222990867051 3.9254769742375943 0.10758773782228169 6.522634739397299 -0.058216021045850642 0.019578232293860378 0.015935481020594649 -14.546747686884007 -1.8248430282367663
leaf_weight=20 20 20 89 20 27 20 21 20 21 528 146
leaf_count=20 20 20 89 20 27 20 21 20 21 528 146
internal_value=-0.00102405 0.000829002 0.00300553 0.00985037 0.00142575 0.000133244 0.0046837 -0.00153529 -0.00167023 -0.0023992 -0.00216737
internal_weight=952 404 217 40 177 150 41 109 187 548 166
internal_count=952 404 217 40 177 150 41 109 187 548 166
is_linear=0
shrinkage=0.05


Tree=95
num_leaves=9
num_cat=0
split_feature=80 56 23 79 21 93 90 5
split_gain=1.08519 0.810349 1.12882 2.09448 0.560838 0.157294 0.0686187 0.105594
threshold=356.00000000000006 5332.5000000000009 31.062023331760759 118.50000000000001 -0.94703994556331683 -0.99628894895067444 -0.97814760073380558 8.3041666666666689
decision_type=2 2 2 2 2 2 2 2
left_child=5 -2 3 -3 -4 -1 7 -7
right_child=1 2 4 -5 -6 6 -8 -9
leaf_value=1.1811207076381867 -7.5065105189032018 0.035647402095003743 6.1965030024273888 2.3495418177964433 -0.20728612786403847 -6.1724271951749508 -3.3713660427221828 0.13257302530395185
leaf_weight=22 75 39 20 27 61 32 663 20
leaf_count=22 75 39 20 27 61 32 663 20
internal_value=-0.00129549 0.00175597 0.0039259 0.00877458 0 -0.00222154 -0.00235282 -0.000479847
internal_weight=959 222 147 66 81 737 715 52
internal_count=959 222 147 66 81 737 715 52
is_linear=0
shrinkage=0.05


Tree=96
num_leaves=10
num_cat=0
split_feature=56 79 69 65 54 82 79 76 5
split_gain=0.793493 1.20984 1.76996 1.61545 0.65703 0.264539 0.631247 0.0797648 0.083071
threshold=5252.0000000000009 149.50000000000003 29.030952380952385 6217.072222222223 327.12396560718076 -0.90096886790241648 -70.499999999999986 7013.0000000000009 10.527083333333335
decision_type=2 2 2 2 2 2 2 2 2
left_child=-1 5 3 -3 -4 6 -2 -7 -9
right_child=1 2 4 -5 -6 7 -8 8 -10
leaf_value=-19.51815291729401 -1.6935866611237405 4.0341466246198765 0.24856198353048864 0.1074967700108819 -0.026706151750163016 -0.85826633547926967 0.1158303183807695 -6.382288984053301 0.83096497407908321
leaf_weight=510 37 22 34 20 64 208 23 21 20
leaf_count=510 37 22 34 20 64 208 23 21 20
internal_value=-0.00113909 0.000384101 0.00424697 0.0128266 0.000509683 -0.0013507 0.0015807 -0.00207748 0
internal_weight=959 449 140 42 98 309 60 249 41
internal_count=959 449 140 42 98 309 60 249 41
is_linear=0
shrinkage=0.05


Tree=97
num_leaves=10
num_cat=0
split_feature=74 79 21 47 85 77 90 65 29
split_gain=0.684931 0.779299 2.09092 0.260364 0.598364 0.253272 0.553535 0.135842 0.0440774
threshold=4850.5000000000009 149.50000000000003 -0.32613736746952143 12.500000000000002 0.43388373911763572 6308.5000000000009 0.91354545764256856 5953.7055555555571 -1.7791666666666648
decision_type=2 2 2 2 2 2 2 2 2
left_child=-1 5 3 4 -3 8 7 -7 -2
right_child=1 2 -4 -5 -6 6 -8 -9 -10
leaf_value=-26.568085148948388 -0.49053464666632007 0.73428749449189912 3.4819713678505892 -0.046817664352090456 -0.10269240908356364 0.11093708947914492 0.27389810239230189 -1.3378966432844768 -1.21442345253916
leaf_weight=513 20 29 27 50 30 20 25 61 184
leaf_count=513 20 29 27 50 30 20 25 61 184
internal_value=-0.00124335 0.000179331 0.00334313 0.000206232 0.00249577 -0.00119316 0.000754005 -0.00120222 -0.0022293
internal_weight=959 446 136 109 59 310 106 81 204
internal_count=959 446 136 109 59 310 106 81 204
is_linear=0
shrinkage=0.05


Tree=98
num_leaves=9
num_cat=0
split_feature=74 97 80 92 0 98 0 75
split_gain=0.629222 0.754371 0.337234 0.616209 0.803007 0.472198 0.218698 0.104024
threshold=4850.5000000000009 0.98521098335796187 69.500000000000014 0.80901699437490737 30.497916666666672 0.92914141140317408 32.82500000000001 7199.0000000000009
decision_type=2 2 2 2 2 2 2 2
left_child=-1 2 7 5 -5 -4 -6 -2
right_child=1 -3 3 4 6 -7 -8 -9
leaf_value=-25.239680891500949 -0.74580683354692345 1.8259593267246985 -0.23642268022687665 0.37670144753984602 -0.20553361632728354 0.092411237949497016 5.8372303457906121 0.0139121029337331
leaf_weight=513 166 28 116 23 24 38 20 31
leaf_count=513 166 28 116 23 24 38 20 31
internal_value=-0.00129549 6.72489e-05 -0.000454437 0.000870646 0.00488077 -0.000843609 0.00079365 -0.00196601
internal_weight=959 446 418 221 67 154 44 197
internal_count=959 446 418 221 67 154 44 197
is_linear=0
shrinkage=0.05


Tree=99
num_leaves=10
num_cat=0
split_feature=80 85 65 14 89 24 71 92 92
split_gain=0.603174 0.609114 0.437443 0.641887 0.274704 0.220928 0.41415 0.106326 0.218781
threshold=381.94923560662215 0.97492791218183272 5631.1277777777786 1.0000000180025095e-35 -0.74314482547740834 4.2729166666666663 32.787500000000001 -0.30901699437497981 -0.80901699437495045
decision_type=2 2 2 2 2 2 2 2 2
left_child=5 2 4 -4 -2 -1 -7 8 -8
right_child=1 -3 3 -5 -6 6 7 -9 -10
leaf_value=-12.587369400594831 0.72011493016562256 0.075845768278034978 -0.042813032922707807 4.6944474039773096 -0.60664573576688829 0.25039940926800358 -0.24556907711994969 -0.15099614708291798 0.083303017271287402
leaf_weight=544 25 21 30 23 110 36 33 115 22
leaf_count=544 25 21 30 23 110 36 33 115 22
internal_value=-0.00129549 0.00106408 0.000132907 0.00400188 -0.00135085 -0.00195974 -0.000533722 -0.0015873 0.000136116
internal_weight=959 209 188 53 135 750 206 170 55
internal_count=959 209 188 53 135 750 206 170 55
is_linear=0
shrinkage=0.05


Tree=100
num_leaves=10
num_cat=0
split_feature=56 79 57 54 83 23 0 79 47
split_gain=0.972628 1.21907 2.17592 1.06673 1.39028 0.227865 0.69914 1.04145 0.131036
threshold=5252.0000000000009 129.50000000000003 5157.0000000000009 323.69019891583656 1.0000000180025095e-35 29.576649999564012 31.070833333333336 -105.14116097421901 3.5000000000000004
decision_type=2 2 2 2 2 2 2 2 2
left_child=-1 5 -3 4 -4 -2 7 -7 -5
right_child=1 2 3 8 -6 6 -8 -9 -10
leaf_value=-16.122184897063487 -5.1395678564675391 3.1484786373399061 3.3277017729075902 0.0068202764246790204 -0.049720064239138703 -0.089033640879725248 -0.76280350478021886 0.42956458889371274 -0.15761882883736009
leaf_weight=524 162 20 23 21 24 21 77 22 66
leaf_count=524 162 20 23 21 24 21 77 22 66
internal_value=-0.00103635 0.00069938 0.00428293 0.00193885 0.00801486 -0.0012407 0.000374687 0.00551044 -0.00129162
internal_weight=960 436 154 134 47 282 120 43 87
internal_count=960 436 154 134 47 282 120 43 87
is_linear=0
shrinkage=0.05


Tree=101
num_leaves=10
num_cat=0
split_feature=74 79 84 74 0 61 79 0 29
split_gain=0.727065 0.707491 0.669457 0.981492 1.95546 0.621763 0.879512 0.247968 0.040188
threshold=4850.5000000000009 -105.14116097421901 0.62348980185866032 6124.0000000000009 31.691666666666674 5631.7500000000009 129.50000000000003 28.456250000000004 -0.6729166666666665
decision_type=2 2 2 2 2 2 2 2 2
left_child=-1 -2 5 7 -5 6 -3 -4 -7
right_child=1 2 3 4 -6 8 -8 -9 -10
leaf_value=-19.737157063778742 -4.1533905692525925 -3.3989264328909634 1.36174636216239 0.41846537402532652 -0.014162685319749202 -0.64506845751908171 1.3001799017126989 -0.072732385406518829 -0.043687989326376499
leaf_weight=528 152 27 20 20 26 20 32 32 103
leaf_count=528 152 27 20 20 26 20 32 32 103
internal_value=-0.00124466 0.000266142 0.00176723 0.00509684 0.0104121 -5.95719e-10 0.00418782 0.000287907 -0.00205118
internal_weight=960 432 280 98 46 182 59 52 123
internal_count=960 432 280 98 46 182 59 52 123
is_linear=0
shrinkage=0.05


Tree=102
num_leaves=11
num_cat=0
split_feature=74 92 91 88 69 57 23 95 84 62
split_gain=0.78877 0.552497 0.622204 0.488162 1.07874 0.246955 0.733961 0.13474 0.209649 0.107565
threshold=4850.5000000000009 0.90450849718751047 -1.5189953173883294e-14 -0.91354545764259532 29.030952380952385 6563.5000000000009 32.832316418474811 -0.85432216974982611 -0.22252093395613806 377.06978308327115
decision_type=2 2 2 2 2 2 2 2 2 2
left_child=-1 3 -3 4 -2 7 -7 8 -5 -9
right_child=1 2 -4 5 -6 6 -8 9 -10 -11
leaf_value=-18.750299210589802 1.8681284414632373 -0.18129351679258837 0.40399133338219279 -0.15985066329905304 -0.14469504652402543 0.49510031940268551 -1.1091872528826265 -0.015508960502833891 1.2592245026451252 -0.14485560108173326
leaf_weight=528 23 21 20 22 39 20 33 31 20 203
leaf_count=528 23 21 20 22 39 20 33 31 20 203
internal_value=-0.00119258 0.000381855 0.00590024 -0.000185375 0.00386473 -0.000964753 0.00211864 -0.00157552 0.000950118 -0.00205041
internal_weight=960 432 41 391 62 329 53 276 42 234
internal_count=960 432 41 391 62 329 53 276 42 234
is_linear=0
shrinkage=0.05


Tree=103
num_leaves=9
num_cat=0
split_feature=56 92 65 19 27 29 55 95
split_gain=0.601106 0.627027 0.622204 0.310876 0.272552 0.203614 0.141981 0.123288
threshold=5252.0000000000009 0.90450849718751047 6002.4333333333343 9.5000000000000018 23.890474826388893 -1.7500000000000024 4539.0000000000009 0.96230016621822478
decision_type=2 2 2 2 2 2 2 2
left_child=-1 3 -3 4 5 -2 -7 -8
right_child=1 2 -4 -5 -6 6 7 -9
leaf_value=-13.391702838491861 0.15790837137642502 0.78849313648703545 -0.1722289811890034 2.8174284019603566 0.27385822905548157 0.43144823402964261 -0.11597492902393625 -0.0098590302736294017
leaf_weight=524 29 20 21 28 34 21 255 28
leaf_count=524 29 20 21 28 34 21 255 28
internal_value=-0.00134882 1.14647e-05 0.00590024 -0.000588459 -0.00098747 -0.0014335 -0.00182506 -0.00212822
internal_weight=960 436 41 395 367 333 304 283
internal_count=960 436 41 395 367 333 304 283
is_linear=0
shrinkage=0.05


Tree=104
num_leaves=9
num_cat=0
split_feature=56 92 65 97 84 5 29 4
split_gain=0.601106 0.627027 0.622204 0.566622 0.244224 0.353372 0.231688 0.10051
threshold=5252.0000000000009 0.90450849718751047 6002.4333333333343 0.98521098335796187 0.62348980185891467 8.1062500000000011 -1.7500000000000024 91.270833333333343
decision_type=2 2 2 2 2 2 2 2
left_child=-1 3 -3 4 6 -6 -2 -8
right_child=1 2 -4 -5 5 -7 7 -9
leaf_value=-12.722117696567253 0.15001295280758331 0.74906847966268453 -0.16361753212956792 1.3084946826156798 1.2711958647783577 -0.065031065980180477 -0.13767235606364489 -0.036907358898982466
leaf_weight=524 29 20 21 28 20 36 248 34
leaf_count=524 29 20 21 28 20 36 248 34
internal_value=-0.00134882 1.14647e-05 0.00590024 -0.000588459 -0.00112367 0.00187166 -0.00167952 -0.00212691
internal_weight=960 436 41 395 367 56 311 282
internal_count=960 436 41 395 367 56 311 282
is_linear=0
shrinkage=0.05


Tree=105
num_leaves=10
num_cat=0
split_feature=65 79 56 63 92 55 69 92 0
split_gain=0.807526 0.796273 1.5683 0.256341 0.147571 0.311086 0.116847 0.291331 0.0367519
threshold=5816.98888888889 199.50000000000003 6597.5000000000009 5716.0000000000009 0.30901699437497715 5384.5000000000009 30.177380952380954 0.80901699437496044 31.766666666666669
decision_type=2 2 2 2 2 2 2 2 2
left_child=6 3 -3 4 -2 -6 -1 8 -8
right_child=1 2 -4 -5 5 -7 7 -9 -10
leaf_value=-4.5895550983574962 -0.23303594452006809 1.375267701273279 -0.042123432201921988 0.80950902181394613 0.32238519359196433 -4.2512002500826718 -2.4159818947991702 0.21103312337367061 -0.10963853651607713
leaf_weight=574 99 29 36 20 27 36 20 20 71
leaf_count=574 99 29 36 20 27 36 20 20 71
internal_value=-0.00131424 0.00112303 0.00587558 -0.000549149 -0.00123381 0.000594294 -0.00220041 -0.000652566 -0.00189352
internal_weight=932 247 65 182 162 63 685 111 91
internal_count=932 247 65 182 162 63 685 111 91
is_linear=0
shrinkage=0.05


Tree=106
num_leaves=11
num_cat=0
split_feature=53 96 0 88 87 5 27 86 20 20
split_gain=0.789735 0.725914 0.442166 0.491503 0.512826 0.862324 0.284591 0.359146 0.10394 0.0455068
threshold=4768.6428571428578 -0.98665793289165638 10.414583333333335 0.9781476007338068 0.86602540378443693 10.750000000000002 23.714480034722225 -0.22252093395596226 -0.46038400545438724 0.8697513045430848
decision_type=2 2 2 2 2 2 2 2 2 2
left_child=-1 -2 -3 4 6 8 9 -8 -6 -4
right_child=1 2 3 -5 5 -7 7 -9 -10 -11
leaf_value=-12.379269809838341 1.7154192406881521 0.12554327333391743 -0.11632383381486311 5.0957343990297419 0.34858812538746115 0.22129938655154491 -0.74934141369134299 0.15159306294368091 -0.21601258165133719 -3.3266660479941992
leaf_weight=488 20 20 249 20 20 21 22 21 31 20
leaf_count=488 20 20 249 20 20 21 22 21 31 20
internal_value=-0.00109967 0.000416572 -1.17903e-05 -0.000383569 -0.000794065 0.00298197 -0.00168215 0.00203016 -0.000440314 -0.00229469
internal_weight=932 444 424 404 384 72 312 43 51 269
internal_count=932 444 424 404 384 72 312 43 51 269
is_linear=0
shrinkage=0.05


Tree=107
num_leaves=10
num_cat=0
split_feature=93 79 1 75 58 53 85 74 1
split_gain=0.776994 0.676213 0.933804 0.43757 0.242373 0.653696 0.157339 0.104114 0.0332765
threshold=-0.99628894895067444 292.50000000000006 85.062500000000014 7199.0000000000009 414.31529465148589 4768.6428571428578 0.97492791218186958 6923.0000000000009 76.166666666666671
decision_type=2 2 2 2 2 2 2 2 2
left_child=-1 3 4 6 5 -3 7 -2 -6
right_child=1 2 -4 -5 8 -7 -8 -9 -10
leaf_value=1.4188678055000232 -2.8389549527801301 -20.130121627267865 0.15634004112439226 0.18888177649137475 -0.25182963921269874 0.96402848363097327 0.054589602560479102 -0.027257873154547765 -0.040827907330586992
leaf_weight=24 681 25 21 31 52 20 22 36 20
leaf_count=24 681 25 21 31 52 20 22 36 20
internal_value=-0.00115331 -0.00139302 0.00181028 -0.00197377 2.13487e-05 0.00293792 -0.0022223 -0.00235323 -0.0017337
internal_weight=932 908 138 770 117 45 739 717 72
internal_count=932 908 138 770 117 45 739 717 72
is_linear=0
shrinkage=0.05


Tree=108
num_leaves=13
num_cat=0
split_feature=59 80 56 75 86 92 84 30 62 20 58 4
split_gain=1.57417 1.02493 0.938849 1.51818 0.94063 0.4988 0.417666 0.308389 0.267134 0.146307 0.0428108 0.0328017
threshold=4247.5000000000009 9.0000000000000018 6657.5000000000009 5965.0000000000009 -0.90096886790229325 0.80901699437495467 0.62348980185891467 -0.89375000000000415 591.65038691758195 -0.98214942551678475 698.50047130840323 8.0000000000000018
decision_type=2 2 2 2 2 2 2 2 2 2 2 2
left_child=-1 6 3 4 -3 11 9 -6 -9 -2 -11 -4
right_child=1 2 5 -5 7 -7 -8 8 -10 10 -12 -13
leaf_value=-10.201593832659501 0.20726961116070727 0.31410207686274805 -0.14163046185068301 0.19829118279019112 0.15555856721259953 4.7946841128860589 0.14057413183209569 -0.19415139999058173 0.55334891749838233 -3.2843866905456256 -7.1851374832311983 -0.070918613577714076
leaf_weight=497 20 21 20 20 20 20 37 39 20 148 20 50
leaf_count=497 20 21 20 20 20 20 37 39 20 148 20 50
internal_value=-0.000563245 0.00162606 0.00414088 0.0070358 0.00444555 0.000221975 -0.00069969 0.00186473 0 -0.00167464 -0.00217133 -0.00171184
internal_weight=932 435 210 120 100 90 225 79 59 188 168 70
internal_count=932 435 210 120 100 90 225 79 59 188 168 70
is_linear=0
shrinkage=0.05


Tree=109
num_leaves=11
num_cat=0
split_feature=53 79 56 80 75 30 55 75 53 0
split_gain=1.68729 2.09377 1.53916 1.71245 2.0144 1.86165 0.620354 0.619811 0.247968 0.0363024
threshold=4768.6428571428578 -70.499999999999986 6657.5000000000009 -187.49999999999997 5984.5000000000009 -0.60208333333333186 4982.0000000000009 7199.0000000000009 5572.5714285714303 34.672916666666673
decision_type=2 2 2 2 2 2 2 2 2 2
left_child=-1 -2 3 8 5 -5 -7 9 -3 -4
right_child=1 2 7 4 -6 6 -8 -9 -10 -11
leaf_value=-11.200290939041421 -3.2436652998638289 -4.2279920936322615 -0.0855095772068723 0.27956733033006503 0.3139454352797868 0.63780004292306369 -0.24822631178154397 3.2333294718600794 0.13026213103785153 -0.34167410062981762
leaf_weight=488 175 32 68 22 24 28 29 26 20 20
leaf_count=488 175 32 68 22 24 28 29 26 20 20
internal_value=-0.00045596 0.00176762 0.00454292 0.0077853 0.0115179 0.00755373 0.00267075 8.76418e-05 0.000287907 -0.00187287
internal_weight=932 444 269 155 103 79 57 114 52 88
internal_count=932 444 269 155 103 79 57 114 52 88
is_linear=0
shrinkage=0.05


Tree=110
num_leaves=14
num_cat=0
split_feature=74 80 86 23 75 80 58 21 69 29 68 98 1
split_gain=1.68438 0.831977 0.799744 0.861713 1.50758 0.97036 1.00187 0.692915 0.530203 0.221409 0.0476334 0.0404961 0.0361456
threshold=4781.0000000000009 -187.49999999999997 0.62348980185853076 33.228413694403145 5984.5000000000009 251.00000000000003 352.01511929190809 -0.39827153806311183 28.428273809523812 -1.095833333333333 7377.5000000000009 0.87796008470088649 25.812500000000004
decision_type=2 2 2 2 2 2 2 2 2 2 2 2 2
left_child=10 9 3 4 5 -3 -7 -8 -4 -2 -1 -11 -10
right_child=1 2 8 -5 -6 6 7 -9 12 11 -12 -13 -14
leaf_value=-22.216372710424324 0.17734104852507104 -2.6540521975392171 0.59656682278927964 -0.05390067020108065 0.21976763285861392 0.86587194278061497 0.59345778101094415 -0.14392012516103134 0.0096382350738288391 -2.8491999285041443 -10.042461570905681 -2.9125242937480351 -0.33925280631340299
leaf_weight=491 27 36 29 39 34 20 30 24 20 107 20 20 67
leaf_count=491 27 36 29 39 34 20 30 24 20 107 20 20 67
internal_value=-0.000420082 0.0017932 0.003335 0.00539323 0.00718251 0.00426885 0.00755735 0.0038817 4.30657e-05 -0.00116807 -0.0023919 -0.0020653 -0.00186567
internal_weight=964 453 299 183 144 110 74 54 116 154 511 127 87
internal_count=964 453 299 183 144 110 74 54 116 154 511 127 87
is_linear=0
shrinkage=0.05


Tree=111
num_leaves=13
num_cat=0
