tree
version=v4
num_class=1
num_tree_per_iteration=1
label_index=0
max_feature_idx=98
objective=regression
feature_names=temperature_2m relative_humidity_2m dew_point_2m precipitation_mm cloud_cover_pct wind_speed_10m shortwave_radiation is_peak_hour is_night is_morning_ramp quarter hour_sin hour_cos hour dow_sin dow_cos dayofweek month_sin month_cos month doy_sin doy_cos is_weekend heat_index CDD HDD temp_squared temp_x_humidity temp_x_hour temp_ramp_1h temp_ramp_3h season_winter season_spring season_summer season_monsoon season_autumn is_rainy is_heavy_rain is_cloudy is_clear is_daylight solar_high is_holiday is_national_holiday is_festival is_ipl_season days_to_next_holiday days_since_last_holiday is_pre_holiday is_post_holiday aqi_value aqi_severe aqi_poor delhi_mw_rmean_7d delhi_mw_rstd_7d delhi_mw_rmin_7d delhi_mw_rmax_7d delhi_mw_rmean_14d delhi_mw_rstd_14d delhi_mw_rmin_14d delhi_mw_rmax_14d delhi_mw_rmean_30d delhi_mw_rstd_30d delhi_mw_rmin_30d delhi_mw_rmax_30d delhi_mw_rmean_90d delhi_mw_rstd_90d delhi_mw_rmin_90d delhi_mw_rmax_90d temp_rmean_7d temp_rmean_14d CDD_rsum_7d CDD_rsum_14d humidity_rmean_14d delhi_mw_lag_1 delhi_mw_lag_7 delhi_mw_lag_14 delhi_mw_lag_30 delhi_mw_lag_365 delhi_mw_diff_1 delhi_mw_diff_7 fourier_sin_7_1 fourier_cos_7_1 fourier_sin_7_2 fourier_cos_7_2 fourier_sin_7_3 fourier_cos_7_3 fourier_sin_30_1 fourier_cos_30_1 fourier_sin_30_2 fourier_cos_30_2 fourier_sin_30_3 fourier_cos_30_3 fourier_sin_365_1 fourier_cos_365_1 fourier_sin_365_2 fourier_cos_365_2 fourier_sin_365_3 fourier_cos_365_3
feature_infos=[7.4708333333333341:39.083333333333336] [13.666666666666666:93.916666666666671] [5.1583333333333332:26.058333333333334] [0:28.300000000000001] [0:100] [2.5583333333333331:22.762499999999999] [57.708333333333336:247.83333333333334] none none none [1:4] none none none [-0.97492791218182362:0.97492791218182362] [-0.90096886790241903:1] [0:6] [-1:1] [-1:1] [1:12] [-0.9999994220246925:0.99998555065071859] [-0.99997919295908233:0.9999907524084426] [0:1] [7.4708333333333341:38.24563888743748] [0:15.083333333333336] [0:10.529166666666665] [55.813350694444459:1527.5069444444446] [5.0202777777777783:24.858888888888892] none [-7.7083333333333321:6.7500000000000036] [-9.7708333333333357:9.2333333333333343] [0:1] [0:1] [0:1] [0:1] [0:1] [0:1] none [0:1] [0:1] none none [0:1] [0:1] none [0:1] [0:54] [0:54] [0:1] [0:1] none none none [3177.7397837111234:8103.1428571428569] [47.8658840629463:1344.039683285903] [2444:7680] [3292.9447202797201:8568] [3195.9944546191264:7788.8571428571431] [67.484959659143769:1146.7114366738408] [2444:7233] [3343.8276655052268:8568] [3304.222399532388:7769.2333333333336] [116.09055621106256:1048.1875632805934] [2444:6992] [3685.7324561403507:8568] [3451.349253411126:7147.3555555555558] [297.66476580201913:1613.531327188962] [2444:5579] [4172.9755594405597:8568] [8.7886904761904763:38.085119047619052] [9.0598214285714285:37.201190476190469] [0:98.595833333333346] [0:184.81666666666666] [19.520833333333336:88.452380952380949] [2444:8568] [2444:8568] [2444:8568] [2444:8568] [2444:7770] [-1841:1736.2343447541621] [-2912.6026852255131:2667.989340277778] [-0.97492791218184816:0.97492791218187824] [-0.90096886790250974:1] [-0.97492791218188657:0.97492791218194674] [-0.9009688679026322:1] [-0.97492791218188657:0.97492791218198949] [-0.90096886790269859:1] [-0.9945218953682784:0.99452189536827806] [-1:1] [-0.99452189536828117:0.99452189536828672] [-0.97814760073382578:1] [-0.9510565162951945:0.95105651629519605] [-1:1] [-0.99999073973619013:0.99999073973619013] [-0.99996295911626554:1] [-0.99999073973619013:0.99999073973619013] [-0.99996295911626554:1] [-0.99999073973619013:0.99999073973619013] [-0.99996295911626554:1]
tree_sizes=2978 3260 3196 3017 3173 3074 3333 3170 3156 3054 2997 3158 2990 3069 2996 3145 2984 3307 3203 3140 3212 3114 2873 2885 3053 3052 3135 3065 3296 3197 3128 3105 3041 3189 3035 2968 3116 3188 3129 3032 3114 3274 3358 3266 3191 3215 3176 3284 3263 3280 3206 3203 2962 3119 3197 3186 3355 3029 3284 3112 3206 3354 3279 3460 3286 3210 3220 3142 3203 3232 3204 3131 3216 3203 3137 3314 3323 3147 3233 3316 3247 3164 3243 3097 3162 3009 3094 2998 3175 3155 3197 3176 3341 3182 3258 3118 3266 3440 3112 3276 3285 3180 3193 3269 2959 3018 3345 3271 3194 3268 3210 3357 3380 3538 3448 3394 3311 3449 3312 3473 3283 3203 3287 3303 3310 3381 3480 3452 3204 3471 3304 3483 3390 3293 3284 3295 3304 3313 3392 3309 3469 3471 3236 3320 3328 3216 3192 3226 3295 3206 3226 3285 3305 3383 3331 3300 3380 3471 3401 3240 3155 3371 3305 3306 3377 3371 3217 3303 3307 3242 3392 3306 3472 3474 3475 3299 3383 3488 3147 3378 3315 3133 3388 3223 3216 3226 3228 3163 3380 3318 3399 3334 3397

Tree=0
num_leaves=35
num_cat=0
split_feature=74 74 23 74 74 74 55 79 79 79 74 79 74 79 79 55 74 79 55 74 55 80 79 79 74 74 79 60 79 79 74 80 79 70
split_gain=1.10819e+09 1.1118e+08 1.09655e+08 2.63612e+07 1.93801e+07 1.35043e+07 1.26493e+07 6.33213e+06 5.91173e+06 5.50224e+06 4.79337e+06 4.74201e+06 4.5386e+06 3.91448e+06 2.82558e+06 2.49152e+06 2.4867e+06 1.89483e+06 1.83344e+06 1.74074e+06 1.62161e+06 1.32486e+06 1.21205e+06 1.10096e+06 1.0465e+06 914583 910366 868195 863387 730469 487832 460699 287939 275435
threshold=5089.0000000000009 4102.0000000000009 31.497062062984437 5813.7032692307703 7107.5000000000009 4684.5000000000009 3469.5000000000005 -119.49999999999999 -39.499999999999993 6.4849721630300801 6167.0000000000009 40.500000000000007 6638.0000000000009 -122.11155594405612 -248.64191420156223 3668.6487937062943 3600.1948076923081 153.50000000000003 3171.2361959809336 5392.5000000000009 5084.5000000000009 169.00000000000003 171.50000000000003 -248.64191420156223 4326.0000000000009 3345.259562937063 147.50000000000003 6691.5000000000009 -24.499999999999996 40.500000000000007 6372.5000000000009 -270.49999999999994 -32.499999999999993 20.24508928571429
decision_type=2 2 2 2 2 2 2 2 2 2 2 2 2 2 2 2 2 2 2 2 2 2 2 2 2 2 2 2 2 2 2 2 2 2
left_child=1 6 3 9 12 7 8 -3 18 20 13 23 27 -5 -12 28 21 24 31 -11 -2 25 -13 -7 -9 -10 32 -4 -8 -14 -16 -1 -17 -30
right_child=2 5 4 10 -6 11 15 17 16 19 14 22 29 -15 30 26 -18 -19 -20 -21 -22 -23 -24 -25 -26 -27 -28 -29 33 -31 -32 -33 -34 -35
leaf_value=4813.382912936112 4915.8775141876404 4863.5473191255569 4977.9148349302895 4940.4717041478589 5040.9977647959213 4887.2707948071948 4845.1638637947653 4874.8347857425861 4831.5125008685 4937.4919509655365 4966.6011704362836 4910.695220037278 5000.8370502432726 4968.7165949736736 4979.3272571629022 4855.0565727175708 4858.901231910083 4897.7589724609079 4836.2260121434274 4954.0492408199871 4933.7376967172531 4853.3372973901069 4927.5161253799788 4902.206569260592 4888.9889608309268 4844.3820203910072 4873.1764583381682 4993.7991186347645 4852.8122848857029 5016.991201271956 4992.0240420937535 4826.9039048355025 4863.7627787168658 4861.3022896286211
leaf_weight=21 26 36 21 21 39 21 37 24 34 30 38 23 20 31 23 20 28 34 37 36 25 20 20 30 30 33 21 23 40 24 22 21 33 20
leaf_count=21 26 36 21 21 39 21 37 24 34 30 38 23 20 31 23 20 28 34 37 36 25 20 20 30 30 33 21 23 40 24 22 21 33 20
internal_value=4907.03 4863.77 4973.58 4954.46 5011.46 4892.03 4846.9 4881.2 4838.12 4937.05 4969.52 4906.33 4998.24 4957.39 4977.04 4856.88 4845.51 4888.47 4827.46 4946.58 4924.67 4841.26 4918.55 4896.03 4882.65 4837.75 4863.96 4986.39 4851.53 5009.88 4985.71 4819.93 4860.38 4855.56
internal_weight=962 583 379 252 127 218 365 124 194 117 135 94 88 52 83 171 115 88 79 66 51 87 43 51 54 67 74 44 97 44 45 42 53 60
internal_count=962 583 379 252 127 218 365 124 194 117 135 94 88 52 83 171 115 88 79 66 51 87 43 51 54 67 74 44 97 44 45 42 53 60
is_linear=0
shrinkage=1


Tree=1
num_leaves=38
num_cat=0
split_feature=74 74 23 74 74 56 53 56 0 80 55 23 55 74 74 53 80 75 54 80 56 80 95 74 14 56 80 14 74 80 98 53 59 81 80 80 75
split_gain=1.00052e+09 1.00379e+08 9.90037e+07 2.38014e+07 1.74875e+07 1.26878e+07 1.26678e+07 5.49782e+06 4.33181e+06 3.3397e+06 3.28416e+06 2.61846e+06 2.58671e+06 2.33378e+06 2.11475e+06 2.045e+06 1.93311e+06 2.09808e+06 1.58535e+06 1.42738e+06 1.21328e+06 1.03617e+06 1.0239e+06 903967 752768 747340 622740 605278 539119 516851 407705 346473 238208 233593 220818 149956 137184
threshold=5089.0000000000009 4102.0000000000009 31.497062062984437 5813.7032692307703 7107.5000000000009 4866.5000000000009 3624.2857142857147 6624.0000000000009 28.456250000000004 -421.8045266812864 3668.6487937062943 28.757928098414453 5151.5000000000009 4728.5000000000009 6428.0000000000009 4221.857142857144 295.00000000000006 3494.5000000000005 428.81197918943911 62.496585244024125 5116.0000000000009 -280.99999999999994 -0.03442161162274638 5567.0000000000009 -0.60785761079279388 3940.5000000000005 -146.89584438131325 -1.0000000180025095e-35 6722.5000000000009 -109.49999999999999 0.30901699437494945 3731.3959635076144 3048.0533797909416 0.43388373911756334 -104.49999999999999 -121.49999999999999 4048.5000000000005
decision_type=2 2 2 2 2 2 2 2 2 2 2 2 2 2 2 2 2 2 2 2 2 2 2 2 2 2 2 2 2 2 2 2 2 2 2 2 2
left_child=1 6 3 11 7 15 9 -4 18 -1 19 12 33 21 27 22 17 32 -5 24 -15 -7 -3 -13 -8 -21 -22 -10 -9 -17 36 -26 -11 -2 -19 -33 -12
right_child=2 5 4 8 -6 13 10 28 14 16 30 23 -14 20 -16 29 -18 34 -20 25 26 -23 -24 -25 31 -27 -28 -29 -30 -31 -32 35 -34 -35 -36 -37 -38
leaf_value=-88.797124289562362 17.049882162012761 -29.385709543357606 63.362265691282516 53.849121611760552 126.23655459508871 -22.299289244087181 -64.668507972780688 86.058014632798603 52.669109766986743 -82.564786868273472 -47.943661591500955 30.134068987154844 31.902592290025154 -6.6706464275237041 76.617221123637677 -28.571839044218379 -52.589531476465289 -67.460400280154133 34.832068690968981 -53.1762525302697 0.65673437593540474 -6.3742135721360338 -45.393664171209387 45.409299419649798 -60.858970345199374 -39.600565493759234 12.378604439123352 63.959258302867923 97.750465821594076 -18.424383144434596 -35.331277359540188 -55.182479402388651 -72.228401017753995 9.4032293537955969 -58.914259205907108 -47.64353200428522 -41.5617381988231
leaf_weight=21 21 22 22 27 39 20 36 28 25 24 23 21 35 34 28 21 22 22 20 26 26 21 20 20 22 20 20 35 38 34 20 26 21 20 31 20 31
leaf_count=21 21 22 22 27 39 20 36 28 25 24 23 21 35 34 28 21 22 22 20 26 26 21 20 20 22 20 20 35 38 34 20 26 21 20 31 20 31
internal_value=-1.04606 -42.1567 62.1872 44.0162 98.1801 -15.3013 -58.1878 85.6168 58.3225 -69.9703 -50.7432 27.4732 21.9257 -4.49405 64.9253 -28.764 -66.6044 -69.6937 45.848 -55.0387 0.48042 -14.178 -37.0984 37.6779 -58.3807 -47.3726 5.7691 59.3506 92.9278 -22.3438 -41.9735 -54.9617 -77.9121 13.3519 -62.5822 -52.0152 -44.3637
internal_weight=962 583 379 252 127 218 365 88 135 141 224 117 76 121 88 97 120 98 47 150 80 41 42 41 104 46 46 60 66 55 74 68 45 41 53 46 54
internal_count=962 583 379 252 127 218 365 88 135 141 224 117 76 121 88 97 120 98 47 150 80 41 42 41 104 46 46 60 66 55 74 68 45 41 53 46 54
is_linear=0
shrinkage=0.05


Tree=2
num_leaves=37
num_cat=0
split_feature=56 55 56 55 0 55 80 80 55 56 56 55 80 80 56 80 55 0 56 80 80 79 75 14 79 80 75 80 80 79 79 46 56 80 56 76
split_gain=8.77683e+08 9.73232e+07 6.74171e+07 2.90878e+07 2.12072e+07 1.23205e+07 9.67993e+06 9.366e+06 6.41068e+06 5.87738e+06 4.92963e+06 4.91821e+06 4.91448e+06 3.91661e+06 3.35566e+06 3.07131e+06 2.92507e+06 2.17509e+06 2.76967e+06 1.75868e+06 1.73901e+06 1.59042e+06 1.46444e+06 1.29857e+06 1.21241e+06 1.17352e+06 1.34034e+06 939903 603370 376651 355758 332479 254647 157995 133500 84867.9
threshold=5352.0000000000009 5502.0000000000009 4559.5000000000009 6726.5000000000009 27.937500000000004 3399.5000000000005 -402.49999999999994 890.00000000000011 6000.5000000000009 5919.5000000000009 4687.0000000000009 5084.5000000000009 -588.02427435411789 9.0000000000000018 4014.0000000000005 -347.99999999999994 3977.0000000000005 28.947916666666668 6502.5000000000009 341.71801363270885 235.03933761360602 -28.499999999999996 3345.759562937063 -0.60785761079279388 14.500000000000002 -503.99999999999994 3571.2936888111894 235.03933761360602 -49.41658004258624 -24.499999999999996 -83.499999999999986 13.500000000000002 5060.5000000000009 -52.999999999999993 3906.075592334495 4017.0000000000005
decision_type=2 2 2 2 2 2 2 2 2 2 2 2 2 2 2 2 2 2 2 2 2 2 2 2 2 2 2 2 2 2 2 2 2 2 2 2
left_child=2 4 5 7 11 13 16 8 19 -6 24 15 -11 25 29 -2 -4 -14 -19 30 31 35 -15 -12 -8 -1 -27 33 -25 -7 -3 -10 -30 -23 -31 -16
right_child=1 3 6 -5 9 14 10 -9 20 12 23 -13 17 22 21 -17 -18 18 -20 -21 -22 27 -24 28 -26 26 -28 -29 32 34 -32 -33 -34 -35 -36 -37
leaf_value=-84.919131090154693 -7.7206323486993611 42.168343231069059 -52.502149151095118 119.27646816695797 25.654560709143695 -58.062858087767076 -33.655751319632145 98.404940978274396 63.459915902795075 28.376175966784725 -13.769131480869149 26.3704074266719 42.329354638246755 -64.972134875934387 -52.816787583080696 16.838027218280811 -26.154900031481986 51.964881986113348 76.416709805890846 65.179607026158919 85.230104884897685 -44.361156676956831 -49.189478595095999 -7.6622869264511841 -17.376191658809265 -77.595634141079216 -61.628602858635283 -27.412741832828047 -1.3204260149043359 -54.72447862359158 52.332246026945349 73.979495998745051 6.28069340425645 -37.88856836884306 -48.457829801304136 -46.068061426267107
leaf_weight=20 32 23 20 37 33 41 21 25 25 20 29 34 20 30 20 21 23 29 21 21 28 21 34 23 26 30 30 20 23 25 20 22 21 36 38 20
leaf_count=20 32 23 20 37 33 41 21 25 25 20 29 34 20 30 20 21 23 29 21 21 28 21 34 23 26 30 30 20 23 25 20 22 21 36 38 20
internal_value=-0.994918 54.2953 -42.2392 79.1605 30.4694 -54.7225 -17.726 70.0427 64.8745 43.8257 -11.4558 11.5578 50.4525 -66.1386 -47.2575 2.02345 -38.5029 56.7104 62.3668 53.0619 74.8704 -41.3527 -56.6775 -4.94969 -24.7062 -73.6271 -69.728 -37.0273 -1.11741 -53.8542 47.0063 68.5307 2.31328 -40.3468 -51.0275 -49.5658
internal_weight=962 411 551 201 210 365 186 164 139 123 143 87 90 144 221 53 43 70 50 64 75 117 64 96 47 80 60 77 67 104 43 47 44 57 63 40
internal_count=962 411 551 201 210 365 186 164 139 123 143 87 90 144 221 53 43 70 50 64 75 117 64 96 47 80 60 77 67 104 43 47 44 57 63 40
is_linear=0
shrinkage=0.05


Tree=3
num_leaves=35
num_cat=0
split_feature=74 74 23 74 74 56 55 79 56 79 79 74 79 79 79 56 55 80 74 55 55 74 74 74 79 79 74 79 79 79 80 74 79 56
split_gain=8.16801e+08 8.22369e+07 8.10111e+07 1.95411e+07 1.45335e+07 1.02886e+07 9.39986e+06 4.75784e+06 4.50205e+06 4.45033e+06 4.08951e+06 3.8045e+06 3.28708e+06 3.1043e+06 2.26417e+06 2.06719e+06 1.84133e+06 1.67382e+06 1.62682e+06 1.44124e+06 1.42924e+06 1.32684e+06 1.21192e+06 1.18689e+06 755545 716132 669468 663573 520416 381048 370217 230131 216882 213864
threshold=5089.0000000000009 4102.0000000000009 31.497062062984437 5813.7032692307703 7107.5000000000009 4866.5000000000009 3469.5000000000005 -39.499999999999993 6624.0000000000009 76.500000000000014 51.30982694135151 6167.0000000000009 -43.213729971782634 -283.55429013017823 -248.64191420156223 3832.5000000000005 3668.6487937062943 86.500000000000014 4804.0000000000009 3171.2361959809336 4539.0000000000009 5521.5000000000009 5521.5000000000009 4375.5000000000009 147.50000000000003 6.4849721630300801 3345.259562937063 -24.499999999999996 68.500000000000014 4.5000000000000009 -270.49999999999994 6722.5000000000009 -32.499999999999993 3990.4135531135539
decision_type=2 2 2 2 2 2 2 2 2 2 2 2 2 2 2 2 2 2 2 2 2 2 2 2 2 2 2 2 2 2 2 2 2 2
left_child=1 6 3 9 8 13 7 19 -4 21 20 12 -5 -3 -13 26 27 -17 -12 30 -7 -2 -11 28 32 -10 -9 -8 -15 -16 -1 -27 -18 -29
right_child=2 5 4 11 -6 10 16 15 25 22 18 14 -14 23 29 17 24 -19 -20 -21 -22 -23 -24 -25 -26 31 -28 33 -30 -31 -32 -33 -34 -35
leaf_value=-82.168257669024001 8.7671621389752605 -42.921901265365818 57.160127058072334 29.167335375789481 114.31996545816017 -20.274563461488107 -54.160528186068063 -65.29283610170846 75.113823606741377 29.286584117604093 -2.7097031506051157 50.091392084557242 54.528461745689654 -31.830715836694225 62.020438947335656 -55.010255363805975 -45.770836309176779 -34.607232431265025 13.61897390470472 -61.971459204167367 -4.7506371378458736 23.641676963299403 44.91119484972598 -13.95131993711535 -29.55219129227914 81.876323582283902 -54.49495746756341 -47.856575887156993 -20.532008475687967 73.233019715873752 -70.211871337890628 92.979685372633568 -38.227161013323737 -40.71098417543277
leaf_weight=21 34 21 22 26 39 33 37 28 22 36 32 38 26 23 25 20 20 22 29 37 27 27 20 33 21 20 45 36 20 20 21 24 33 24
leaf_count=21 34 21 22 26 39 33 37 28 22 36 32 38 26 23 25 20 20 22 29 37 27 27 20 33 21 20 45 36 20 20 21 24 33 24
internal_value=-0.945141 -38.0901 56.1884 39.7512 88.7467 -13.7824 -52.6003 -60.1616 77.2962 24.762 -4.05041 52.714 41.9283 -25.9057 59.4126 -53.5447 -43.9918 -44.4307 5.06261 -69.7139 -13.3084 15.379 34.937 -21.1535 -37.9065 83.9115 -58.7203 -48.5903 -26.6355 67.1552 -76.3712 88.1299 -41.1548 -45.0709
internal_weight=962 583 379 252 127 218 365 194 88 117 121 135 52 97 83 115 171 42 61 79 60 61 56 76 74 66 73 97 43 45 42 44 53 60
internal_count=962 583 379 252 127 218 365 194 88 117 121 135 52 97 83 115 171 42 61 79 60 61 56 76 74 66 73 97 43 45 42 44 53 60
is_linear=0
shrinkage=0.05


Tree=4
num_leaves=37
num_cat=0
split_feature=74 74 74 74 55 53 56 79 79 79 79 79 79 79 79 0 74 74 80 74 79 74 74 74 56 79 55 79 79 80 79 74 74 79 74 79
split_gain=7.3745e+08 7.42449e+07 7.37559e+07 1.38986e+07 1.32512e+07 9.41835e+06 9.28999e+06 9.13338e+06 4.43223e+06 3.69205e+06 3.30888e+06 3.24082e+06 2.8032e+06 2.74961e+06 2.34201e+06 2.26161e+06 1.84012e+06 1.50706e+06 1.47722e+06 1.46873e+06 1.33289e+06 1.1572e+06 1.07187e+06 898991 712839 692987 647889 605367 469823 448232 407976 403205 299793 247018 143220 13966.6
threshold=5089.0000000000009 4102.0000000000009 6428.0000000000009 5641.5000000000009 6726.5000000000009 3624.2857142857147 4866.5000000000009 -62.758374760759573 4.5000000000000009 51.30982694135151 11.500000000000002 -56.999999999999993 -283.55429013017823 -100.99999999999999 308.89356768414069 28.006250000000005 3909.5000000000005 6841.0000000000009 183.50000000000003 4804.0000000000009 -256.734784018065 6043.0000000000009 4375.5000000000009 3416.5000000000005 7028.5000000000009 213.50000000000003 3605.5000000000005 292.50000000000006 68.500000000000014 -113.49999999999999 78.500000000000014 3742.2217587719301 6174.5000000000009 213.50000000000003 3816.5000000000005 85.283199300699394
decision_type=2 2 2 2 2 2 2 2 2 2 2 2 2 2 2 2 2 2 2 2 2 2 2 2 2 2 2 2 2 2 2 2 2 2 2 2
left_child=1 5 3 10 8 13 12 15 17 20 -2 26 -3 29 21 -5 25 -4 23 -11 -8 -9 28 33 -10 31 34 -12 -14 -1 -18 -13 -17 -15 -7 -33
right_child=2 6 4 7 -6 11 9 14 24 19 27 16 22 18 -16 32 30 -19 -20 -21 -22 -23 -24 -25 -26 -27 -28 -29 -30 -31 -32 35 -34 -35 -36 -37
leaf_value=-77.41830028325171 8.8892348612114329 -40.785978214209678 57.585143465398225 19.404527296960602 107.90168614965886 -59.895656780556685 -22.776233380213732 41.541164236741444 77.204917429454298 -2.5746401673165438 23.843226851656588 -50.064022710805766 -30.246070445667613 -67.317250111710095 67.825821913936906 34.355322780856838 -35.156136067708331 74.545539737057382 -44.746600458722469 12.940365344634172 -7.1454065144366927 57.106478610327237 -13.255861614261869 -50.841472318732883 92.653551141385037 -35.73197800793411 -45.39988186900834 35.032722521475534 -19.510515465427986 -64.992300953584561 -25.45969145665714 -44.016451836423755 43.502559620112329 -58.048412970231041 -52.258003479268133 -39.615529773009946
leaf_weight=20 36 21 39 24 37 23 21 24 20 32 30 34 23 27 31 23 29 23 26 29 39 28 33 25 22 26 25 22 20 22 20 24 20 21 23 20
leaf_count=20 36 21 39 24 37 23 21 24 20 32 30 34 23 27 31 23 29 23 26 29 39 28 33 25 22 26 25 22 20 22 20 24 20 21 23 20
internal_value=-0.897918 -36.1925 53.3895 36.3869 82.0426 -49.9796 -13.0961 45.6422 72.7479 -3.84847 20.5768 -43.5608 -24.616 -60.1388 56.7416 31.8281 -39.3969 63.9869 -55.4303 4.81037 -12.6451 50.0161 -20.1002 -59.1689 85.498 -43.1976 -52.4655 28.6355 -25.3098 -71.0794 -31.2584 -45.6372 38.701 -63.3914 -56.1986 -42.1105
internal_weight=962 583 379 238 141 365 218 150 104 121 88 224 97 141 83 67 153 62 99 61 60 52 76 73 42 104 71 52 43 42 49 78 43 48 46 44
internal_count=962 583 379 238 141 365 218 150 104 121 88 224 97 141 83 67 153 62 99 61 60 52 76 73 42 104 71 52 43 42 49 78 43 48 46 44
is_linear=0
shrinkage=0.05


Tree=5
num_leaves=36
num_cat=0
split_feature=74 74 74 74 74 74 74 23 55 23 23 80 55 56 56 0 78 56 74 80 56 14 92 54 80 80 56 30 80 78 55 56 0 74 75
split_gain=6.9513e+08 7.52814e+07 6.43739e+07 1.45786e+07 1.37896e+07 1.00568e+07 5.64311e+06 4.57276e+06 4.31555e+06 3.3583e+06 2.72487e+06 2.26798e+06 1.80846e+06 1.7592e+06 1.20387e+06 1.16801e+06 1.15617e+06 1.00878e+06 981007 945009 925668 892515 614205 578056 545101 487609 483503 447157 351313 324654 222549 218107 213867 65770.9 44730.1
threshold=5089.0000000000009 6428.0000000000009 4170.4877797202807 7476.5000000000009 5813.7032692307703 3805.0000000000005 4684.5000000000009 30.284124070412126 3171.2361959809336 28.612933470077849 27.127516404022909 183.50000000000003 5084.5000000000009 7013.0000000000009 4114.2010314685322 27.243750000000002 5874.0000000000009 6400.0000000000009 5483.0000000000009 -515.41089160839158 4802.0000000000009 -0.60785761079279388 0.30901699437492119 307.62829740220644 86.500000000000014 62.496585244024125 3935.5000000000005 0.064583333333331452 -90.499999999999986 3883.5000000000005 3855.0000000000005 3996.9135531135539 32.272916666666674 3616.426101398602 3822.0000000000005
decision_type=2 2 2 2 2 2 2 2 2 2 2 2 2 2 2 2 2 2 2 2 2 2 2 2 2 2 2 2 2 2 2 2 2 2 2
left_child=2 4 5 7 10 8 20 -3 11 16 12 19 -2 -9 31 23 -6 -11 -12 -1 25 -10 -22 -8 30 -4 33 -19 -28 -21 -16 -7 -15 -23 -33
right_child=1 3 6 -5 9 14 15 13 21 17 18 -13 -14 32 24 -17 -18 27 -20 29 22 26 -24 -25 -26 -27 28 -29 -30 -31 -32 34 -34 -35 -36
leaf_value=-75.286955359919148 6.7130424601327476 53.233599017625785 -28.755270570697206 112.08545911415075 27.007765129053197 -45.091842429208576 -1.6236559541816389 68.294882746117352 -55.023177159389604 44.49003237538129 23.411111334690531 -45.767356147576329 23.578234174373662 79.89456106405764 -38.851330870201146 6.9792048313520922 44.124987565225638 50.449982387865361 36.61060097197182 -55.281689938976996 -19.560993116846717 -49.730024578446461 -8.5217856479306935 -11.958077126282911 -25.423593016544661 -19.303028844951619 -45.296287817504279 61.143195242336425 -35.119944041997044 -64.884250511951393 -31.451260642055093 -40.945528957855089 89.760375340176992 -44.951690329111301 -36.089296626631835
leaf_weight=20 28 25 23 30 21 26 35 33 32 25 25 20 37 32 22 27 20 20 35 20 24 40 27 22 25 37 20 34 20 36 28 21 21 30 23
leaf_count=20 28 25 23 30 21 26 35 33 32 25 25 20 37 32 22 27 20 20 35 20 24 40 27 22 25 37 20 34 20 36 28 21 21 30 23
internal_value=-0.0506643 51.8976 -34.7457 80.9998 35.1227 -46.65 -11.3526 72.5049 -52.9884 47.2317 23.4697 -61.2559 16.3348 78.0387 -36.2168 -1.57107 35.4448 53.2963 31.159 -65.2662 -18.7468 -47.36 -13.7449 -5.62642 -31.6982 -22.9683 -45.0827 57.2834 -40.3085 -61.5595 -34.7784 -41.006 83.9654 -47.7493 -38.4947
internal_weight=964 386 578 141 245 383 195 111 238 120 125 96 65 86 145 84 41 79 60 76 111 142 51 57 75 60 110 54 40 56 50 70 53 70 44
internal_count=964 386 578 141 245 383 195 111 238 120 125 96 65 86 145 84 41 79 60 76 111 142 51 57 75 60 110 54 40 56 50 70 53 70 44
is_linear=0
shrinkage=0.05


Tree=6
num_leaves=39
num_cat=0
split_feature=53 23 53 56 55 53 23 55 56 80 80 80 55 80 54 56 80 55 80 92 62 80 14 80 92 55 53 84 6 14 80 80 69 61 55 80 56 53
split_gain=6.1601e+08 6.45634e+07 5.98116e+07 1.56195e+07 1.39547e+07 1.05165e+07 7.05735e+06 5.10682e+06 3.89093e+06 3.30332e+06 2.91428e+06 2.25476e+06 2.23291e+06 1.54766e+06 2.16743e+06 1.51783e+06 1.41454e+06 1.15546e+06 1.21641e+06 1.09335e+06 1.03846e+06 929857 853454 526061 489350 487596 469156 452171 389651 363022 239060 220311 207332 184575 171462 162014 127896 26414.5
threshold=5145.2857142857147 31.497062062984437 4221.857142857144 7464.5000000000009 5485.5000000000009 3731.3959635076144 26.577196492495261 4389.0000000000009 6624.0000000000009 -125.99999999999999 -408.99999999999994 270.13125400641053 5084.5000000000009 -280.99999999999994 442.24791871532915 3742.3057127346342 206.50000000000003 6113.0000000000009 381.94923560662215 0.30901699437496405 412.00328461071052 224.50000000000003 -0.60785761079279388 235.03933761360602 -0.30901699437487445 4609.0000000000009 3965.5714285714289 -0.22252093395629277 134.64583333333337 -0.60785761079279388 -109.49999999999999 -73.499999999999986 20.100892857142863 3615.483333333334 5314.5000000000009 -42.823640505835549 7068.5000000000009 3447.5698941078485
decision_type=2 2 2 2 2 2 2 2 2 2 2 2 2 2 2 2 2 2 2 2 2 2 2 2 2 2 2 2 2 2 2 2 2 2 2 2 2 2
left_child=2 4 5 8 6 10 12 9 -3 19 -1 22 -2 -8 -15 28 25 18 24 -4 27 29 31 -10 -6 -9 32 -11 37 -17 -28 -7 35 -31 -14 -24 -25 -12
right_child=1 3 7 -5 17 11 13 16 23 20 15 -13 34 14 -16 21 -18 -19 -20 -21 -22 -23 26 36 -26 -27 30 -29 -30 33 -32 -33 -34 -35 -36 -37 -38 -39
leaf_value=-68.047802393939875 4.0345789678867492 49.554836416427207 -32.049937565698976 104.66973761611096 46.110130427433894 -48.209830000388685 25.921387141003869 -9.4158382836874406 65.222437186262724 -18.663096594909415 -54.35937103705384 -22.541456872680257 18.117059637420805 32.130778768487566 53.25436774865905 -54.487422939499403 10.875215363502502 57.514583241747893 55.815822711394198 -17.024092693238462 -1.548937013492373 -37.040981747391484 -43.517783821761881 71.21398555319108 35.025564363818141 0.75757519219426195 -34.914085820895522 -8.8957109485177082 -59.838726531884305 -49.816251627604174 -26.711986429657415 -39.805013886188497 -33.060564578231883 -42.698986836031708 24.995193192970692 -36.587604367685508 80.206262061130474 -48.980186383372761
leaf_weight=25 33 26 30 38 22 20 31 23 22 24 21 30 20 33 20 21 23 31 20 21 27 27 22 20 23 24 20 24 31 23 21 22 20 31 20 25 25 25
leaf_count=25 33 26 30 38 22 20 31 23 22 24 21 30 20 33 20 21 23 31 20 21 27 27 22 20 23 24 20 24 31 23 21 22 20 31 20 25 25 25
internal_value=-0.0483976 49.0661 -32.5684 77.5539 34.2907 -44.0376 25.081 -10.0872 66.3737 -16.0989 -51.8255 -35.1874 13.6814 34.9597 40.1873 -49.5231 0.741358 49.3105 45.3154 -25.9083 -9.40284 -45.3693 -37.6998 72.8168 40.535 -4.23022 -35.2454 -13.8082 -54.9595 -48.3141 -30.7883 -43.9124 -37.9228 -45.817 21.61 -39.9171 76.3766 -51.5486
internal_weight=964 384 580 131 253 384 157 196 93 126 204 180 73 84 53 179 70 96 65 51 75 102 150 67 45 47 108 48 77 75 41 42 67 54 40 47 45 46
internal_count=964 384 580 131 253 384 157 196 93 126 204 180 73 84 53 179 70 96 65 51 75 102 150 67 45 47 108 48 77 75 41 42 67 54 40 47 45 46
is_linear=0
shrinkage=0.05


Tree=7
num_leaves=37
num_cat=0
split_feature=74 74 74 74 74 53 79 79 79 79 74 79 79 79 74 55 80 74 79 79 74 74 79 79 74 74 74 74 74 85 79 79 79 79 79 74
split_gain=5.67457e+08 6.17522e+07 5.25394e+07 1.20631e+07 1.12795e+07 8.76847e+06 6.33141e+06 5.42865e+06 3.97361e+06 3.74364e+06 3.6822e+06 3.2783e+06 2.36951e+06 1.58221e+06 1.52246e+06 1.4276e+06 1.28775e+06 1.24851e+06 1.13745e+06 1.09854e+06 1.00067e+06 940707 936605 894478 796572 531563 505714 442391 301625 271147 252289 228896 222174 181594 107848 72262.9
threshold=5089.0000000000009 6428.0000000000009 4170.4877797202807 7476.5000000000009 5813.7032692307703 3731.3959635076144 -296.99999999999994 -119.49999999999999 60.500000000000007 -133.471413170163 4674.0000000000009 -91.499999999999986 -32.499999999999993 269.50000000000006 6698.0000000000009 3171.2361959809336 169.00000000000003 5379.5000000000009 47.500000000000007 289.50000000000006 6815.5000000000009 3395.3994425087112 -157.6900173611111 160.43872170512398 3856.5000000000005 3862.0000000000005 6167.0000000000009 4463.5000000000009 6975.0000000000009 0.43388373911754657 302.50000000000006 173.50000000000003 -32.499999999999993 104.50000000000001 116.50000000000001 4017.0000000000005
decision_type=2 2 2 2 2 2 2 2 2 2 2 2 2 2 2 2 2 2 2 2 2 2 2 2 2 2 2 2 2 2 2 2 2 2 2 2
left_child=2 4 5 9 8 11 -4 -6 22 20 18 15 25 26 -11 -1 21 -10 27 24 -3 31 -2 32 33 -7 -9 -8 -16 -20 -19 -13 -12 -14 -23 -26
right_child=1 3 6 -5 7 12 10 13 17 14 23 16 19 -15 28 -17 -18 30 29 -21 -22 34 -24 -25 35 -27 -28 -29 -30 -31 -32 -33 -34 -35 -36 -37
leaf_value=-65.147689506951281 6.1615920830367141 44.656446861153221 -30.559522953211708 101.52152042832486 27.207045150717814 -49.308790393124262 -24.678266777683845 39.693718559011764 20.557826629242339 62.329282984240301 -5.8505062070058953 -57.389342704551353 -40.794375040521267 60.43571414874431 72.839880426329188 -49.427125780168936 -36.635791653121579 30.936034184546017 -3.4501431460404279 -19.336514412229928 61.103735825235816 -45.334901566938925 18.477871825766325 10.256061107243887 -30.835341483514426 -38.656658276164308 50.006139094125338 -14.138886416466878 83.978838973239533 -11.211931145328215 39.608043856644514 -48.658189471638039 0.7784545056631138 -33.426870408698697 -39.328532295796407 -26.652227817980993
leaf_weight=38 32 20 32 30 39 21 20 27 23 26 20 24 24 26 22 27 37 20 20 20 21 34 30 22 26 36 28 21 22 26 20 21 34 20 20 35
leaf_count=38 32 20 32 30 39 21 20 27 23 26 20 24 24 26 22 27 37 20 20 20 21 34 30 22 26 36 28 21 22 26 20 21 34 20 20 35
internal_value=-0.0462526 46.8896 -31.3936 73.2473 31.6967 -42.1481 -10.2599 42.6483 21.1576 65.5211 -6.25839 -49.3636 -34.1567 50.0401 72.6462 -58.7036 -44.8597 29.9973 -13.2762 -30.2478 53.209 -47.8931 12.1413 1.78199 -32.3058 -42.6607 45.025 -19.3277 78.5873 -7.85215 35.3601 -53.4318 -1.6829 -37.529 -43.1872 -28.4828
internal_weight=964 386 578 141 245 383 195 120 125 111 163 201 182 81 70 65 136 63 87 125 41 99 62 76 105 57 55 41 44 46 40 45 54 44 54 61
internal_count=964 386 578 141 245 383 195 120 125 111 163 201 182 81 70 65 136 63 87 125 41 99 62 76 105 57 55 41 44 46 40 45 54 44 54 61
is_linear=0
shrinkage=0.05


Tree=8
num_leaves=37
num_cat=0
split_feature=74 74 74 74 74 53 79 79 79 79 74 79 79 56 79 54 74 79 79 53 0 79 79 74 74 74 79 74 74 79 79 74 65 79 79 74
split_gain=5.12337e+08 5.57571e+07 4.74343e+07 1.091e+07 1.01825e+07 7.91565e+06 5.71572e+06 4.90197e+06 3.5884e+06 3.58554e+06 3.32477e+06 2.95883e+06 2.13908e+06 1.72168e+06 1.44099e+06 1.3778e+06 1.12748e+06 1.02995e+06 991657 990412 1.05059e+06 856144 807663 719539 480385 415683 309304 303152 250768 227803 200613 186297 177493 163866 120969 65302.1
threshold=5089.0000000000009 6428.0000000000009 4170.4877797202807 7397.5000000000009 5813.7032692307703 3731.3959635076144 -296.99999999999994 -119.49999999999999 60.500000000000007 -205.01068181818184 4674.0000000000009 -91.499999999999986 -32.499999999999993 6922.5000000000009 169.50000000000003 268.60677780902387 5379.5000000000009 75.735545357420065 289.50000000000006 3462.5259666112347 23.135416666666668 -215.24065972222226 160.43872170512398 3856.5000000000005 3862.0000000000005 4463.5000000000009 199.50000000000003 6167.0000000000009 4447.5000000000009 302.50000000000006 -32.499999999999993 3616.426101398602 4201.8333333333339 104.50000000000001 115.50000000000001 4017.0000000000005
decision_type=2 2 2 2 2 2 2 2 2 2 2 2 2 2 2 2 2 2 2 2 2 2 2 2 2 2 2 2 2 2 2 2 2 2 2 2
left_child=2 4 5 9 8 11 -4 -6 21 -3 17 15 24 -11 27 -1 -10 25 23 32 31 -2 30 33 -7 -8 -15 -9 -19 -18 -12 34 -13 -14 -21 -25
right_child=1 3 6 -5 7 12 10 14 16 13 22 19 18 26 -16 -17 29 28 -20 20 -22 -23 -24 35 -26 -27 -28 -29 -30 -31 -32 -33 -34 -35 -36 -37
leaf_value=-48.87745371472473 3.861896945078136 47.424908350412721 -29.036306943328952 94.889686662841058 25.850171967723487 -46.855035660730152 -23.100979860134032 36.092575087705491 19.53438509986514 56.727596543118409 -5.559436247182723 -52.185516430372267 -38.763119848734121 68.52335986598392 54.614067729354815 -64.144974604341172 29.396927881952543 -10.638550181203072 -18.374498304205744 -47.106385808853211 -29.01828939143698 16.040559086226441 9.7455783395206215 -29.299481458408163 -36.729179369643788 -13.242824088753043 78.778623321665322 45.455902331022294 -2.9702872029584437 37.637494534165107 0.73964587600350029 -37.830342371323532 -44.47484217639218 -31.763842317951259 -40.619345078310133 -25.323412955520503
leaf_weight=36 23 32 32 33 39 21 21 21 23 26 20 25 24 27 39 29 20 23 20 27 20 39 22 26 36 23 23 21 20 20 34 22 21 20 21 35
leaf_count=36 23 32 32 33 39 21 21 21 23 26 20 25 24 27 39 29 20 23 20 27 20 39 22 26 36 23 23 21 20 20 34 22 21 20 21 35
internal_value=-0.0436309 44.5544 -29.8297 69.6001 30.1179 -40.0483 -9.74894 40.5232 20.1043 61.792 -5.94696 -46.9039 -32.4554 67.771 47.5474 -55.7773 28.5047 -12.6155 -28.7415 -42.6251 -39.4338 11.5362 1.69323 -30.6967 -40.5354 -17.9897 73.3887 40.8712 -7.0872 33.6009 -1.59922 -42.3639 -48.7696 -35.661 -44.3588 -27.0634
internal_weight=964 386 578 141 245 383 195 120 125 108 163 201 182 76 81 65 63 87 125 136 90 62 76 105 57 44 50 42 43 40 54 70 46 44 48 61
internal_count=964 386 578 141 245 383 195 120 125 108 163 201 182 76 81 65 63 87 125 136 90 62 76 105 57 44 50 42 43 40 54 70 46 44 48 61
is_linear=0
shrinkage=0.05


Tree=9
num_leaves=36
num_cat=0
split_feature=74 74 74 74 53 74 23 74 55 74 53 23 53 74 0 23 55 55 14 0 27 29 85 73 55 91 30 61 6 20 86 14 55 74 17
split_gain=4.62564e+08 5.05714e+07 4.28267e+07 1.43411e+07 7.15343e+06 5.91678e+06 3.8591e+06 3.84139e+06 2.18688e+06 1.6855e+06 1.58105e+06 1.48573e+06 1.12705e+06 984190 843243 767801 733737 711145 693435 608986 600216 512239 481555 425525 404452 355078 258464 184500 136345 135564 113242 113183 104200 50627.4 28262.4
threshold=5089.0000000000009 6698.0000000000009 4170.4877797202807 6056.0000000000009 3737.678043746128 7476.5000000000009 26.755250026193952 4684.5000000000009 5191.0000000000009 5621.0000000000009 3462.5259666112347 30.251281532818066 6792.357142857144 3680.4537326388895 27.243750000000002 23.768999875906236 3182.3112326388896 3794.5000000000005 -0.60785761079279388 26.454166666666669 9.688479166666669 0.45833333333333309 -0.43388373911754297 81.486607142857153 4389.0000000000009 0.58778525229243328 0.7166666666666669 4211.3833333333341 148.66666666666671 -0.62588817255938378 -0.22252093395603958 -0.60785761079279388 3746.5241258741266 3616.426101398602 0.25000000000000011
decision_type=2 2 2 2 2 2 2 2 2 2 2 2 2 2 2 2 2 2 2 2 2 2 2 2 2 2 2 2 2 2 2 2 2 2 2
left_child=2 3 4 6 10 12 8 17 23 -8 28 25 -3 -6 24 16 -12 -4 32 22 -20 29 -19 -2 -9 -5 -11 -22 34 -13 -24 -18 -15 -33 -1
right_child=1 5 7 11 13 -7 9 14 -10 26 15 21 -14 18 -16 -17 31 19 20 -21 27 -23 30 -25 -26 -27 -28 -29 -30 -31 -32 33 -34 -35 -36
leaf_value=-45.672331573359706 0.91320281322533481 58.43221967602026 -22.805017977406777 41.762142620515981 -39.562823542633623 91.733585253744025 20.836565871751841 -10.136236584921019 23.05236137144027 31.51737078610239 -51.258044295505158 49.507823434260217 72.063205383871207 -37.545173406374964 6.0715428883739069 -31.660799981112504 -44.388978847487152 -21.351859068767332 -21.319903281203704 -5.4967142530934723 -32.275172446052572 55.746163273953847 -9.5974860200384793 11.095838544143373 -1.4130082112806654 32.559844454485379 39.170982547259442 -26.831346426961371 -54.135288094946389 42.284143760645001 -14.854933549699737 -41.119170533871717 -31.463785822474541 -37.076978889061287 -50.861687335696836
leaf_weight=24 21 38 25 31 27 30 38 21 34 32 22 21 32 21 27 20 23 23 35 20 35 26 21 20 36 20 22 39 27 21 22 37 20 32 21
leaf_count=24 21 38 25 31 27 30 38 21 34 32 22 21 32 21 27 20 23 23 35 20 35 26 21 20 36 20 22 39 27 21 22 37 20 32 21
internal_value=-0.0417127 42.3347 -28.344 31.6139 -38.0536 72.9339 22.1404 -9.2634 13.6936 29.004 -44.402 44.8788 64.7575 -30.6442 -1.19317 -41.0908 -42.716 -15.364 -29.0136 -13.1769 -26.8589 49.8061 -15.4923 5.89538 -4.63904 38.2243 34.7022 -29.4463 -50.4988 46.0051 -12.3157 -40.6198 -34.6625 -39.301 -48.2015
internal_weight=964 386 578 286 383 100 167 195 75 92 206 119 70 177 84 134 114 111 150 86 109 68 66 41 57 51 54 74 72 42 43 92 41 69 45
internal_count=964 386 578 286 383 100 167 195 75 92 206 119 70 177 84 134 114 111 150 86 109 68 66 41 57 51 54 74 72 42 43 92 41 69 45
is_linear=0
shrinkage=0.05


Tree=10
num_leaves=35
num_cat=0
split_feature=74 53 74 74 74 53 23 23 74 74 55 14 74 14 53 74 91 23 69 64 82 47 56 56 14 85 55 14 53 88 56 23 1 61
split_gain=3.96236e+08 4.04181e+07 3.98421e+07 1.24278e+07 5.93019e+06 5.49212e+06 5.28872e+06 4.85559e+06 2.16135e+06 1.97478e+06 1.45185e+06 1.20123e+06 1.32645e+06 1.19777e+06 1.09113e+06 726678 685545 665933 617905 589565 520836 379697 357622 317304 305449 276491 260030 254286 242119 190306 185366 172596 103568 62044.9
threshold=5107.5000000000009 4110.5714285714294 6167.0000000000009 7397.5000000000009 4578.5000000000009 3670.6366448054828 26.433369193980631 30.320030191892368 5641.5000000000009 6722.5000000000009 5084.5000000000009 -0.8783796973249266 4954.0000000000009 -0.60785761079279388 3462.5259666112347 4005.0000000000005 0.58778525229244749 29.023459942985298 30.09553571428572 5252.0000000000009 -0.90096886790235697 18.500000000000004 6274.5000000000009 4998.0000000000009 -0.60785761079279388 -9.6014784975698833e-14 3182.3112326388896 1.0000000180025095e-35 3265.4122735302071 0.10452846326763507 7183.5000000000009 24.04699239487304 67.770833333333357 4172.1666666666679
decision_type=2 2 2 2 2 2 2 2 2 2 2 2 2 2 2 2 2 2 2 2 2 2 2 2 2 2 2 2 2 2 2 2 2 2
left_child=1 5 6 7 13 14 10 16 18 25 -2 -6 23 -3 28 24 -4 -10 -8 -15 -16 26 -19 -13 -7 -9 -22 -17 -1 33 -11 -25 -30 -26
right_child=2 4 3 -5 11 15 8 9 17 30 -12 12 -14 19 20 27 -18 22 -20 -21 21 -23 -24 31 29 -27 -28 -29 32 -31 -32 -33 -34 -35
leaf_value=-53.048994003229851 1.2260050959606883 -27.200825416591158 42.545754843263239 85.060196946863329 -12.517622422362884 -37.004667980922257 25.285916826094706 53.568630127888525 27.818218810287949 58.933402136600378 16.932023216608002 -8.3143323550292099 10.026791493371984 -10.680536933215159 -34.345112913540845 -29.339687945733921 30.791138319535687 33.290208562721773 13.469001526619071 -19.930456479006303 -49.633405330525108 -35.76349909009032 42.682680100661059 -3.5935009553423671 -30.767949277756799 45.256931682328741 -41.606488373523625 -21.86068156742958 -48.431021924950613 -34.081380788505534 67.272819671067808 2.4379879635092205 -42.099315422745121 -26.568805162834394
leaf_weight=23 24 29 32 30 22 35 26 26 29 23 38 21 26 37 33 24 23 25 20 33 20 20 22 27 33 28 38 26 26 39 27 21 21 23
leaf_count=23 24 29 32 30 22 35 26 26 29 23 38 21 26 37 33 24 23 25 20 33 20 20 22 27 33 28 38 26 26 39 27 21 21 23
internal_value=-0.795711 -26.7569 39.3605 55.482 -9.64285 -36.9914 22.7798 49.8513 28.8214 56.2376 10.8641 -2.01806 0.42397 -18.6428 -43.1602 -30.7678 37.6951 34.013 20.1886 -15.0635 -39.9507 -42.2752 37.7681 -3.20369 -32.7719 49.3506 -44.4551 -25.5021 -48.1853 -31.1751 63.5621 -0.955038 -45.6975 -29.0938
internal_weight=950 577 373 189 216 361 184 159 122 104 62 117 95 99 181 180 55 76 46 70 111 78 47 69 130 54 58 50 70 95 50 48 47 56
internal_count=950 577 373 189 216 361 184 159 122 104 62 117 95 99 181 180 55 76 46 70 111 78 47 69 130 54 58 50 70 95 50 48 47 56
is_linear=0
shrinkage=0.05


Tree=11
num_leaves=37
num_cat=0
split_feature=74 53 74 74 53 74 74 23 23 80 75 80 55 60 14 74 80 56 80 23 56 75 80 80 80 56 75 80 74 0 82 56 80 75 80 75
split_gain=3.57741e+08 3.65813e+07 3.60239e+07 1.09596e+07 5.95418e+06 4.51679e+06 4.07286e+06 2.95428e+06 2.90136e+06 1.89137e+06 1.76301e+06 1.3724e+06 1.30935e+06 1.15996e+06 1.10587e+06 1.16786e+06 1.10341e+06 1.05878e+06 1.01041e+06 937330 719578 663334 646770 642122 598102 356844 354103 340115 330558 312618 242591 225397 224933 111585 70775.1 11198.3
threshold=5107.5000000000009 4203.913173500282 6722.5000000000009 5965.0000000000009 3670.6366448054828 7397.5000000000009 4578.5000000000009 26.87613141945118 29.178139175556826 -257.2809749396942 3523.0298776223781 62.496585244024125 5268.0000000000009 5904.5000000000009 -0.8783796973249266 4954.0000000000009 -402.49999999999994 4242.0000000000009 86.500000000000014 32.733692242045372 6420.5000000000009 3955.0000000000005 235.03933761360602 15.262742988718403 -52.999999999999993 4687.0000000000009 3300.0492253787884 -113.49999999999999 3996.9135531135539 26.614583333333336 -0.22252093395611033 6688.0000000000009 -236.49999999999997 3822.0000000000005 -95.987833386126098 3664.5000000000005
decision_type=2 2 2 2 2 2 2 2 2 2 2 2 2 2 2 2 2 2 2 2 2 2 2 2 2 2 2 2 2 2 2 2 2 2 2 2
left_child=1 4 3 7 9 19 16 12 23 -1 22 21 -2 -9 -8 29 -3 33 35 -4 -10 34 26 -5 -22 -18 -11 -15 32 30 -16 -26 -23 -13 -6 -12
right_child=2 6 5 8 11 -7 14 13 20 10 18 17 -14 27 15 -17 25 -19 -20 -21 24 28 -24 -25 31 -27 -28 -29 -30 -31 -32 -33 -34 -35 -36 -37
leaf_value=-51.785188521667664 4.9329550899203172 -23.709706082745132 48.154665807418496 22.469026767685119 -39.247600045588342 80.82131629512952 -11.894573367882636 14.429981084386654 34.705568547035334 -52.806577187102306 -38.867928435265803 -28.47101532574176 20.184682833986585 25.062404501008857 -8.7921737559430024 9.5273726039462598 -15.376844691878313 -13.148348021625878 -24.844557722683611 61.768006540533747 38.496797670390272 -34.203326783065535 -37.213180736526553 34.751216922589201 44.965759347499102 -6.5178298995269479 -43.074554029973854 32.902400645990483 -23.900319779787026 2.3316669924342217 -1.6762305892796154 52.812254994125659 -26.859467651945717 -23.344320302664951 -34.136698772810483 -35.16332008051117
leaf_weight=34 39 32 23 25 21 30 22 20 20 22 27 36 22 36 23 26 27 20 26 38 22 29 25 20 26 20 25 26 26 20 25 26 21 21 27 22
leaf_count=34 39 32 23 25 21 30 22 20 20 22 27 36 22 36 23 26 27 20 26 38 22 29 25 20 26 20 25 26 26 20 25 26 21 21 27 22
internal_value=-0.75598 -25.4239 37.3998 28.5551 -34.4172 64.7472 -7.79769 18.8157 38.554 -41.0106 -38.485 -28.4623 10.4577 25.0129 -1.83042 0.535104 -16.5463 -23.1473 -33.0078 56.7224 43.5747 -31.7413 -44.1367 27.9928 45.9217 -11.629 -47.7325 28.3979 -28.7235 -2.91198 -5.09725 48.9829 -31.1788 -26.6265 -36.4498 -37.2797
internal_weight=950 577 373 282 382 91 195 143 139 181 147 201 61 82 116 94 79 77 75 61 94 124 72 45 74 47 47 62 76 68 48 52 50 57 48 49
internal_count=950 577 373 282 382 91 195 143 139 181 147 201 61 82 116 94 79 77 75 61 94 124 72 45 74 47 47 62 76 68 48 52 50 57 48 49
is_linear=0
shrinkage=0.05


Tree=12
num_leaves=35
num_cat=0
split_feature=53 23 53 56 23 53 79 53 55 56 55 79 80 79 80 80 80 80 80 56 80 80 81 55 69 53 79 4 56 80 55 61 79 75
split_gain=3.18005e+08 3.39201e+07 3.3871e+07 8.00175e+06 7.99229e+06 5.3757e+06 3.80304e+06 2.75701e+06 2.45634e+06 2.28242e+06 2.13623e+06 1.97313e+06 1.51045e+06 1.2584e+06 1.23679e+06 1.20532e+06 1.14263e+06 1.08784e+06 836977 813894 765927 710756 670591 533560 416629 412646 370440 359476 281596 283094 219336 158414 124226 44746
threshold=5145.2857142857147 31.36391183254619 4203.913173500282 7429.5000000000009 26.483866887376657 3670.6366448054828 14.500000000000002 5973.9285714285716 4148.5000000000009 6624.0000000000009 5268.0000000000009 -112.1210608488734 381.94923560662215 -179.99999999999997 66.413553113553249 387.16957747515681 -137.49999999999997 -359.99999999999994 -121.49999999999999 3822.2590701754389 274.00000000000006 356.00000000000006 0.43388373911756867 4445.5000000000009 29.066071428571433 4768.6428571428578 78.500000000000014 46.083333333333336 3990.4135531135539 -151.49999999999997 3331.3266202090595 4399.4833333333345 146.25131118881112 4048.5000000000005
decision_type=2 2 2 2 2 2 2 2 2 2 2 2 2 2 2 2 2 2 2 2 2 2 2 2 2 2 2 2 2 2 2 2 2 2
left_child=2 4 5 9 10 11 8 21 16 -3 17 18 23 -7 30 22 -4 -2 -1 -16 28 24 27 31 -6 -10 -11 -9 -15 -30 32 -8 -13 -31
right_child=1 3 6 -5 7 13 12 15 25 26 -12 14 -14 20 19 -17 -18 -19 -20 -21 -22 -23 -24 -25 -26 -27 -28 -29 29 33 -32 -33 -34 -35
leaf_value=-55.369454394288326 -2.5688802189297149 36.25236379739939 -29.61326156555419 75.211482506106805 23.627328568771173 -35.444041915852431 -9.7092025774096999 34.724105318743192 -11.81515931522145 49.097859779421313 20.877461307214467 -45.804472297934161 10.654114122754073 -30.238769937184532 -34.771538576652048 47.023881993839403 -13.474299597858789 12.511310302078453 -41.987556782984008 -21.870160224534807 -17.475203175392014 30.106279689046591 39.907478123581761 2.7994539098367435 13.957575820474062 -2.8602062498641554 57.755058220407811 25.620584242778136 -28.444500084606279 -23.899386814041357 -36.178541532672064 -3.9246055058935134 -38.81862190208625 -20.325457519322484
leaf_weight=20 26 31 25 37 24 37 22 20 22 36 33 20 25 42 30 20 20 22 36 22 28 22 24 22 22 31 29 29 39 35 33 26 20 20
leaf_count=20 26 31 25 37 24 37 22 20 22 36 33 20 25 42 30 20 20 22 36 22 28 22 24 22 22 31 29 29 39 35 33 26 20 20
internal_value=-0.718428 35.0977 -24.0788 55.3788 23.9332 -32.7029 -7.00118 30.3769 -13.9063 47.6646 11.1035 -38.9679 0.129081 -27.0447 -35.3989 35.988 -22.4863 4.35441 -46.8571 -29.3658 -25.1293 22.6614 32.9042 -3.63962 19.0431 -6.5927 53.0432 29.3996 -26.6911 -25.0755 -39.6504 -6.59066 -42.4172 -22.6391
internal_weight=950 375 575 133 242 382 193 161 98 96 81 181 95 201 125 93 45 48 56 52 164 68 73 70 46 53 65 49 136 94 73 48 40 55
internal_count=950 375 575 133 242 382 193 161 98 96 81 181 95 201 125 93 45 48 56 52 164 68 73 70 46 53 65 49 136 94 73 48 40 55
is_linear=0
shrinkage=0.05


Tree=13
num_leaves=36
num_cat=0
split_feature=74 74 74 74 79 79 79 79 74 79 55 74 74 74 79 79 79 79 79 74 74 74 74 79 74 56 74 79 74 56 79 79 79 55 79
split_gain=2.92034e+08 2.98819e+07 2.97534e+07 8.97289e+06 5.45127e+06 4.27258e+06 4.16994e+06 4.15486e+06 3.7313e+06 2.60988e+06 2.50313e+06 2.35191e+06 1.82251e+06 1.47657e+06 1.39355e+06 1.3256e+06 1.16871e+06 822684 814685 666247 651853 599184 548856 485768 463170 432729 285141 218990 190126 181070 159063 66402.9 65136.5 30135.4 12334.5
threshold=5107.5000000000009 4113.5000000000009 6722.5000000000009 5965.0000000000009 14.500000000000002 136.00000000000003 -165.49999999999997 -37.499999999999993 7397.5000000000009 -412.49999999999994 3110.4630944055948 3729.0249979898153 4578.5000000000009 4513.0000000000009 -165.49999999999997 -199.49999999999997 219.21304195804194 253.00000000000003 223.50000000000003 3511.2462020905928 5621.0000000000009 6345.0000000000009 5621.0000000000009 155.50000000000003 3805.0000000000005 3906.075592334495 4850.5000000000009 158.50000000000003 3891.0000000000005 7190.5000000000009 -229.49999999999997 98.186713286713044 19.500000000000004 3423.0000000000005 54.204274688725953
decision_type=2 2 2 2 2 2 2 2 2 2 2 2 2 2 2 2 2 2 2 2 2 2 2 2 2 2 2 2 2 2 2 2 2 2 2
left_child=1 7 3 5 9 14 -5 10 15 -3 -1 17 27 -11 -2 -4 21 19 -14 -9 -7 32 -16 28 33 -19 -15 -6 -13 -17 -26 -21 -8 -12 -30
right_child=2 4 8 6 12 20 16 11 -10 13 24 23 18 26 22 29 -18 25 -20 31 -22 -23 -24 -25 30 -27 -28 -29 34 -31 -32 -33 -34 -35 -36
leaf_value=-49.52217555521699 2.0055629660307139 -31.711586989271694 40.727738742918767 20.848711836246579 -11.03504872732033 22.841069441043359 29.697563224526778 -40.631352598069299 73.253085175067483 -20.637347020267359 -40.008975916185818 -26.532504641253425 1.6097989218754407 -10.396491532311762 10.390871305891737 52.281692975551927 48.84701680711045 -31.944145863091762 14.06196349034855 -33.23595757238644 33.900249003176867 42.011809282210862 20.798269507998512 -14.975150780224689 -34.368277114184927 -21.78743584773455 -3.3473366345957931 -4.036975331946369 -22.421696247986706 61.064464906910757 -27.890270474797042 -28.761671340119292 34.857777928594331 -35.693646795099433 -19.710387515547264
leaf_weight=39 34 21 21 39 22 33 20 33 30 33 24 33 38 34 29 20 29 20 20 29 24 31 23 22 20 25 25 23 21 20 28 24 20 23 20
leaf_count=39 34 21 21 39 22 33 20 33 30 33 24 33 38 34 29 20 29 20 20 29 24 31 23 22 20 25 25 23 21 20 28 24 20 23 20
internal_value=-0.682636 -22.9703 33.7915 25.7534 -8.25504 16.941 34.8007 -31.7703 58.6449 -15.8335 -38.774 -27.6207 0.0663928 -12.1786 9.88634 51.3523 40.2157 -31.9922 5.92055 -34.904 27.5489 36.6264 15.0253 -21.6282 -34.3141 -26.3625 -7.42036 -7.47525 -23.5832 56.8145 -30.6554 -31.2679 32.3583 -37.9776 -21.1504
internal_weight=950 577 373 282 216 143 139 361 91 113 134 227 103 92 86 61 100 131 58 86 57 71 52 96 95 45 59 45 74 40 48 53 40 47 41
internal_count=950 577 373 282 216 143 139 361 91 113 134 227 103 92 86 61 100 131 58 86 57 71 52 96 95 45 59 45 74 40 48 53 40 47 41
is_linear=0
shrinkage=0.05


Tree=14
num_leaves=35
num_cat=0
split_feature=74 74 74 23 79 79 79 60 79 55 74 79 74 74 74 74 79 79 74 79 79 74 79 79 74 74 70 74 74 79 74 79 55 79
split_gain=2.63667e+08 2.70685e+07 2.6979e+07 8.58334e+06 4.94281e+06 4.92169e+06 3.75398e+06 2.79977e+06 2.35685e+06 2.23586e+06 2.11754e+06 2.04005e+06 1.85319e+06 1.66875e+06 1.33302e+06 1.13906e+06 1.08551e+06 907735 844675 796298 747278 594418 461100 449374 446021 435370 382965 257404 186425 143740 136286 64824.4 21170.1 18805.9
threshold=5107.5000000000009 6167.0000000000009 4113.5000000000009 33.669431806358951 -136.49999999999997 14.500000000000002 -39.499999999999993 7504.5000000000009 -412.49999999999994 3110.4630944055948 3729.0249979898153 -248.64191420156223 5651.5000000000009 4804.0000000000009 4513.0000000000009 6638.0000000000009 -369.49999999999994 310.50000000000006 6638.0000000000009 265.96944250871098 253.00000000000003 3511.2462020905928 115.50000000000001 155.50000000000003 4499.0000000000009 3805.0000000000005 22.666071428571431 4850.5000000000009 3847.8186713286718 -229.49999999999997 5965.0000000000009 98.186713286713044 3423.0000000000005 75.735545357420065
decision_type=2 2 2 2 2 2 2 2 2 2 2 2 2 2 2 2 2 2 2 2 2 2 2 2 2 2 2 2 2 2 2 2 2 2
left_child=2 4 6 11 16 8 9 -5 -4 -1 20 18 19 24 -10 22 -2 30 -3 -6 21 -8 -13 28 -7 32 -22 -16 -12 -27 -14 -23 -11 -30
right_child=1 3 5 7 12 13 10 -9 14 25 23 15 17 -15 27 -17 -18 -19 -20 -21 26 31 -24 -25 -26 29 -28 -29 33 -31 -32 -33 -34 -35
leaf_value=-47.052399704096572 -3.7547621334666639 21.325410877056974 -30.133522084312979 50.600732688071943 12.942449634825175 -7.961023128439435 -38.605922696669658 72.782244112822511 -19.608596995373869 -38.191647035012515 -26.059673101783257 34.338669995618361 22.939160291383189 9.3158467664459312 -9.8781913891565765 51.024229501744607 11.070310367453507 38.451306182709494 35.619721132749092 24.307170309600245 -29.246350912268891 -31.659559342393848 43.934350433982758 -14.229781324291659 0.045670903583181981 -32.658412284281717 -19.685578375669259 -3.1806366410566516 -21.630924248449581 -26.500719943335049 28.870146733374145 -27.329555033450305 -34.147456325341132 -18.88905806660059
leaf_weight=39 20 20 21 32 39 38 33 28 33 23 26 34 27 33 34 28 32 20 23 26 25 30 24 22 32 20 20 25 29 28 20 24 22 20
leaf_count=39 20 20 21 32 39 38 33 28 33 23 26 34 27 33 34 28 32 20 23 26 25 30 24 22 32 20 20 25 29 28 20 24 22 20
internal_value=-0.648502 32.1085 -21.8261 45.3966 18.4421 -7.84381 -30.1877 61.0561 -15.0447 -36.9247 -26.2899 38.0714 23.5829 0.0630997 -11.5715 42.55 5.372 29.431 29.0362 17.5188 -30.4257 -33.1741 38.3782 -20.6363 -4.30591 -32.6316 -25.0503 -7.05051 -22.494 -29.1291 25.519 -29.7893 -36.2947 -20.5526
internal_weight=950 373 577 189 184 216 361 60 113 132 229 129 132 103 92 86 52 67 43 65 132 87 58 97 70 93 45 59 75 48 47 54 45 49
internal_count=950 373 577 189 184 216 361 60 113 132 229 129 132 103 92 86 52 67 43 65 132 87 58 97 70 93 45 59 75 48 47 54 45 49
is_linear=0
shrinkage=0.05


Tree=15
num_leaves=37
num_cat=0
split_feature=74 74 74 74 79 79 74 79 79 60 79 79 74 55 79 79 79 79 79 74 79 74 74 74 54 74 79 74 79 79 74 79 79 74 74 89
split_gain=2.48319e+08 2.77926e+07 2.52447e+07 7.15776e+06 4.03898e+06 4.02486e+06 3.4118e+06 3.28372e+06 3.12025e+06 2.83072e+06 2.559e+06 1.65454e+06 1.6476e+06 1.34909e+06 1.28367e+06 986310 852362 762639 753224 751264 688502 650352 480551 472480 386780 368874 283566 263123 202681 190994 107402 86071.7 61727 60502 34252.1 5105.66
threshold=5060.5000000000009 6722.5000000000009 4113.5000000000009 5965.0000000000009 -171.87664637128316 14.500000000000002 3655.5000000000005 153.50000000000003 -114.99999999999999 7464.5000000000009 -56.999999999999993 -287.49999999999994 4499.0000000000009 4040.5000000000005 -211.49999999999997 262.50000000000006 390.50000000000006 205.00000000000003 -412.49999999999994 5461.5000000000009 147.50000000000003 5461.5000000000009 3273.0830046820561 3862.0000000000005 303.91129406614931 6345.0000000000009 -242.49999999999997 4728.5000000000009 177.00000000000003 115.50000000000001 4798.0000000000009 -17.70139372822268 11.500000000000002 5703.0000000000009 3545.0119580419582 -1.1755371310541413e-14
decision_type=2 2 2 2 2 2 2 2 2 2 2 2 2 2 2 2 2 2 2 2 2 2 2 2 2 2 2 2 2 2 2 2 2 2 2 2
left_child=2 3 6 7 -3 13 10 14 18 -6 24 -8 28 26 -2 30 22 25 -5 -16 23 -9 -12 32 -1 -10 -4 -15 -7 34 -14 -25 -13 -21 -24 -33
right_child=1 4 5 8 9 12 11 21 17 -11 16 20 15 27 19 -17 -18 -19 -20 33 -22 -23 29 31 -26 -27 -28 -29 -30 -31 -32 35 -34 -35 -36 -37
leaf_value=-39.498151107731786 0.58178877779918403 39.364755231634511 -25.499479944788995 13.927382189005762 50.130620120767276 -11.458840836102688 -35.636398760703962 19.192689246675407 29.705400232808241 71.182755632198834 -38.974274202319691 -28.68545368825357 -1.8506732052536372 -12.6026452332629 7.0906481138752033 14.079694412003702 -20.500052301207585 43.566676355098224 26.217850826948123 15.650713713587178 -15.469692905717512 30.390446309617296 -34.620768927578901 -23.302323918327733 -49.38598858440092 38.592723394195417 -16.837511751545009 -5.7161605428546345 -4.4785824650553021 -26.933038542133808 3.0351225546286811 -18.434183333038742 -24.800496269317261 19.865459779957632 -30.405666281960226 -20.609089508779803
leaf_weight=27 27 35 20 20 34 20 28 25 32 33 21 38 21 28 28 20 20 31 35 21 30 29 20 32 21 22 20 28 22 33 24 22 25 20 23 21
leaf_count=27 27 35 20 20 34 20 28 25 32 33 21 38 21 28 28 20 20 31 35 21 30 29 20 32 21 22 20 28 22 33 24 22 25 20 23 21
internal_value=0.347526 30.9094 -20.8957 22.9998 53.3528 -6.7846 -28.8267 15.3942 31.1319 60.5903 -34.1406 -24.3381 -0.113915 -14.2117 9.82887 4.87095 -30.0953 37.149 21.7821 13.4411 -22.435 25.2515 -32.0505 -23.9369 -43.9179 33.3909 -21.2214 -9.17582 -7.82196 -30.0886 0.755926 -21.1753 -27.1856 17.7501 -32.4421 -19.5418
internal_weight=956 392 564 290 102 203 361 150 140 67 165 196 107 96 96 65 117 85 55 69 168 54 97 138 48 54 40 56 42 76 45 75 63 41 43 43
internal_count=956 392 564 290 102 203 361 150 140 67 165 196 107 96 96 65 117 85 55 69 168 54 97 138 48 54 40 56 42 76 45 75 63 41 43 43
is_linear=0
shrinkage=0.05


Tree=16
num_leaves=35
num_cat=0
split_feature=74 74 74 74 79 79 74 79 79 60 79 79 79 55 79 74 79 79 79 74 79 74 74 74 54 74 79 74 79 74 79 79 74 74
split_gain=2.24193e+08 2.50892e+07 2.27923e+07 6.46188e+06 3.64642e+06 3.63414e+06 3.08115e+06 2.96449e+06 2.81715e+06 2.55559e+06 2.31046e+06 1.4938e+06 1.4919e+06 1.21833e+06 1.16477e+06 965492 769478 696452 679807 632475 621621 587089 434030 426414 355020 328766 256048 237555 172626 160085 80583.6 55642.2 30957.7 22076.9
threshold=5060.5000000000009 6722.5000000000009 4113.5000000000009 5965.0000000000009 -171.87664637128316 14.500000000000002 3655.5000000000005 153.50000000000003 -114.99999999999999 7464.5000000000009 -56.999999999999993 -287.49999999999994 334.00000000000006 4040.5000000000005 -165.49999999999997 4499.0000000000009 390.50000000000006 323.50000000000006 -412.49999999999994 5461.5000000000009 147.50000000000003 5461.5000000000009 3273.0830046820561 3862.0000000000005 268.60677780902387 6319.0000000000009 -242.49999999999997 4728.5000000000009 115.50000000000001 4839.0000000000009 -87.44203832752622 11.500000000000002 3545.0119580419582 3982.0000000000005
decision_type=2 2 2 2 2 2 2 2 2 2 2 2 2 2 2 2 2 2 2 2 2 2 2 2 2 2 2 2 2 2 2 2 2 2
left_child=2 3 6 7 -3 13 10 14 18 -6 24 -8 15 26 -2 -7 22 25 -5 -16 23 -9 -12 31 -1 -10 -4 -15 32 -17 -25 -13 -24 -32
right_child=1 4 5 8 9 12 11 21 17 -11 16 20 -14 27 19 29 -18 -19 -20 -21 -22 -23 28 30 -26 -27 -28 -29 -30 -31 33 -33 -34 -35
leaf_value=-36.544033633961398 1.3578891546588236 37.402125049384573 -24.230849210065394 13.234477679883662 47.631439531164091 -9.4107108569892386 -33.860919949677495 18.236878122276519 29.271111139261503 67.634370426973192 -37.034796200431352 -27.254945657885294 11.807045948787888 -11.974755634022777 7.0576533328527695 -0.88897848343925845 -19.48014888099177 43.41332654907805 24.91069318548567 17.163640725216293 -14.698777966166652 28.876145940302166 -32.898342242644198 -23.064519793002759 -45.963345886464325 36.96966007697187 -15.999824577065841 -5.4313695776929212 -25.59045507886259 4.837606490310745 -20.550878961485434 -23.56541213077378 -28.891964549935739 -17.923857914212967
leaf_weight=22 31 35 20 20 34 35 28 25 37 33 21 38 21 28 26 31 20 21 35 39 30 29 20 20 26 27 20 28 33 20 22 25 23 33
leaf_count=22 31 35 20 20 34 35 28 25 37 33 21 38 21 28 26 31 20 21 35 39 30 29 20 20 26 27 20 28 33 20 22 25 23 33
internal_value=0.329818 29.3691 -19.8551 21.854 50.693 -6.44688 -27.391 14.6275 29.5807 57.5698 -32.4409 -23.1255 -0.10825 -13.5043 9.33968 -3.02819 -28.597 35.2981 20.6966 13.1384 -21.3172 23.9935 -30.4547 -22.7442 -41.7312 32.5716 -20.1656 -8.71867 -28.5902 1.36172 -20.1207 -25.8306 -30.8275 -19.0101
internal_weight=956 392 564 290 102 203 361 150 140 67 165 196 107 96 96 86 117 85 55 65 168 54 97 138 48 64 40 56 76 51 75 63 43 55
internal_count=956 392 564 290 102 203 361 150 140 67 165 196 107 96 96 86 117 85 55 65 168 54 97 138 48 64 40 56 76 51 75 63 43 55
is_linear=0
shrinkage=0.05


Tree=17
num_leaves=39
num_cat=0
split_feature=74 23 74 74 56 79 74 79 79 79 74 79 79 74 23 56 74 79 79 74 79 74 74 79 79 79 54 79 79 79 79 79 79 83 74 74 74 84
split_gain=2.02409e+08 2.27747e+07 2.05785e+07 5.17298e+06 4.78027e+06 3.28151e+06 2.78247e+06 2.27463e+06 2.08599e+06 2.07136e+06 1.3771e+06 1.35204e+06 1.07523e+06 1.05953e+06 1.04848e+06 1.01454e+06 977219 909825 700687 691650 510390 417314 405460 383238 349058 332613 322981 179980 166511 152044 151165 147481 131348 120006 103564 100189 39428.8 5170.86
threshold=5060.5000000000009 31.903041081808801 4113.5000000000009 5970.5000000000009 7429.5000000000009 14.500000000000002 3655.5000000000005 -154.99999999999997 -56.999999999999993 -553.09026069052868 4513.0000000000009 -87.44203832752622 370.50000000000006 4513.0000000000009 34.55382425543123 6657.5000000000009 6428.0000000000009 247.50000000000003 334.00000000000006 5413.5000000000009 76.500000000000014 3982.0000000000005 3295.1941309731938 -320.49999999999994 78.500000000000014 -268.99999999999994 303.91129406614931 199.50000000000003 110.41872140055081 60.500000000000007 104.50000000000001 -157.6900173611111 68.500000000000014 2.6464998066569235e-13 4798.0000000000009 3862.0000000000005 3811.5000000000005 -0.22252093395606734
decision_type=2 2 2 2 2 2 2 2 2 2 2 2 2 2 2 2 2 2 2 2 2 2 2 2 2 2 2 2 2 2 2 2 2 2 2 2 2 2
left_child=2 3 6 7 15 13 8 -2 26 -5 27 23 19 33 -6 -3 20 34 22 -9 31 28 -10 -8 -17 -15 -1 -7 36 -24 -21 -11 -23 -4 -12 -25 -13 -31
right_child=1 4 5 9 14 10 11 12 18 16 17 21 -14 25 -16 24 -18 -19 -20 30 -22 32 29 35 -26 -27 -28 -29 -30 37 -32 -33 -34 -35 -36 -37 -38 -39
leaf_value=-35.623177796536268 1.7041904984284024 28.14448070621016 -16.104398714131975 13.259048772397623 50.51642675615544 -10.02427962001784 -33.384721309426837 8.6293895592787404 -35.431000855070714 19.973205467717563 -2.1343916183680443 -24.392307220108208 27.16139086063821 -13.530341585833041 66.903322190504809 37.329880555572998 37.265717680363359 13.357986398953109 -19.183955441099226 15.62315774593713 32.982122927014103 -17.409503035739533 -30.270122787632893 -27.434436521492156 45.594179740221399 -5.4710701663078041 -44.641116260691284 -3.5183503198386425 -17.969746394315873 -26.561428256058573 21.138851089839122 26.190547211833021 -11.642651435510436 -21.889825750702055 2.7262856419155708 -22.38757534422815 -20.962915075537694 -23.920602644924305
leaf_weight=27 33 20 20 22 22 23 21 34 21 20 20 26 20 20 22 31 34 20 23 37 22 22 29 25 30 36 21 20 33 20 21 24 20 20 24 24 25 24
leaf_count=27 33 20 20 22 22 23 21 34 21 20 20 26 20 20 22 31 34 20 23 37 22 22 29 25 30 36 21 20 33 20 21 24 20 20 24 24 25 24
internal_value=0.312984 27.9054 -18.8663 19.6468 45.5159 -6.12581 -26.0269 13.248 -30.8257 27.2348 -0.102539 -21.9733 16.6447 -12.8321 58.8431 38.2128 30.2931 4.54443 -27.1733 14.3314 26.6501 -18.8453 -29.1056 -27.5688 41.4623 -8.36846 -39.6532 -7.01357 -20.8991 -27.24 17.6533 23.4163 -14.6977 -19.0446 0.516944 -25.0132 -22.7556 -25.1786
internal_weight=956 392 564 267 125 203 361 145 165 122 107 196 112 96 44 81 100 64 117 92 66 126 94 70 61 56 48 43 84 73 58 44 42 40 44 49 51 44
internal_count=956 392 564 267 125 203 361 145 165 122 107 196 112 96 44 81 100 64 117 92 66 126 94 70 61 56 48 43 84 73 58 44 42 40 44 49 51 44
is_linear=0
shrinkage=0.05


Tree=18
num_leaves=38
num_cat=0
split_feature=74 23 74 74 56 74 80 75 55 14 23 56 0 80 80 14 56 75 56 80 60 20 55 85 56 88 94 80 30 27 80 55 80 56 84 84 65
split_gain=1.82833e+08 2.38441e+07 1.4468e+07 6.26775e+06 4.31705e+06 2.48591e+06 1.80575e+06 1.86365e+06 1.49997e+06 1.05636e+06 946695 915560 905759 719032 707954 629854 532411 424349 410479 440011 407173 358038 347065 327526 314374 275407 222364 219050 175603 169794 128097 117017 99711.1 72769.5 72371.4 71000 52745.1
threshold=4954.0000000000009 31.903041081808801 4005.0000000000005 5965.0000000000009 7429.5000000000009 4513.0000000000009 -721.49999999999989 3547.1779720279724 5258.0000000000009 -0.60785761079279388 34.55382425543123 6657.5000000000009 28.456250000000004 102.50000000000001 235.03933761360602 -0.60785761079279388 5870.0000000000009 3781.5000000000005 4272.4338541666675 -402.49999999999994 7329.5000000000009 -0.83377653105606597 3182.3112326388896 -0.78183148246798606 4014.0000000000005 -0.50000000000001132 -0.53437255828097963 235.03933761360602 -0.093749999999999986 10.817980034722224 -125.99999999999999 3684.0000000000005 328.17638428644551 7006.5000000000009 -0.22252093395626985 -0.22252093395644948 4285.8888888888896
decision_type=2 2 2 2 2 2 2 2 2 2 2 2 2 2 2 2 2 2 2 2 2 2 2 2 2 2 2 2 2 2 2 2 2 2 2 2 2
left_child=2 3 6 8 11 15 -1 14 9 -2 -6 -3 -5 17 22 29 28 30 -17 -20 21 -14 -8 -7 -15 -25 -10 -13 -11 -4 -9 35 -23 -29 -27 -19 -37
right_child=1 4 5 12 10 23 7 13 26 16 -12 27 20 24 -16 18 -18 31 19 -21 -22 32 -24 25 -26 34 -28 33 -30 -31 -32 -33 -34 -35 -36 36 -38
leaf_value=-39.022606029738469 0.88855473516494277 26.744257776061097 -15.617110190007359 19.109475018072001 48.002033713500424 -7.638484452307444 -37.469703795133796 -30.630457195832363 20.248557896767892 4.7519981069482249 63.573292534599481 34.485199900764734 32.162822141240554 -20.264690882466226 -24.324408405088505 -16.018946030281043 16.734442313922724 -25.426632872624182 -14.796491628348543 -5.8042475395495323 35.030676406177115 21.578200462614873 -29.482265388244414 3.7746356373402614 -11.72868074445582 -5.5022281328837082 13.718869011949151 38.589344020862484 10.728789231698011 -22.304860751783075 -25.252515061620866 -18.266863792071202 26.752897810370996 44.468633801790219 -1.4266654307911504 -23.363779019179503 -19.30860729649056
leaf_weight=25 38 20 21 37 22 27 34 20 34 23 22 20 21 25 30 32 27 20 21 39 20 25 28 20 20 20 23 20 27 20 42 24 21 21 24 21 22
leaf_count=25 38 20 21 37 22 27 34 20 34 23 22 20 21 25 30 32 27 20 21 39 20 25 28 20 20 20 23 20 27 20 42 24 21 21 24 21 22
internal_value=0.297252 24.9433 -19.0981 17.2007 43.2493 -9.40361 -26.0754 -24.9304 11.0127 7.71411 55.9143 36.309 25.7682 -22.1238 -30.8181 -13.7583 11.077 -23.8084 -11.4372 -8.971 28.5748 26.5983 -33.9158 -3.0309 -16.5054 -1.07812 17.6425 39.396 7.99454 -18.9259 -27.0339 -21.4813 23.9936 41.7017 -3.28758 -22.6748 -21.3388
internal_weight=956 421 535 296 125 224 311 286 172 115 44 81 124 194 92 133 77 149 92 60 87 67 62 91 45 64 57 61 50 41 62 87 46 41 44 63 43
internal_count=956 421 535 296 125 224 311 286 172 115 44 81 124 194 92 133 77 149 92 60 87 67 62 91 45 64 57 61 50 41 62 87 46 41 44 63 43
is_linear=0
shrinkage=0.05


Tree=19
num_leaves=37
num_cat=0
split_feature=74 74 74 74 79 79 79 79 79 74 79 74 74 56 79 74 79 79 79 74 79 79 79 79 74 74 79 74 79 86 74 79 74 74 79 56
split_gain=1.65078e+08 2.16708e+07 1.30623e+07 6.27847e+06 3.47619e+06 2.81674e+06 2.65978e+06 2.23631e+06 2.07605e+06 1.98392e+06 1.50902e+06 1.27178e+06 1.0647e+06 956285 807751 721753 663587 609596 587557 571572 475271 444323 359006 325710 322793 305691 303324 276721 263207 215829 145954 79631.2 79521.1 50178.7 16446.8 8014.83
threshold=4954.0000000000009 6722.5000000000009 4005.0000000000005 5965.0000000000009 199.50000000000003 -171.87664637128316 80.512840798226094 -151.1044178325221 -60.50771440365201 7476.5000000000009 -165.49999999999997 4513.0000000000009 3623.5000000000005 3877.5000000000005 334.00000000000006 5491.5000000000009 433.50000000000006 203.50000000000003 370.50000000000006 4401.0000000000009 -412.49999999999994 -165.49999999999997 -287.49999999999994 -324.03330520181561 3661.0000000000005 6345.0000000000009 -165.49999999999997 3273.0830046820561 118.50000000000001 -0.22252093395610076 4242.5000000000009 52.500000000000007 5228.5000000000009 3862.0000000000005 104.50000000000001 3739.7731103979468
decision_type=2 2 2 2 2 2 2 2 2 2 2 2 2 2 2 2 2 2 2 2 2 2 2 2 2 2 2 2 2 2 2 2 2 2 2 2
left_child=2 3 8 4 10 -3 11 20 12 28 23 21 29 27 19 32 -6 25 24 -8 -5 -4 -14 -2 -15 -9 -13 -10 -7 -1 -23 -29 -12 34 -26 -33
right_child=1 5 6 7 16 9 14 17 13 -11 15 26 22 18 -16 -17 -18 -19 -20 -21 -22 30 -24 -25 33 -27 -28 31 -30 -31 -32 35 -34 -35 -36 -37
leaf_value=-40.419734517318943 -5.9397621875971707 32.081382173282812 -21.570312176760854 10.524845897617624 17.232897801280352 39.073262876039983 -10.275282060323548 23.451076124979952 -30.965649899914485 61.88759313806311 3.6666809711386175 -11.753847850781481 -30.639378818789659 -25.712406293083639 6.9011740006024569 15.230406864097965 28.723818931769376 35.526528911649997 -10.785026010351986 -0.61063357479970737 20.636931937830553 -16.047943123928842 -22.607569167960403 2.8563662565671484 -21.229917702746036 31.054158196316298 -4.0570484189468567 -26.329764937043599 47.832005302826943 -32.691135973158708 -10.560932952729029 -23.805652506317571 8.0492666548164333 -16.781056470313839 -18.396740297535757 -21.296079402939412
leaf_weight=21 20 35 32 20 36 23 26 34 20 23 22 21 26 22 20 39 20 32 20 37 29 35 35 22 20 25 33 29 21 24 20 21 20 29 20 24
leaf_count=21 20 35 32 20 36 23 26 34 20 23 22 21 26 22 20 39 20 32 20 37 29 35 35 22 20 25 33 29 21 24 20 21 20 29 20 24
internal_value=0.282743 23.7016 -18.1469 17.2773 11.0639 43.7563 -8.93534 25.208 -24.7765 49.7982 6.3532 -13.1132 -30.4801 -21.8139 -1.83064 10.3371 21.3808 29.8524 -18.6307 -4.60926 16.5395 -16.8539 -26.0756 -1.33631 -20.3412 26.7199 -7.06653 -25.5489 43.3527 -36.3796 -14.0755 -24.0451 5.76791 -18.5938 -19.8629 -22.5175
internal_weight=956 421 535 319 179 102 224 140 311 67 123 141 106 205 83 81 56 91 111 63 49 87 61 42 91 59 54 94 44 45 55 74 42 69 40 45
internal_count=956 421 535 319 179 102 224 140 311 67 123 141 106 205 83 81 56 91 111 63 49 87 61 42 91 59 54 94 44 45 55 74 42 69 40 45
is_linear=0
shrinkage=0.05


Tree=20
num_leaves=38
num_cat=0
split_feature=74 74 74 74 79 79 79 74 56 79 74 80 79 74 79 79 74 79 79 79 79 79 79 74 79 74 66 74 79 74 79 79 79 79 74 79 74
split_gain=1.43632e+08 1.70118e+07 1.39883e+07 4.2739e+06 3.3866e+06 2.77739e+06 2.27888e+06 2.41017e+06 2.1885e+06 1.66161e+06 1.20134e+06 1.11363e+06 1.09047e+06 1.05497e+06 787287 782699 611965 474068 463120 401012 362537 357483 351890 337872 299361 215123 195279 169142 149912 123734 111583 109949 85542.4 56276.6 11756.9 11228.9 5664.19
threshold=5107.5000000000009 6722.5000000000009 4186.5000000000009 6124.0000000000009 -375.49999999999994 -43.213729971782634 526.0834978970305 3623.5000000000005 7464.5000000000009 -43.213729971782634 4728.5000000000009 90.500000000000014 -56.999999999999993 5703.0000000000009 -330.99999999999994 -128.42553977272721 5621.0000000000009 160.43872170512398 136.00000000000003 348.50000000000006 -229.49999999999997 219.21304195804194 -64.999999999999986 3943.5000000000005 232.50000000000003 3416.5000000000005 672.73048878076168 4447.5000000000009 -287.49999999999994 5392.5000000000009 120.50000000000001 -46.999999999999993 58.500000000000007 68.500000000000014 3768.0000000000005 213.50000000000003 3768.0000000000005
decision_type=2 2 2 2 2 2 2 2 2 2 2 2 2 2 2 2 2 2 2 2 2 2 2 2 2 2 2 2 2 2 2 2 2 2 2 2 2
left_child=2 3 6 5 -4 14 7 12 22 20 18 -10 26 19 -2 28 -16 31 27 29 -5 -11 -3 32 -15 35 -1 -6 -9 -7 -27 -12 34 -25 -17 -14 -34
right_child=1 8 4 9 10 13 -8 15 11 21 17 -13 25 24 16 23 -18 -19 -20 -21 -22 -23 -24 33 -26 30 -28 -29 -30 -31 -32 -33 36 -35 -36 -37 -38
leaf_value=-30.001241215188703 -2.4131957628240635 31.641046881081799 -22.366927258503388 14.552882622486322 -12.155758448141029 8.8696385839092198 -5.5565723138962877 -27.5500038940982 42.462660923288837 29.081731642890226 -3.434732938791389 59.670521031962757 -28.890929279991639 20.664933188962731 3.2891414885699009 -22.028112572027009 14.092208086256306 7.8050991081146606 -1.5450808055304293 20.470336929245374 23.536869969486766 38.134604301271843 40.192231756118836 -15.337708432590865 29.345168778908192 -24.493213509985441 -37.36356260748024 -6.5840793321370317 -21.866114426777859 14.302538872556566 -19.362573678152899 1.2029242403826483 -18.328028458084802 -11.881125351602996 -19.431181212511106 -25.68945253286789 -16.335385305395622
leaf_weight=20 20 28 24 20 25 20 21 22 20 29 20 21 20 23 24 22 29 25 32 20 28 21 27 37 20 27 25 31 34 24 23 35 24 21 21 20 21
leaf_count=20 20 28 24 20 25 20 21 22 20 29 20 21 20 23 24 22 29 25 32 20 28 21 27 37 20 27 25 31 34 24 23 35 24 21 21 20 21
internal_value=0.52494 24.4272 -15.7301 18.1493 -4.83827 13.5619 -21.5685 -22.5643 42.569 26.5528 -2.32233 51.4003 -27.7497 18.6895 6.03073 -19.0868 9.21575 2.11102 -6.35053 14.5778 19.8317 32.9526 35.9043 -17.1317 24.7611 -24.5075 -34.1653 -9.08876 -24.1443 11.8589 -22.1766 -0.486579 -19.1057 -14.1089 -20.808 -27.3584 -17.4365
internal_weight=924 374 550 278 192 180 358 337 96 98 168 41 135 107 73 202 53 80 88 64 48 50 55 146 43 90 45 56 56 44 50 55 88 58 43 40 45
internal_count=924 374 550 278 192 180 358 337 96 98 168 41 135 107 73 202 53 80 88 64 48 50 55 146 43 90 45 56 56 44 50 55 88 58 43 40 45
is_linear=0
shrinkage=0.05


Tree=21
num_leaves=37
num_cat=0
split_feature=74 74 74 74 79 79 56 79 55 79 74 79 74 56 79 79 26 74 74 79 79 74 79 79 79 79 79 74 55 74 74 74 79 74 74 79
split_gain=1.29686e+08 1.536e+07 1.26496e+07 3.85866e+06 3.10459e+06 2.50799e+06 1.97673e+06 1.70709e+06 1.63979e+06 1.50127e+06 1.24289e+06 977378 934336 767121 710816 695367 596417 594596 555747 527189 412005 360047 322244 316721 297356 236372 221877 216355 156474 138766 135706 87406.6 60235 56728.2 40462.8 36760.9
threshold=5107.5000000000009 6722.5000000000009 4005.0000000000005 6124.0000000000009 32.862326388889194 -43.213729971782634 7464.5000000000009 -60.50771440365201 4148.5000000000009 -74.499999999999986 4513.0000000000009 442.50000000000006 3480.3889721254359 3846.0000000000005 -330.99999999999994 -344.21864498348867 1294.0508420138892 5687.0000000000009 5641.5000000000009 433.50000000000006 219.21304195804194 4242.5000000000009 40.500000000000007 258.07903384809612 -287.49999999999994 -229.49999999999997 177.00000000000003 3655.5000000000005 4539.0000000000009 3416.5000000000005 5392.5000000000009 3805.0000000000005 -123.81995407032012 4821.0000000000009 3811.5000000000005 64.546124156545162
decision_type=2 2 2 2 2 2 2 2 2 2 2 2 2 2 2 2 2 2 2 2 2 2 2 2 2 2 2 2 2 2 2 2 2 2 2 2
left_child=2 3 7 5 8 14 22 12 15 25 26 17 -1 29 -2 -4 -8 30 -16 27 -11 32 -3 33 -14 -5 -6 -15 -10 -9 -7 -26 -17 -12 -29 -31
right_child=1 6 4 9 10 11 16 13 28 20 23 -13 24 19 18 21 -18 -19 -20 -21 -22 -23 -24 -25 31 -27 -28 34 -30 35 -32 -33 -34 -35 -36 -37
leaf_value=-35.296635051469359 -2.2931362536416127 30.960799897022738 -24.446089764495394 13.828858348030355 -9.6431576155305319 8.7170560915232738 42.400369052977361 -25.579528690243034 -7.3484632766878111 27.053141171780325 -0.67095938047132875 26.665419025342 -29.245643802142247 -22.844568926915173 3.5182131120528299 -18.528469195769201 55.362340154695282 20.248101251775566 13.769207898805062 -9.2540680505743076 36.236911516957939 -8.4614942341368664 39.454818588940064 8.4556478205849146 -23.941731256576482 21.607862875698867 -3.0528973972384552 -18.304636646064257 -1.8629361210905047 -22.644063621932538 14.082522290693845 -19.133784067334226 -14.463913142216668 2.8740600933115203 -15.653986438643901 -19.115183907124532
leaf_weight=28 20 35 20 20 29 23 21 36 32 36 22 24 22 21 26 20 20 34 27 20 21 22 20 22 27 21 23 35 22 24 26 20 23 23 39 20
leaf_count=28 20 35 20 20 29 23 21 36 32 36 22 24 22 21 26 20 20 34 27 20 21 22 20 22 27 21 23 35 22 24 26 20 23 23 39 20
internal_value=0.498836 23.211 -14.9469 17.2457 -6.876 12.8868 40.4497 -22.0732 -11.9481 25.2306 -0.946309 17.7594 -27.5138 -19.3541 5.73022 -16.274 48.8427 15.1551 8.75661 -16.7038 30.4943 -13.7258 34.1156 3.55339 -24.309 17.8562 -6.73979 -18.2607 -5.12129 -23.1382 11.587 -21.9409 -16.3931 1.14318 -16.9308 -21.0871
internal_weight=924 374 550 278 258 180 96 292 139 98 119 107 97 195 73 85 41 83 53 115 57 65 55 67 69 41 52 95 54 80 49 47 43 45 74 44
internal_count=924 374 550 278 258 180 96 292 139 98 119 107 97 195 73 85 41 83 53 115 57 65 55 67 69 41 52 95 54 80 49 47 43 45 74 44
is_linear=0
shrinkage=0.05


Tree=22
num_leaves=34
num_cat=0
split_feature=74 74 74 74 74 74 74 24 30 59 74 74 75 24 74 75 76 59 56 76 14 46 56 98 98 14 74 60 27 77 54 75 66
split_gain=1.17091e+08 1.38693e+07 1.14251e+07 3.48403e+06 1.88086e+06 1.79276e+06 1.35401e+06 1.09771e+06 650213 647955 619560 459769 418875 369574 362044 341230 429938 328092 316536 264258 248921 200758 334157 196399 184787 180410 176210 162662 139052 102378 97979.5 54485.8 18044.1
threshold=5107.5000000000009 6722.5000000000009 4186.5000000000009 6124.0000000000009 3647.0000000000005 7645.0000000000009 4728.5000000000009 3.9229166666666679 -0.85624999999999918 5151.5000000000009 5585.5000000000009 3996.9135531135539 4048.5000000000005 3.387499999999998 6975.0000000000009 3547.1779720279724 3605.5000000000005 3307.0000000000005 6624.0000000000009 5258.0000000000009 -0.60785761079279388 3.5000000000000004 6358.5000000000009 0.12447926388679269 0.10738134666416803 -0.60785761079279388 4513.0000000000009 5241.0000000000009 9.9845920138888893 6680.0000000000009 217.43318051451058 3719.0000000000005 551.83953203882618
decision_type=2 2 2 2 2 2 2 2 2 2 2 2 2 2 2 2 2 2 2 2 2 2 2 2 2 2 2 2 2 2 2 2 2
left_child=2 3 4 7 15 14 12 9 -5 19 -9 24 -4 27 -3 23 -17 -18 -10 -2 -14 -12 -23 -1 30 -13 -22 -8 -27 -16 31 -6 -33
right_child=1 5 6 8 11 -7 13 10 18 -11 21 25 20 -15 29 16 17 -19 -20 -21 26 22 -24 -25 -26 28 -28 -29 -30 -31 -32 32 -34
leaf_value=-23.872979000862948 7.1653288585283024 30.303993709956377 -13.856606947758284 18.273346200926213 -20.133156010320416 51.099003456081199 -5.7188526582362051 9.6285322676252392 23.022007619661352 13.29752549310596 13.439523398935499 -17.18339335123698 -10.793794170396152 4.8186353070629426 40.9402832638565 -15.382275512099804 -27.237255209378247 -20.066339398245528 30.374285396452876 -0.68190996540126514 -7.4044079524342266 15.996412132239413 23.961641379708571 -29.834215439765906 -14.276292242071285 -8.4044989124142742 -1.7912056414682245 -0.18119874302383579 -13.690444735315451 34.784248538470372 -22.417273541350863 -18.451552470986773 -16.088876423883278
leaf_weight=36 23 32 25 34 30 22 20 33 30 28 20 20 23 29 20 22 33 35 34 20 28 32 24 28 27 22 28 39 31 22 20 24 30
leaf_count=36 23 32 25 34 30 22 20 33 30 28 20 20 23 29 20 22 33 35 34 20 28 32 24 28 27 22 28 39 31 22 20 24 30
internal_value=0.474074 22.0552 -14.2024 16.3867 -19.4789 38.4359 -4.35901 12.2448 23.9741 7.39062 15.397 -16.3125 -8.21853 0.206339 34.6073 -23.66 -21.5964 -23.5813 26.9693 3.52222 -6.41901 17.8857 19.4468 -26.5236 -18.0966 -13.0904 -4.60609 -2.06495 -11.5163 37.8061 -19.0737 -18.2518 -17.1712
internal_weight=924 374 550 278 358 96 192 180 98 71 109 204 104 88 74 154 90 68 64 43 79 76 56 64 131 73 56 59 53 42 104 84 54
internal_count=924 374 550 278 358 96 192 180 98 71 109 204 104 88 74 154 90 68 64 43 79 76 56 64 131 73 56 59 53 42 104 84 54
is_linear=0
shrinkage=0.05


Tree=23
num_leaves=34
num_cat=0
split_feature=74 23 55 74 74 80 75 74 55 60 55 30 60 80 64 80 75 24 55 60 14 98 75 73 0 75 80 80 80 57 60 75 27
split_gain=1.05716e+08 1.27359e+07 1.04109e+07 3.08538e+06 2.44686e+06 2.11156e+06 1.87563e+06 1.38777e+06 1.27404e+06 1.10802e+06 806581 960154 726049 507186 503056 471808 422464 400640 353151 268805 249116 224220 217467 195297 157756 133268 132102 115744 113376 80925.4 51334.5 39505.4 32031.3
threshold=5107.5000000000009 32.442697493203717 3887.5000000000005 6136.0000000000009 7645.0000000000009 48.500000000000007 3598.3590720576854 4513.0000000000009 3363.5000000000005 4262.4338541666675 5437.0000000000009 -0.67083333333333417 7183.5000000000009 239.77792378353368 5904.5000000000009 -493.99999999999994 3561.0000000000005 3.4395833333333354 6113.0000000000009 6754.0000000000009 -0.60785761079279388 0.0043035382962523664 3345.759562937063 81.738095238095255 28.900000000000002 3768.0000000000005 -113.49999999999999 -285.49999999999994 152.46701706829734 6149.857142857144 4092.5000000000005 3982.0000000000005 14.103163194444447
decision_type=2 2 2 2 2 2 2 2 2 2 2 2 2 2 2 2 2 2 2 2 2 2 2 2 2 2 2 2 2 2 2 2 2
left_child=2 3 5 10 12 8 22 21 15 30 11 -2 29 18 -13 -1 -17 20 -5 -15 -9 -4 -7 32 -16 -10 -12 -27 -14 -3 -8 -29 -22
right_child=1 4 7 13 -6 6 9 17 25 -11 26 14 28 19 24 16 -18 -19 -20 -21 23 -23 -24 -25 -26 27 -28 31 -30 -31 -32 -33 -34
leaf_value=-33.704853054065609 2.0793050823507282 23.969426829779323 -13.249376969847731 14.040674643063435 50.998054177962729 -23.013620527695423 -15.338805815820606 -6.1727953889525633 -21.476563108507602 -2.9180947012162899 14.065858281191272 6.460008692345351 32.756438033198897 21.926524447920311 11.352182970798856 -28.531068572507412 -19.661176875907344 4.2159159618941917 22.964684748352809 30.235197996989985 -3.8837886967365209 -7.2153551782880498 -17.433901743388844 3.4905805110931398 16.846694516095788 -20.318323003694257 19.469622875050909 -17.61942102172446 38.610655656183866 28.969622802734378 -11.995653951653527 -14.710718093295277 -1.0831915452112604
leaf_weight=20 37 20 27 22 20 36 33 29 33 38 29 30 23 20 24 31 26 31 24 23 21 37 39 20 32 28 21 30 25 24 22 29 20
leaf_count=20 37 20 27 22 20 36 33 29 33 38 29 30 23 20 24 31 26 31 24 23 21 37 39 20 32 28 21 30 25 24 22 29 20
internal_value=0.450528 20.9566 -13.4949 14.9143 35.0654 -18.3914 -14.2562 -3.82945 -21.9088 -9.49525 11.0116 8.82185 31.5502 22.4795 11.7169 -26.9514 -24.5268 -0.677727 18.7365 26.4307 -2.36618 -9.77773 -20.1393 -0.549254 14.5164 -18.6533 16.3699 -17.5589 35.8795 26.7564 -14.0258 -16.2171 -2.52372
internal_weight=924 374 550 262 112 365 168 185 197 93 173 123 92 89 86 77 57 121 46 43 90 64 75 61 56 120 50 87 48 44 55 59 41
internal_count=924 374 550 262 112 365 168 185 197 93 173 123 92 89 86 77 57 121 46 43 90 64 75 61 56 120 50 87 48 44 55 59 41
is_linear=0
shrinkage=0.05


Tree=24
num_leaves=36
num_cat=0
split_feature=74 74 55 79 74 79 56 56 74 55 74 79 80 79 79 79 80 74 74 79 79 79 79 74 56 79 74 74 79 79 80 74 75 74 79
split_gain=9.54479e+07 1.13792e+07 9.39923e+06 3.07845e+06 2.36438e+06 1.94001e+06 1.85418e+06 1.51055e+06 1.25288e+06 1.13107e+06 1.018e+06 951832 867702 858370 718961 558563 521164 475297 449695 431139 402275 338475 290441 224393 200259 135251 130602 108353 89883.8 55114.6 28811.2 22596.9 19827.3 11313.6 5878.38
threshold=5107.5000000000009 6722.5000000000009 3887.5000000000005 -119.49999999999999 5703.0000000000009 -39.499999999999993 4188.5000000000009 7464.5000000000009 4513.0000000000009 5384.5000000000009 3526.5000000000005 323.50000000000006 90.500000000000014 -46.999999999999993 -344.21864498348867 -412.49999999999994 287.50000000000006 3395.3994425087112 6270.5000000000009 116.50000000000001 265.96944250871098 247.50000000000003 -122.11155594405612 3909.5000000000005 3990.4135531135539 85.283199300699394 5461.5000000000009 4798.0000000000009 -220.49999999999997 64.546124156545162 -270.49999999999994 3664.5000000000005 3719.0000000000005 3943.5000000000005 -123.81995407032012
decision_type=2 2 2 2 2 2 2 2 2 2 2 2 2 2 2 2 2 2 2 2 2 2 2 2 2 2 2 2 2 2 2 2 2 2 2
left_child=2 3 5 9 20 10 17 22 19 15 -1 18 -9 28 -12 -2 -8 -7 25 30 26 27 -3 34 29 -6 -5 -15 -10 31 -4 -19 -31 -26 -16
right_child=1 7 8 4 11 6 16 12 13 -11 14 -13 -14 21 23 -17 -18 24 -20 -21 -22 -23 -24 -25 33 -27 -28 -29 -30 32 -32 -33 -34 -35 -36
leaf_value=-29.46016448365997 -4.3281381839543434 24.097266520789603 -13.449025419160916 5.3202356675091913 14.48911232184685 -21.802034527322522 -11.051991535781266 34.250079535489057 -8.6169129883002373 13.744572830200196 -26.876013581140747 30.585811664804154 49.347621190943428 -2.2074480565595418 -20.621081725344713 6.3681373472957361 -0.52846942185366297 -19.868776251190337 24.252409294709135 -3.396185499570946 15.708101053663952 7.8491308867648888 32.066019789649552 -14.341458856777884 -13.719185530271567 19.808301629663998 10.874947566895687 2.2022097440738966 -3.9539656446940863 -16.805596328672035 -10.605757866095546 -16.867942635455531 -14.270470197168411 -11.80538710557021 -18.430154009007694
leaf_weight=35 20 20 23 22 28 39 23 20 22 36 26 29 21 23 25 31 24 20 38 21 29 21 35 38 26 24 21 35 20 24 20 20 22 23 20
leaf_count=35 20 20 23 22 28 39 23 20 22 36 26 29 21 23 25 31 24 20 38 21 29 21 35 38 26 24 21 35 20 24 20 20 22 23 20
internal_value=0.428457 19.9133 -12.8224 14.7789 18.3295 -17.4749 -14.5188 34.7508 -3.63862 6.97167 -21.9985 22.6583 42.0843 -0.643983 -19.5777 2.17316 -5.69092 -16.8987 20.0727 -9.29045 11.1533 2.42632 29.2174 -17.2618 -15.4671 16.9775 8.05206 0.452677 -6.41125 -16.9433 -12.1544 -18.4143 -15.6268 -12.8468 -19.6905
internal_weight=924 374 550 278 191 365 221 96 185 87 144 119 41 121 109 51 47 174 90 64 72 79 55 83 135 52 43 58 42 86 43 40 46 49 45
internal_count=924 374 550 278 191 365 221 96 185 87 144 119 41 121 109 51 47 174 90 64 72 79 55 83 135 52 43 58 42 86 43 40 46 49 45
is_linear=0
shrinkage=0.05


Tree=25
num_leaves=36
num_cat=0
split_feature=74 74 74 74 74 74 74 80 80 53 80 57 14 56 80 83 53 56 5 66 57 14 23 23 56 57 30 57 92 80 95 95 14 53 94
split_gain=8.70374e+07 1.27569e+07 8.94334e+06 2.13962e+06 2.06988e+06 1.76105e+06 1.08835e+06 1.04729e+06 992421 524266 468651 448113 413238 380290 346399 337083 329499 295314 293100 266718 339444 219616 193008 173374 172782 161056 180153 100840 95687.2 64774.1 58109.2 56003.6 44161.9 26764.6 21078.6
threshold=5352.5000000000009 4375.5000000000009 6722.5000000000009 6167.0000000000009 3805.0000000000005 7476.5000000000009 4781.0000000000009 -902.49999999999989 -532.49999999999989 3351.008102973416 59.964965034964969 5765.4642857142862 -0.8783796973249266 4272.4338541666675 297.50000000000006 -0.43388373911765421 6792.357142857144 6573.5000000000009 8.0562500000000021 581.65400864843411 4736.857142857144 -0.60785761079279388 28.537248328507271 27.005337160892655 5656.5000000000009 6097.5357142857147 -0.12708333333333674 3666.9539447623638 0.30901699437484664 -59.499999999999993 0.35769492645306838 0.55243531316762007 -0.60785761079279388 3600.8571428571436 0.73832635400310653
decision_type=2 2 2 2 2 2 2 2 2 2 2 2 2 2 2 2 2 2 2 2 2 2 2 2 2 2 2 2 2 2 2 2 2 2 2
left_child=1 4 3 7 8 16 19 -2 -1 28 -5 22 -8 29 21 -15 -4 -12 24 -3 -21 -11 -9 -20 -14 26 -13 33 -10 -6 -17 -29 -31 -23 -34
right_child=2 6 5 10 13 -7 12 11 9 14 17 25 18 15 -16 30 -18 -19 23 20 -22 27 -24 -25 -26 -27 -28 31 -30 32 -32 -33 34 -35 -36
leaf_value=-29.150838543119882 0.68284277394043258 -2.0400561800935448 24.800831644276371 16.460686455968439 -15.852930798487359 43.334485670791054 -4.4698414399849247 6.3858329279014319 -25.477589872285918 -21.026172355591783 19.580500690571004 10.315314263016429 3.6393398675971365 -4.3772699776526798 -10.569316713133853 -9.8432361861699302 31.895022302662611 27.184215852256138 -1.3974068231813137 -12.239097514087796 -3.9282261116648911 -19.113154411910106 12.25711705302904 4.3220699872366444 9.7854803522427876 19.24031832806476 16.803961473442168 -12.68959856335394 -20.25904369449141 -14.783247745551936 -13.639009446364183 -16.306692276815504 -11.459508293912844 -16.425846824804282 -13.684151686537319
leaf_weight=23 20 38 34 35 33 29 20 25 23 38 24 20 27 24 20 22 38 32 33 22 28 32 33 22 20 23 25 22 20 30 22 28 39 24 21
leaf_count=23 20 38 34 35 33 29 20 25 23 38 24 20 27 24 20 22 38 32 33 22 28 32 33 22 20 23 25 22 20 30 22 28 39 24 21
internal_value=-0.0702271 -11.0373 20.4009 15.0806 -16.0574 32.8581 -0.97032 11.3163 -19.2558 -18.1428 21.1008 13.0022 2.08627 -12.1977 -16.8289 -9.16975 28.5841 23.9663 3.37495 -5.20549 -7.60224 -17.6903 9.74182 0.893985 6.27005 15.7647 13.9495 -16.4757 -23.1031 -13.8629 -11.7679 -14.7438 -13.1164 -17.9929 -12.2597
internal_weight=969 631 338 237 421 101 210 146 230 207 91 126 122 191 164 68 72 56 102 88 50 144 58 55 47 68 45 106 43 123 44 50 90 56 60
internal_count=969 631 338 237 421 101 210 146 230 207 91 126 122 191 164 68 72 56 102 88 50 144 58 55 47 68 45 106 43 123 44 50 90 56 60
is_linear=0
shrinkage=0.05


Tree=26
num_leaves=37
num_cat=0
split_feature=74 53 23 79 60 79 74 79 79 74 74 79 79 74 74 74 79 79 23 74 74 54 80 79 74 79 79 74 74 74 74 74 79 74 53 79
split_gain=7.858e+07 1.15396e+07 8.14665e+06 2.92142e+06 2.22266e+06 2.09533e+06 1.91216e+06 1.73399e+06 1.33869e+06 1.11099e+06 1.04743e+06 711526 669528 553723 518404 320377 318678 298639 283673 279222 262612 234798 163514 156453 146446 123795 87874.8 78532.2 67014.4 58365.8 56189.3 54439.9 29871.6 22618.2 11551.6 97.5409
threshold=5352.5000000000009 4203.913173500282 32.442697493203717 -575.74590277777781 7429.5000000000009 316.50000000000006 6167.0000000000009 -447.99999999999994 -348.49999999999994 3753.0000000000005 4401.0000000000009 232.50000000000003 106.50000000000001 7575.0000000000009 3345.259562937063 4767.5000000000009 -87.44203832752622 -8.4999999999999982 33.612857016563687 5651.5000000000009 6541.0000000000009 255.21834053588262 66.413553113553249 -94.853770481343631 5703.0000000000009 78.500000000000014 47.500000000000007 3943.5000000000005 3552.0000000000005 3975.1402264808366 5000.5000000000009 5938.5000000000009 95.500000000000014 3600.1948076923081 3996.1454290848046 -70.499999999999986
decision_type=2 2 2 2 2 2 2 2 2 2 2 2 2 2 2 2 2 2 2 2 2 2 2 2 2 2 2 2 2 2 2 2 2 2 2 2
left_child=1 7 3 -2 18 8 12 -1 -3 11 -10 14 19 -6 -9 25 29 20 -4 -5 -8 27 -13 -17 -14 -12 28 32 -16 -11 -25 -21 -18 -28 -29 -30
right_child=2 5 4 6 13 -7 17 9 10 16 15 22 24 -15 26 23 21 -19 -20 31 -22 -23 -24 30 -26 -27 33 34 35 -31 -32 -33 -34 -35 -36 -37
leaf_value=-29.880353390662027 -3.3554605647988986 -14.174131261750896 20.120433424545777 5.1427698117950031 33.353457098584158 8.7300275572328729 15.526750042794763 -24.772552320195086 -9.9332616842017973 -16.868316009630089 -5.7696851789336847 -14.895034497157091 13.794013320497307 44.47929908441742 -21.57999061091029 -1.7823578885441571 -14.31688969053071 25.294792336140603 27.224191588433492 9.6246202207699838 23.23240373801281 -5.7283371984111184 -8.4863283536920502 1.1543995429511085 19.580995737481441 -0.96744505418724269 -17.020834733282253 -10.940855324861689 -18.674729016052549 -13.485987633217569 4.1697135430630121 13.221062617927656 -11.510248478893985 -14.461987188981041 -9.039397954714806 -16.998203683904304
leaf_weight=21 22 28 28 30 28 38 26 34 37 28 29 21 25 22 20 28 26 35 33 24 21 21 20 30 22 25 31 22 20 31 32 22 21 21 21 26
leaf_count=21 22 28 28 30 28 38 26 34 37 28 29 21 25 22 20 28 26 35 33 24 21 21 20 30 22 25 31 22 20 31 32 22 21 21 21 26
internal_value=-0.0668824 -10.4875 19.3843 13.9457 30.4837 -2.05535 15.8032 -15.9093 -4.01959 -15.093 -2.44174 -17.695 11.8434 38.3279 -19.277 -0.51124 -12.1304 21.7212 24.0018 8.92176 19.0118 -10.5306 -11.7972 1.31533 16.5387 -3.55242 -17.6739 -11.6435 -18.9528 -15.1171 2.71498 11.3697 -13.0901 -16.0173 -10.0355 -17.7662
internal_weight=969 631 338 227 111 247 205 384 209 363 181 193 123 50 152 144 170 82 61 76 47 111 41 90 47 54 118 90 66 59 62 46 47 52 43 46
internal_count=969 631 338 227 111 247 205 384 209 363 181 193 123 50 152 144 170 82 61 76 47 111 41 90 47 54 118 90 66 59 62 46 47 52 43 46
is_linear=0
shrinkage=0.05


Tree=27
num_leaves=36
num_cat=0
split_feature=74 74 74 79 79 79 74 74 74 79 79 79 79 79 79 74 74 74 79 74 80 79 79 80 79 74 74 74 81 98 79 79 74 62 74
split_gain=7.09474e+07 1.04918e+07 7.36916e+06 2.36774e+06 1.95557e+06 1.73673e+06 1.4599e+06 1.45127e+06 1.42625e+06 1.34234e+06 793597 657286 625122 622685 580856 577146 398948 290904 241476 236565 221442 171045 143018 128916 94428.9 91710.5 70414.6 62644.1 38192 30634.8 17113.9 16900.4 14614.5 10628.8 1627.31
threshold=5352.5000000000009 4375.5000000000009 6722.5000000000009 -477.99999999999994 -404.49999999999994 -428.49999999999994 5874.0000000000009 7476.5000000000009 3811.5000000000005 344.50000000000006 232.50000000000003 23.500000000000004 -9.5240798611109749 199.50000000000003 223.50000000000003 3511.2462020905928 4728.5000000000009 6308.5000000000009 -157.6900173611111 6387.5000000000009 66.413553113553249 -94.853770481343631 40.500000000000007 -257.2809749396942 9.1336933797911133 5585.5000000000009 4974.5000000000009 3943.5000000000005 -0.43388373911742728 -0.081676395330420481 -139.11079085548587 44.500000000000007 3634.4580862980624 531.22449123959075 4017.0000000000005
decision_type=2 2 2 2 2 2 2 2 2 2 2 2 2 2 2 2 2 2 2 2 2 2 2 2 2 2 2 2 2 2 2 2 2 2 2
left_child=1 5 3 -2 -3 -1 13 12 10 16 15 19 -4 25 18 23 22 -13 34 33 -12 -18 -6 -7 30 -5 -23 -20 -25 31 -17 -29 -26 -8 -10
right_child=2 4 7 6 9 8 11 -9 14 -11 20 17 -14 -15 -16 24 21 -19 27 -21 -22 26 -24 28 32 -27 -28 29 -30 -31 -32 -33 -34 -35 -36
leaf_value=-28.891775193854944 -2.4280797370802172 -15.273003759881329 21.059940864372781 4.8567653521495764 -6.3759052466712518 -25.435925247420126 11.690898208238591 39.236238758834368 -15.549290648503089 12.068619530747979 -14.153812422910571 19.463818848807858 30.562168415101283 15.727457384184408 -2.4304465675828468 -18.919865030317165 -1.8465442037656672 26.758703917190743 -12.16312044652676 19.196975721218884 -6.9985295134705385 0.84926325977777017 -1.6686173294004893 -18.282850366089473 -15.439188794987906 8.9205346404931163 4.0537552274607949 -10.965226380437867 -21.922581402385404 -8.0606576813982862 -16.537925284853269 -8.9923969769369965 -13.481297844147015 13.711869335606085 -13.979006612786339
leaf_weight=20 21 21 36 26 30 20 20 29 20 23 21 37 36 33 20 20 32 24 34 23 23 32 35 20 28 31 37 35 21 27 36 22 32 22 22
leaf_count=20 21 21 36 26 30 20 20 29 20 23 21 37 36 33 20 20 32 24 34 23 23 32 35 20 28 31 37 35 21 27 36 22 32 22 22
internal_value=-0.0636429 -9.96523 18.4187 13.5893 -0.835682 -14.5179 15.147 29.7264 -13.7939 0.775666 -16.4883 18.624 25.8469 10.2639 -10.4785 -17.9856 -0.795314 22.3731 -11.4823 15.0765 -10.438 1.17094 -3.84775 -21.9529 -15.8821 7.07873 2.57107 -10.3034 -20.196 -9.53704 -17.4209 -10.221 -14.4192 12.7797 -14.762
internal_weight=969 631 338 237 210 421 216 101 401 189 221 126 72 90 180 177 166 61 160 65 44 101 65 61 116 57 69 118 41 84 56 57 60 42 42
internal_count=969 631 338 237 210 421 216 101 401 189 221 126 72 90 180 177 166 61 160 65 44 101 65 61 116 57 69 118 41 84 56 57 60 42 42
is_linear=0
shrinkage=0.05


Tree=28
num_leaves=39
num_cat=0
split_feature=74 74 74 79 79 74 79 74 79 79 79 79 79 79 74 74 10 74 74 79 77 79 79 79 79 54 79 74 74 79 79 79 79 98 74 79 74 92
split_gain=6.40545e+07 9.47293e+06 6.68579e+06 2.31833e+06 1.76579e+06 1.6112e+06 1.56836e+06 1.28787e+06 1.21201e+06 1.13182e+06 852359 733022 581264 531609 500162 398958 392660 360193 273308 208675 186142 164549 163048 152897 135736 123527 87948.9 67275.9 67199.2 65758.8 54727.4 39543.7 34492.4 27652.8 19334.9 15239.7 7309.88 2352.41
threshold=5352.5000000000009 4375.5000000000009 6841.0000000000009 -546.40567018347485 -404.49999999999994 6167.0000000000009 -428.49999999999994 3805.0000000000005 344.50000000000006 -20.499999999999996 370.50000000000006 232.50000000000003 187.50000000000003 223.50000000000003 3511.2462020905928 7199.0000000000009 2.5000000000000004 4767.5000000000009 5773.0000000000009 -157.6900173611111 3891.0000000000005 -94.853770481343631 -97.335301405911181 -60.50771440365201 40.500000000000007 207.45479148280597 -97.335301405911181 3943.5000000000005 6443.0000000000009 1.0000000180025095e-35 146.25131118881112 112.21789930555543 90.388164335664456 -0.081676395330420481 5000.5000000000009 44.500000000000007 3693.0000000000005 -0.30901699437484648
decision_type=2 2 2 2 2 2 2 2 2 2 2 2 2 2 2 2 2 2 2 2 2 2 2 2 2 2 2 2 2 2 2 2 2 2 2 2 2 2
left_child=1 6 3 -2 -3 10 -1 11 17 16 18 14 23 19 25 -11 -4 24 22 37 -13 -19 -5 28 -6 -8 -16 -21 -7 -20 34 -24 36 35 -23 -29 -28 -9
right_child=2 4 9 5 8 12 7 13 -10 15 -12 20 -14 -15 26 -17 -18 21 29 27 -22 30 31 -25 -26 -27 32 33 -30 -31 -32 -33 -34 -35 -36 -37 -38 -39
leaf_value=-27.45437357888293 -2.8494019707637048 -14.512972877827863 28.669641234744248 3.8030081618425537 -6.0581691469464989 13.177006885112744 -19.022253683338995 -13.189790903497064 11.467800781117887 29.952104422346277 20.055160073284462 -6.3053495549443941 26.522025599816033 -2.3095288535255696 -17.8306477396881 40.176159364114085 18.508411460610763 -1.7545045994570323 10.605267581728551 -11.691617619188005 -12.890628035929192 0.64556473993166841 7.5253098618927723 19.989411756727431 -1.5573712496150511 -24.01860869394708 -15.759283946029369 -10.418527073873754 17.490831153072527 14.497290133073996 4.7127222266807376 10.714262899968297 -12.8100455502735 -7.6591119069454852 2.7243274363296295 -8.5448117976814384 -13.970197892070409 -14.726781235825957
leaf_weight=20 20 21 20 22 30 21 39 22 23 20 23 20 24 20 26 23 20 32 27 37 24 24 21 35 38 22 36 35 20 21 21 21 30 27 21 22 20 21
leaf_count=20 20 21 20 22 30 21 39 22 23 20 23 20 24 20 26 23 20 32 27 37 24 24 21 35 38 22 36 35 20 21 21 21 30 27 21 22 20 21
internal_value=-0.060729 -9.46904 17.5009 13.4796 -0.794093 14.87 -13.795 -13.107 0.737069 29.8243 11.2916 -15.7194 19.6846 -10.0192 -17.1882 35.5014 23.648 -0.755698 9.47562 -10.9574 -9.91852 1.18415 7.31531 17.4933 -3.54907 -20.8607 -15.1712 -9.87503 15.3189 12.3347 2.60953 9.14157 -14.3473 -9.06186 1.61965 -9.71166 -15.1465 -13.973
internal_weight=969 631 338 255 210 235 421 401 189 83 135 217 100 184 173 43 40 166 112 164 44 98 64 76 68 61 112 121 41 48 66 42 86 84 45 57 56 43
internal_count=969 631 338 255 210 235 421 401 189 83 135 217 100 184 173 43 40 166 112 164 44 98 64 76 68 61 112 121 41 48 66 42 86 84 45 57 56 43
is_linear=0
shrinkage=0.05


Tree=29
num_leaves=38
num_cat=0
split_feature=74 74 23 60 74 74 74 80 80 75 23 80 81 14 75 60 80 23 0 66 76 66 80 5 21 75 75 75 0 5 58 75 80 80 80 61 80
split_gain=5.78345e+07 8.55278e+06 6.08794e+06 1.72859e+06 1.57837e+06 1.3944e+06 749637 744110 697524 651713 430384 405795 366196 290559 289248 284711 230128 213248 191365 189175 272957 166823 166186 109104 103053 94073 85031.8 80643.7 148888 61924.9 48199.8 40543.6 37712.6 28456.1 15052 10116.4 8968.67
threshold=5352.5000000000009 4375.5000000000009 32.442697493203717 7429.5000000000009 6167.0000000000009 3805.0000000000005 4781.0000000000009 -532.49999999999989 -902.49999999999989 3598.3590720576854 35.23132547869448 102.50000000000001 -1.7051292512459955e-13 -0.8783796973249266 4572.5000000000009 6250.5000000000009 529.00000000000011 33.612857016563687 27.304166666666671 581.65400864843411 5107.5000000000009 826.52028979036334 5.5000000000000009 8.1770833333333339 0.96849880583763492 3223.115052264809 3975.1402264808366 6232.5000000000009 28.766666666666669 9.8770833333333368 358.59184627022984 3856.5000000000005 1.0000000180025095e-35 -151.49999999999997 -64.499999999999986 3749.3139255954043 115.50000000000001
decision_type=2 2 2 2 2 2 2 2 2 2 2 2 2 2 2 2 2 2 2 2 2 2 2 2 2 2 2 2 2 2 2 2 2 2 2 2 2
left_child=1 5 4 17 8 7 19 -1 -2 22 -5 31 -6 -8 18 29 23 -4 24 -3 -21 -14 -9 -15 26 -24 32 28 -17 -10 -25 34 -7 -28 -11 -34 -27
right_child=2 6 3 10 12 14 13 9 15 11 -12 -13 21 16 -16 27 -18 -19 -20 20 -22 -23 25 30 -26 36 33 -29 -30 -31 -32 -33 35 -35 -36 -37 -38
leaf_value=-24.294655742892971 -0.16769867133145311 -1.6039060379576497 17.149897195945005 29.10222588726057 12.820299912585831 -15.033254852985364 -3.7153035640123471 -20.689868231183272 5.5381486385548655 -15.463131556716867 39.021829724667676 -5.8397144760565736 17.32587181351629 3.6460482096093685 -5.1164303378425409 7.7099344660320561 7.5149450079524689 23.302597055118248 -6.0985383735960399 -9.5544874089468408 -2.1055929308023926 23.204859241087046 -19.017645104575493 1.4729141126035161 -8.1410202406110805 -15.660792939244851 -11.803208169169809 14.489266040216343 13.81585450053808 9.2049348541753204 -1.8429502519208993 -12.265521854878692 -13.251348140583701 -9.4127808544123273 -13.281692483187852 -11.292380040371579 -13.591310222113307
leaf_weight=23 20 38 28 30 35 22 20 34 29 30 20 21 38 37 27 21 21 33 20 28 22 20 21 24 22 21 26 24 20 20 20 39 20 32 21 22 20
leaf_count=23 20 38 28 30 35 22 20 34 29 30 20 21 38 37 27 21 21 33 20 28 22 20 21 24 22 21 26 24 20 20 20 39 20 32 21 22 20
internal_value=-0.0575079 -8.99736 16.6297 26.2247 11.9284 -13.1078 -0.754491 -15.733 8.44439 -14.7704 33.1401 -12.1377 16.9338 1.78223 -9.94008 9.95415 2.86281 20.5112 -10.7306 -4.26939 -6.28782 19.3896 -17.7985 1.64886 -11.3692 -16.1821 -11.9442 12.1287 10.7149 7.0506 -0.0349449 -13.5991 -13.2318 -10.5029 -14.5927 -12.2546 -14.6869
internal_weight=969 631 338 111 227 421 210 230 134 207 50 111 93 122 191 114 102 61 164 88 50 58 96 81 144 62 122 65 41 49 44 90 64 58 51 42 41
internal_count=969 631 338 111 227 421 210 230 134 207 50 111 93 122 191 114 102 61 164 88 50 58 96 81 144 62 122 65 41 49 44 90 64 58 51 42 41
is_linear=0
shrinkage=0.05


Tree=30
num_leaves=37
num_cat=0
split_feature=74 74 74 79 74 55 79 79 79 79 74 79 74 74 79 74 74 70 74 79 74 79 74 79 74 74 79 74 74 74 79 82 64 81 75 79
split_gain=5.47567e+07 9.03718e+06 3.9934e+06 2.36955e+06 1.83632e+06 1.10963e+06 1.09263e+06 1.03897e+06 1.00417e+06 919038 679059 600283 528343 511352 383511 453416 323221 287121 277696 250198 229613 207203 194696 156976 75158.2 62019 59547 43397.4 40379.1 38217.8 26096.9 19827.3 17701.9 17581.5 8413.85 3114.96
threshold=4921.5000000000009 6428.0000000000009 3982.0000000000005 116.50000000000001 7645.0000000000009 5469.5000000000009 -78.565092431281286 494.92643740321347 4.5000000000000009 -348.49999999999994 4344.0000000000009 -447.99999999999994 5436.0000000000009 5703.0000000000009 98.186713286713044 3511.2462020905928 6975.0000000000009 23.489880952380954 6946.5000000000009 199.50000000000003 4622.0000000000009 213.50000000000003 3511.2462020905928 -310.99999999999994 5352.5000000000009 5703.0000000000009 -94.853770481343631 3822.0000000000005 6068.5000000000009 4622.0000000000009 1.0000000180025095e-35 -0.2225209339562689 4565.0000000000009 -0.4338837391175544 3805.0000000000005 -87.44203832752622
decision_type=2 2 2 2 2 2 2 2 2 2 2 2 2 2 2 2 2 2 2 2 2 2 2 2 2 2 2 2 2 2 2 2 2 2 2 2
left_child=2 3 9 5 8 11 20 13 18 -1 19 -2 26 24 15 31 -10 22 -3 32 23 29 -16 -4 -5 -14 -13 30 -7 -12 33 -11 -8 -17 -24 -29
right_child=1 4 6 7 -6 28 10 -9 16 14 21 12 25 -15 17 27 -18 -19 -20 -21 -22 -23 34 -25 -26 -27 -28 35 -30 -31 -32 -33 -34 -35 -36 -37
