tree
version=v4
num_class=1
num_tree_per_iteration=1
label_index=0
max_feature_idx=92
objective=regression
feature_names=temperature_2m relative_humidity_2m dew_point_2m precipitation_mm cloud_cover_pct wind_speed_10m shortwave_radiation is_peak_hour is_night is_morning_ramp quarter hour_sin hour_cos hour dow_sin dow_cos dayofweek month_sin month_cos month doy_sin doy_cos is_weekend heat_index CDD HDD temp_squared temp_x_humidity temp_x_hour temp_ramp_1h temp_ramp_3h season_winter season_spring season_summer season_monsoon season_autumn is_rainy is_heavy_rain is_cloudy is_clear is_daylight solar_high is_holiday is_national_holiday is_festival is_ipl_season days_to_next_holiday days_since_last_holiday is_pre_holiday is_post_holiday aqi_value aqi_severe aqi_poor delhi_mw_rmean_6h delhi_mw_rstd_6h delhi_mw_rmin_6h delhi_mw_rmax_6h delhi_mw_rmean_1d delhi_mw_rstd_1d delhi_mw_rmin_1d delhi_mw_rmax_1d delhi_mw_rmean_7d delhi_mw_rstd_7d delhi_mw_rmin_7d delhi_mw_rmax_7d delhi_mw_rmean_30d delhi_mw_rstd_30d delhi_mw_rmin_30d delhi_mw_rmax_30d temp_rmean_6h temp_rmean_1d CDD_rsum_6h CDD_rsum_1d humidity_rmean_1d delhi_mw_lag_1 delhi_mw_lag_6 delhi_mw_lag_24 delhi_mw_lag_168 delhi_mw_lag_720 delhi_mw_diff_1 delhi_mw_diff_24 fourier_sin_24_1 fourier_cos_24_1 fourier_sin_24_2 fourier_cos_24_2 fourier_sin_24_3 fourier_cos_24_3 fourier_sin_168_1 fourier_cos_168_1 fourier_sin_168_2 fourier_cos_168_2 fourier_sin_168_3 fourier_cos_168_3
feature_infos=[2.7999999999999998:44.600000000000001] [6:100] [2.7999999999999998:26.600000000000001] [0:12.1] [0:100] [0:35.600000000000001] [0:859] [0:1] [0:1] [0:1] [1:4] [-1:1] [-1:1] [0:23] [-0.97492791218182362:0.97492791218182362] [-0.90096886790241903:1] [0:6] [-1:1] [-1:1] [1:12] [-0.9999994220246925:0.99998555065071859] [-0.99997919295908233:0.9999907524084426] [0:1] [2.7999999999999998:43.955422944000013] [0:20.600000000000001] [0:15.199999999999999] [7.839999999999999:1989.1600000000001] [2.238:26.754000000000001] [0:818.80000000000007] [-12.900000000000002:8.0999999999999996] [-14.099999999999998:12.600000000000001] [0:1] [0:1] [0:1] [0:1] [0:1] [0:1] none [0:1] [0:1] [0:1] [0:1] [0:1] [0:1] [0:1] [0:1] [0:50] [0:54] [0:1] [0:1] [47:233] none [0:1] [1444.6231944444444:7437.6515277777771] [0:2233.7347838455039] [1324.5608333333332:6918.0124999999998] [1588.4916666666668:7937.7816666666668] [2094.9196041666669:6651.5555934343429] [152.83244699078782:1853.7785108354515] [1324.5608333333332:5277.1933333333336] [2432.6475:7937.7816666666668] [2754.8592529761904:5175.2617057823127] [679.47598762733332:1594.2213326532481] [1324.5608333333332:2860.4825000000001] [4222.2399999999998:7937.7816666666668] [3305.0097018273004:4516.0597950562169] [831.88370565716571:1481.2269302709906] [1324.5608333333332:1796.9333333333334] [5154.4625000000005:7937.7816666666668] [3.2833333333333332:43.933333333333337] [7.0541666666666663:38.56666666666667] [0:119.59999999999999] [0:349.60000000000002] [16.041666666666668:94.083333333333329] [1324.5608333333332:7937.7816666666668] [1324.5608333333332:7937.7816666666668] [1324.5608333333332:7937.7816666666668] [1324.5608333333332:7937.7816666666668] [1324.5608333333332:7937.7816666666668] [-4160.305151515151:3419.5057575757573] [-4265.587833333333:4262.5906666666669] [-1:1] [-1:1] [-1:1] [-1:1] [-1:1] [-1:1] [-1:1] [-1:1] [-1:1] [-1:1] [-1:1] [-1:1]
tree_sizes=4567 4639 4628 4637 4599 4629 4629 4583 4638 4632 4498 4600 4629 4569 4645 4591 4615 4610 4600 4617 4636 4636 4538 4597 4624 4615 4583 4637 4619 4618 4562 4614 4610 4590 4638 4597 4630 4589 4644 4563 4557 4612 4636 4546 4549 4568 4655 4587 4624 4581 4540 4614 4582 4583 4563 4580 4564 4602 4546 4523 4504 4545 4548 4533 4616 4618 4528 4504 4502 4499 4541 4495 4523 4513 4459 4480 4507 4451 4540 4465 4486 4529 4453 4497 4527 4475 4449 4498 4495 4455 4481 4513 4511 4467 4531 4462 4530 4412 4451 4464 4439 4462 4482 4480 4429 4505 4442 4431 4491 4516 4449 4502 4452 4453 4432 4482 4521 4477 4498 4475 4421 4490 4514 4507 4466 4497 4477 4471 4474 4469 4475 4486 4438 4510 4517 4467 4512 4476 4544 4555 4470 4548 4606 4497 4535 4487 4554 4538 4537 4560 4501 4601 4485 4568 4509 4514 4553 4587 4457 4612 4564 4587 4559 4601 4656 4704 4578 4620 4577 4523 4687 4573 4543 4630 4653 4601 4590 4662 4560 4588 4663 4612 4560 4608 4587 4616 4638 4684 4656 4642 4607 4701 4618 4683 4648 4635 4641 4648 4662 4661 4688 4707 4671 4735 4627 4653 4649 4644 4670 4667 4600 4677 4703 4703 4715 4653 4613 4734 4721 4736 4703 4700 4660 4612 4638 4697 4715 4782 4710 4788 4701 4732 4713 4786 4762 4697 4715 4773 4803 4652 4686 4712 4731 4678 4668 4723 4732 4726 4713 4778 4756 4634 4730 4708 4784 4696 4790 4697 4783 4807 4735 4726 4686 4691 4749 4806 4737 4744 4663 4706 4717 4785 4691 4807 4768 4812 4802 4752 4726 4688 4689 4747 4735 4802 4772 4791 4794 4753 4794 4702 4785 4681 4750 4690 4839 4834 4852 4897 4777 4800 4795 4816 4775 4716 4862 4855 4828 4831 4755 4717 4767 4783 4803 4751 4801 4843 4849 4744 4806 4813 4768 4725 4821 4775 4797 4716 4792 4885 4820 4792 4851 4781 4921 4787 4788 4688 4844 4773 4784 4710 4813 4730 4792 4769 4747 4799 4897 4816 4789 4728 4780 4768 4796 4786 4795 4835 4809 4731 4751 4771 4833 4706 4752 4708 4806 4821 4779 4708 4898 4841 4749 4807 4822 4814 4784 4877 4802 4791 4895 4747 4802 4796 4747 4735 4871 4944 4779 4774 4819 4817 4836 4740 4845 4855 4780 4792 4855 4851 4863 4877 4835 4756 4860 4794 4883 4816 4731 4917 4801 4731 4814 4805 4832 4743 4815 4777 4802 4631 4827 4835 4821 4818 4809 4881 4781 4835 4738 4796 4768 4673 4815 4843 4777 4835 4883 4837 4794 4843 4962 4789 4793 4901 4906 4753 4769 4825 4841 4820 4808 4792 4843 4870 4835 4901 4837 4783 4784 4749 4790 4807 4699 4727 4891 4896 4712 4778 4820 4724 4949 4748 4696 4898 4851 4800 4754 4733 4777 4661 4834 4836 4697 4821 4693 4818 4824 4746 4797 4766 4731 4694 4850 4787 4873 4833 4786 4860 4901 4784 4670 4708 4855 4695 4740 4671 4839 4890 4728 4722 4883 4824 4844 4715 4757 4724 4782 4877 4765 4866 4772 4813 4773 4684 4857 4850 4793 4753 4699 4801 4759 4826 4761 4605 4823 4800 4859 4742 4757 4694 4759 4717 4860 4731 4790 4781 4834 4872 4843 4852 4748 4792 4718 4788 4771 4854 4829 4703 4698 4830 4728 4713 4876 4724 4745 4804 4731 4860 4840 4714 4780 4745 4737 4739 4782 4788 4844 4756 4744 4693 4770 4822 4838 4807 4849 4868 4723 4744 4853 4624 4777 4730 4722 4831 4766 4626 4784 4688 4763 4811 4769 4787 4747 4730 4721 4711 4854 4767 4617 4799 4765 4705 4699 4757 4850 4762 4763 4873 4641 4643 4769 4642 4792 4823 4771 4644 4766 4757 4755 4795 4653 4799 4793 4738 4734 4780 4765 4798 4822 4734 4872 4788 4712 4849 4763

Tree=0
num_leaves=50
num_cat=0
split_feature=74 74 74 8 74 74 74 55 79 79 79 79 79 79 74 79 13 74 79 56 79 79 12 79 79 74 79 79 74 79 79 56 55 74 55 55 74 74 79 80 74 74 79 79 74 79 13 79 79
split_gain=9.35706e+09 1.80889e+09 1.40039e+09 2.46933e+08 2.34557e+08 2.00704e+08 1.79391e+08 1.13395e+08 8.3183e+07 7.5163e+07 6.52434e+07 6.06938e+07 5.8543e+07 5.52839e+07 4.44803e+07 4.12863e+07 4.02058e+07 2.87666e+07 2.86149e+07 2.80406e+07 2.65365e+07 2.60202e+07 2.38521e+07 1.88962e+07 1.77457e+07 1.7681e+07 1.75914e+07 1.67705e+07 1.43712e+07 1.42058e+07 1.31462e+07 1.30098e+07 1.26116e+07 1.2537e+07 1.25083e+07 1.20749e+07 1.02101e+07 1.01835e+07 1.01487e+07 8.97838e+06 8.96246e+06 8.27902e+06 8.04233e+06 7.47005e+06 7.07219e+06 6.83471e+06 5.82191e+06 5.80405e+06 5.51391e+06
threshold=4051.7850000000003 2898.4196666666671 5202.5112500000005 1.0000000180025095e-35 3451.3141666666666 4612.3633333333337 5829.9520833333345 2069.063333333334 -1199.0149999999999 20.499499999999902 150.94375000000039 75.143333333333217 90.483750000000114 -16.968749999999769 6473.8941666666678 464.4004166666669 1.0000000180025095e-35 3770.8000000000006 13.257083333333187 2888.3996590909096 543.87166666666656 324.0149999999997 0.98296291314453421 -609.54071969696963 573.70249999999999 4345.5479166666673 -200.39750000000024 -820.39983333333373 3183.356666666667 971.20999999999992 204.56458333333333 5235.9779166666676 2371.9812500000003 4910.3866666666672 1798.3504166666667 4337.335 5503.9712500000014 4300.640416666668 -149.9516666666668 502.69249999999994 3206.9100000000003 3759.2550000000006 1216.665492424243 971.20999999999992 5536.3004166666678 1216.665492424243 1.5000000000000002 77.5787499999998 -220.23249999999959
decision_type=2 2 2 2 2 2 2 2 2 2 2 2 2 2 2 2 2 2 2 2 2 2 2 2 2 2 2 2 2 2 2 2 2 2 2 2 2 2 2 2 2 2 2 2 2 2 2 2 2
left_child=1 3 5 19 9 11 13 21 35 22 17 16 23 27 18 32 -2 26 -10 -1 40 34 28 -7 41 -18 46 -4 -3 37 -21 -14 -9 -25 -5 -8 -15 -13 -19 -23 -11 -12 -17 -33 -29 -26 -6 -16 -30
right_child=2 4 6 7 10 12 8 15 14 20 24 29 31 36 47 42 25 38 -20 30 -22 39 -24 33 45 -27 -28 44 48 -31 -32 43 -34 -35 -36 -37 -38 -39 -40 -41 -42 -43 -44 -45 -46 -47 -48 -49 -50
leaf_value=3853.5363853239669 3849.9061156660696 3861.5269397613288 3885.2791722510169 3833.8251703465276 3849.3721900543774 3866.9340632361791 3876.3906745551517 3846.7099923359337 3929.2214640589223 3869.5254897493628 3883.6768304904335 3896.3772931190329 3910.5254367337952 3922.6925512324988 3944.629734406999 3870.7905058116776 3888.434508733003 3878.3921429299544 3941.0106194787068 3858.7733015049257 3885.570350215613 3847.7643799001589 3846.5129133374567 3900.8355102733144 3898.3387443567253 3894.9633405266909 3877.4097723419891 3912.8979938655411 3864.0339706822019 3930.5574785427902 3868.1202120173702 3917.8074271393384 3854.4744151176756 3907.0896654175476 3839.9643695856503 3907.9503635963756 3930.1691919978043 3903.3258854492806 3884.3418489265296 3875.7640324186332 3875.2178546430468 3891.020024066238 3897.2879545197125 3939.599347578137 3919.5620846594297 3922.9083922436562 3870.3620208401353 3956.9598040769984 3869.3283466726798
leaf_weight=182 11.999999999999998 374 9.9999999999999982 459 6.9999999999999991 6.9999999999999991 9.0000000000000018 292 262 289 166 202 220 233 115 15.999999999999998 496 247 225 128 95 93 39 372 38 399 654 250 164 7.9999999999999991 232 172 214 336 404 20 237 269 397 6.9999999999999991 310 160 9.0000000000000018 9.9999999999999982 163 6.9999999999999991 187 56 340
leaf_count=182 12 374 10 459 7 7 9 292 262 289 166 202 220 233 115 16 496 247 225 128 95 93 39 372 38 399 654 250 164 8 232 172 214 336 404 20 237 269 397 7 310 160 9 10 163 7 187 56 340
internal_value=3884.44 3864.83 3910.9 3847.58 3874.95 3900.16 3927.9 3842.73 3936.8 3868.51 3880.53 3894.29 3907.44 3921.03 3938.48 3851.38 3890.78 3878.38 3934.74 3860.96 3874.25 3837.99 3864.18 3903.45 3889.18 3891.35 3875.59 3914.87 3864.99 3900.93 3864.76 3914.5 3849.95 3903.82 3836.66 3898.2 3926.52 3900.37 3882.06 3849.66 3872.46 3887.29 3880.42 3919.2 3915.58 3902.65 3869.49 3948.93 3867.58
internal_weight=9593 5510 4083 2036 3474 2503 1580 1494 687 1611 1863 1386 1117 893 658 531 907 1492 487 542 694 963 917 715 371 895 848 423 878 479 360 402 506 708 863 29 470 471 644 100 599 326 25 182 413 45 194 171 504
internal_count=9593 5510 4083 2036 3474 2503 1580 1494 687 1611 1863 1386 1117 893 658 531 907 1492 487 542 694 963 917 715 371 895 848 423 878 479 360 402 506 708 863 29 470 471 644 100 599 326 25 182 413 45 194 171 504
is_linear=0
shrinkage=1


Tree=1
num_leaves=50
num_cat=0
split_feature=74 74 74 74 8 74 74 55 79 79 79 79 79 79 79 79 54 74 79 79 79 79 74 12 79 74 74 79 55 79 74 79 56 74 55 56 74 74 74 74 79 55 79 79 79 79 79 79 56
split_gain=8.80777e+09 1.5559e+09 1.54972e+09 2.50544e+08 2.47261e+08 1.94581e+08 1.68958e+08 1.02956e+08 8.12567e+07 7.51758e+07 7.38973e+07 6.84266e+07 6.20694e+07 6.00769e+07 5.11572e+07 4.10863e+07 3.12577e+07 3.05249e+07 2.77724e+07 2.77529e+07 2.45261e+07 2.27627e+07 2.02903e+07 1.99309e+07 1.85357e+07 1.78177e+07 1.76488e+07 1.69387e+07 1.65013e+07 1.60268e+07 1.55434e+07 1.5376e+07 1.40771e+07 1.36021e+07 1.24144e+07 1.18083e+07 9.69805e+06 9.69607e+06 9.42954e+06 9.37782e+06 8.00819e+06 7.98957e+06 7.50122e+06 7.28581e+06 5.86136e+06 5.59267e+06 5.48524e+06 4.92495e+06 4.64064e+06
threshold=3945.9020833333338 5178.6854166666681 2917.7491666666674 4513.2879166666671 1.0000000180025095e-35 6016.2833333333347 3451.3141666666666 2140.3565909090917 -1199.0149999999999 -8.3708333333333922 -1199.0149999999999 -21.584999999999805 23.489583333333034 102.35333333333348 16.878749999999858 -1887.2625378787873 440.80767682921822 6473.8941666666678 -820.39983333333373 543.87166666666656 573.70249999999999 308.65875000000034 4830.7550000000001 0.98296291314453421 -1199.0149999999999 5536.3004166666678 5586.7616666666681 -63.085416666666099 1777.6216666666667 397.49094696969706 4211.9741666666678 397.49094696969706 5217.8204166666674 3694.6029166666672 4133.6970833333344 2658.3258333333338 3694.6029166666672 3206.9100000000003 3206.9100000000003 4243.632613636365 971.20999999999992 2371.9812500000003 1216.665492424243 182.41333333333344 -513.51696969696934 -165.11374999999995 -177.94875000000044 -223.69124999999983 2658.3258333333338
decision_type=2 2 2 2 2 2 2 2 2 2 2 2 2 2 2 2 2 2 2 2 2 2 2 2 2 2 2 2 2 2 2 2 2 2 2 2 2 2 2 2 2 2 2 2 2 2 2 2 2
left_child=2 3 4 12 16 9 11 21 34 15 -5 23 18 22 24 -3 35 27 -2 37 41 28 -12 38 -8 -17 -11 -10 -6 36 -20 39 -15 46 -7 -1 -16 -13 -4 -14 -34 -9 -33 -19 -27 -24 -26 -35 -23
right_child=1 5 6 10 7 8 14 20 17 26 13 19 31 32 29 25 -18 43 30 -21 -22 48 45 -25 33 44 -28 -29 -30 -31 -32 42 40 47 -36 -37 -38 -39 -40 -41 -42 -43 -44 -45 -46 -47 -48 -49 -50
leaf_value=-33.345055626492744 -32.062688914931471 -22.807022000135142 -22.425989810828053 -34.716202128805243 -49.585866755482975 -12.728812261362339 -40.119951644440192 -35.825055561040976 45.206216235397598 38.976978647242568 14.613519821024877 -14.992960029644468 8.4419774619915504 24.818413736659032 -3.9256333266520391 27.69693123737169 -14.976708648245351 60.353344709919469 0.80938169076720723 1.5334537835270572 -5.4598490253661911 -35.9829344201856 18.887342080974193 -36.409881531360099 -13.7854105693339 18.713760929866027 47.663425414594023 57.876041788678251 -42.910501738687991 11.68563260424169 6.966174965535024 19.158171872956665 32.111269726429327 -9.0290300015689784 23.022963326239388 -23.839778952532157 1.8756849307668708 -9.66330659044851 -16.952975178363104 14.739595041451173 55.444061861599273 -29.071176448495535 41.430701967701786 73.39058560929648 36.816097722993035 24.439991863700882 -8.6282181211923774 -3.811805042622332 -15.889781780504169
leaf_weight=103 10.999999999999998 6.9999999999999991 336 11.999999999999998 409 7.0000000000000027 8.9999999999999982 212 134 303 460 364 279 257 307 298 192 121 449 86 19 113 214 40 189 11.999999999999998 260 132 511 57 424 83 176 132 15.999999999999998 265 305 375 367 235 8.9999999999999982 219 8.9999999999999982 56 266 210 276 359 7.9999999999999991
leaf_count=103 11 7 336 12 409 7 9 212 134 303 460 364 279 257 307 298 192 121 449 86 19 113 214 40 189 12 260 132 511 57 424 83 176 132 16 265 305 375 367 235 9 219 9 56 266 210 276 359 8
internal_value=0.146059 24.0593 -20.0666 13.7455 -35.7172 42.1405 -10.0367 -40.6295 54.7495 36.9853 20.9886 -15.4441 7.23504 21.5094 -4.84362 31.0988 -22.6064 56.9434 3.33322 -10.8572 -31.3121 -44.6354 18.0116 -20.5234 -8.23989 31.7787 43.0384 51.6183 -45.9108 0.058554 3.80256 12.9172 28.4684 -7.91291 12.0915 -26.5539 -1.03552 -12.2993 -19.587 11.3361 33.4351 -32.4418 21.6103 64.7296 36.0798 21.6704 -10.7406 -5.22441 -34.7458
internal_weight=9693 4440 5253 2828 2051 1612 3202 1491 466 1146 1338 1568 1490 1326 1634 583 560 443 884 825 450 1041 884 743 965 576 563 266 920 669 873 606 442 956 23 368 612 739 703 514 185 431 92 177 278 424 465 491 121
internal_count=9693 4440 5253 2828 2051 1612 3202 1491 466 1146 1338 1568 1490 1326 1634 583 560 443 884 825 450 1041 884 743 965 576 563 266 920 669 873 606 442 956 23 368 612 739 703 514 185 431 92 177 278 424 465 491 121
is_linear=0
shrinkage=0.0230652


Tree=2
num_leaves=50
num_cat=0
split_feature=74 74 74 12 74 74 74 55 79 79 79 79 79 79 79 79 79 79 79 56 79 79 79 55 56 74 79 79 74 74 56 56 74 55 12 55 74 74 55 74 79 79 79 74 55 56 56 54 11
split_gain=8.51862e+09 1.52364e+09 1.44272e+09 2.26017e+08 2.13588e+08 1.757e+08 1.66623e+08 1.12024e+08 7.34355e+07 7.29689e+07 7.22353e+07 6.71274e+07 5.99715e+07 5.28177e+07 4.64188e+07 4.35423e+07 4.23931e+07 2.74958e+07 2.54811e+07 2.48953e+07 2.22678e+07 2.05593e+07 2.01753e+07 1.98736e+07 1.93297e+07 1.89488e+07 1.87191e+07 1.59946e+07 1.50852e+07 1.4159e+07 1.40197e+07 1.36922e+07 1.29433e+07 1.18643e+07 1.14797e+07 1.1108e+07 1.0754e+07 1.0186e+07 8.96308e+06 8.44623e+06 8.38328e+06 7.4676e+06 7.08399e+06 6.00792e+06 5.36138e+06 5.09783e+06 4.95492e+06 4.82067e+06 4.61052e+06
threshold=3945.9020833333338 2881.499166666667 5154.2537500000008 0.25881904510252057 4529.199583333334 6016.2833333333347 3451.3141666666666 2069.063333333334 -1887.2625378787873 -1199.0149999999999 -8.3708333333333922 13.257083333333187 23.489583333333034 59.294393939394247 50.531250000000007 751.68666666666684 -1887.2625378787873 806.79124999999988 543.87166666666656 2888.3996590909096 -234.74833333333342 324.0149999999997 -820.39983333333373 2949.089507575758 5804.8700000000017 5503.9712500000014 -269.99208333333348 331.42041666666643 4183.8891666666677 4788.7929166666681 5132.7158333333346 6697.0812500000002 4257.640416666668 1751.1408333333336 0.98296291314453421 2371.9812500000003 6565.1789166666686 3671.5633333333335 2876.669166666667 3206.9100000000003 806.79124999999988 213.52712121212065 -820.39983333333373 3712.5316666666672 4120.713333333334 3219.9641666666671 4657.4020833333334 611.47474792075957 -0.70710678118654735
decision_type=2 2 2 2 2 2 2 2 2 2 2 2 2 2 2 2 2 2 2 2 2 2 2 2 2 2 2 2 2 2 2 2 2 2 2 2 2 2 2 2 2 2 2 2 2 2 2 2 2
left_child=1 3 4 19 12 10 11 21 44 -6 16 23 22 29 26 35 -4 32 39 -1 36 33 -2 34 -12 -18 38 43 -24 -11 -15 -22 -14 -5 -3 -9 -10 -28 -8 -13 -32 -21 -27 -16 -7 -43 -29 -17 -26
right_child=2 6 5 7 9 8 14 15 20 13 24 18 17 30 27 47 25 -19 -20 41 31 -23 28 -25 48 42 37 46 -30 -31 40 -33 -34 -35 -36 -37 -38 -39 -40 -41 -42 45 -44 -45 -46 -47 -48 -49 -50
leaf_value=-28.657682384022234 -29.54984803016001 -21.681498784396737 -21.249715205580529 -48.647928852501018 -34.918471986515463 -13.203107118154341 -37.038035025900044 -35.493554395395741 43.020918931968296 13.613744908950299 36.515511533212361 -14.360005021587359 9.1350205985557782 22.956956113011007 -3.2546924496476994 -8.0507808525406315 26.485898644977595 43.229598613836949 0.99724983740950912 -23.236446573270939 53.937269483279948 -33.640187372562877 0.52251396622142765 -15.99163881020645 40.701033624101228 14.540151137777629 -8.9002424833224723 8.0282292248030345 6.6654983771063021 19.996742226107887 29.787545464791553 66.34240593204477 15.84208750050113 -42.790568485039316 -34.909703809637321 -28.482438891035351 55.570720274072087 -3.7819379073483401 -12.735297916782182 -8.8672996153704631 49.657140180876461 -18.24129027513704 35.591404037276327 1.9168416213699477 14.113812972442986 -11.038626329773814 26.698314926686322 14.008380477535887 47.744108990117041
leaf_weight=161 8.9999999999999982 393 7.9999999999999991 398 11.999999999999998 6.9999999999999982 7.9999999999999991 318 125 343 254 302 345 251 266 11.000000000000002 291 14.999999999999998 99 85 162 97 375 459 116 9.9999999999999982 367 74 491 422 224 99 281 504 40 231 71 477 196 304 12.999999999999998 121 297 216 7 100 7.9999999999999991 8.9999999999999982 219
leaf_count=161 9 393 8 398 12 7 8 318 125 343 254 302 345 251 266 11 291 15 99 85 162 97 375 459 116 10 367 74 491 422 224 99 281 504 40 231 71 477 196 304 13 121 297 216 7 100 8 9 219
internal_value=0.108224 -19.8047 23.5894 -35.4142 13.416 40.5599 -9.90071 -39.6128 52.5332 20.4121 35.815 -15.18 7.57196 20.9597 -4.66661 -31.3639 30.148 12.9287 -9.8463 -21.282 54.125 -44.2878 3.64112 -19.3853 41.6061 30.8578 -7.53647 0.668566 4.0078 17.1487 26.9034 58.7946 12.1589 -45.408 -22.9536 -32.5804 47.7344 -6.01265 -13.8021 -11.6169 31.0093 -17.3492 34.9376 -0.937689 0.475254 -15.0238 10.0439 2.00325 45.3882
internal_weight=9691 5244 4447 2035 2781 1666 3209 1568 471 1265 1195 1597 1516 1253 1612 569 606 641 705 467 457 999 875 892 589 598 1048 564 866 765 488 261 626 902 433 549 196 844 204 606 237 306 307 482 14 221 82 20 335
internal_count=9691 5244 4447 2035 2781 1666 3209 1568 471 1265 1195 1597 1516 1253 1612 569 606 641 705 467 457 999 875 892 589 598 1048 564 866 765 488 261 626 902 433 549 196 844 204 606 237 306 307 482 14 221 82 20 335
is_linear=0
shrinkage=0.0230652


Tree=3
num_leaves=50
num_cat=0
split_feature=74 74 74 8 74 74 74 55 79 79 79 74 79 79 79 79 79 79 54 79 79 79 79 12 55 79 12 79 74 55 74 74 74 79 55 56 80 56 74 74 74 79 74 79 56 56 55 74 79
split_gain=8.07186e+09 1.48869e+09 1.31685e+09 2.23037e+08 1.96613e+08 1.57653e+08 1.52687e+08 1.03607e+08 8.03587e+07 6.74032e+07 6.57076e+07 6.07632e+07 5.13626e+07 4.98707e+07 4.79304e+07 4.33754e+07 4.2397e+07 3.11475e+07 2.6884e+07 2.47939e+07 2.27888e+07 2.24819e+07 2.15976e+07 1.95894e+07 1.91838e+07 1.87772e+07 1.73833e+07 1.69548e+07 1.29951e+07 1.2835e+07 1.19113e+07 1.19064e+07 1.09428e+07 1.07279e+07 1.04221e+07 9.62501e+06 9.32262e+06 9.0238e+06 8.4563e+06 8.35672e+06 7.9196e+06 7.47022e+06 6.34025e+06 6.14477e+06 5.33878e+06 5.32698e+06 5.14599e+06 4.70337e+06 4.40429e+06
threshold=3968.8458333333342 2917.7491666666674 5072.05375 1.0000000180025095e-35 5666.8004166666678 3476.9100000000003 4513.2879166666671 2047.6470833333335 -1199.0149999999999 -820.39983333333373 9.5397500000001418 6326.3995833333347 26.590416666666446 -14.257500000000162 16.878749999999858 102.35333333333348 806.79124999999988 67.624583333333263 425.85596512251294 295.5554166666671 543.87166666666656 -820.39983333333373 -1199.0149999999999 0.98296291314453421 4076.3508333333343 971.20999999999992 0.98296291314453421 308.65875000000034 4243.632613636365 2371.9812500000003 3219.8787500000003 3694.6029166666672 4770.9066666666677 666.71166666666693 1710.801666666667 2658.3258333333338 564.17249999999956 5580.4850000000015 4271.105833333334 3265.4987500000007 5370.3879166666675 154.43720238095219 3694.6029166666672 971.20999999999992 3179.2862500000006 5020.0269318181827 5010.6450000000013 6847.0800000000008 -189.19666666666623
decision_type=2 2 2 2 2 2 2 2 2 2 2 2 2 2 2 2 2 2 2 2 2 2 2 2 2 2 2 2 2 2 2 2 2 2 2 2 2 2 2 2 2 2 2 2 2 2 2 2 2
left_child=1 3 6 18 13 10 12 19 24 -8 26 17 21 22 23 32 29 -10 35 34 39 -2 -4 31 -6 38 30 42 -23 -9 -3 48 -11 45 -5 -1 -21 -15 -14 -12 -24 47 -16 -29 -20 -17 -26 -13 -7
right_child=2 5 4 7 8 14 9 16 11 15 20 41 25 37 27 33 -18 -19 44 36 -22 28 40 -25 46 -27 -28 43 -30 -31 -32 -33 -34 -35 -36 -37 -38 -39 -40 -41 -42 -43 -44 -45 -46 -47 -48 -49 -50
leaf_value=-31.464874363552259 -28.09867625536813 -20.634612442186732 -13.261481773083425 -48.428890035946615 -20.273999076418864 -13.102495078304573 -34.224897208602982 -35.010916213225045 39.232127423802709 13.483298618113569 -13.026815329235614 51.464362723723596 9.6430400614998106 32.227785304037901 -3.5878094568893464 21.306419216008344 2.857903905107976 50.343864398840125 -19.130584479615596 -34.955797068727165 1.7446191926629733 1.3958611778604795 23.673532443204049 -37.0282456125382 13.120663743179202 43.348399729247284 -34.872462240812524 7.3148841681994066 7.2982616242325919 -27.762397013518903 -15.05508580516331 -4.4571662997156682 19.117023793612113 47.609272129854297 -42.499411512398979 -22.807011335456938 -6.8749798121078305 39.422137110043145 15.498045692754047 -7.5668116241488672 30.022507264156665 66.677026357470538 1.4717815591873167 28.836541166823601 -11.427354613741249 27.499737561276007 34.013772048837517 62.785163952760776 -8.0275733892772383
leaf_weight=103 10.999999999999998 406 6.9999999999999991 310 6.9999999999999991 140 11.999999999999998 345 331 379 333 115 302 177 244 136 19 255 87 124 92 419 258 10.999999999999998 19.000000000000004 9.9999999999999982 33 113 377 242 434 498 375 11.999999999999998 519 256 6.9999999999999991 285 240 277 209 63 285 6.9999999999999991 117 221 9.9999999999999982 49 277
leaf_count=103 11 406 7 310 7 140 12 345 331 379 333 115 302 177 244 136 19 255 87 124 92 419 258 11 19 10 33 113 377 242 434 498 375 12 519 256 7 285 240 277 209 63 285 7 117 221 10 49 277
internal_value=-0.0439417 -19.1263 23.4973 -34.0224 38.6191 -9.05351 12.6671 -38.5027 46.6764 18.9108 -14.2122 48.1703 7.44614 31.2835 -3.89106 19.4979 -30.9598 44.1175 -21.5305 -43.2401 -8.94561 3.73272 25.9472 -7.25775 12.6849 12.8643 -18.4375 0.914999 4.19499 -32.0564 -17.7656 -6.87402 16.2992 25.9942 -44.7526 -25.343 -33.4963 36.7146 12.251 -10.5581 26.5524 58.478 -0.863466 8.71779 -14.7625 25.1831 20.9085 55.0795 -9.74899
internal_weight=9558 5279 4279 2129 1785 3150 2494 1566 849 1135 1575 813 1359 936 1575 1123 606 586 563 960 702 807 474 926 36 552 873 649 796 587 840 915 754 369 829 359 131 462 542 610 467 227 529 120 204 357 29 164 417
internal_count=9558 5279 4279 2129 1785 3150 2494 1566 849 1135 1575 813 1359 936 1575 1123 606 586 563 960 702 807 474 926 36 552 873 649 796 587 840 915 754 369 829 359 131 462 542 610 467 227 529 120 204 357 29 164 417
is_linear=0
shrinkage=0.0230652


Tree=4
num_leaves=50
num_cat=0
split_feature=74 74 74 8 74 74 74 55 79 79 79 79 79 79 79 74 79 56 79 79 79 79 79 56 79 12 79 74 55 74 74 79 56 55 74 74 74 79 13 12 55 74 74 56 74 56 79 79 79
split_gain=7.62834e+09 1.35714e+09 1.34257e+09 2.17308e+08 1.89366e+08 1.71189e+08 1.44781e+08 8.75822e+07 7.52248e+07 5.90895e+07 5.83097e+07 5.67175e+07 5.15745e+07 4.85684e+07 4.72484e+07 4.02389e+07 3.33364e+07 2.3633e+07 2.32816e+07 2.17524e+07 2.12615e+07 2.05757e+07 1.95142e+07 1.78228e+07 1.50566e+07 1.50409e+07 1.49246e+07 1.3574e+07 1.33225e+07 1.28783e+07 1.23059e+07 1.21218e+07 1.12885e+07 1.08852e+07 1.06853e+07 9.70044e+06 9.41104e+06 8.09002e+06 7.69364e+06 7.53676e+06 7.53078e+06 7.09503e+06 6.86643e+06 6.81445e+06 6.17299e+06 5.73724e+06 4.46771e+06 4.1846e+06 3.72732e+06
threshold=3945.9020833333338 2917.7491666666674 5110.6341666666676 1.0000000180025095e-35 5864.1625000000013 4513.2879166666671 3437.3383333333336 2003.5015277777779 -1199.0149999999999 -820.39983333333373 -16.968749999999769 1.0000000180025095e-35 120.52874999999996 43.143333333332983 46.416249999999998 6473.8941666666678 -1199.0149999999999 2825.4570833333337 500.58416666666704 67.624583333333263 436.04041666666654 573.70249999999999 236.41916666666683 5743.695833333335 -329.11833333333283 0.98296291314453421 -266.97208333333305 4229.9712500000005 2323.5962500000005 5474.2712500000016 5397.9366666666674 204.56458333333333 5060.6533333333346 4337.335 4830.7550000000001 3183.356666666667 3681.0820833333341 857.7756250000001 6.5000000000000009 0.91597561503675351 1710.801666666667 3712.5316666666672 3206.9100000000003 4972.8975000000009 4229.9712500000005 3179.2862500000006 -121.58666666666703 -99.492500000000049 -89.824166666666756
decision_type=2 2 2 2 2 2 2 2 2 2 2 2 2 2 2 2 2 2 2 2 2 2 2 2 2 2 2 2 2 2 2 2 2 2 2 2 2 2 2 2 2 2 2 2 2 2 2 2 2
left_child=1 3 5 17 10 12 11 22 -7 33 16 25 24 34 26 19 -4 -1 42 -11 28 41 40 44 39 35 38 47 -9 -12 -18 -19 -15 -6 -10 -3 -28 -34 -8 -2 -5 -16 -13 -23 -14 -33 -17 -26 -29
right_child=2 6 4 7 9 8 14 20 13 15 29 18 23 32 21 46 30 31 -20 -21 -22 43 -24 -25 27 -27 36 48 -30 -31 -32 45 37 -35 -36 -37 -38 -39 -40 -41 -42 -43 -44 -45 -46 -47 -48 -49 -50
leaf_value=-29.285217883742153 -3.3669171313432757 -20.740644569805649 -13.859559703501203 -47.691531949927054 -7.7685847429045749 -33.209567801990296 -35.882387665850203 -35.339968503117134 13.049668601467859 41.787709988505448 34.303545847590243 -13.551481406304294 10.199108694654937 20.828148087329559 -2.6146854993350988 55.789950693277433 23.744149233641195 -23.268210530950693 1.517298503674128 52.454210074749803 -9.0521264530029946 11.230433142411851 -34.904134493801401 45.1493671439544 0.28757503117036254 -32.657933909837851 -8.5564193436161151 6.1387763170515406 -27.951232126361418 41.969830042810244 31.183016669683344 -18.360158980911098 27.205956683815835 24.226991838786649 18.809560032062336 -15.329165624490802 -3.6259231775423619 47.956502094494809 -11.983592052236643 -27.76609612685235 -42.156799170792517 2.7215203594055963 -8.6153371502260594 33.916649027623244 15.919356344063756 -11.283482940553217 66.936071681452006 4.4870397943586635 10.353821586184013
leaf_weight=136 59 343 9.9999999999999982 279 7.0000000000000027 13.999999999999998 6.9999999999999991 308 393 263 272 314 197 208 296 96 228 152 88 200 23 31 158 8.9999999999999982 236 39 384 258 262 257 287 129 277 24 318 392 447 10.999999999999998 193 6.9999999999999991 447 239 298 8.9999999999999982 218 125 62 271 203
leaf_count=136 59 343 10 279 7 14 7 308 393 263 272 314 197 208 296 96 228 152 88 200 23 31 158 9 236 39 384 258 262 257 287 129 277 24 318 392 447 11 193 7 447 239 298 9 218 125 62 271 203
internal_value=0.425155 -18.7568 22.73 -33.4512 38.7202 12.5405 -9.11936 -38.039 18.9105 48.5172 32.6338 -14.338 7.19988 19.5324 -4.32586 50.0717 27.1116 -20.9188 -9.56595 46.4618 -31.1007 0.971224 -42.6672 13.9692 4.41708 -18.6422 -7.27886 5.14452 -31.9792 38.0746 27.9235 -18.0742 25.0838 16.991 15.6405 -17.8705 -5.90915 28.1039 -12.9327 -6.19842 -44.3242 -0.230437 -11.1595 16.7921 13.224 -14.915 60.4181 2.53511 8.00674
internal_weight=9484 5099 4385 2019 1706 2679 3080 1477 1221 652 1054 1474 1458 1207 1606 621 525 542 700 463 593 575 884 424 1034 774 1031 968 570 529 515 406 496 31 711 735 831 288 200 66 726 535 612 40 415 254 158 507 461
internal_count=9484 5099 4385 2019 1706 2679 3080 1477 1221 652 1054 1474 1458 1207 1606 621 525 542 700 463 593 575 884 424 1034 774 1031 968 570 529 515 406 496 31 711 735 831 288 200 66 726 535 612 40 415 254 158 507 461
is_linear=0
shrinkage=0.0230652


Tree=5
num_leaves=50
num_cat=0
split_feature=74 74 74 8 74 74 74 55 79 79 79 79 79 79 79 79 79 79 54 79 74 79 74 79 74 55 74 79 79 79 79 79 55 74 55 56 56 55 74 74 74 74 74 79 54 79 79 55 79
split_gain=7.50528e+09 1.35268e+09 1.2834e+09 2.03017e+08 1.95515e+08 1.49937e+08 1.47582e+08 9.44834e+07 6.4185e+07 5.76828e+07 5.72399e+07 5.72037e+07 5.36366e+07 4.69968e+07 3.67747e+07 3.09056e+07 2.98999e+07 2.85519e+07 2.3908e+07 2.02909e+07 1.99252e+07 1.96115e+07 1.95244e+07 1.90079e+07 1.64054e+07 1.58213e+07 1.53596e+07 1.38774e+07 1.38399e+07 1.34591e+07 1.34469e+07 1.20628e+07 1.17295e+07 1.1589e+07 1.1151e+07 1.06101e+07 9.63309e+06 9.44247e+06 8.82976e+06 8.39712e+06 8.08605e+06 7.42757e+06 7.12154e+06 6.3616e+06 6.01743e+06 4.51359e+06 4.16918e+06 4.13733e+06 4.13187e+06
threshold=3958.9600000000005 2898.4196666666671 5154.2537500000008 1.0000000180025095e-35 4563.0925000000007 6016.2833333333347 3418.750833333334 2047.6470833333335 -65.210416666666774 -820.39983333333373 -8.3708333333333922 -50.103333333333232 80.191250000000096 46.416249999999998 -1199.0149999999999 -820.39983333333373 445.11749999999944 573.70249999999999 512.62825492784202 324.0149999999997 4300.640416666668 -820.39983333333373 6473.8941666666678 -281.60750000000002 5503.9712500000014 4737.2441666666673 5639.4605555555563 359.26166666666637 -609.54071969696963 -2.8579166666668239 971.20999999999992 806.79124999999988 2786.1425000000004 3681.0820833333341 2371.9812500000003 4490.8741666666674 2754.1641666666669 1725.5087500000002 4750.2520833333338 3206.9100000000003 4910.3866666666672 3134.2579166666669 3712.5316666666672 -142.72166666666632 253.27432012956959 241.92958333333311 6.5029166666670344 4311.6729166666673 267.82708333333352
decision_type=2 2 2 2 2 2 2 2 2 2 2 2 2 2 2 2 2 2 2 2 2 2 2 2 2 2 2 2 2 2 2 2 2 2 2 2 2 2 2 2 2 2 2 2 2 2 2 2 2
left_child=1 3 4 18 12 10 8 19 28 25 21 14 15 23 -6 -2 39 34 36 37 43 47 29 32 -12 -7 -23 42 -3 -11 35 38 -8 -25 -9 -14 -1 -5 -13 -10 -16 -30 -15 -17 -21 -40 -38 -4 -37
right_child=2 6 5 7 11 9 13 17 16 22 24 31 30 27 40 20 -18 -19 -20 44 -22 26 -24 33 -26 -27 -28 -29 41 -31 -32 -33 -34 -35 -36 48 46 -39 45 -41 -42 -43 -44 -45 -46 -47 -48 -49 -50
leaf_value=-29.032318160211499 -30.15528984515878 -37.82993974468738 -8.3898265826799285 -45.884995890484767 -28.301412761521618 -2.299035434339038 -35.432734130599485 -33.485119317213211 -14.440395269583883 42.376585292486375 34.257722129642367 19.800023120854899 8.7094378708055746 -3.2519154666247951 12.910018894638046 -0.28911257172388322 0.63354092518932981 -3.7435764638496738 -12.585229814195706 -32.771675122817292 8.6088890869649628 26.212372225305906 58.234896662380109 -8.6897378455218224 42.641090562229365 30.887620103575784 34.600325102970835 9.2168064996269283 -22.670900147614805 52.927985435469594 42.166586319840611 48.313659288040618 -12.278371963915811 -3.5155595897331375 -26.587648739796531 12.930251783647442 -25.925160237463196 -40.456983288866574 24.020370005983288 -9.6086865984583216 18.676090396085986 -17.235427112755058 2.1108461949312272 4.378060214291696 -9.5271893706519357 29.518805965367505 -19.086790719142677 13.186695722197456 18.463028200001798
leaf_weight=124 12.999999999999998 23 7.0000000000000027 342 9.9999999999999982 11.999999999999998 11.999999999999998 329 402 163 245 203 198 292 352 297 112 22 147 96 430 344 156 438 315 20 193 84 242 146 7.9999999999999991 10.999999999999998 192 488 235 160 73 543 284 379 215 342 239 325 6.9999999999999991 139 195 11.999999999999998 147
leaf_count=124 13 23 7 342 10 12 12 329 402 163 245 203 198 292 352 297 112 22 147 96 430 344 156 438 315 20 193 84 242 146 8 11 192 488 235 160 73 543 284 379 215 342 239 325 7 139 195 12 147
internal_value=-0.170106 -18.5058 22.1318 -32.8651 12.6641 38.5082 -9.15092 -37.0527 -14.4551 49.0855 33.7721 19.6214 7.30584 -4.58778 14.332 4.34999 -10.5085 -29.6401 -20.6068 -41.427 4.7946 28.4504 51.1517 -7.37897 39.017 18.643 29.2649 0.543094 -20.2439 47.4619 13.4291 24.3932 -13.7478 -5.9673 -30.6448 12.9206 -23.5893 -42.5865 23.9236 -12.1056 15.1152 -19.5103 -0.838531 2.15153 -31.2611 25.8694 -21.0073 5.22287 15.6127
internal_weight=9763 5358 4405 2113 2792 1613 3245 1574 1500 497 1116 1214 1578 1745 577 1065 893 586 539 988 1052 556 465 1130 560 32 537 615 607 309 513 637 204 926 564 505 392 885 626 781 567 584 531 622 103 423 268 19 307
internal_count=9763 5358 4405 2113 2792 1613 3245 1574 1500 497 1116 1214 1578 1745 577 1065 893 586 539 988 1052 556 465 1130 560 32 537 615 607 309 513 637 204 926 564 505 392 885 626 781 567 584 531 622 103 423 268 19 307
is_linear=0
shrinkage=0.0230652


Tree=6
num_leaves=50
num_cat=0
split_feature=74 74 74 8 74 74 74 55 79 79 79 79 79 74 79 79 79 79 79 79 56 79 79 79 56 79 55 79 74 79 79 79 55 74 74 55 56 74 74 55 79 74 74 79 56 79 56 79 80
split_gain=6.81098e+09 1.24714e+09 1.20971e+09 1.78481e+08 1.74541e+08 1.47642e+08 1.39391e+08 9.08988e+07 6.45647e+07 6.35141e+07 5.82566e+07 5.44673e+07 4.784e+07 4.28515e+07 4.27907e+07 4.19678e+07 3.31559e+07 3.31516e+07 2.38543e+07 2.14394e+07 1.97814e+07 1.74711e+07 1.72041e+07 1.69749e+07 1.67388e+07 1.62881e+07 1.62465e+07 1.51698e+07 1.49635e+07 1.48868e+07 1.22628e+07 1.13394e+07 9.514e+06 9.43234e+06 8.57194e+06 8.30248e+06 8.20758e+06 8.11069e+06 8.03973e+06 7.46467e+06 7.28974e+06 6.55646e+06 6.34735e+06 6.07432e+06 5.71356e+06 5.66021e+06 5.64895e+06 4.88984e+06 4.23336e+06
threshold=3945.9020833333338 2898.4196666666671 5072.05375 1.0000000180025095e-35 5829.9520833333345 4417.7241666666678 3418.750833333334 2047.6470833333335 -820.39983333333373 -1199.0149999999999 -89.824166666666756 -19.289583333333209 80.191250000000096 6473.8941666666678 120.52874999999996 55.981666666666122 -1887.2625378787873 573.70249999999999 436.04041666666654 -63.085416666666099 2754.1641666666669 806.79124999999988 857.7756250000001 196.25583333333364 5640.9141666666674 -609.54071969696963 4120.713333333334 359.26166666666637 4770.9066666666677 -223.69124999999983 -237.71250000000052 90.483750000000114 1777.6216666666667 3671.5633333333335 3108.490416666667 2371.9812500000003 4958.2522023809533 4153.5558333333347 5397.9366666666674 2371.9812500000003 -609.54071969696963 3634.6420833333341 3108.490416666667 288.88375000000002 4715.5025000000005 1216.665492424243 3161.1100000000006 -118.62333333333343 553.00500000000045
decision_type=2 2 2 2 2 2 2 2 2 2 2 2 2 2 2 2 2 2 2 2 2 2 2 2 2 2 2 2 2 2 2 2 2 2 2 2 2 2 2 2 2 2 2 2 2 2 2 2 2
left_child=1 3 5 20 10 14 11 23 -7 26 16 25 28 19 30 29 -4 35 42 -11 -1 -16 36 32 -12 -3 -6 41 -10 39 40 -22 -5 -31 -27 -9 -14 -32 -18 -8 -2 -17 -13 -26 -29 -19 -33 -15 -25
right_child=2 6 4 7 9 8 15 17 12 13 24 18 22 47 21 27 38 45 -20 -21 31 -23 -24 48 43 34 -28 44 -30 33 37 46 -34 -35 -36 -37 -38 -39 -40 -41 -42 -43 -44 -45 -46 -47 -48 -49 -50
leaf_value=-28.64221011750422 -23.252858589693894 -36.920542815458774 -24.279162529858759 -44.914795122457598 -17.559711138796516 -33.415940265307853 -34.286748316279684 -32.399476726569233 11.285114065167082 38.423743637264131 30.292416487748419 -14.795638976509107 18.073540178762084 52.786099547840799 11.523568275206909 -4.0177547190869172 21.378576704766282 -11.060714048703225 -0.19804153865953966 48.878674412431266 -24.052770867493692 39.287029869467489 49.028020977093462 -34.248273916164102 35.637313653477257 -21.570941427067662 21.528975925529224 7.6075601032271951 17.487812199100254 -8.0440981290682299 1.7479956340153373 -18.24669023712201 -39.271182776188077 -3.1845262047383756 -16.07712328820179 -25.957616531038219 24.683516647241227 6.5253981694708481 27.951953283741943 -10.942652377222647 -1.483531083201596 1.2817212382938454 -9.9240450370573026 42.650568248063841 28.720094176896794 10.551175353074132 -11.494951155009554 63.72080544064174 -14.062620637131795
leaf_weight=125 7.9999999999999991 25 6.9999999999999991 380 7.0000000000000027 12.999999999999998 6.9999999999999991 307 501 244 272 217 170 93 338 218 217 19 116 218 119 11.999999999999998 12.999999999999998 157 244 239 22 76 361 412 353 164 398 441 463 197 288 408 214 285 156 287 442 129 6.9999999999999991 9.0000000000000018 119 68 6.9999999999999991
leaf_count=125 8 25 7 380 7 13 7 307 501 244 272 217 170 93 338 218 217 19 116 218 119 12 13 157 244 239 22 76 361 412 353 164 398 441 463 197 288 408 214 285 156 287 442 129 7 9 119 68 7
internal_value=-0.100627 -17.8273 21.2067 -32.1376 36.1433 11.3127 -8.97106 -36.2609 16.6395 45.5957 30.4289 -14.1127 17.1436 47.1495 5.68381 -4.51117 23.8623 -28.5621 -9.84488 43.4183 -20.5746 12.546 23.0638 -40.5863 34.8597 -18.6496 11.9169 0.497527 13.8939 -7.08215 3.08037 -18.0242 -42.0626 -5.53601 -17.9656 -29.9179 22.2589 4.3127 24.6793 -11.5766 -2.63239 -1.00818 -11.5411 38.1323 9.59589 -4.0328 -15.4402 57.6403 -33.4452
internal_weight=9592 5236 4356 2001 1735 2621 3235 1474 1346 652 1083 1502 1333 623 1275 1733 438 532 775 462 527 350 471 942 645 727 29 588 862 1145 925 402 778 853 702 504 458 761 431 292 164 505 659 373 83 28 283 161 164
internal_count=9592 5236 4356 2001 1735 2621 3235 1474 1346 652 1083 1502 1333 623 1275 1733 438 532 775 462 527 350 471 942 645 727 29 588 862 1145 925 402 778 853 702 504 458 761 431 292 164 505 659 373 83 28 283 161 164
is_linear=0
shrinkage=0.0230652


Tree=7
num_leaves=50
num_cat=0
split_feature=74 74 74 8 74 74 74 55 80 79 79 79 79 79 79 79 79 79 74 79 79 54 74 79 79 80 79 79 74 79 55 79 55 55 56 74 74 74 74 56 74 79 56 56 56 74 79 79 56
split_gain=6.86033e+09 1.20866e+09 1.18799e+09 1.813e+08 1.62411e+08 1.45621e+08 1.40951e+08 8.74724e+07 8.1496e+07 5.73298e+07 4.74205e+07 4.54651e+07 4.11925e+07 3.97975e+07 3.95782e+07 3.41774e+07 3.33034e+07 3.01582e+07 2.74723e+07 2.33919e+07 2.239e+07 2.00982e+07 1.94907e+07 1.88534e+07 1.84047e+07 1.81662e+07 1.75554e+07 1.54078e+07 1.52963e+07 1.38503e+07 1.01124e+07 9.77214e+06 9.17254e+06 8.59021e+06 8.51522e+06 8.37727e+06 8.34838e+06 8.2233e+06 7.95439e+06 7.7072e+06 7.50398e+06 7.13486e+06 6.89003e+06 6.03804e+06 5.96523e+06 5.38709e+06 5.25033e+06 4.63922e+06 4.58864e+06
threshold=3945.9020833333338 2881.499166666667 5072.05375 1.0000000180025095e-35 5666.8004166666678 4513.2879166666671 3451.3141666666666 2047.6470833333335 -2152.3037499999996 -41.41791666666699 120.52874999999996 43.143333333332983 77.5787499999998 -70.245833333333835 -72.796249999999972 -1199.0149999999999 573.70249999999999 -1199.0149999999999 6204.3400000000011 -820.39983333333373 267.82708333333352 495.09371572069705 6254.7537500000008 308.65875000000034 -820.39983333333373 -809.33916666666676 324.0149999999997 -1199.0149999999999 4211.9741666666678 857.7756250000001 1710.801666666667 806.79124999999988 2949.089507575758 2371.9812500000003 5559.8479166666684 3183.356666666667 3701.7216666666673 6847.0800000000008 3658.9550000000004 2754.1641666666669 4770.9066666666677 -820.39983333333373 4524.9058333333342 4988.6133333333346 3810.5612500000002 5345.9404166666673 -125.93458333333341 -134.54166666666649 4450.230833333334
decision_type=2 2 2 2 2 2 2 2 2 2 2 2 2 2 2 2 2 2 2 2 2 2 2 2 2 2 2 2 2 2 2 2 2 2 2 2 2 2 2 2 2 2 2 2 2 2 2 2 2
left_child=1 3 5 21 13 10 9 26 -6 24 19 15 18 17 27 -7 33 -4 41 -2 35 39 -14 36 -3 -20 30 -8 46 43 -5 42 -26 -9 -15 -11 -16 -27 -29 -1 -17 -10 -12 -13 -22 -19 -21 -30 -25
right_child=2 6 4 7 8 11 14 16 12 20 31 29 22 34 23 40 -18 45 25 28 44 -23 -24 48 32 37 -28 38 47 -31 -32 -33 -34 -35 -36 -37 -38 -39 -40 -41 -42 -43 -44 -45 -46 -47 -48 -49 -50
leaf_value=-27.728254120703426 -28.564883325704038 -36.911555405000144 -20.127890359058 -44.048898755701863 -16.562722151704666 -32.053936259160473 -33.687260570164412 -31.867639830752655 13.196655968083368 -14.464947374034976 8.7569249639242539 18.421205368546463 45.978618434238818 28.662033063619639 -4.3467386463104605 11.732077613793653 -2.5626212850181362 21.024286444992466 25.01272029704964 -0.93922831953811803 -5.8139051661771521 -12.4106407303825 59.357209344051505 5.4712793035501894 -20.294651386661727 44.702901196168838 -29.599800726090105 -10.963470251577577 4.71921461079463 47.422010315389102 -38.527634466289989 35.06252733584504 -14.819595035355944 -25.49683847469958 35.166557351107578 -9.4313781628780422 0.23919940890284411 57.474077066483396 -5.752368173598521 -20.225593016632136 16.663696580341991 35.294109831675392 14.869565512237291 24.359796117034684 2.8175207700584979 26.789551008716433 3.6476264612455069 9.0563975241120502 17.077238304187603
leaf_weight=113 10.999999999999998 28 7.9999999999999991 346 11.999999999999998 7.9999999999999991 11.999999999999998 317 8.9999999999999982 319 167 151 253 197 453 333 26 198 23 244 112 148 90 83 373 154 92 267 245 11.999999999999998 542 9.9999999999999982 310 209 328 408 395 46 381 255 344 319 252 295 68 190 290 289 23
leaf_count=113 11 28 8 346 12 8 12 317 9 319 167 151 253 197 453 333 26 198 23 244 112 148 90 83 373 154 92 267 245 12 542 10 310 209 328 408 395 46 381 255 344 319 252 295 68 190 290 289 23
internal_value=0.126764 -17.6827 21.1253 -31.5434 35.4332 11.2585 -8.89509 -35.5298 42.3843 -13.7048 6.54771 17.4663 43.1869 28.5705 -4.06991 13.681 -28.1124 22.9668 39.1452 3.9644 -9.84882 -19.678 49.5939 -1.06406 -18.6104 45.5427 -39.6866 -8.40945 4.31648 23.1006 -40.7093 13.0294 -17.826 -29.3706 32.764 -11.6509 -2.21204 47.8156 -7.90831 -22.5739 14.2514 34.7149 12.4505 22.3787 -2.55471 23.8873 1.55315 7.07459 8.07763
internal_weight=9758 5280 4478 2048 1827 2651 3232 1532 906 1618 1508 1143 894 921 1614 685 552 396 551 1079 907 516 343 954 711 223 980 660 1068 458 888 429 683 526 525 727 848 200 648 368 677 328 419 446 180 388 534 534 106
internal_count=9758 5280 4478 2048 1827 2651 3232 1532 906 1618 1508 1143 894 921 1614 685 552 396 551 1079 907 516 343 954 711 223 980 660 1068 458 888 429 683 526 525 727 848 200 648 368 677 328 419 446 180 388 534 534 106
is_linear=0
shrinkage=0.0230652


Tree=8
num_leaves=50
num_cat=0
split_feature=74 74 74 12 74 74 74 55 79 79 79 79 79 79 79 74 79 79 79 79 56 79 79 55 79 74 79 74 79 55 55 74 79 79 79 54 56 74 74 79 79 55 56 56 74 80 56 79 74
split_gain=6.543e+09 1.23207e+09 1.05992e+09 1.74571e+08 1.65449e+08 1.50765e+08 1.3582e+08 8.34296e+07 6.17253e+07 5.3364e+07 4.2834e+07 4.25132e+07 4.21602e+07 3.74547e+07 3.57383e+07 3.34835e+07 3.20909e+07 2.76775e+07 2.4976e+07 2.2554e+07 2.20021e+07 1.88983e+07 1.76897e+07 1.61281e+07 1.54829e+07 1.53828e+07 1.38866e+07 1.26455e+07 1.26191e+07 1.1898e+07 1.0793e+07 9.57211e+06 9.1451e+06 9.06098e+06 8.82134e+06 8.40108e+06 7.50523e+06 7.48983e+06 6.75493e+06 6.70402e+06 6.49608e+06 6.49205e+06 6.41516e+06 6.23023e+06 5.96615e+06 4.80839e+06 4.72476e+06 4.56699e+06 3.96402e+06
threshold=4010.1729166666669 2881.499166666667 5202.5112500000005 0.25881904510252057 3514.1820833333336 4661.1570833333344 5829.9520833333345 2123.6954166666669 -65.210416666666774 -8.3708333333333922 62.59249999999998 16.878749999999858 -1199.0149999999999 9.5397500000001418 -820.39983333333373 6473.8941666666678 -1199.0149999999999 283.08375000000007 426.48874999999981 1216.665492424243 2888.3996590909096 -27.028749999999942 324.0149999999997 2917.4987500000007 288.88375000000002 4376.6737500000008 -289.71541666666661 3253.0350000000008 -820.39983333333373 1798.3504166666667 4430.9020833333334 4315.0733333333346 308.65875000000034 -609.54071969696963 520.77166666666642 588.73910516948297 5200.3683333333347 3792.4862500000004 4929.105833333334 1216.665492424243 164.41374999999974 2447.4750000000008 3919.313333333334 5743.695833333335 5536.3004166666678 1334.8550000000005 3335.1645833333337 -121.58666666666703 3736.811666666667
decision_type=2 2 2 2 2 2 2 2 2 2 2 2 2 2 2 2 2 2 2 2 2 2 2 2 2 2 2 2 2 2 2 2 2 2 2 2 2 2 2 2 2 2 2 2 2 2 2 2 2
left_child=1 3 5 20 8 9 13 22 23 14 26 16 30 28 -2 21 -7 27 41 32 -1 -14 29 33 31 -16 35 -10 -4 -5 -8 -11 48 -3 -24 -6 -13 -28 -18 -26 -22 -9 -19 -15 -30 -20 -42 -17 -12
right_child=2 4 6 7 10 11 12 18 17 24 19 36 15 43 25 47 38 42 45 -21 40 -23 34 -25 39 -27 37 -29 44 -31 -32 -33 -34 -35 -36 -37 -38 -39 -40 -41 46 -43 -44 -45 -46 -47 -48 -49 -50
leaf_value=-25.155045558875688 -29.037720739002101 -34.516449788323996 -2.530984504691808 -42.042309245094494 -10.195384565648858 -28.797380025928849 -10.501395703487304 -30.02596254685027 -13.560219724191297 7.5322313493653485 -1.8281581569853973 21.773298375111725 37.479833463455542 31.776875041789591 2.4443383174271411 50.144100690341283 13.709855604786673 -4.0656198467930169 -11.299039801377745 34.275887961392705 -20.767765635010129 47.056665002043339 -30.735679842420577 -14.617515042548124 17.118617981177696 8.7122980516611133 -6.0551765723774844 -8.0905905693317166 24.113174372371745 -36.427498491310594 23.22000549931548 13.691840334970427 7.7549178059909476 -20.349629636666734 -3.622571713252809 -33.747422219574474 28.083479336247773 -1.7289866981648434 18.833807032653674 37.363382520169097 -14.912576887742205 -24.110409586972644 5.1310956022495358 38.202259990587329 29.847034277829401 9.4091644560512009 -6.9340116118296322 60.240244649451348 2.559530811105712
leaf_weight=191 15.999999999999998 27 7.9999999999999991 466 162 7.9999999999999991 7.0000000000000027 324 479 263 222 213 255 167 493 110 299 134 19.000000000000004 10.999999999999998 85 233 103 390 206 361 503 432 269 462 14.999999999999998 281 110 328 6.9999999999999991 7.9999999999999991 228 370 274 8.9999999999999982 190 173 57 248 186 7.9999999999999991 52 68 215
leaf_count=191 16 27 8 466 162 8 7 324 479 263 222 213 255 167 493 110 299 134 19 11 85 233 103 390 206 361 503 432 269 462 15 281 110 328 7 8 228 370 274 9 190 173 57 248 186 8 52 68 215
internal_value=-0.0283615 -16.5347 21.6088 -30.5519 -8.07469 12.7161 36.6512 -34.4033 -12.7775 8.35396 -2.64626 19.6595 44.3515 30.5891 4.44965 45.3907 15.5279 -9.30134 -26.8278 2.50984 -18.9099 42.1085 -38.2086 -17.907 12.8217 5.09849 -5.4046 -10.9741 25.9917 -39.2742 12.4969 10.7264 1.83141 -21.4878 -29.0415 -11.4271 25.072 -4.22426 16.1785 18.0753 -15.2199 -28.0007 -1.31301 35.67 26.4961 -5.08682 -13.2212 54.2046 0.33113
internal_weight=9745 5528 4217 2080 3448 2651 1566 1562 1847 1629 1601 1022 688 878 870 666 581 1102 524 558 518 488 1038 745 759 854 1043 911 463 928 22 544 547 355 110 170 441 873 573 215 327 497 191 415 455 27 242 178 437
internal_count=9745 5528 4217 2080 3448 2651 1566 1562 1847 1629 1601 1022 688 878 870 666 581 1102 524 558 518 488 1038 745 759 854 1043 911 463 928 22 544 547 355 110 170 441 873 573 215 327 497 191 415 455 27 242 178 437
is_linear=0
shrinkage=0.0230652


Tree=9
num_leaves=50
num_cat=0
split_feature=74 74 74 74 79 74 74 55 79 79 79 79 79 79 79 79 79 74 79 56 56 12 74 79 79 74 79 79 74 74 12 55 56 55 56 74 56 74 74 74 79 54 79 79 79 79 79 79 79
split_gain=6.11276e+09 1.0906e+09 1.0889e+09 1.7275e+08 1.50922e+08 1.33792e+08 1.28388e+08 7.49324e+07 5.42584e+07 5.29318e+07 5.03284e+07 4.97097e+07 4.54157e+07 4.26906e+07 4.17093e+07 2.38185e+07 2.35849e+07 2.3538e+07 2.32737e+07 2.13204e+07 2.05157e+07 2.04664e+07 2.0434e+07 1.82015e+07 1.60363e+07 1.63486e+07 1.37887e+07 1.33156e+07 1.15121e+07 1.04662e+07 1.0333e+07 9.88075e+06 9.55645e+06 9.52584e+06 9.41542e+06 8.14429e+06 7.63886e+06 7.17769e+06 6.60674e+06 6.51878e+06 5.74464e+06 5.28185e+06 5.12348e+06 5.10916e+06 5.08267e+06 5.06146e+06 4.88976e+06 4.82877e+06 4.78309e+06
threshold=3931.1541666666676 2823.6775000000002 5202.5112500000005 4563.0925000000007 454.4262499999997 3360.3858333333342 5929.9400000000014 2093.7445833333336 -75.215416666666883 -1199.0149999999999 -820.39983333333373 120.52874999999996 -75.215416666666883 20.499499999999902 127.32833333333203 454.4262499999997 -1199.0149999999999 6473.8941666666678 -820.39983333333373 3063.932083333334 5183.0645833333347 0.37940952255126048 4229.9712500000005 971.20999999999992 -820.39983333333373 3620.7945833333338 -609.54071969696963 -8.3708333333333922 4888.0995833333336 5503.9712500000014 0.37940952255126048 1777.6216666666667 3873.7258333333334 4868.3441666666677 5286.9831666666678 4285.2204166666679 3801.1195833333336 3108.490416666667 3064.0354166666671 5564.4275000000007 -129.0649999999998 332.58914434164876 -107.06249999999953 -206.9054166666667 246.79249999999982 -234.74833333333342 -161.8992424242426 246.79249999999982 1216.665492424243
decision_type=2 2 2 2 2 2 2 2 2 2 2 2 2 2 2 2 2 2 2 2 2 2 2 2 2 2 2 2 2 2 2 2 2 2 2 2 2 2 2 2 2 2 2 2 2 2 2 2 2
left_child=1 4 3 11 7 8 12 21 26 -5 33 18 16 24 28 37 -4 27 -2 -6 32 41 40 35 -7 43 -3 -12 -11 -14 -9 -23 -15 -8 -16 -13 -21 -10 -28 -18 -20 -1 -24 -26 -34 -19 -30 -31 -36
right_child=2 5 6 9 19 13 10 30 15 14 17 23 29 20 34 -17 39 45 22 36 -22 31 42 -25 25 -27 38 -29 46 47 -32 -33 44 -35 48 -37 -38 -39 -40 -41 -42 -43 -44 -45 -46 -47 -48 -49 -50
leaf_value=-32.064279410013363 -27.064623736354335 -35.48537185829511 -6.8926399583497728 -31.097027548054157 -21.583217136459975 -33.561388059699318 4.6685708724948558 -21.748901134939977 -14.882167850379357 13.116488530034475 38.054143545755522 9.3155576387845134 30.958512878371259 -3.7756349843507033 21.748885300342874 -0.98167757544498802 22.851531608952872 47.884288015081253 -1.0893217666529265 -10.763282923535094 31.292064645647574 -41.865885167440588 5.3378783577230697 38.426755818422414 -13.702518826474746 -4.8108729014215426 -22.279810034381317 47.598584498444168 15.827973530736308 35.073908937196549 -28.811819261867868 -36.374661073382029 -0.29458504401332286 27.934963148309727 28.36683725307892 15.639078115141649 9.6715343823860351 -10.293602204247115 -16.792719828712052 29.040106548583481 3.4938493946869476 -19.36707947995837 9.6555342229454038 -8.7160704857382747 5.3818014630472062 58.444960686453705 21.250428145292215 42.021399635044652 49.045027529967577
leaf_weight=207 11.999999999999998 29 11.999999999999998 10.999999999999998 161 11.999999999999998 15.999999999999998 168 311 456 189 248 240 340 217 117 233 75 274 134 9.9999999999999982 382 307 13.999999999999998 174 597 208 173 189 187 409 449 261 23 144 199 9.9999999999999982 460 308 179 309 23 285 313 123 88 194 117 6.9999999999999991
leaf_count=207 12 29 12 11 161 12 16 168 311 456 189 248 240 340 217 117 233 75 274 134 10 382 307 14 174 597 208 173 189 187 409 449 261 23 144 199 10 460 308 179 309 23 285 313 123 88 194 117 7
internal_value=-0.174956 -17.0871 19.8439 11.4486 -30.7654 -8.93779 35.5381 -33.541 -14.2146 18.034 44.3169 6.57629 30.3971 -4.80219 18.4981 -10.685 24.6533 46.2006 4.07586 -15.8193 -0.496416 -37.1983 4.40856 12.9998 -7.68381 -7.37755 -19.9462 42.692 15.6347 34.8393 -26.782 -38.9294 -0.962947 18.6211 24.9878 12.1492 -9.30738 -12.1554 -19.0296 25.5815 1.34101 -30.8523 7.42473 -10.5134 1.5296 53.7937 18.6057 37.8311 29.53
internal_weight=9604 5206 4398 2866 1943 3263 1532 1638 1433 1218 564 1648 968 1830 1207 888 424 525 1187 305 734 1061 1175 461 1096 1084 545 362 839 544 577 831 724 39 368 447 144 771 516 412 583 230 592 487 384 163 383 304 151
internal_count=9604 5206 4398 2866 1943 3263 1532 1638 1433 1218 564 1648 968 1830 1207 888 424 525 1187 305 734 1061 1175 461 1096 1084 545 362 839 544 577 831 724 39 368 447 144 771 516 412 583 230 592 487 384 163 383 304 151
is_linear=0
shrinkage=0.0230652


Tree=10
num_leaves=50
num_cat=0
split_feature=53 8 53 55 56 79 79 80 11 55 56 55 56 56 53 56 55 55 55 75 75 55 11 55 56 56 80 55 79 75 55 56 56 56 79 55 75 59 60 11 55 11 55 12 56 75 55 80 55
split_gain=5.29872e+09 1.17474e+09 6.20339e+08 3.37531e+08 3.34798e+08 1.27168e+08 9.93724e+07 8.48736e+07 8.45473e+07 7.39627e+07 7.2136e+07 6.36187e+07 6.3175e+07 5.38107e+07 5.21343e+07 3.67127e+07 2.93103e+07 2.80348e+07 2.67257e+07 2.63557e+07 2.40871e+07 2.06308e+07 2.05931e+07 2.36302e+07 1.81798e+07 1.72162e+07 1.65006e+07 1.34303e+07 1.34303e+07 1.27652e+07 1.17865e+07 1.15978e+07 1.05736e+07 1.00868e+07 9.65265e+06 9.03444e+06 8.76936e+06 8.907e+06 8.6289e+06 7.44752e+06 7.22202e+06 7.18641e+06 7.11251e+06 7.08141e+06 6.78317e+06 6.78246e+06 6.36922e+06 6.32995e+06 6.16615e+06
threshold=4185.4165845959606 1.0000000180025095e-35 5269.3370000000004 2371.9812500000003 3873.7258333333334 80.191250000000096 72.981666666666811 857.8337499999999 1.0000000180025095e-35 5382.5862500000012 3290.1416666666669 2934.5195833333337 5286.9831666666678 4574.7195833333344 4645.6015277777778 6480.4604545454558 3450.5800000000004 2803.6979166666674 1880.2104166666668 5154.8183333333345 5536.9533333333338 3859.2779166666674 1.0000000180025095e-35 3181.8891666666673 2825.4570833333337 6697.0812500000002 830.8024999999999 5871.4933333333347 436.04041666666654 3206.9100000000003 4662.765416666668 4171.5962500000014 4917.0616666666674 5720.6887121212139 191.21583333333322 4167.2283333333335 4198.6487500000012 2179.9941666666668 5488.6520833333334 -0.70710678118654735 4477.7762500000008 -0.70710678118654735 2934.5195833333337 -0.9159756150367534 3609.2225000000003 4407.7775000000011 3242.7875000000008 2133.1616666666664 3714.4379166666672
decision_type=2 2 2 2 2 2 2 2 2 2 2 2 2 2 2 2 2 2 2 2 2 2 2 2 2 2 2 2 2 2 2 2 2 2 2 2 2 2 2 2 2 2 2 2 2 2 2 2 2
left_child=1 4 5 7 10 14 9 18 16 20 24 26 32 31 17 41 -6 -2 34 38 25 -21 23 42 -1 -4 -5 -11 46 -19 -22 -10 -7 -14 -3 36 37 -31 -16 -17 -23 -8 -12 -40 -24 -33 -13 -9 -18
right_child=2 3 6 11 8 12 15 47 13 27 22 28 33 -15 19 39 48 29 -20 21 30 40 44 -25 -26 -27 -28 -29 -30 35 -32 45 -34 -35 -36 -37 -38 -39 43 -41 -42 -43 -44 -45 -46 -47 -48 -49 -50
leaf_value=-25.451793371258301 -26.652409522047563 -39.837197731168409 26.365791733893992 -22.260260825324249 -10.115515789841352 12.97684951407051 31.546637576606653 -10.90795581726759 0.57998794924923058 35.061286066761816 -18.947948304450211 -11.544651839177423 27.591524075264111 17.70266067247988 14.555464875547457 41.158634212722141 -2.8325637388586129 16.613852340298852 -31.652989425003867 -12.134528663227803 7.8789635368004243 7.3354627605982516 -8.2172472670134056 -6.9150777035499766 -16.093400418619726 45.665807111773127 -10.454917200841994 46.06337624729283 14.515293889650733 1.2172796278210778 20.966446370925532 7.9455733598886624 20.163112221767278 37.270056033528483 -32.370914789193847 10.001271347468235 1.421526804382381 12.734203750812947 26.308610193815106 55.224218293389342 14.965709568197724 40.409463729933123 -12.825700231449911 18.056102468986886 -3.5966518632504094 0.14756185060126062 -4.0502554632162369 5.8011267254883485 2.2763596126059
leaf_weight=144 12.999999999999998 559 277 330 254 209 81 34 323 268 144 97 219 187 256 37 277 63 622 22 49 147 358 373 513 28 80 88 15.999999999999998 58 158 317 242 89 135 184 275 93 83 123 123 235 377 203 323 73 161 18 229
leaf_count=144 13 559 277 330 254 209 81 34 323 268 144 97 219 187 256 37 277 63 622 22 49 147 358 373 513 28 80 88 16 58 158 317 242 89 135 184 275 93 83 123 123 235 377 203 323 73 161 18 229
internal_value=0.0393155 -13.3616 22.0237 -27.4805 -5.9143 14.6876 34.4505 -34.095 1.9298 29.7568 -11.747 -14.2318 22.3979 6.71105 10.8296 42.9576 -3.73309 6.11106 -35.2367 14.7031 24.0826 9.08505 -9.06244 -11.3655 -18.1675 28.2302 -19.9768 37.8593 -5.6086 6.76885 17.9026 3.81486 16.8562 30.4603 -38.4162 5.73559 3.8808 8.33449 17.7155 52.1499 10.8389 38.2066 -14.5392 20.5049 -6.03117 6.4886 -6.88969 -5.12379 -0.520464
internal_weight=9567 5944 3623 2052 3892 2279 1344 1368 1660 868 2232 684 759 900 1520 476 760 686 1316 834 512 292 1575 894 657 305 410 356 274 673 207 713 451 308 694 610 426 151 542 160 270 316 521 286 681 390 258 52 506
internal_count=9567 5944 3623 2052 3892 2279 1344 1368 1660 868 2232 684 759 900 1520 476 760 686 1316 834 512 292 1575 894 657 305 410 356 274 673 207 713 451 308 694 610 426 151 542 160 270 316 521 286 681 390 258 52 506
is_linear=0
shrinkage=0.0230652


Tree=11
num_leaves=50
num_cat=0
split_feature=74 74 74 12 74 74 74 55 79 79 79 79 79 79 79 79 74 79 79 79 79 56 79 12 79 74 74 79 79 74 74 54 55 74 79 74 74 54 55 74 79 56 55 74 56 79 56 79 56
split_gain=5.63587e+09 1.08956e+09 9.32658e+08 1.49924e+08 1.32207e+08 1.30592e+08 1.10452e+08 7.59676e+07 5.67048e+07 4.93267e+07 4.58993e+07 4.16136e+07 4.01246e+07 3.56344e+07 2.82036e+07 2.8061e+07 2.52054e+07 2.0588e+07 1.94916e+07 1.79502e+07 1.76011e+07 1.65581e+07 1.49719e+07 1.44511e+07 1.27459e+07 1.24628e+07 1.22301e+07 1.21374e+07 1.2044e+07 1.20193e+07 1.09274e+07 1.0881e+07 1.06199e+07 9.89159e+06 9.54615e+06 7.26937e+06 7.17319e+06 5.95562e+06 5.92786e+06 5.21515e+06 5.19554e+06 4.62279e+06 4.47733e+06 3.94127e+06 3.85954e+06 3.81196e+06 3.52065e+06 3.46584e+06 3.33367e+06
threshold=4010.1729166666669 2898.4196666666671 5110.6341666666676 0.25881904510252057 5929.9400000000014 3504.4825000000005 4612.3633333333337 2003.5015277777779 -1199.0149999999999 40.662500000000144 -21.584999999999805 -8.3708333333333922 -820.39983333333373 62.59249999999998 1.0000000180025095e-35 -820.39983333333373 6847.0800000000008 -820.39983333333373 426.48874999999981 -173.16416666666643 -360.81666666666655 2754.1641666666669 543.87166666666656 0.98296291314453421 359.26166666666637 5503.9712500000014 5503.9712500000014 267.82708333333352 573.70249999999999 3219.8787500000003 4362.2600000000011 892.23424871542693 2323.5962500000005 3759.2550000000006 971.20999999999992 4271.105833333334 3230.3866666666677 512.62825492784202 1710.801666666667 3736.811666666667 -136.86749999999992 6361.5592424242432 2470.7675000000004 4946.9237500000008 5041.855833333334 -183.64208333333315 4803.7441666666682 -186.41874999999979 4972.8975000000009
decision_type=2 2 2 2 2 2 2 2 2 2 2 2 2 2 2 2 2 2 2 2 2 2 2 2 2 2 2 2 2 2 2 2 2 2 2 2 2 2 2 2 2 2 2 2 2 2 2 2 2
left_child=1 3 6 21 10 9 11 27 31 20 17 15 -8 23 43 -2 19 -4 32 -10 42 -1 36 33 35 -12 -19 38 39 -22 47 -6 -9 40 44 -13 -11 -23 -5 -15 -7 -21 -3 -14 -16 -35 -26 -17 -30
right_child=2 5 4 7 8 13 12 18 16 22 25 24 14 28 34 30 -18 26 -20 41 29 37 -24 -25 46 -27 -28 -29 48 -31 -32 -33 -34 45 -36 -37 -38 -39 -40 -41 -42 -43 -44 -45 -46 -47 -48 -49 -50
leaf_value=-25.276975975170711 -26.878133041152317 -31.850230539104121 -7.3666753175335584 -40.519582979971453 17.91388865101667 -9.600845568753968 -27.710799822711728 -30.002680519220288 36.210860619754591 -10.988129124054737 29.292929415413909 6.9402382956344653 12.506541442050864 -1.3276790287635234 18.251534151243369 -0.033376378423637401 56.901056787147368 21.037010856369015 -7.8014139593939094 40.272790821661012 -16.852717497324793 -17.185256004101134 1.1783555083616866 -30.753309552211704 13.255584881699043 36.411802580539906 28.205921602565049 -30.125011890753346 10.776051592303322 -11.624791184923232 7.7539501795992418 -14.085696344138418 -23.738904848537178 -5.3686435503650651 46.537689243381301 12.208753435709893 -5.993126189509006 -10.891404187026621 -35.834330815765298 3.3819229134895079 -5.0814840819987612 48.072643516407418 -20.49311734550097 16.878188286550266 23.078849541474053 -1.1032150541204091 21.10538731183923 3.7812356602240937 28.307972309393012
leaf_weight=110 14.999999999999998 32 10.999999999999998 309 22.000000000000004 236 9.9999999999999982 326 221 306 290 263 364 240 159 207 69 313 30 94 442 235 99 10.999999999999998 60 287 233 150 32 517 309 6.9999999999999991 298 167 7.9999999999999991 305 312 129 462 260 324 182 62 170 272 334 75 326 6.9999999999999991
leaf_count=110 15 32 11 309 22 236 10 326 221 306 290 263 364 240 159 207 69 313 30 94 442 235 99 11 60 287 233 150 32 517 309 7 298 167 8 305 312 129 462 260 324 182 62 170 272 334 75 326 7
internal_value=0.0512291 -15.5407 19.869 -28.8102 32.9367 -7.495 10.9781 -32.2359 41.7676 -11.8186 28.282 7.15753 17.0326 -2.74181 17.5105 3.74124 43.3793 23.4962 -26.165 41.4308 -14.9964 -17.3991 -7.14247 -5.17321 11.315 32.8706 24.1259 -36.5254 2.09431 -14.044 4.30687 10.0514 -27.0389 -4.88948 21.855 9.77993 -8.47526 -14.978 -37.7444 1.12251 -6.99493 45.5163 -24.5501 13.917 21.3279 -2.5301 17.6962 2.30151 14.3322
internal_weight=9702 5430 4272 2049 1729 3381 2543 1575 595 1770 1134 1560 983 1611 973 857 566 557 654 497 1053 474 717 1072 703 577 546 921 539 959 842 29 624 1061 439 568 618 364 771 500 560 276 94 534 431 501 135 533 39
internal_count=9702 5430 4272 2049 1729 3381 2543 1575 595 1770 1134 1560 983 1611 973 857 566 557 654 497 1053 474 717 1072 703 577 546 921 539 959 842 29 624 1061 439 568 618 364 771 500 560 276 94 534 431 501 135 533 39
is_linear=0
shrinkage=0.0230652


Tree=12
num_leaves=50
num_cat=0
split_feature=74 74 74 74 74 74 74 79 79 79 79 79 79 79 79 79 79 79 74 55 79 79 79 79 79 56 74 79 74 74 74 55 74 55 79 55 56 74 74 56 74 54 74 79 56 79 79 55 79
split_gain=5.42319e+09 1.06365e+09 8.72922e+08 1.52421e+08 1.27751e+08 1.26599e+08 1.11375e+08 7.98721e+07 4.94875e+07 4.63449e+07 4.27139e+07 3.4727e+07 3.41216e+07 3.40185e+07 3.40044e+07 3.11933e+07 3.04173e+07 2.2361e+07 2.22704e+07 1.91041e+07 1.8734e+07 1.67992e+07 1.63163e+07 1.56614e+07 1.43278e+07 1.40539e+07 1.20465e+07 1.10071e+07 1.0504e+07 1.04668e+07 1.03022e+07 9.7486e+06 8.49063e+06 8.20782e+06 7.46649e+06 7.29554e+06 6.44111e+06 5.91177e+06 5.75511e+06 5.02949e+06 4.93429e+06 4.91918e+06 4.8009e+06 4.59852e+06 4.59498e+06 4.36641e+06 4.26454e+06 3.65355e+06 3.58121e+06
threshold=4010.1729166666669 2917.7491666666674 5202.5112500000005 2134.9529166666675 4661.1570833333344 3523.6166666666672 6016.2833333333347 70.204583333333417 13.257083333333187 -8.3708333333333922 43.143333333332983 16.878749999999858 -1199.0149999999999 46.416249999999998 -820.39983333333373 324.0149999999997 -1887.2625378787873 -1199.0149999999999 6847.0800000000008 2273.7635416666672 1216.665492424243 283.08375000000007 -175.74958333333345 -220.23249999999959 543.87166666666656 3192.5587500000006 4376.6737500000008 -249.38458333333321 4315.0733333333346 5614.1137500000004 5536.3004166666678 2747.8170833333338 3253.0350000000008 4918.7100000000009 1216.665492424243 1710.801666666667 5200.3683333333347 3792.4862500000004 3240.6270833333342 3939.1783333333337 4910.3866666666672 523.52905792802676 3805.9558333333339 -513.51696969696934 5183.0645833333347 -609.54071969696963 288.88375000000002 2618.3554166666672 246.79249999999982
decision_type=2 2 2 2 2 2 2 2 2 2 2 2 2 2 2 2 2 2 2 2 2 2 2 2 2 2 2 2 2 2 2 2 2 2 2 2 2 2 2 2 2 2 2 2 2 2 2 2 2
left_child=1 3 4 15 9 8 10 19 23 14 16 17 33 27 -2 35 -4 -6 22 -5 28 38 -14 31 42 -9 -16 45 48 -12 -18 -3 -25 -8 -27 -1 -13 -29 -10 -23 -19 -17 -15 -32 -26 -7 -30 -21 -11
right_child=2 5 6 7 11 13 12 25 21 20 29 36 18 24 26 41 30 40 -20 47 -22 39 -24 32 44 34 -28 37 46 -31 43 -33 -34 -35 -36 -37 -38 -39 -40 -41 -42 -43 -44 -45 -46 -47 -48 -49 -50
leaf_value=-39.176318250671486 -27.783316987390432 -24.710969390867188 -21.432892606982026 -30.873880605845734 -25.328005252408136 -25.74702112011035 2.8167554176930043 -17.696799590284918 -11.220673102332331 6.7767133062968927 30.911793175754188 19.71745931119063 36.115327647938578 -0.62789395874798348 2.3385643743092004 -26.51251265479771 21.989812063078926 12.261711714606399 55.465809878999487 -24.760415362407048 42.262214628089275 -3.2884926067930693 46.047149312089083 -15.082552457327319 11.054196628260568 -10.202341764110493 7.9051598689556757 -5.3110693750290308 12.378222461516749 38.326855341078826 14.40630902394661 -16.047343131432019 -9.7840341597479998 28.58306980721202 13.256857917023501 -34.280034134904064 25.431603080112076 -1.3358256863161093 -6.6427098570248022 5.0052464250072859 16.680456696668163 -8.275538435272388 3.8465265320227759 28.975361165776373 30.468834964819514 -8.7981503070036577 17.951553557204093 -19.515290347624347 11.792374124493232
leaf_weight=347 17 101 6.9999999999999991 337 6.9999999999999991 7.9999999999999991 13.000000000000002 263 268 239 253 227 190 312 517 174 270 269 78 285 9.9999999999999982 119 206 336 33 170 345 459 271 210 13.999999999999998 247 321 12.999999999999998 6.9999999999999991 457 232 352 331 57 297 8.9999999999999982 215 300 7.9999999999999991 201 107 117 114
leaf_count=347 17 101 7 337 7 8 13 263 268 239 253 227 190 312 517 174 270 269 78 285 10 119 206 336 33 170 345 459 271 210 14 247 321 13 7 457 232 352 331 57 297 9 215 300 8 201 107 117 114
internal_value=-0.135298 -15.139 19.605 -27.7461 11.5568 -7.02747 33.3292 -22.1238 -11.2502 7.51145 29.0371 17.8984 42.3278 -2.29156 3.92509 -34.4432 24.8626 14.0811 43.7437 -26.7601 11.7586 -6.86181 41.3484 -14.6277 2.23074 -14.3093 4.57074 -4.80968 11.3044 34.3236 25.4406 -18.6029 -12.5059 16.08 -9.2298 -36.4229 22.6373 -3.58812 -8.70082 -0.593971 14.5967 -25.6478 1.2 28.3567 15.2557 -9.52414 13.9838 -23.2676 8.41506
internal_weight=9740 5534 4206 2166 2652 3368 1554 1179 1780 1620 1054 1032 500 1588 879 987 591 573 474 739 741 775 396 1005 568 440 862 1020 731 463 584 348 657 26 177 804 459 811 599 176 566 183 527 314 41 209 378 402 353
internal_count=9740 5534 4206 2166 2652 3368 1554 1179 1780 1620 1054 1032 500 1588 879 987 591 573 474 739 741 775 396 1005 568 440 862 1020 731 463 584 348 657 26 177 804 459 811 599 176 566 183 527 314 41 209 378 402 353
is_linear=0
shrinkage=0.0230652


Tree=13
num_leaves=50
num_cat=0
split_feature=74 74 74 74 79 74 74 74 79 79 79 79 79 79 79 79 74 56 79 79 79 74 74 79 79 79 79 79 55 79 74 74 74 56 74 55 55 55 79 56 74 79 56 79 79 74 79 56 79
split_gain=5.00892e+09 9.05483e+08 8.96451e+08 1.39968e+08 1.22202e+08 1.08029e+08 1.04795e+08 5.90825e+07 5.53254e+07 4.71889e+07 4.57183e+07 4.05563e+07 3.96199e+07 3.6172e+07 3.57254e+07 2.91765e+07 2.25627e+07 1.88684e+07 1.54467e+07 1.5383e+07 1.47834e+07 1.39906e+07 1.27765e+07 1.2428e+07 1.23318e+07 1.21335e+07 1.18888e+07 1.16565e+07 1.16288e+07 1.1106e+07 1.09786e+07 1.03245e+07 9.64446e+06 8.42166e+06 7.98018e+06 7.52631e+06 7.32932e+06 6.21624e+06 5.48378e+06 5.27246e+06 5.21466e+06 5.10842e+06 4.64122e+06 4.12693e+06 3.98763e+06 3.89839e+06 3.48009e+06 3.00821e+06 2.9403e+06
threshold=3931.1541666666676 5072.05375 2823.6775000000002 5929.9400000000014 464.4004166666669 3324.7545833333338 4513.2879166666671 2163.4879166666669 -1199.0149999999999 -1199.0149999999999 -19.289583333333209 -94.326250000000059 53.261250000000025 -1887.2625378787873 -5.4850000000001264 117.46624999999996 6473.8941666666678 3063.932083333334 288.88375000000002 -35.183749999999911 -609.54071969696963 5503.9712500000014 3610.0054166666673 445.11749999999944 -189.19666666666623 176.3908333333334 241.92958333333311 127.32833333333203 4337.335 -820.39983333333373 5397.9366666666674 3648.9466666666672 4211.9741666666678 3789.1054166666668 4830.7550000000001 2273.7635416666672 2470.7675000000004 1725.5087500000002 -234.74833333333342 4182.2466666666678 4171.8462500000014 1216.665492424243 5095.2979166666673 267.82708333333352 -144.82375000000067 3064.0354166666671 -173.16416666666643 2696.9204166666673 246.79249999999982
decision_type=2 2 2 2 2 2 2 2 2 2 2 2 2 2 2 2 2 2 2 2 2 2 2 2 2 2 2 2 2 2 2 2 2 2 2 2 2 2 2 2 2 2 2 2 2 2 2 2 2
left_child=2 6 4 10 7 12 14 27 28 -8 13 29 24 -3 20 34 25 47 22 35 -2 43 -13 -14 36 -10 40 37 -5 -7 -15 -31 -22 -19 44 -9 -4 -1 -18 -20 -16 -28 -17 -12 -11 -26 -36 -6 -23
right_child=1 3 5 8 17 11 9 19 16 15 21 18 23 30 26 42 38 33 39 -21 32 48 -24 -25 45 -27 41 -29 -30 31 -32 -33 -34 -35 46 -37 -38 -39 -40 -41 -42 -43 -44 -45 -46 -47 -48 -49 -50
leaf_value=-38.937646861617871 -22.457188638905862 -22.90405857381014 -31.11728804999693 -17.032484352600715 -23.499259156638818 -29.802688430805627 -28.04960014252773 -30.387734100736658 35.584735812149219 8.4899926470116664 25.391133440363781 -5.8479538446488322 -10.180125129327379 18.925028115193918 4.5003839813144859 17.796649577431189 43.493411952485019 -9.7836400705752649 1.2720938650780862 -20.038691104986896 0.15443457948658729 32.277643600372201 -0.89145223248617966 -1.507109772413199 -16.88129716549475 45.603935521887173 13.096099785721602 -29.315424932653951 16.587614149321407 -11.226534687117882 25.399701248233825 -5.7131962234847427 5.1497800022298801 8.2716677707428392 12.86202562632899 -24.312860841726657 -18.85641434441229 -33.97205080138702 53.774559668080144 10.057786959948908 9.4236857015671962 31.595737454625088 23.480787296181955 31.64076706992169 12.803440986499755 -12.551465248721261 17.796885420876144 -16.276488629909359 38.105203289746534
leaf_weight=279 11.999999999999998 8.9999999999999982 30 7.0000000000000027 68 12.999999999999998 12.999999999999998 275 256 216 224 534 399 269 202 158 78 121 102 205 407 176 574 113 187 103 209 201 19 397 323 336 415 14.999999999999998 151 218 284 420 91 56 270 7.9999999999999991 183 98 259 314 180 73 112
leaf_count=279 12 9 30 7 68 13 13 275 256 216 224 534 399 269 202 158 78 121 102 205 407 176 574 113 187 103 209 201 19 397 323 336 415 15 151 218 284 420 91 56 270 8 183 98 259 314 180 73 112
internal_value=-0.039135 17.9398 -15.3771 30.7681 -28.1374 -8.20756 9.49544 -30.5904 40.3927 14.7175 26.3459 -4.83578 -13.315 21.778 5.51349 15.2177 42.0092 -13.9477 -2.31995 -25.4965 2.29974 30.8186 -3.28225 -8.27027 -16.4752 38.536 9.39779 -34.5199 7.34277 -9.09958 22.4815 -8.70652 2.67848 -7.76259 12.805 -27.7368 -20.0892 -35.9881 49.2128 4.41426 7.3257 13.8697 20.8857 27.3527 10.8561 -14.1872 15.575 -19.851 34.624
internal_weight=9662 4448 5214 1765 1875 3339 2683 1598 554 1160 1211 2012 1327 601 1523 1147 528 277 1266 698 834 610 1108 512 815 359 689 900 26 746 592 733 822 136 806 493 314 699 169 158 472 217 341 322 475 501 331 141 288
internal_count=9662 4448 5214 1765 1875 3339 2683 1598 554 1160 1211 2012 1327 601 1523 1147 528 277 1266 698 834 610 1108 512 815 359 689 900 26 746 592 733 822 136 806 493 314 699 169 158 472 217 341 322 475 501 331 141 288
is_linear=0
shrinkage=0.0230652


Tree=14
num_leaves=50
num_cat=0
split_feature=74 74 74 12 74 74 74 55 79 79 79 79 79 79 79 79 74 79 79 79 79 56 79 56 79 79 79 74 79 79 74 79 55 56 74 55 74 55 55 54 79 74 11 74 56 79 79 79 74
split_gain=4.92518e+09 9.24537e+08 7.96625e+08 1.47804e+08 1.18189e+08 1.07808e+08 1.014e+08 7.03173e+07 4.12674e+07 4.07501e+07 3.98835e+07 3.90937e+07 3.32108e+07 3.12732e+07 2.622e+07 2.42866e+07 2.23194e+07 2.10855e+07 1.76308e+07 1.62356e+07 1.56609e+07 1.55874e+07 1.55484e+07 1.49686e+07 1.49265e+07 1.41429e+07 1.25918e+07 1.01023e+07 9.01245e+06 8.57305e+06 8.51592e+06 8.50407e+06 8.46915e+06 7.6156e+06 7.59992e+06 7.5932e+06 7.2576e+06 6.74885e+06 6.68949e+06 6.40061e+06 6.39211e+06 6.21796e+06 4.74537e+06 4.37992e+06 4.09827e+06 3.85173e+06 3.78948e+06 3.7386e+06 3.70203e+06
threshold=4010.1729166666669 2956.3637500000009 5154.2537500000008 0.25881904510252057 6016.2833333333347 4612.3633333333337 3523.6166666666672 2109.1366666666668 70.204583333333417 -1199.0149999999999 -104.08291666666649 20.499499999999902 -45.581249999999947 150.94375000000039 -820.39983333333373 -820.39983333333373 6847.0800000000008 -820.39983333333373 500.58416666666704 -240.67333333333315 13.257083333333187 2888.3996590909096 257.0729166666668 5769.338333333334 1216.665492424243 -223.69124999999983 573.70249999999999 4315.0733333333346 971.20999999999992 -1199.0149999999999 4300.640416666668 246.79249999999982 1710.801666666667 2658.3258333333338 3301.0645833333342 2574.527833333334 5639.4605555555563 4387.7320833333342 2470.7675000000004 703.84650438728863 204.56458333333333 3792.4862500000004 -0.78656609248549303 3324.7545833333338 3265.9000000000001 605.40458333333356 324.0149999999997 283.08375000000007 4910.3866666666672
decision_type=2 2 2 2 2 2 2 2 2 2 2 2 2 2 2 2 2 2 2 2 2 2 2 2 2 2 2 2 2 2 2 2 2 2 2 2 2 2 2 2 2 2 2 2 2 2 2 2 2
left_child=1 3 5 21 10 11 8 22 19 37 17 15 14 25 -7 -2 20 39 38 35 -11 -1 32 -12 30 29 43 -17 46 -8 -13 -14 -5 -24 -21 -3 -19 -6 -9 -4 -23 -27 -25 -10 -42 -33 -15 -32 -16
right_child=2 6 4 7 9 12 13 18 26 16 23 24 31 28 48 27 -18 36 -20 34 -22 40 33 42 -26 41 -28 -29 -30 -31 47 45 -34 -35 -36 -37 -38 -39 -40 -41 44 -43 -44 -45 -46 -47 -48 -49 -50
leaf_value=-21.830702684190115 -26.822134436255865 -28.213053742550418 8.1874903989050694 -37.91491167822852 -9.5200378147456526 -30.498801572392797 -29.095550331305823 -25.90632238897247 -8.6451575156423477 35.701762385491548 26.847534201624175 7.9118275386527053 18.113723603306155 1.6725646519769142 10.873649210341176 1.9194060255422654 54.459083745465961 20.456805730536608 -3.2465689173652832 -13.469272490410033 45.310347207179035 -17.221768743168745 -27.463211629900364 28.997265232370271 38.488492272492934 -4.2018393750392615 2.670698533439674 6.9109319001718932 26.287471629213162 -7.8497059041137272 11.53087080850265 23.220714791166483 -32.72623515133521 -2.6112259845285153 -8.8710039082348953 -16.330930050553924 26.992529406525133 17.706765807853156 -20.339113828048493 -18.178788562136258 -13.216154591914613 -0.46983086173001293 35.618296715402742 -4.1624314911234768 -6.9419088988169957 37.527567505696219 7.2162188385019528 16.933402877511934 15.064397266200528
leaf_weight=165 12.999999999999998 33 13.000000000000002 296 7.0000000000000027 6.9999999999999991 9.9999999999999982 356 311 237 314 291 364 190 273 473 71 269 23 429 176 144 154 101 9.9999999999999982 589 84 397 8.9999999999999982 251 210 188 576 6.9999999999999991 357 279 154 12.999999999999998 196 6.9999999999999991 162 398 278 188 88 11.999999999999998 100 109 207
leaf_count=165 13 33 13 296 7 7 10 356 311 237 314 291 364 190 273 473 71 269 23 429 176 144 154 101 10 589 84 397 9 251 210 188 576 7 357 279 154 13 196 7 162 398 278 188 88 12 100 109 207
internal_value=0.126394 -14.4476 18.8731 -26.0991 31.4154 10.8134 -6.6221 -29.6532 -10.5427 40.739 27.2581 6.84601 16.4794 -2.35924 12.0383 3.7246 42.0719 21.7811 -23.1318 -13.176 39.8607 -15.8531 -33.2665 30.7358 11.283 -3.96426 -5.57425 4.20058 4.33409 -8.73345 10.7968 20.2961 -34.5143 -26.3974 -11.3897 -17.6433 22.8737 8.17757 -23.9556 -1.32023 -13.3182 -2.69823 33.9061 -6.96383 -11.0312 24.197 3.59595 13.4073 12.6987
internal_weight=9589 5395 4194 2167 1640 2554 3228 1608 1681 504 1136 1503 1051 1547 487 883 484 443 575 1098 413 559 1033 693 620 1248 583 870 299 261 610 564 872 161 786 312 423 20 552 20 394 987 379 499 250 200 290 319 480
internal_count=9589 5395 4194 2167 1640 2554 3228 1608 1681 504 1136 1503 1051 1547 487 883 484 443 575 1098 413 559 1033 693 620 1248 583 870 299 261 610 564 872 161 786 312 423 20 552 20 394 987 379 499 250 200 290 319 480
is_linear=0
shrinkage=0.0230652


Tree=15
num_leaves=50
num_cat=0
split_feature=74 74 74 8 74 74 74 55 79 79 79 79 79 79 79 79 79 79 79 74 54 79 79 79 12 74 79 80 55 79 74 74 74 74 55 56 56 79 74 56 74 74 56 55 79 74 79 79 55
split_gain=4.68641e+09 8.76369e+08 7.75847e+08 1.383e+08 1.18825e+08 1.02954e+08 9.12003e+07 5.58087e+07 5.23322e+07 3.88699e+07 3.70717e+07 3.52318e+07 3.20439e+07 3.19086e+07 2.74009e+07 2.60771e+07 2.01376e+07 1.909e+07 1.90794e+07 1.81774e+07 1.63999e+07 1.60823e+07 1.36089e+07 1.3441e+07 1.17753e+07 1.17549e+07 1.12565e+07 1.11927e+07 1.08961e+07 1.03444e+07 9.7395e+06 9.45278e+06 8.49835e+06 7.9924e+06 7.68176e+06 7.4317e+06 7.0167e+06 5.72776e+06 5.51026e+06 5.38232e+06 5.17939e+06 4.61401e+06 3.97306e+06 3.84796e+06 3.80651e+06 3.56593e+06 3.54706e+06 3.14259e+06 2.83214e+06
threshold=4010.1729166666669 2917.7491666666674 5223.5125000000016 1.0000000180025095e-35 4661.1570833333344 3428.012083333334 5970.2154166666678 1951.6750000000004 -1199.0149999999999 -14.257500000000162 102.35333333333348 -55.642083333333282 -1199.0149999999999 -104.08291666666649 23.489583333333034 -820.39983333333373 573.70249999999999 -1199.0149999999999 359.26166666666637 6692.8841666666676 512.62825492784202 -11.620833333333165 -200.39750000000024 350.75666666666649 0.98296291314453421 4362.2600000000011 127.32833333333203 -2388.1508333333327 2323.5962500000005 632.63874999999996 5639.4605555555563 3701.7216666666673 3723.3345833333337 4315.0733333333346 2382.9497222222226 5183.0645833333347 2658.3258333333338 605.40458333333356 3134.2579166666669 5528.2658333333338 5503.9712500000014 4946.9237500000008 5132.7158333333346 1662.9416666666668 179.39416666666639 3121.6600000000003 -39.451666666666817 -311.25583333333333 2876.669166666667
decision_type=2 2 2 2 2 2 2 2 2 2 2 2 2 2 2 2 2 2 2 2 2 2 2 2 2 2 2 2 2 2 2 2 2 2 2 2 2 2 2 2 2 2 2 2 2 2 2 2 2
left_child=1 3 4 20 9 10 13 26 27 15 22 24 -6 17 41 -2 28 -4 31 21 36 -10 34 33 32 47 43 -8 -9 45 44 -13 -7 -11 -3 -20 -1 42 -24 -25 -19 -14 -16 -5 -15 -12 -38 -17 -36
right_child=2 5 6 7 12 11 8 16 19 23 29 18 14 30 37 25 -18 40 35 -21 -22 -23 38 39 -26 -27 -28 -29 -30 -31 -32 -33 -34 -35 48 -37 46 -39 -40 -41 -42 -43 -44 -45 -46 -47 -48 -49 -50
leaf_value=-24.068784184903919 -24.096871066020565 -31.276405967453218 -12.632950401734169 -37.814634858935747 -27.637370018705987 -8.7721896795732857 -16.869535336722606 -27.654921516221975 33.377372738948786 6.602791158020799 -10.422878754605845 -3.5967938921335945 11.933693431796351 25.588350261934604 18.012757191422335 -3.5410018302550696 -2.2259166267403221 19.382847951623678 7.0873233452101907 49.226880864955696 -9.6378618392896893 42.793410394934611 -14.832059084072961 15.701067713766292 -28.91584931006598 7.3002545705993294 -28.127179053014178 15.889491932082313 -21.40355991861367 2.3003641586878105 34.305063482557188 0.95087364292916932 -3.997910077227361 11.912162364512488 -19.139467051255913 27.668663013637659 -21.523941654348629 37.475913250970478 -10.410692332625549 34.068243425792403 25.067841641086758 16.101301696966836 22.79203207012079 -33.422728502245057 30.872388925007158 -5.8598704295084536 -15.49083933828723 2.5217167939106475 -14.418363711466222
leaf_weight=97 17 21 7.9999999999999991 227 7.9999999999999991 405 7.0000000000000027 406 219 310 138 496 316 210 170 50 21 173 85 106 153 208 234 142 11.999999999999998 378 181 20 260 68 228 476 392 300 144 9.9999999999999982 72 11.999999999999998 453 8.9999999999999982 211 279 272 415 158 280 261 452 158
leaf_count=97 17 21 8 227 8 405 7 406 219 310 138 496 316 210 170 50 21 173 85 106 153 208 234 142 12 378 181 20 260 68 228 476 392 300 144 10 72 12 453 9 211 279 272 415 158 280 261 452 158
internal_value=0.101303 -14.0373 18.2258 -25.7588 10.7916 -6.75818 31.2545 -29.4458 38.7209 6.93449 -11.2702 -3.15743 16.8339 27.0001 17.1898 3.67754 -24.5369 21.806 -0.404224 40.307 -16.1874 38.0217 -13.7891 10.7671 -6.78544 4.23135 -33.5211 7.2009 -25.2375 -6.02434 30.3891 -1.37059 -6.42912 9.22379 -17.7133 9.42578 -18.4999 21.4713 -11.9292 16.9361 22.5434 13.9032 20.9828 -35.012 27.9071 -7.38006 -16.8344 1.91409 -16.7055
internal_weight=9728 5465 4263 2093 2715 3372 1548 1510 560 1658 1496 1876 1057 988 1049 897 687 392 1067 533 583 427 1010 761 809 880 823 27 666 486 596 972 797 610 323 95 430 454 687 151 384 595 442 642 368 418 333 502 302
internal_count=9728 5465 4263 2093 2715 3372 1548 1510 560 1658 1496 1876 1057 988 1049 897 687 392 1067 533 583 427 1010 761 809 880 823 27 666 486 596 972 797 610 323 95 430 454 687 151 384 595 442 642 368 418 333 502 302
is_linear=0
shrinkage=0.0230652


Tree=16
num_leaves=50
num_cat=0
split_feature=74 74 74 74 79 74 74 55 80 79 79 79 79 79 79 79 74 79 79 56 79 12 79 79 79 74 13 74 74 79 74 12 56 74 56 79 55 56 56 74 79 74 56 74 74 55 55 79 79
split_gain=4.4159e+09 7.86297e+08 7.73532e+08 1.14806e+08 1.13171e+08 1.03232e+08 9.07003e+07 5.34849e+07 4.98566e+07 4.24683e+07 4.08996e+07 3.87299e+07 3.26709e+07 3.02226e+07 2.66889e+07 2.62647e+07 1.99961e+07 1.75763e+07 1.63889e+07 1.60612e+07 1.45349e+07 1.4052e+07 1.18301e+07 1.12207e+07 1.10766e+07 1.01298e+07 9.87958e+06 9.68055e+06 9.32952e+06 9.30038e+06 9.06903e+06 8.20357e+06 6.96173e+06 6.31335e+06 6.30219e+06 6.1535e+06 5.98249e+06 5.72869e+06 5.57471e+06 5.3468e+06 5.31397e+06 5.05689e+06 4.8765e+06 4.72493e+06 4.50425e+06 4.23074e+06 3.83635e+06 3.40501e+06 3.0807e+06
threshold=3921.0000000000005 5072.05375 2823.6775000000002 6016.2833333333347 464.4004166666669 4417.7241666666678 3360.3858333333342 2032.0370833333334 -1963.219166666667 -131.01624999999964 59.294393939394247 102.35333333333348 -124.19937500000013 -1199.0149999999999 -70.245833333333835 -1887.2625378787873 5586.7616666666681 -67.792500000000004 397.49094696969706 3044.3734722222225 -296.0496666666665 0.37940952255126048 500.58416666666704 397.49094696969706 -1199.0149999999999 3634.6420833333341 1.0000000180025095e-35 6847.0800000000008 4770.9066666666677 806.79124999999988 5536.3004166666678 0.37940952255126048 6878.3620833333343 3121.6600000000003 5060.6533333333346 -820.39983333333373 1798.3504166666667 4715.5025000000005 5528.2658333333338 3589.8283333333338 231.68666666666698 4171.8462500000014 3550.9008333333336 4153.5558333333347 1880.5250000000003 2273.7635416666672 2348.1995833333335 117.46624999999996 99.115000000000251
decision_type=2 2 2 2 2 2 2 2 2 2 2 2 2 2 2 2 2 2 2 2 2 2 2 2 2 2 2 2 2 2 2 2 2 2 2 2 2 2 2 2 2 2 2 2 2 2 2 2 2
left_child=2 5 4 9 7 14 11 21 -5 15 13 20 24 -7 26 -3 40 27 25 -6 46 44 -13 41 -8 48 -2 35 -15 34 -17 -9 -19 -22 -12 -10 -23 -20 -25 -26 -11 -16 -21 -28 -1 -33 -4 -27 -14
right_child=1 3 6 8 19 10 12 31 17 16 29 22 18 28 23 30 -18 32 37 42 33 36 -24 38 39 47 43 -29 -30 -31 -32 45 -34 -35 -36 -37 -38 -39 -40 -41 -42 -43 -44 -45 -46 -47 -48 -49 -50
leaf_value=-29.920141014076822 -21.428246527868595 -18.407047607105312 -29.849223275706954 -17.586706826059416 -18.547334697967433 -23.981675339994627 -28.797358809903212 -18.737301641739489 15.627473177949028 23.651367295185683 15.296003622119324 -8.6072951147987613 -6.2630992306613891 8.645636872927799 4.2700640540961388 17.507652270063716 33.255516096847614 41.279233770369515 6.2372209992075627 -9.7131302982721088 -15.846204679747819 -35.595797057794478 0.21850114877964749 13.134021283870641 -11.012613434258943 -1.9033382569430246 -1.239871519355811 45.239206066591692 13.717201762590879 37.519517460237829 24.142054455724075 -27.2150795673058 52.042497940646236 -11.642002331473925 20.50518903046795 33.869338893140302 -31.089968810885466 27.551488935037884 33.255799979980637 -6.383862445934426 29.104706928922756 8.2853958182554361 1.3796836202897027 2.9857506921463233 -22.688541044233546 -22.497092997504961 -19.517385666479562 1.8752816403688821 -2.8431663148462265
leaf_weight=113 9.9999999999999982 8.9999999999999982 26 7.9999999999999991 151 12.999999999999998 13.999999999999998 167 11.999999999999998 331 273 361 376 484 347 269 294 147 62 129 354 399 104 70 236 410 265 47 328 12.999999999999998 202 239 60 441 251 212 370 6.9999999999999991 7.9999999999999991 313 162 326 25 299 104 236 122 183 226
leaf_count=113 10 9 26 8 151 13 14 167 12 331 273 361 376 484 347 269 294 147 62 129 354 399 104 70 236 410 265 47 328 13 202 239 60 441 251 212 370 7 8 313 162 326 25 299 104 236 122 183 226
internal_value=-0.106054 16.7628 -14.5989 28.7776 -26.1408 8.91933 -7.69852 -28.5578 38.3317 25.0952 13.3774 -12.097 -4.3057 10.1386 4.33253 19.6311 28.409 39.29 -2.24506 -13.2065 -14.7836 -31.9502 -6.63578 7.1925 -8.92421 -2.87758 0.586783 35.1752 10.7035 18.3349 20.3821 -23.3208 44.551 -13.5254 17.8134 32.9398 -33.4557 8.6347 15.4536 -8.38423 25.479 6.22116 -7.91409 1.00116 -26.5318 -24.9047 -21.4541 -0.736481 -4.98362
internal_weight=9608 4440 5168 1753 1933 2687 3235 1628 486 1267 1362 1408 1827 825 1325 480 787 478 1264 305 943 986 465 751 563 1195 574 271 812 537 471 642 207 795 524 224 769 69 78 549 493 673 154 564 217 475 148 593 602
internal_count=9608 4440 5168 1753 1933 2687 3235 1628 486 1267 1362 1408 1827 825 1325 480 787 478 1264 305 943 986 465 751 563 1195 574 271 812 537 471 642 207 795 524 224 769 69 78 549 493 673 154 564 217 475 148 593 602
is_linear=0
shrinkage=0.0230652


Tree=17
num_leaves=50
num_cat=0
split_feature=74 74 74 12 74 74 74 55 79 79 79 79 79 79 79 74 79 79 79 79 56 79 55 55 79 79 79 79 79 74 79 74 74 79 74 74 54 74 79 79 79 56 79 74 55 74 74 74 55
split_gain=4.25775e+09 8.04641e+08 6.91998e+08 1.24032e+08 1.07936e+08 9.28381e+07 8.0329e+07 5.85242e+07 4.12431e+07 4.01859e+07 3.93549e+07 3.16627e+07 2.77732e+07 2.75016e+07 2.57814e+07 2.3194e+07 2.07469e+07 1.78729e+07 1.40508e+07 1.35692e+07 1.35121e+07 1.32642e+07 1.2059e+07 1.19702e+07 1.15502e+07 1.14955e+07 1.09623e+07 1.06642e+07 9.37039e+06 8.78996e+06 7.57146e+06 6.63694e+06 6.63476e+06 6.61169e+06 6.49605e+06 6.43616e+06 6.08416e+06 6.02801e+06 5.55754e+06 5.35308e+06 5.04177e+06 4.42574e+06 4.36722e+06 3.73288e+06 3.56054e+06 3.41797e+06 3.18185e+06 3.14746e+06 3.06818e+06
threshold=3980.1541666666667 2917.7491666666674 5202.5112500000005 0.25881904510252057 4513.2879166666671 3532.8258333333338 5829.9520833333345 1934.1158333333335 -1199.0149999999999 -84.949583333333393 -89.824166666666756 -1199.0149999999999 1.0000000180025095e-35 -97.036666666666846 13.257083333333187 6326.3995833333347 751.68666666666684 222.5720833333335 -1199.0149999999999 666.71166666666693 2754.1641666666669 29.929583333333088 4076.3508333333343 2273.7635416666672 227.37333333333348 -609.54071969696963 -1199.0149999999999 -609.54071969696963 127.32833333333203 3240.6270833333342 262.38583333333355 4770.9066666666677 3253.0350000000008 252.19958333333378 4271.105833333334 4788.7929166666681 600.17362695719783 7099.3635227272744 857.7756250000001 -285.77958333333339 -216.46250000000018 3695.9250000000006 200.08874999999992 3781.7762500000003 5073.6525000000011 5474.2712500000016 4183.8891666666677 4865.6545833333339 1642.9450000000004
decision_type=2 2 2 2 2 2 2 2 2 2 2 2 2 2 2 2 2 2 2 2 2 2 2 2 2 2 2 2 2 2 2 2 2 2 2 2 2 2 2 2 2 2 2 2 2 2 2 2 2
left_child=1 3 4 20 14 10 13 28 22 11 27 -6 26 18 25 21 23 29 -4 42 -1 -10 -8 -9 35 -2 -7 -3 48 -12 45 -13 -29 46 -27 -11 -22 40 47 -28 -17 -19 -14 -41 -24 -15 -16 -26 -5
right_child=2 5 6 7 9 12 8 16 15 24 17 31 19 30 33 37 -18 41 -20 -21 36 -23 44 -25 38 34 39 32 -30 -31 -32 -33 -34 -35 -36 -37 -38 -39 -40 43 -42 -43 -44 -45 -46 -47 -48 -49 -50
leaf_value=-22.047485387249555 -21.244593715398814 -27.976899258936069 -8.4442866752000949 -36.197824885950979 -26.132413444638157 -28.371426004793076 -15.990170626491851 -26.648131136533017 29.109824214587459 12.757473592618959 -11.400980048027721 7.9596175807384517 -0.6319156095489934 23.439421941827536 4.8275453724543471 35.903055778684667 1.7340123404369054 -5.5927260165556207 20.24420507112136 18.075841559709591 -14.34150916991813 37.830850424151819 9.1001620782428017 -20.713533993311806 18.485644202013919 1.0447177286748863 -8.7161409170918489 -16.311264866702672 -27.058071954052554 -6.7994845956099921 32.355474472965781 12.943232683001249 -11.5286556507703 12.865641942376008 5.3358418584555025 18.236252291933944 -6.9057550115132118 53.532943868163244 36.894486770383331 -5.4109537160981978 44.542694307303925 0.52126841522347656 3.5981671896049683 -1.9385347366564964 26.73831263829026 28.269655709868832 9.0569218191116825 23.951716573954396 -32.188182812001429
leaf_weight=115 9.9999999999999982 30 8.9999999999999982 220 11.999999999999998 9.9999999999999982 6.9999999999999991 419 226 212 432 253 437 184 159 92 17 110 340 24 339 185 15.000000000000002 351 143 435 150 312 167 461 158 339 326 169 330 272 73 30 12.999999999999998 377 109 146 184 294 10.999999999999998 202 244 120 437
leaf_count=115 10 30 9 220 12 10 7 419 226 212 432 253 437 184 159 92 17 110 340 24 339 185 15 351 143 435 150 312 167 461 158 339 326 169 330 272 73 30 13 377 109 146 184 294 11 202 244 120 437
internal_value=-0.197818 -13.7543 17.0078 -24.7705 9.94973 -6.59847 29.2018 -27.9503 35.2298 14.5224 -10.0881 10.0631 -2.30005 24.6232 5.31466 36.523 -23.4064 -7.49265 19.4902 1.29066 -15.0277 33.0885 9.85272 -23.9625 18.0548 2.56979 -5.0859 -14.541 -32.2685 -9.03214 27.8892 10.8244 -13.8816 9.02657 2.89873 15.8566 -13.0369 42.5247 21.8636 -4.78022 40.7157 -2.11328 0.623871 -3.89283 17.0291 26.0101 7.39865 21.0322 -33.565
internal_weight=9710 5431 4279 2138 2711 3293 1568 1611 675 1364 1817 604 1476 893 1347 642 787 1149 349 645 527 411 33 770 760 775 831 668 824 893 544 592 638 572 765 484 412 231 276 821 201 256 621 671 26 386 403 263 657
internal_count=9710 5431 4279 2138 2711 3293 1568 1611 675 1364 1817 604 1476 893 1347 642 787 1149 349 645 527 411 33 770 760 775 831 668 824 893 544 592 638 572 765 484 412 231 276 821 201 256 621 671 26 386 403 263 657
is_linear=0
shrinkage=0.0230652


Tree=18
num_leaves=50
num_cat=0
split_feature=74 74 74 12 74 74 74 55 79 79 79 79 79 79 79 79 79 79 74 56 79 74 79 12 79 79 74 79 79 55 74 74 79 55 55 79 74 74 56 79 74 79 54 56 79 74 74 74 79
split_gain=4.13568e+09 8.67131e+08 5.74602e+08 1.20341e+08 1.09456e+08 8.8218e+07 8.11542e+07 5.64289e+07 3.94413e+07 3.07783e+07 2.86181e+07 2.75238e+07 2.53966e+07 2.33571e+07 2.10171e+07 2.06966e+07 1.84854e+07 1.6818e+07 1.6459e+07 1.61526e+07 1.47602e+07 1.2732e+07 1.17627e+07 1.12554e+07 1.08739e+07 9.86871e+06 8.63608e+06 8.05452e+06 7.93464e+06 7.34695e+06 6.82658e+06 6.41414e+06 6.0677e+06 5.97028e+06 5.93801e+06 5.58257e+06 5.5363e+06 5.27885e+06 5.17323e+06 5.06405e+06 4.21509e+06 4.17919e+06 4.15591e+06 4.01234e+06 3.87024e+06 3.71323e+06 3.70676e+06 3.23636e+06 3.08286e+06
threshold=4095.5408333333339 2917.7491666666674 5202.5112500000005 0.25881904510252057 3579.0604166666667 5970.2154166666678 4592.4500000000016 2047.6470833333335 9.5397500000001418 -89.824166666666756 -81.917083333333366 -19.289583333333209 43.143333333332983 -553.21416666666585 -820.39983333333373 -1887.2625378787873 -1199.0149999999999 426.48874999999981 6692.8841666666676 2888.3996590909096 283.08375000000007 3277.5462500000008 179.39416666666639 0.98296291314453421 147.41791666666657 380.51750000000021 5586.7616666666681 267.82708333333352 331.42041666666643 4941.057083333334 3230.3866666666677 3866.846250000001 -343.89916666666608 2447.4750000000008 1687.5270833333336 252.19958333333378 4865.6545833333339 5503.9712500000014 4059.032083333334 -227.73916666666648 4376.6737500000008 1216.665492424243 556.93405773628353 3321.3747348484853 -144.82375000000067 4910.3866666666672 1818.1754166666667 3884.7870833333341 176.3908333333334
decision_type=2 2 2 2 2 2 2 2 2 2 2 2 2 2 2 2 2 2 2 2 2 2 2 2 2 2 2 2 2 2 2 2 2 2 2 2 2 2 2 2 2 2 2 2 2 2 2 2 2
left_child=1 3 6 19 8 9 11 22 21 15 16 14 23 29 -2 -4 -8 33 24 -1 30 32 34 31 -15 36 48 -13 47 -7 -10 44 -3 -9 -5 -21 -12 -17 -22 -23 -16 -27 -19 -37 -6 -18 -24 -14 -11
right_child=2 4 5 7 12 13 10 17 20 26 25 27 28 18 40 37 45 42 -20 35 38 39 46 -25 -26 41 -28 -29 -30 -31 -32 -33 -34 -35 -36 43 -38 -39 -40 -41 -42 -43 -44 -45 -46 -47 -48 -49 -50
leaf_value=-20.528382207413586 -22.091183771527444 -22.777759572157848 -18.014344634735231 -34.972283823328645 -6.8803338878225802 6.5546484093224855 -24.844665979493996 -24.258193929289487 -10.048045721413851 23.236969737029497 14.472387200661389 8.6832955837556565 -0.068913873232416392 32.658323094990287 2.5650517821371066 17.825687913223124 9.4119390692168814 -9.8967676723261686 47.074023224124026 -15.673739527859892 -1.8506204106462929 -12.936230845940425 -28.845467098273552 -25.0924058686061 41.195180243182151 23.057263153308416 31.344650636325447 14.811400152183792 8.3526606085793649 26.410034023210091 -5.4246508268424058 -0.95495232896283078 -14.042873332240745 -18.977537845500194 -30.3612935446486 -11.686501785898329 19.264106099670094 23.106947244035965 8.0800709391966308 -8.2281405509909096 6.3102345937504429 41.108017304351002 9.4101424020308393 -5.0494029390564066 -3.1340015665932492 13.59094386829211 -22.006010647915932 3.8160430820655864 28.180364490301315
leaf_weight=171 15.999999999999998 48 6.9999999999999991 268 251 14.999999999999998 6.9999999999999991 403 288 186 262 423 322 268 377 204 243 27 89 134 163 187 99 11.999999999999998 136 108 269 159 102 32 422 411 480 182 540 163 283 240 33 368 279 7.9999999999999991 6.9999999999999991 71 357 228 104 176 153
leaf_count=171 16 48 7 268 251 15 7 403 288 186 262 423 322 268 377 204 243 27 89 134 163 187 99 12 136 108 269 159 102 32 422 411 480 182 540 163 283 240 33 368 279 8 7 71 357 228 104 176 153
internal_value=-0.146026 -12.6002 17.9135 -24.1305 -5.68844 28.6169 10.7557 -27.257 -9.31943 24.7154 15.2121 6.70214 -1.25852 36.2295 3.51686 20.0839 10.8864 -21.7213 37.7246 -14.6544 -5.76192 -12.2903 -30.6303 -3.45338 35.5932 18.3266 28.126 10.372 2.51265 20.2478 -7.30748 -3.18284 -14.8638 -22.638 -31.9174 -11.8938 16.9804 20.7098 -0.157587 -9.82765 4.16253 24.5226 -5.82056 -9.69211 -4.68625 11.4507 -25.4223 1.30724 25.5173
internal_weight=9781 5789 3992 2169 3620 1599 2393 1630 1989 1059 1139 1254 1631 540 672 451 478 619 493 539 906 1083 1011 1031 404 661 608 582 600 47 710 1019 528 585 808 368 545 444 196 555 656 116 34 234 608 471 203 498 339
internal_count=9781 5789 3992 2169 3620 1599 2393 1630 1989 1059 1139 1254 1631 540 672 451 478 619 493 539 906 1083 1011 1031 404 661 608 582 600 47 710 1019 528 585 808 368 545 444 196 555 656 116 34 234 608 471 203 498 339
is_linear=0
shrinkage=0.0230652


Tree=19
num_leaves=50
num_cat=0
split_feature=74 74 74 12 74 74 74 55 79 79 79 79 79 74 79 79 79 79 79 79 79 54 55 55 79 74 79 79 56 79 13 55 74 56 74 79 74 79 79 79 55 79 74 79 79 74 56 55 74
split_gain=3.85673e+09 6.73682e+08 6.61575e+08 1.10043e+08 9.69601e+07 8.3675e+07 7.09837e+07 5.41807e+07 4.28891e+07 3.34553e+07 3.21157e+07 3.06906e+07 2.92253e+07 2.60199e+07 2.59919e+07 2.13958e+07 1.93744e+07 1.43843e+07 1.43397e+07 1.27364e+07 1.27211e+07 1.13749e+07 1.06585e+07 9.75184e+06 9.42814e+06 9.37876e+06 8.95923e+06 8.9408e+06 7.70688e+06 7.49313e+06 7.41265e+06 6.11141e+06 5.99408e+06 5.79605e+06 5.24735e+06 4.93247e+06 4.34599e+06 4.17239e+06 4.06685e+06 4.01751e+06 3.93519e+06 3.88474e+06 3.77617e+06 3.73602e+06 3.65206e+06 3.4809e+06 3.44949e+06 3.40966e+06 3.27641e+06
threshold=3945.9020833333338 2917.7491666666674 5072.05375 0.25881904510252057 5768.8270833333345 4417.7241666666678 3428.012083333334 1934.1158333333335 -820.39983333333373 160.7145833333332 110.66541666666627 751.68666666666684 -121.58666666666703 6402.1795833333344 -55.642083333333282 -77.54208333333348 -1199.0149999999999 -170.54124999999951 -820.39983333333373 417.22999999999962 -200.39750000000024 531.00189846690466 2323.5962500000005 4104.7420833333344 632.63874999999996 4770.9066666666677 241.92958333333311 806.79124999999988 5604.9908333333351 127.32833333333203 1.0000000180025095e-35 2660.077291666667 3701.7216666666673 2658.3258333333338 3736.811666666667 -329.11833333333283 3134.2579166666669 -129.0649999999998 208.924583333333 971.20999999999992 5150.7600000000011 -136.86749999999992 5370.3879166666675 605.40458333333356 213.52712121212065 4171.8462500000014 4972.8975000000009 4104.7420833333344 4711.6487500000012
decision_type=2 2 2 2 2 2 2 2 2 2 2 2 2 2 2 2 2 2 2 2 2 2 2 2 2 2 2 2 2 2 2 2 2 2 2 2 2 2 2 2 2 2 2 2 2 2 2 2 2
left_child=1 3 5 21 12 15 10 29 23 16 20 22 18 17 30 35 -7 -10 47 32 31 33 -9 -6 -12 37 45 48 -14 -5 -8 -3 -16 -1 -32 -2 -22 -18 -15 -28 -25 -27 -20 -30 -19 -17 -21 -4 -11
right_child=2 6 4 7 8 9 14 11 13 27 24 -13 28 38 19 26 25 44 42 46 36 -23 -24 40 -26 41 39 -29 43 -31 34 -33 -34 -35 -36 -37 -38 -39 -40 -41 -42 -43 -44 -45 -46 -47 -48 -49 -50
leaf_value=-21.777748209433817 -5.3438819967100706 -23.161352707648163 -15.614130806224118 -31.978338688575004 -12.664726236479869 -20.661930905826718 -25.719671936223769 -25.324892409614701 26.856538482141268 15.384298065596397 -6.5351498501919743 2.4545466372997504 22.008713472468511 39.356359317970536 -3.0134471747835319 3.5739540427392869 6.5893928764588869 32.342473663794358 15.393545816695523 7.350132804664776 -13.323281015706261 -8.239342243871798 -19.61080949791884 10.233858198877632 2.6279475685595708 11.047729850806236 10.507072533504868 36.620116953101864 26.913636554881414 -26.16177199500002 -7.9397063839159774 -14.721442061955885 0.84985110638291739 -14.62399078427533 -3.8211335718754227 1.5246397221406931 -9.3704224194433205 10.585309122678721 48.731448141232562 26.935478696699207 25.682103308953621 15.684206630821585 20.388670775261684 42.369616952918598 38.215481760488281 7.2057244222827661 23.401160996747237 5.0727577280661196 20.086739952713064
leaf_weight=80 63 58 6.9999999999999991 623 6.9999999999999991 9.9999999999999982 9.9999999999999982 443 208 173 395 26 264 137 497 284 256 182 176 49 228 132 314 26 70 199 169 13.999999999999998 365 173 404 265 374 299 281 441 459 318 51 7.9999999999999991 13.999999999999998 206 178 9.9999999999999982 139 282 7.9999999999999991 8.9999999999999982 178
leaf_count=80 63 58 7 623 7 10 10 443 208 173 395 26 264 137 497 284 256 182 176 49 228 132 314 26 70 199 169 14 365 173 404 265 374 299 281 441 459 318 51 8 14 206 178 10 139 282 8 9 178
internal_value=0.101809 -13.3477 16.0539 -23.4652 26.9167 8.64434 -6.51868 -26.4783 33.1307 12.6136 -10.1802 -22.1278 22.1934 34.5313 -3.18837 4.33019 10.3985 31.8086 16.9733 -0.661208 -12.4894 -14.1332 -22.9734 11.5851 -5.15402 10.7292 6.81684 18.5866 25.1958 -30.7364 -6.55903 -16.2801 -1.35518 -16.1685 -6.25538 0.660337 -10.6936 8.81256 42.0575 11.3447 15.9625 13.4272 17.9377 27.3978 34.9572 5.38957 9.83958 -4.23196 17.8015
internal_weight=9562 5188 4374 2090 1773 2601 3098 1579 764 1354 1475 783 1009 717 1623 1247 989 529 370 928 1010 511 757 47 465 979 743 365 639 796 695 323 871 379 685 504 687 574 188 177 40 405 354 375 321 566 57 16 351
internal_count=9562 5188 4374 2090 1773 2601 3098 1579 764 1354 1475 783 1009 717 1623 1247 989 529 370 928 1010 511 757 47 465 979 743 365 639 796 695 323 871 379 685 504 687 574 188 177 40 405 354 375 321 566 57 16 351
is_linear=0
shrinkage=0.0230652


Tree=20
num_leaves=50
num_cat=0
split_feature=74 74 74 74 12 74 74 55 79 79 79 79 79 79 79 79 79 74 79 79 79 56 79 79 12 74 79 55 79 74 74 79 56 54 79 74 74 74 56 79 55 54 74 56 79 79 56 79 79
split_gain=3.65789e+09 6.72545e+08 6.23664e+08 1.00578e+08 9.49937e+07 8.05027e+07 6.45775e+07 5.13788e+07 3.28925e+07 3.10957e+07 3.03232e+07 2.91804e+07 2.82253e+07 2.80417e+07 2.7217e+07 2.56413e+07 1.79092e+07 1.63909e+07 1.47478e+07 1.29188e+07 1.25035e+07 1.21301e+07 1.19624e+07 1.13989e+07 1.0776e+07 9.17784e+06 9.15667e+06 8.57973e+06 8.02427e+06 7.69722e+06 7.37047e+06 7.31791e+06 7.1207e+06 6.98729e+06 6.52377e+06 6.35886e+06 5.6486e+06 5.62942e+06 5.39639e+06 5.28904e+06 5.17776e+06 4.57105e+06 3.71772e+06 3.57448e+06 3.11856e+06 3.0792e+06 3.02102e+06 2.78585e+06 2.64329e+06
