tree
version=v4
num_class=1
num_tree_per_iteration=1
label_index=0
max_feature_idx=89
objective=regression
feature_names=id temperature_2m relative_humidity_2m dew_point_2m precipitation_mm cloud_cover_pct wind_speed_10m shortwave_radiation is_peak_hour is_night is_morning_ramp quarter hour_sin hour_cos hour dow_sin dow_cos dayofweek month_sin month_cos month doy_sin doy_cos is_weekend heat_index CDD HDD temp_squared temp_x_humidity temp_x_hour temp_ramp_1h temp_ramp_3h season_winter season_spring season_summer season_monsoon season_autumn is_rainy is_heavy_rain is_cloudy is_clear is_daylight solar_high is_holiday is_national_holiday is_festival is_ipl_season days_to_next_holiday days_since_last_holiday is_pre_holiday is_post_holiday aqi_value aqi_severe aqi_poor delhi_mw_rmean_1h delhi_mw_rstd_1h delhi_mw_rmin_1h delhi_mw_rmax_1h delhi_mw_rmean_1d delhi_mw_rstd_1d delhi_mw_rmin_1d delhi_mw_rmax_1d delhi_mw_rmean_7d delhi_mw_rstd_7d delhi_mw_rmin_7d delhi_mw_rmax_7d temp_rmean_1h temp_rmean_1d CDD_rsum_1h CDD_rsum_1d humidity_rmean_1d delhi_mw_lag_1 delhi_mw_lag_6 delhi_mw_lag_12 delhi_mw_lag_288 delhi_mw_lag_2016 delhi_mw_diff_1 delhi_mw_diff_288 fourier_sin_288_1 fourier_cos_288_1 fourier_sin_288_2 fourier_cos_288_2 fourier_sin_288_3 fourier_cos_288_3 fourier_sin_2016_1 fourier_cos_2016_1 fourier_sin_2016_2 fourier_cos_2016_2 fourier_sin_2016_3 fourier_cos_2016_3
feature_infos=[1:201103] [2.7999999999999998:44.600000000000001] [6:100] [1.5:26.600000000000001] [0:12.1] [0:100] [0:35.600000000000001] [0:870] [0:1] [0:1] [0:1] [1:4] [-1:1] [-1:1] [0:23] [-0.97492791218182362:0.97492791218182362] [-0.90096886790241903:1] [0:6] [-1:1] [-1:1] [1:12] [-0.9999994220246925:0.99998555065071859] [-0.99997919295908233:0.9999907524084426] [0:1] [2.7999999999999998:43.955422944000013] [0:20.600000000000001] [0:15.199999999999999] [7.839999999999999:1989.1600000000001] [2.238:26.754000000000001] [0:818.80000000000007] [-12.900000000000002:8.0999999999999996] [-12.900000000000002:8.0999999999999996] [0:1] [0:1] [0:1] [0:1] [0:1] [0:1] none [0:1] [0:1] [0:1] [0:1] [0:1] [0:1] [0:1] [0:1] [0:50] [0:54] [0:1] [0:1] [47:269] none [0:1] [1323.2499999999998:7941.6608333333343] [0:2150.0583173420796] [1302.0799999999999:7892.1499999999996] [1334.3399999999999:7989.3400000000001] [2096.8598263888889:6645.1835416666663] [153.77478777951504:1814.4472395106602] [1302.0799999999999:5233.4200000000001] [2493.1399999999999:7989.3400000000001] [2760.5748809523811:5160.4511904761903] [491.33919223769567:1588.4804072246204] [1302.0799999999999:2848.2800000000002] [4217.9200000000001:7989.3400000000001] [2.7999999999999998:44.600000000000001] [7.0541666666666671:38.566666666666663] [0:247.20000000000002] [0:4195.1999999999998] [16.027777777777779:94.083333333333329] [1302.0799999999999:7989.3400000000001] [1302.0799999999999:7989.3400000000001] [1302.0799999999999:7989.3400000000001] [1302.0799999999999:7989.3400000000001] [1302.0799999999999:7989.3400000000001] [-4055.2499999999995:3638.3400000000001] [-4366.880000000001:4652.9899999999998] [-1:1] [-1:1] [-1:1] [-1:1] [-1:1] [-1:1] [-1:1] [-1:1] [-1:1] [-1:1] [-1:1] [-1:1]
tree_sizes=5801 5830 5833 5819 5833 5823 5839 5821 5835 5822 5827 5828 5807 5833 5835 5814 5841 5834 5830 5815 5814 5829 5835 5818 5805 5790 5809 5797 5817 5806 5778 5790 5785 5797 5765 5743 5719 5792 5807 5813 5802 5800 5658 5792 5668 5617 5777 5733 5723 5743 5710 5710 5690 5563 5678 5602 5703 5690 5687 5600 5617 5637 5610 5626 5625 5570 5618 5620 5602 5598 5558 5608 5584 5555 5523 5555 5555 5561 5507 5564 5559 5512 5570 5556 5560 5583 5556 5527 5534 5552 5549 5575 5560 5483 5541 5539 5540 5500 5555 5558 5523 5578 5480 5475 5561 5583 5586 5556 5524 5527 5479 5528 5523 5552 5522 5504 5521 5514 5523 5563 5594 5530 5470 5513 5520 5594 5481 5498 5548 5505 5529 5502 5463 5482 5504 5537 5498 5533 5465 5511 5466 5432 5451 5485 5566 5441 5425 5493 5470 5432 5516 5444 5488 5493 5482 5502 5535 5452 5479 5428 5482 5400 5543 5424 5428 5393 5407 5430 5463 5433 5454 5474 5486 5446 5492 5373 5466 5426 5414 5433 5474 5562 5532 5470 5531 5422 5487 5462 5373 5534 5408 5397 5523 5396 5412 5505 5441 5422 5469 5477 5482 5477 5529 5504 5496 5392 5458 5397 5395 5430 5395 5441 5374 5381 5371 5567 5510 5509 5519 5471 5410 5504 5401 5392 5425 5388 5473 5489 5555 5598 5462 5392 5457 5342 5431 5411 5580 5440 5450 5582 5416 5490 5587 5661 5559 5445 5438 5466 5454 5482 5497 5491 5522 5543 5525 5423 5404 5498 5471 5479 5541 5572 5440 5531 5510 5445 5382 5452 5383 5439 5480 5646 5452 5439 5546 5521 5486 5419 5452 5431 5565 5615 5477 5488 5561 5459 5413 5480 5435 5428 5430 5571 5503 5565 5537 5586 5447 5465 5593 5553 5445 5455 5430 5448 5554 5469 5470 5416 5476 5453 5509 5360 5509 5398 5488 5612 5591 5634 5526 5585 5413 5415 5501 5454 5427 5427 5475 5437 5424 5763 5484 5438 5502 5411 5444 5415 5489 5420 5417 5492 5598 5692 5414 5457 5625 5483 5425 5437 5556 5523 5383 5442 5498 5438 5483 5521 5510 5533 5522 5494 5456 5453 5520 5469 5484 5460 5654 5636 5497 5490 5412 5476 5519 5544 5640 5558 5476 5487 5468 5442 5469 5470 5475 5431 5492 5532 5463 5422 5436 5382 5604 5572 5615 5479 5507 5544 5479 5598 5471 5576 5520 5474 5485 5473 5558 5460 5443 5472 5510 5494 5441 5494 5582 5601 5461 5727 5515 5483 5420 5461 5410 5404 5435 5465 5491 5670 5484 5755 5615 5458 5442 5441 5468 5419 5449 5614 5595 5627 5616 5481 5672 5491 5675 5606 5502 5646 5439 5401 5443 5432 5443 5405 5503 5499 5645 5423 5465 5438 5577 5595 5521 5487 5484 5479 5576 5568 5600 5639 5502 5478 5420 5481 5561 5444 5412 5723 5605 5539 5758 5421 5466 5592 5453 5540 5495 5501 5494 5520 5533 5503 5587 5553 5536 5519 5606 5424 5399 5409 5436

Tree=0
num_leaves=63
num_cat=0
split_feature=71 71 71 71 71 71 71 71 71 71 71 71 71 71 71 71 71 71 71 71 71 71 71 71 71 71 71 71 71 71 77 71 71 71 71 71 71 71 71 71 71 71 71 56 71 71 71 71 71 71 71 71 71 71 71 71 56 71 71 77 71 71
split_gain=1.3588e+11 3.03828e+10 2.2546e+10 4.31401e+09 3.65396e+09 3.0097e+09 2.94558e+09 6.68284e+08 6.06056e+08 5.96218e+08 5.51238e+08 4.5464e+08 4.00225e+08 3.18096e+08 3.18005e+08 1.03445e+08 9.53194e+07 9.00675e+07 8.71291e+07 7.36155e+07 6.85035e+07 6.84202e+07 6.82306e+07 6.336e+07 5.79041e+07 5.73651e+07 5.62938e+07 4.71848e+07 4.18102e+07 3.77225e+07 3.0417e+07 2.97766e+07 1.49432e+07 1.19085e+07 1.14961e+07 1.11447e+07 1.05591e+07 1.02627e+07 1.02562e+07 1.00195e+07 9.55775e+06 9.36876e+06 9.2518e+06 9.17427e+06 8.99638e+06 8.40421e+06 8.35179e+06 8.20756e+06 8.19246e+06 7.76387e+06 7.62346e+06 7.44538e+06 7.16485e+06 7.04424e+06 7.03715e+06 6.93553e+06 6.92058e+06 6.36138e+06 6.00465e+06 5.93243e+06 5.33724e+06 4.87043e+06
threshold=4016.3700000000003 2805.8300000000004 5181.6450000000013 3439.9700000000007 6012.4600000000009 4604.3950000000013 2180.8850000000007 6661.6050000000005 5562.3750000000009 3126.6350000000007 3720.7600000000007 4302.755000000001 1829.2800000000002 2473.1500000000001 4876.920000000001 6291.3050000000012 7099.3650000000007 3281.3000000000006 5779.5500000000002 3865.7050000000004 3584.0550000000007 5363.4500000000007 2969.4900000000002 1999.6150000000002 4456.170000000001 1647.0650000000003 4155.4850000000006 2636.5250000000005 5022.0200000000013 4752.8550000000005 -1244.1499999999994 2322.8550000000005 6439.0500000000011 3350.1300000000006 6168.9500000000016 5678.1350000000011 6825.6000000000013 3939.2950000000005 5888.6150000000007 3211.8450000000007 3787.9000000000001 5444.6350000000011 3648.7100000000005 3245.8650000000002 3043.9050000000002 3518.3650000000002 5286.505000000001 2076.0550000000007 2884.9400000000001 4380.2400000000007 1738.6400000000001 4227.1750000000011 1909.6200000000001 1549.8000000000002 4084.3500000000004 2712.9250000000006 3532.0950000000007 4521.2900000000009 4675.2800000000016 1511.9550000000002 5109.2450000000008 2558.0650000000005
decision_type=2 2 2 2 2 2 2 2 2 2 2 2 2 2 2 2 2 2 2 2 2 2 2 2 2 2 2 2 2 2 2 2 2 2 2 2 2 2 2 2 2 2 2 2 2 2 2 2 2 2 2 2 2 2 2 2 2 2 2 2 2 2
left_child=1 6 5 9 8 11 12 15 21 22 20 26 25 31 29 34 36 39 35 40 45 46 48 52 49 53 54 61 -16 56 -17 -8 -32 -19 -6 -10 -9 -21 -20 -11 -12 -23 -22 -26 -24 -5 -4 -25 -3 -13 -27 -28 -14 -1 -2 -29 -7 -45 -58 -18 -30 -15
right_child=2 3 4 10 7 14 13 16 18 17 19 24 23 27 28 30 59 33 38 37 42 41 44 47 43 50 51 55 60 -31 32 -33 -34 -35 -36 -37 -38 -39 -40 -41 -42 -43 -44 57 -46 -47 -48 -49 -50 -51 -52 -53 -54 -55 -56 -57 58 -59 -60 -61 -62 -63
leaf_value=3730.5333887044544 3858.2864955952718 3798.1612200681893 3917.3090223446347 3829.9559454418932 3960.1204430243456 3860.8760486231058 3768.56070547937 3992.2884782497194 3936.7637975713815 3814.414187468522 3843.5793556094645 3872.8283826173597 3749.642630680049 3781.9739690852248 3903.2723660975571 3918.5015072154729 4015.161011949152 3821.6189344598997 3947.3872201065897 3850.8826507826825 3836.5563092268103 3925.8577694475784 3806.2486668977335 3757.8727820808681 3853.1001183107396 3740.5629083852523 3865.4173984792774 3789.6042832576313 3909.0009642972063 3896.6748600084484 3973.9076459058783 3775.9741391557441 3982.415455011328 3825.5919919229186 3966.8892233838819 3942.2899501112506 4002.5659875203241 3854.8106016838824 3953.0801225053328 3818.1586242615635 3847.2374533157226 3930.9288971170381 3840.1874056215943 3880.3289028426302 3810.1454379301413 3833.4156549428299 3922.0847664678936 3762.6204342350347 3802.2769833054408 3876.5917370911861 3745.2204217574067 3869.1080007760197 3753.7971842460452 3735.8897911812942 3861.8802943592823 3793.9255509956488 3887.8802086191458 3883.9609234863065 3891.5901009382683 4027.0594856876437 3912.8116924713213 3785.8715537387529
leaf_weight=1110 2742 2220 2241 3829 1627 21 2714 536 2190 3922 3316 2726 2186 1653 3861 22 192 3300 1640 3323 3269 1634 2749 1677 27 1613 2757 1655 2194 3264 1095 2746 1063 4422 1099 1645 548 3329 1653 3306 3869 2191 3789 2188 3261 3249 1612 2162 2721 2776 2193 2720 2181 1625 2711 2205 2224 2729 2189 369 1662 1662
leaf_count=1110 2742 2220 2241 3829 1627 21 2714 536 2190 3922 3316 2726 2186 1653 3861 22 192 3300 1640 3323 3269 1634 2749 1677 27 1613 2757 1655 2194 3264 1095 2746 1063 4422 1099 1645 548 3329 1653 3306 3869 2191 3789 2188 3261 3249 1612 2162 2721 2776 2193 2720 2181 1625 2711 2205 2224 2729 2189 369 1662 1662
internal_value=3848.31 3806.55 3906.66 3828.35 3947.53 3882.94 3763.67 3978.62 3933.77 3813.65 3841.96 3870.8 3748.49 3781.38 3899.78 3969.37 4006.21 3820.14 3944.27 3849.06 3835.02 3924.02 3804.78 3755.84 3878.26 3739.26 3863.67 3788.31 3906.96 3892.59 3977.51 3772.29 3978.1 3823.89 3962.85 3939.14 3997.5 3852.85 3950.25 3816.13 3845.55 3928.76 3838.51 3882.19 3808.36 3831.54 3919.31 3760.54 3800.43 3874.73 3743.24 3867.25 3751.72 3733.71 3860.07 3792.07 3889.59 3882.35 3889.72 4023.02 3910.65 3783.93
internal_weight=139404 81256 58148 53874 21357 36791 27382 6551 14806 25901 27973 21376 14747 12635 15415 4906 1645 14950 7128 13837 14136 7678 10951 8206 10446 6541 10930 7175 7717 7698 2180 5460 2158 7722 2726 3835 1084 6652 3293 7228 7185 3825 7058 4944 6010 7078 3853 3839 4941 5502 3806 5477 4367 2735 5453 3860 4434 4917 4413 561 3856 3315
internal_count=139404 81256 58148 53874 21357 36791 27382 6551 14806 25901 27973 21376 14747 12635 15415 4906 1645 14950 7128 13837 14136 7678 10951 8206 10446 6541 10930 7175 7717 7698 2180 5460 2158 7722 2726 3835 1084 6652 3293 7228 7185 3825 7058 4944 6010 7078 3853 3839 4941 5502 3806 5477 4367 2735 5453 3860 4434 4917 4413 561 3856 3315
is_linear=0
shrinkage=1


Tree=1
num_leaves=63
num_cat=0
split_feature=71 71 71 71 71 71 71 71 71 71 71 71 71 71 71 71 71 71 71 71 71 71 71 71 71 71 71 71 71 76 71 71 76 76 71 76 71 71 71 76 76 71 71 76 76 76 71 71 76 71 71 71 71 76 76 71 71 71 71 71 71 71
split_gain=1.22632e+11 2.74207e+10 2.03489e+10 3.89406e+09 3.15315e+09 2.88177e+09 2.6584e+09 6.03174e+08 5.26664e+08 5.09914e+08 4.94745e+08 4.10315e+08 3.61208e+08 3.22046e+08 2.8708e+08 9.33633e+07 8.60379e+07 7.26438e+07 6.95398e+07 6.66206e+07 6.30048e+07 6.29777e+07 6.15786e+07 5.71823e+07 5.22588e+07 5.17849e+07 5.08053e+07 4.75312e+07 4.25848e+07 3.9286e+07 3.40442e+07 2.68735e+07 1.64062e+07 1.42433e+07 1.41962e+07 1.17788e+07 1.13635e+07 1.10836e+07 1.08314e+07 1.06136e+07 1.05012e+07 1.01583e+07 9.52968e+06 9.41743e+06 9.38278e+06 9.35495e+06 9.2921e+06 9.25627e+06 9.18615e+06 9.10342e+06 8.22951e+06 8.1687e+06 7.99505e+06 7.77664e+06 7.54774e+06 7.44353e+06 7.14936e+06 7.06316e+06 7.05551e+06 7.04651e+06 6.71979e+06 6.61429e+06
threshold=4016.3700000000003 2805.8300000000004 5208.2300000000005 3428.8700000000003 6012.4600000000009 4604.3950000000013 2180.8850000000007 6661.6050000000005 3720.7600000000007 3126.6350000000007 5589.6000000000013 4302.755000000001 1829.2800000000002 4876.920000000001 2473.1500000000001 6291.3050000000012 7099.3650000000007 3269.3800000000006 3573.1950000000002 3854.6550000000002 5390.170000000001 5779.5500000000002 2969.4900000000002 1999.6150000000002 4456.170000000001 1675.3350000000003 4155.4850000000006 5022.0200000000013 2636.5250000000005 -141.49999999999952 4752.8550000000005 2322.8550000000005 136.43999999999986 -141.49999999999952 6439.0500000000011 -141.49999999999952 3939.2950000000005 6168.9500000000016 3350.1300000000006 -141.49999999999952 -141.49999999999952 3648.7100000000005 6825.6000000000013 136.43999999999986 -141.49999999999952 -79.609999999999886 1549.8000000000002 5888.6150000000007 -141.49999999999952 5473.1350000000011 5109.2450000000008 3057.9150000000004 3498.0200000000004 -141.49999999999952 136.43999999999986 2867.5500000000006 5313.2150000000011 3188.5450000000005 2076.0550000000007 4380.2400000000007 4241.9450000000006 1909.6200000000001
decision_type=2 2 2 2 2 2 2 2 2 2 2 2 2 2 2 2 2 2 2 2 2 2 2 2 2 2 2 2 2 2 2 2 2 2 2 2 2 2 2 2 2 2 2 2 2 2 2 2 2 2 2 2 2 2 2 2 2 2 2 2 2 2
left_child=1 6 5 9 10 11 12 15 18 22 20 26 25 30 31 35 42 57 52 54 39 -12 55 43 44 46 -2 53 -16 -17 40 -8 58 -26 -31 -6 -21 -37 -19 -4 -7 -20 -9 61 -13 -18 -1 -23 -29 -22 -50 -24 -5 -15 -10 -3 -41 -11 -25 -46 -28 -14
right_child=2 3 4 8 7 13 14 16 19 17 21 24 23 27 28 29 45 38 41 36 49 47 51 32 33 -27 60 48 -30 34 -32 -33 -34 -35 -36 37 -38 -39 -40 56 -42 -43 -44 -45 59 -47 -48 -49 50 -51 -52 -53 -54 -55 -56 -57 -58 -59 -60 -61 -62 -63
leaf_value=-111.82308892498425 11.240469221046487 -48.149058283429923 32.17682463233151 -18.175625059000698 74.783091706608445 3.9827666947061982 -75.69675596435431 136.84611792497682 -2.9558159801790769 -32.709478887648004 87.092059513179393 -1.8279758679161191 -93.878848001274164 23.151289981990665 -61.099671855071655 65.635987352136766 132.29957678609304 -25.549419372868197 -11.316532055843002 2.2621378332507684 74.987110212759063 94.1888814718329 -39.557968690979592 -86.035591475559542 -6.1539037047580072 -99.085655151396935 16.635157259044107 29.48284837335229 -53.361684717892004 119.52600780164042 46.011909798397483 -68.653979683366899 -37.875993848202832 32.434744930036672 127.8263353200892 106.51982155288141 6.240800927813055 113.19199568967379 -21.802034605185277 67.054282270585858 39.444489835549092 -7.6512558743750532 146.60982429269151 -60.618200580247368 23.505154467028433 167.39305939586811 -106.04886810955132 99.597159525879533 57.854275403239662 79.957055377652026 62.217343265927127 -35.839777154421164 -14.812411186529623 52.453487161858142 23.985927111161622 -44.026151586615903 71.513850744718681 -29.405026436448239 -81.617684553901029 27.100955037109095 20.217622319462492 -89.877464934304726
leaf_weight=1110 5453 1674 20 3288 26 21 2714 536 6588 2803 3280 32 2168 23 3315 30 22 3854 3775 3894 1661 1640 3305 1668 24 3284 3301 25 3860 1097 3264 2746 20 4920 1053 1614 3329 1086 3875 2196 4413 3789 548 25 2710 539 2147 1653 2183 2197 2216 2705 3831 3838 26 3267 1591 3871 2151 2760 2176 2174
leaf_count=1110 5453 1674 20 3288 26 21 2714 536 6588 2803 3280 32 2168 23 3315 30 22 3854 3775 3894 1661 1640 3305 1668 24 3284 3301 25 3860 1097 3264 2746 20 4920 1053 1614 3329 1086 3875 2196 4413 3789 548 25 2710 539 2147 1653 2183 2197 2216 2705 3831 3838 26 3267 1591 3871 2151 2760 2176 2174
internal_value=0.0659895 -39.6051 55.5023 -18.8977 95.1532 33.4378 -80.3466 123.862 -6.22317 -33.1548 81.9434 21.4297 -94.7676 49.4974 -63.5145 115.07 150.073 -26.9715 -12.8191 0.776035 73.3096 92.0105 -41.2869 -87.7771 28.5157 -103.536 14.6573 56.3395 -56.9376 122.802 42.133 -72.1561 -83.3125 32.2473 123.597 108.882 4.09592 109.208 -23.6709 68.7375 39.2766 -9.48063 141.795 -91.7 25.162 166.041 -108.02 96.9066 59.8815 77.8193 60.0535 -37.8851 -16.366 52.2795 -2.84954 -45.4239 68.9297 -30.7933 -83.5495 25.32 18.0588 -91.8775
internal_weight=139404 81256 58148 53874 20789 37359 27382 6551 28520 25354 14238 21376 14747 15983 12635 4906 1645 14403 14683 13837 7665 6573 10951 8206 10446 6541 10930 8285 7175 2180 7698 5460 3839 4944 2150 2726 7223 2700 7729 3807 4434 7564 1084 4367 5502 561 3257 3293 4424 3858 4399 6010 7119 3861 6614 4941 3787 6674 3819 5470 5477 4342
internal_count=139404 81256 58148 53874 20789 37359 27382 6551 28520 25354 14238 21376 14747 15983 12635 4906 1645 14403 14683 13837 7665 6573 10951 8206 10446 6541 10930 8285 7175 2180 7698 5460 3839 4944 2150 2726 7223 2700 7729 3807 4434 7564 1084 4367 5502 561 3257 3293 4424 3858 4399 6010 7119 3861 6614 4941 3787 6674 3819 5470 5477 4342
is_linear=0
shrinkage=0.05


Tree=2
num_leaves=63
num_cat=0
split_feature=71 71 71 71 71 71 71 71 71 71 71 71 71 71 71 71 71 71 71 71 71 71 71 71 71 71 71 71 76 71 71 71 76 76 71 76 71 71 71 71 76 76 71 71 71 76 76 71 76 76 71 76 71 76 71 71 71 71 71 71 71 71
split_gain=1.10678e+11 2.50621e+10 1.80359e+10 3.4844e+09 2.84582e+09 2.55861e+09 2.50528e+09 5.44402e+08 4.69516e+08 4.54491e+08 4.46508e+08 3.61297e+08 3.42547e+08 2.91446e+08 2.51917e+08 8.42628e+07 7.76585e+07 6.5303e+07 6.28105e+07 5.96312e+07 5.71455e+07 5.69472e+07 5.65347e+07 5.48639e+07 5.36555e+07 4.59819e+07 4.0866e+07 3.84097e+07 3.54421e+07 3.5233e+07 3.26447e+07 2.97122e+07 1.42745e+07 1.3381e+07 1.28122e+07 1.06209e+07 1.0327e+07 1.01867e+07 9.98345e+06 9.76894e+06 9.47683e+06 8.75122e+06 8.6006e+06 8.52376e+06 8.47895e+06 8.44909e+06 8.42672e+06 8.38693e+06 8.3851e+06 7.9295e+06 7.98847e+06 7.4369e+06 7.27988e+06 7.23586e+06 6.66254e+06 6.43068e+06 6.37874e+06 6.37526e+06 6.36577e+06 6.33498e+06 6.23708e+06 6.08517e+06
threshold=4029.2100000000005 2826.3150000000005 5208.2300000000005 3451.2850000000003 6012.4600000000009 2207.4750000000004 4604.3950000000013 6661.6050000000005 3152.1550000000002 3742.6950000000002 5589.6000000000013 1850.3050000000001 4317.6950000000006 4898.1450000000013 2529.9150000000004 6291.3050000000012 7099.3650000000007 3292.7950000000005 3604.8000000000006 2999.4300000000007 5814.7450000000008 5416.6450000000013 1675.3350000000003 3889.3650000000002 2023.8200000000002 4170.0250000000005 4472.2800000000016 4752.8550000000005 -141.49999999999952 5043.9700000000003 2383.3800000000006 2687.3000000000006 110.97000000000004 -141.49999999999952 6439.0500000000011 -141.49999999999952 6113.4700000000003 5711.0000000000009 5313.2150000000011 3383.8450000000007 -141.49999999999952 -141.49999999999952 6825.6000000000013 3529.5050000000006 2918.7300000000005 136.43999999999986 -79.609999999999886 1549.8000000000002 -141.49999999999952 136.43999999999986 3810.4000000000001 -141.49999999999952 3085.6850000000004 136.43999999999986 3670.6400000000003 1932.0050000000003 3223.1100000000006 3965.2800000000002 2128.8100000000004 4394.6900000000014 4098.9300000000012 4241.9450000000006
decision_type=2 2 2 2 2 2 2 2 2 2 2 2 2 2 2 2 2 2 2 2 2 2 2 2 2 2 2 2 2 2 2 2 2 2 2 2 2 2 2 2 2 2 2 2 2 2 2 2 2 2 2 2 2 2 2 2 2 2 2 2 2 2
left_child=1 5 6 8 10 11 12 15 19 18 21 22 25 27 30 35 42 56 43 44 37 38 47 49 45 60 41 40 -17 51 -7 -16 58 -28 -30 -6 -37 -12 -4 -19 -8 -14 -9 -5 -3 55 -18 -1 -31 50 -11 -15 -21 -29 -20 -13 -10 -25 -26 -43 -2 -27
right_child=2 3 4 9 7 14 13 16 17 23 20 24 26 29 31 28 46 39 54 52 -22 -23 -24 57 32 61 33 53 34 48 -32 -33 -34 -35 -36 36 -38 -39 -40 -41 -42 59 -44 -45 -46 -47 -48 -49 -50 -51 -52 -53 -54 -55 -56 -57 -58 -59 -60 -61 -62 -63
leaf_value=-106.23243642205131 9.6497781181634892 -43.912955305644758 63.501124082240985 -16.031327413325268 71.058263066902015 -69.901441643275987 3.7845720191702457 130.0050967691283 -29.746709074187415 -3.3276765997649536 81.195828406345825 -88.266421774729778 -2.8114756790633058 20.803583891809833 -55.767346635837896 62.365091004482537 125.71453078602234 -23.002579937416428 -9.4676560729810308 -36.320987388497983 92.95139282624217 74.604407812230974 -93.631659445804033 3.5565730824612674 -80.008327991420572 16.168736668915034 -6.9688364796824276 43.999384633667546 113.55025848063219 27.098952764866155 -62.484051031117069 -49.073703825830513 -36.632113068928646 31.241524613979632 121.43563359580867 99.809094056983 106.27520297579059 86.466962093043833 68.326913303886627 -19.407373679347685 37.472308576428745 23.007310068243189 139.28066858807696 -12.685627498998286 -39.958821980736502 -56.086108809981603 159.02496269734135 -100.74666985808531 57.550326766148743 23.787793411549263 0.020434979233538667 50.773756563456239 -32.817241141897831 73.519198825348042 -6.3884255997475279 -84.334772951671198 -26.647313989552813 6.8037775920659529 -75.78494971487001 26.400366190001264 13.032838246639797 19.518036797779462
leaf_weight=1110 2739 2721 2207 3813 26 3277 21 536 3372 3289 2188 2163 29 21 3311 30 22 4413 3275 3238 2732 3303 3836 3308 2188 2736 23 3789 1097 23 2737 3345 21 4346 1053 1057 1643 1653 2155 3315 4413 2740 548 3809 2747 24 539 2147 3847 31 3887 3848 2768 21 3792 2190 3302 2784 1607 2784 2715 2700
leaf_count=1110 2739 2721 2207 3813 26 3277 21 536 3372 3289 2188 2163 29 21 3311 30 22 4413 3275 3238 2732 3303 3836 3308 2188 2736 23 3789 1097 23 2737 3345 21 4346 1053 1057 1643 1653 2155 3315 4413 2740 548 3809 2747 24 539 2147 3847 31 3887 3848 2768 21 3792 2190 3302 2784 1607 2784 2715 2700
internal_value=0.0627228 -37.3125 53.1684 -17.3764 90.396 -75.7239 32.1348 117.67 -30.6022 -5.14865 77.8465 -89.4955 20.7013 47.0226 -59.1082 109.317 142.571 -24.5902 -11.2112 -38.1481 87.4101 69.6443 -97.7601 1.54763 -82.3395 14.5781 27.4216 40.4796 116.663 53.992 -66.5268 -52.4042 -77.9941 31.0402 117.418 103.438 103.748 83.4665 65.8868 -21.4607 37.3128 24.574 134.707 -14.3595 -41.9273 -86.1261 157.741 -102.619 57.3701 -1.40498 -1.51414 50.6116 -34.7068 44.164 -7.81552 -86.2904 -28.2137 5.04061 -78.222 24.7178 11.3341 17.8326
internal_weight=139404 81820 57584 53864 20789 27956 36795 6551 25876 27988 14238 15286 20812 15983 12670 4906 1645 14402 14689 11474 6573 7665 7093 13299 8193 10890 9922 8244 2180 7739 6014 6656 3816 4369 2150 2726 2700 3841 4362 7728 4434 5553 1084 7622 5468 4377 561 3257 3870 7207 7176 3869 6006 3810 7067 4353 6674 6092 3795 5524 5454 5436
internal_count=139404 81820 57584 53864 20789 27956 36795 6551 25876 27988 14238 15286 20812 15983 12670 4906 1645 14402 14689 11474 6573 7665 7093 13299 8193 10890 9922 8244 2180 7739 6014 6656 3816 4369 2150 2726 2700 3841 4362 7728 4434 5553 1084 7622 5468 4377 561 3257 3870 7207 7176 3869 6006 3810 7067 4353 6674 6092 3795 5524 5454 5436
is_linear=0
shrinkage=0.05


Tree=3
num_leaves=63
num_cat=0
split_feature=71 71 71 71 71 71 71 71 71 71 71 71 71 71 71 71 71 71 71 71 71 71 71 71 71 71 71 71 76 71 71 71 76 71 71 71 76 76 71 76 71 76 76 71 71 76 71 71 71 71 76 76 71 76 76 71 71 76 71 71 76 76
split_gain=9.98876e+10 2.2343e+10 1.65801e+10 3.29344e+09 2.6849e+09 2.21348e+09 2.03185e+09 4.91357e+08 4.53985e+08 4.46572e+08 4.26949e+08 2.84993e+08 2.84783e+08 2.66489e+08 2.39036e+08 7.60492e+07 7.00951e+07 6.74811e+07 6.38299e+07 5.94765e+07 5.30079e+07 5.13084e+07 4.99436e+07 4.4067e+07 4.4064e+07 4.13004e+07 3.55694e+07 3.4422e+07 3.19743e+07 3.01965e+07 2.6212e+07 2.18788e+07 1.41117e+07 1.1954e+07 1.19379e+07 1.12419e+07 1.10272e+07 9.57688e+06 9.36068e+06 9.35934e+06 8.67432e+06 8.55468e+06 8.46292e+06 8.38287e+06 7.76211e+06 7.59056e+06 7.42397e+06 7.26735e+06 7.15399e+06 6.85823e+06 6.58788e+06 6.38642e+06 6.37714e+06 6.12892e+06 6.11364e+06 6.07838e+06 5.8531e+06 5.83571e+06 5.6265e+06 5.54737e+06 5.50669e+06 5.40128e+06
threshold=4016.3700000000003 2783.8900000000003 5181.6450000000013 3417.6250000000005 6012.4600000000009 4570.420000000001 2154.9250000000006 6661.6050000000005 3699.8050000000007 5562.3750000000009 3113.4650000000006 4835.4100000000008 4272.5350000000008 1807.9950000000001 2442.7800000000002 6291.3050000000012 7099.3650000000007 3843.2550000000006 5743.5550000000012 3256.7650000000008 2952.8400000000006 3563.0200000000004 5363.4500000000007 4980.8950000000013 1976.6850000000002 4424.6500000000005 2611.3400000000006 1647.0650000000003 -141.49999999999952 4141.9550000000008 4693.8950000000013 2293.6850000000004 -141.49999999999952 5851.9550000000008 6530.1600000000008 3926.5450000000005 99.134999999999778 -141.49999999999952 6168.9500000000016 -141.49999999999952 3339.0450000000005 136.43999999999986 -141.49999999999952 5086.9250000000002 6825.6000000000013 -79.609999999999886 3764.7850000000003 3029.5000000000005 5473.1350000000011 3627.0100000000007 11.054999999999838 -101.56000000000016 2867.5500000000006 -141.49999999999952 110.97000000000004 5259.5150000000003 3188.5450000000005 136.43999999999986 4349.4050000000007 4504.0600000000004 136.43999999999986 -101.56000000000016
decision_type=2 2 2 2 2 2 2 2 2 2 2 2 2 2 2 2 2 2 2 2 2 2 2 2 2 2 2 2 2 2 2 2 2 2 2 2 2 2 2 2 2 2 2 2 2 2 2 2 2 2 2 2 2 2 2 2 2 2 2 2 2 2
left_child=1 6 5 10 9 12 13 15 21 22 20 30 29 27 31 37 44 46 -11 56 52 50 51 -13 41 53 54 -1 -17 60 39 -8 -25 -20 -30 -19 -26 -6 -39 -7 -21 -15 -27 -34 -9 -18 -10 -22 -24 -23 -5 -4 -3 -14 -16 -53 -12 -32 -55 -44 -2 -35
right_child=2 3 4 8 7 11 14 16 17 18 19 23 25 24 26 28 45 35 33 40 47 49 48 32 36 42 -28 -29 34 -31 57 -33 43 61 -36 -37 -38 38 -40 -41 -42 -43 59 -45 -46 -47 -48 -49 -50 -51 -52 55 -54 58 -56 -57 -58 -59 -60 -61 -62 -63
leaf_value=-98.235729685011393 9.6995751854506267 -43.780981263694457 39.468201735624227 -16.40225867085994 67.518964143365736 0.10778838966695053 -69.581956345966987 123.50605296380616 -5.0203348986682821 77.222336123198886 -29.780278710698155 45.465488944942493 -1.0893163433898723 -83.805081149932107 -56.546596943510011 59.257198318532147 119.45725199841804 1.5611977227975249 83.473507333425317 -23.533461400151847 -36.692738697906314 -10.933672368770559 67.122916095204715 16.478078198872808 -76.483503110211288 -3.1877108060396635 -49.228885093703354 -90.587442279391567 109.37798217600567 15.348156006980497 39.077731871759447 -63.218751260696585 50.946717555691897 64.94889554225557 118.22323804810753 5.3659420132237221 -39.856620694562729 96.092443413554534 102.2196417775254 33.579590127660367 -20.174249380734032 -52.801498624463107 26.384909467561403 55.121292829228338 132.31790109685554 151.0751883926915 -1.7881885232384698 -33.201687915184621 71.549325537921149 -7.8000064350477736 -13.23345724775756 58.867117911006346 -40.146127338918085 19.950365228604781 -36.940806563347216 62.934245239160582 -26.811230153526942 62.926407924374409 23.166707455638999 29.767992177638561 35.933358354710819 89.442019361921055
leaf_weight=2735 4891 2228 35 4551 26 21 2709 536 3281 3283 3338 3848 30 4357 3261 30 22 3890 1648 3836 2767 3228 2183 27 3818 22 3870 3255 1624 4926 3811 2738 2747 24 526 3876 21 1614 1086 3833 3868 23 2761 2190 548 539 3875 3279 1642 3807 2570 1684 2696 2712 41 2134 3338 26 2745 2181 20 2173
leaf_count=2735 4891 2228 35 4551 26 21 2709 536 3281 3283 3338 3848 30 4357 3261 30 22 3890 1648 3836 2767 3228 2183 27 3818 22 3870 3255 1624 4926 3811 2738 2747 24 526 3876 21 1614 1086 3833 3868 23 2761 2190 548 539 3875 3279 1642 3807 2570 1684 2696 2712 41 2134 3338 26 2745 2181 20 2173
internal_value=0.0596159 -35.7441 50.0916 -17.3365 85.1342 29.7494 -73.0887 111.787 -5.8525 73.3408 -30.5092 43.3474 18.6882 -86.0565 -58.4865 103.852 135.444 0.232575 82.3548 -24.8413 -37.9386 -12.2668 64.9716 49.4864 -80.207 24.4355 -52.4872 -94.0812 110.831 12.582 36.3131 -66.3846 52.6024 86.7349 111.547 3.46019 -76.2842 98.2671 98.5606 33.3972 -21.8472 -83.6435 27.7408 52.7996 127.973 149.857 -3.27017 -34.8 69.0249 -9.23802 -15.2588 60.9461 -41.7917 21.4448 -56.3043 61.142 -28.2962 39.241 21.5687 27.8785 9.80714 89.1774
internal_weight=139404 81256 58148 54428 21357 36791 26828 6551 29078 14806 25350 16503 20288 14209 12619 4906 1645 14922 7128 14380 10970 14156 7678 8812 8219 10451 7172 5990 2180 9837 7691 5447 4964 3845 2150 7766 3839 2726 2700 3854 7704 4380 4964 4937 1084 561 7156 6046 3825 7035 7121 3853 4924 5487 3302 3818 6676 3837 5457 4942 4911 2197
internal_count=139404 81256 58148 54428 21357 36791 26828 6551 29078 14806 25350 16503 20288 14209 12619 4906 1645 14922 7128 14380 10970 14156 7678 8812 8219 10451 7172 5990 2180 9837 7691 5447 4964 3845 2150 7766 3839 2726 2700 3854 7704 4380 4964 4937 1084 561 7156 6046 3825 7035 7121 3853 4924 5487 3302 3818 6676 3837 5457 4942 4911 2197
is_linear=0
shrinkage=0.05


Tree=4
num_leaves=63
num_cat=0
split_feature=71 71 71 71 71 71 71 71 71 71 71 71 71 71 71 71 71 71 71 71 71 71 71 71 71 71 71 76 71 71 71 71 71 76 71 76 71 71 71 76 76 71 76 71 76 76 71 71 71 71 76 76 76 76 76 71 71 76 76 71 76 76
split_gain=9.01534e+10 2.04164e+10 1.46908e+10 3.06231e+09 2.42449e+09 1.92264e+09 1.83375e+09 4.89959e+08 4.29017e+08 3.91013e+08 3.52162e+08 2.78828e+08 2.40507e+08 2.16523e+08 2.11513e+08 8.70844e+07 6.32684e+07 5.98733e+07 5.68327e+07 5.39283e+07 5.37722e+07 4.47917e+07 3.97679e+07 3.8499e+07 3.53572e+07 3.23412e+07 3.12956e+07 2.88458e+07 2.76926e+07 2.63019e+07 2.52804e+07 2.48548e+07 1.35438e+07 1.18394e+07 1.0911e+07 9.94658e+06 8.89801e+06 8.39442e+06 8.20608e+06 7.71444e+06 7.65181e+06 7.34253e+06 7.15836e+06 7.00537e+06 6.83736e+06 6.7622e+06 6.58619e+06 6.54742e+06 6.40056e+06 6.39214e+06 6.35938e+06 6.24188e+06 6.1057e+06 5.94276e+06 5.80244e+06 5.76773e+06 5.75544e+06 5.60704e+06 5.34199e+06 5.32241e+06 5.2008e+06 5.16138e+06
threshold=4029.2100000000005 2783.8900000000003 5181.6450000000013 3439.9700000000007 5968.6750000000002 4604.3950000000013 2154.9250000000006 6661.6050000000005 3126.6350000000007 3742.6950000000002 5532.2700000000013 4302.755000000001 1807.9950000000001 2473.1500000000001 4876.920000000001 6291.3050000000012 7099.3650000000007 3292.7950000000005 3604.8000000000006 2952.8400000000006 5743.5550000000012 3889.3650000000002 1976.6850000000002 4439.5900000000011 5338.9850000000015 4170.0250000000005 1616.2150000000004 -141.49999999999952 5022.0200000000013 2293.6850000000004 4732.9750000000013 2636.5250000000005 6113.4700000000003 -141.49999999999952 6439.0500000000011 99.134999999999778 3529.5050000000006 3211.8450000000007 3029.5000000000005 136.43999999999986 -141.49999999999952 5648.7450000000008 136.43999999999986 6825.6000000000013 -79.609999999999886 -141.49999999999952 4504.0600000000004 3810.4000000000001 1711.0250000000003 5851.9550000000008 0.99500000000011835 -141.49999999999952 -0.9100000000004228 136.43999999999986 -141.49999999999952 5444.6350000000011 2867.5500000000006 -101.56000000000016 12.644999999999984 2049.2250000000004 110.97000000000004 136.43999999999986
decision_type=2 2 2 2 2 2 2 2 2 2 2 2 2 2 2 2 2 2 2 2 2 2 2 2 2 2 2 2 2 2 2 2 2 2 2 2 2 2 2 2 2 2 2 2 2 2 2 2 2 2 2 2 2 2 2 2 2 2 2 2 2 2
left_child=1 6 5 8 10 11 12 15 19 18 24 25 26 29 30 32 43 37 36 56 41 42 39 54 57 58 -1 -17 51 -8 -7 -15 -6 -25 -29 59 -5 -10 -21 -14 -34 -12 47 -9 -18 -30 -35 -11 -28 -22 -19 -16 -20 -23 -13 -26 -3 -4 -2 -24 -31 -32
right_child=2 3 4 9 7 14 13 16 17 21 20 23 22 31 28 27 44 50 52 38 49 53 35 33 55 -27 48 34 45 60 61 -33 40 46 -36 -37 -38 -39 -40 -41 -42 -43 -44 -45 -46 -47 -48 -49 -50 -51 -52 -53 -54 -55 -56 -57 -58 -59 -60 -61 -62 -63
leaf_value=-94.141724361540824 9.1312022138162998 -41.592030730238257 36.302834398501389 -14.719643232803342 89.057421555275823 33.261467850982157 -66.102985639312706 117.33189969367886 -27.570693315233797 -3.0183347764136341 70.882276440073582 -1.448026810506909 -79.614924635064938 -52.390826191398304 18.749768753382035 56.3041799462911 113.51141614266652 -20.991562737680486 -8.5277334024529932 -34.858168752883351 79.300085036108399 4.4590313757695093 -74.833635322202497 -5.0883022430528531 62.698372116884372 15.814818889944631 -89.063002709197008 102.4048602432336 23.652513624579356 -59.612032471563808 38.862831958481081 -46.251970838725192 64.936589693910136 25.380952658364023 109.67514408029345 -37.873235997204532 -11.410838165447444 -24.278629004648991 -31.272089995851815 -50.172852236264717 95.954953030232261 75.372079483189168 22.663671852921368 125.70321459061165 143.52282980676705 50.993421837828919 28.922812609878633 0.012787591331482398 -84.806346157219195 83.795938307424564 -18.003882299037006 44.986505302516065 -5.5879356298043996 31.042220613741758 21.372786548065353 66.673153898525513 -38.13889588235434 57.547197159719758 12.469776101661772 -70.992466524145399 -37.320166905251817 64.416249684196202
leaf_weight=2201 3674 2228 32 4362 1613 3871 2709 536 3922 3289 2180 28 4357 3315 23 30 22 3849 3524 2767 1648 6071 1655 28 2177 4912 1601 1097 23 3262 3807 3306 21 2214 1053 21 3809 3849 3814 23 1643 1643 31 548 539 3833 3260 3887 2188 1646 3330 3838 3543 21 4916 1651 2696 3278 1780 2163 27 20
leaf_count=2201 3674 2228 32 4362 1613 3871 2709 536 3922 3289 2180 28 4357 3315 23 30 22 3849 3524 2767 1648 6071 1655 28 2177 4912 1601 1097 23 3262 3807 3306 21 2214 1053 21 3809 3849 3814 23 1643 1643 31 548 539 3833 3260 3887 2188 1646 3330 3838 3543 21 4916 1651 2696 3278 1780 2163 27 20
internal_value=0.0566756 -33.6755 47.9861 -16.2303 80.8779 28.5951 -69.4344 104.746 -28.4848 -4.86986 68.9859 18.6817 -81.7538 -55.5623 41.9792 97.5306 128.674 -22.8988 -10.3376 -35.7431 76.8579 1.39507 -76.1968 24.4469 61.1361 12.8718 -89.3773 105.29 47.8295 -62.445 36.1138 -49.3263 92.3659 27.3249 105.971 -72.4701 -13.1774 -25.9405 -32.7804 -79.4615 95.5674 72.8138 -1.27278 121.575 142.366 50.831 27.4908 -1.3765 -86.6073 81.5491 -19.606 44.8307 -7.05398 4.55118 21.2435 64.4144 -39.7022 57.3429 10.221 -72.6594 -59.4302 38.9981
internal_weight=139404 81820 57584 54992 21357 36227 26828 7102 26455 28537 14255 20812 14209 12619 15415 5457 1645 14950 15238 11505 7117 13299 8219 10446 7138 10366 5990 2180 7717 5998 7698 6621 3277 5502 2150 3839 8171 7771 6581 4380 1664 3823 7207 1084 561 3856 5474 7176 3789 3294 7179 3861 7067 6092 4944 3828 4924 3310 5454 3818 3289 3827
internal_count=139404 81820 57584 54992 21357 36227 26828 7102 26455 28537 14255 20812 14209 12619 15415 5457 1645 14950 15238 11505 7117 13299 8219 10446 7138 10366 5990 2180 7717 5998 7698 6621 3277 5502 2150 3839 8171 7771 6581 4380 1664 3823 7207 1084 561 3856 5474 7176 3789 3294 7179 3861 7067 6092 4944 3828 4924 3310 5454 3818 3289 3827
is_linear=0
shrinkage=0.05


Tree=5
num_leaves=63
num_cat=0
split_feature=71 71 71 71 71 71 71 71 71 71 71 71 71 71 71 71 71 71 71 71 71 71 71 71 71 71 71 71 71 71 76 71 76 71 76 71 76 76 71 76 76 71 61 71 71 71 76 76 76 76 71 71 71 71 76 76 71 76 76 76 71 71
split_gain=8.165e+10 1.77497e+10 1.40187e+10 2.53725e+09 2.28734e+09 1.82308e+09 1.65524e+09 4.38985e+08 3.47498e+08 3.4694e+08 3.32705e+08 2.46095e+08 2.4465e+08 2.25194e+08 1.72815e+08 8.27665e+07 5.93527e+07 5.14641e+07 4.90296e+07 4.86656e+07 4.12867e+07 3.84184e+07 3.72717e+07 3.70967e+07 3.31068e+07 3.24057e+07 2.89052e+07 2.84023e+07 2.49353e+07 2.39035e+07 2.14733e+07 1.74906e+07 1.55661e+07 1.26219e+07 1.0356e+07 1.00813e+07 1.00013e+07 8.77148e+06 8.4278e+06 8.39766e+06 7.92498e+06 7.37772e+06 6.9271e+06 6.47981e+06 6.27267e+06 6.24661e+06 5.99298e+06 5.9629e+06 5.93263e+06 5.89069e+06 5.88907e+06 5.74934e+06 5.70799e+06 5.45951e+06 5.45595e+06 5.25232e+06 5.16933e+06 5.1296e+06 5.11802e+06 5.0836e+06 5.06862e+06 4.92633e+06
threshold=3990.9000000000005 2783.8900000000003 5156.6000000000013 3406.7050000000004 5968.6750000000002 4553.5800000000008 2180.8850000000007 6661.6050000000005 5532.2700000000013 3681.7650000000003 3099.2350000000001 4272.5350000000008 1850.3050000000001 4835.4100000000008 2501.9150000000004 6291.3050000000012 7099.3650000000007 3819.7250000000004 5743.5550000000012 3256.7650000000008 1675.3350000000003 5338.9850000000015 2936.7000000000003 3540.8550000000005 4113.6650000000009 2023.8200000000002 5001.5750000000007 4409.7850000000008 4675.2800000000016 2353.3150000000005 -141.49999999999952 2661.5050000000006 -141.49999999999952 6113.4700000000003 -101.56000000000016 6530.1600000000008 -141.49999999999952 136.43999999999986 3913.4750000000004 110.97000000000004 136.43999999999986 1549.8000000000002 7654.9600000000009 3176.3950000000004 5648.7450000000008 6825.6000000000013 -141.49999999999952 -141.49999999999952 7.9399999999999418 86.099999999999923 5851.9550000000008 3339.0450000000005 4198.4900000000007 3029.5000000000005 136.43999999999986 -0.31500000000005451 5259.5150000000003 3.2700000000002096 -141.49999999999952 -141.49999999999952 1932.0050000000003 5444.6350000000011
decision_type=2 2 2 2 2 2 2 2 2 2 2 2 2 2 2 2 2 2 2 2 2 2 2 2 2 2 2 2 2 2 2 2 2 2 2 2 2 2 2 2 2 2 2 2 2 2 2 2 2 2 2 2 2 2 2 2 2 2 2 2 2 2
left_child=1 6 5 10 8 11 12 15 21 23 22 24 20 28 29 32 34 37 44 43 41 46 -3 55 -2 40 -15 47 -7 39 -17 -16 -6 -34 -9 -32 -28 57 -19 -8 60 -1 -18 -12 -10 -36 -4 -13 58 -27 -20 -21 -26 -24 59 -5 -48 -11 -25 -30 -14 -23
right_child=2 3 4 9 7 13 14 16 18 17 19 27 25 26 31 30 42 38 50 51 -22 61 53 48 52 49 36 -29 54 -31 35 -33 33 -35 45 -37 -38 -39 -40 -41 -42 -43 -44 -45 -46 -47 56 -49 -50 -51 -52 -53 -54 -55 -56 -57 -58 -59 -60 -61 -62 -63
leaf_value=-91.442534710418386 7.7984639897313883 -38.046934387707331 27.314062377061887 -15.796310489388587 50.882824151212816 29.521917096666449 -61.327138704992983 82.211741289953977 67.362834496978991 -4.9784846735126687 -27.400926414277365 -8.1837871380706328 -75.723304846701566 41.404058216865643 -48.752296580913963 55.561222258353148 131.09172186367752 0.71658458246033097 75.278283177897194 -21.271862462546 -80.341607330824829 59.625299236604889 -33.38982305909861 -33.846242216035918 11.916609829580874 -67.488867583541648 14.448463420124796 24.409122850806934 10.858182964066033 -54.779938333673378 98.74638111015453 -43.359507837884166 84.813283031965867 91.126888022837647 112.1455965325801 106.74756433692281 47.596486702195762 21.94628360898113 4.0657855435181025 -30.805644556351037 -45.446187491245958 -86.312043107451629 143.2882676879355 -24.382002984542336 71.494296807583268 120.1359849760732 52.69846699235557 19.138779964672079 -7.3997421317526646 -44.147478596425998 79.570401942710447 -18.423595216509721 15.012852688610483 -30.356255054375783 56.71315947332743 -12.970111544847914 56.451548058889813 -2.2644412295171468 -10.239048495630742 35.014188828924851 -72.253733812705462 63.273713005792473
leaf_weight=1103 4942 4477 21 3395 29 3813 3273 24 2232 4198 3330 20 2218 4283 3321 27 338 4390 1677 3835 3771 2206 3313 23 3282 3301 23 4934 22 2744 1629 2772 1620 1624 525 547 3791 33 3283 23 25 2160 208 3846 1644 538 2208 4856 2746 28 1650 3310 2730 2722 29 3197 1632 2975 4368 4394 2175 1679
leaf_count=1103 4942 4477 21 3395 29 3813 3273 24 2232 4198 3330 20 2218 4283 3321 27 338 4390 1677 3835 3771 2206 3313 23 3282 3301 23 4934 22 2744 1629 2772 1620 1624 525 547 3791 33 3283 23 25 2160 208 3846 1644 538 2208 4856 2746 28 1650 3310 2730 2722 29 3197 1632 2975 4368 4394 2175 1679
internal_value=0.00668209 -32.8165 44.5765 -16.1397 76.1455 25.8164 -65.9301 99.4944 65.0413 -5.98924 -27.8332 15.982 -77.1647 38.3019 -52.2431 92.7048 122.255 -0.700071 72.9481 -22.8744 -83.9182 57.688 -34.5884 -11.7214 10.8305 -71.0317 44.2275 21.734 32.4913 -58.238 100.211 -46.2996 87.6496 87.9767 115.458 100.763 47.397 -3.73443 2.14962 -61.1151 -73.8466 -88.0491 135.763 -25.7833 69.117 116.201 54.1489 19.0265 -9.22328 -67.2939 77.4093 -19.9526 13.3228 -32.0221 35.0377 -14.4259 54.295 -3.85288 -10.3635 34.8941 -74.0072 61.2036
internal_weight=139532 80355 59177 53441 22058 37119 26914 7109 14949 28608 24833 20764 14781 16355 12133 5476 1633 14879 7203 14321 7034 7746 10512 13729 10954 7747 8097 9810 8258 6040 2203 6093 3273 3244 1087 2176 3814 7206 7673 3296 4418 3263 546 7176 3876 1063 3861 4876 7137 3329 3327 7145 6012 6035 4445 6592 3840 7173 4391 4416 4393 3885
internal_count=139532 80355 59177 53441 22058 37119 26914 7109 14949 28608 24833 20764 14781 16355 12133 5476 1633 14879 7203 14321 7034 7746 10512 13729 10954 7747 8097 9810 8258 6040 2203 6093 3273 3244 1087 2176 3814 7206 7673 3296 4418 3263 546 7176 3876 1063 3861 4876 7137 3329 3327 7145 6012 6035 4445 6592 3840 7173 4391 4416 4393 3885
is_linear=0
shrinkage=0.05


Tree=6
num_leaves=63
num_cat=0
split_feature=71 71 71 71 71 71 71 71 71 71 71 71 71 71 71 71 71 71 71 71 71 71 71 71 71 71 71 71 71 71 71 76 76 76 71 71 76 76 76 71 71 76 61 76 71 71 76 76 71 76 76 71 76 71 76 76 76 76 71 76 71 76
split_gain=7.36908e+10 1.62174e+10 1.24357e+10 2.35791e+09 2.0644e+09 1.58724e+09 1.4957e+09 3.96222e+08 3.17037e+08 3.14638e+08 3.13618e+08 2.06841e+08 2.04322e+08 2.03237e+08 1.80015e+08 7.46998e+07 5.35717e+07 4.92251e+07 4.42498e+07 4.31519e+07 3.84309e+07 3.46724e+07 3.36375e+07 3.14204e+07 2.72907e+07 2.62995e+07 2.57747e+07 2.56332e+07 2.26469e+07 2.17002e+07 2.03898e+07 1.93707e+07 1.40466e+07 1.40415e+07 1.13913e+07 9.39972e+06 9.33656e+06 8.11321e+06 7.58272e+06 6.62278e+06 6.60768e+06 6.29406e+06 6.25345e+06 5.72313e+06 5.66127e+06 5.63762e+06 5.51878e+06 5.50909e+06 5.46648e+06 5.40593e+06 5.38237e+06 5.27046e+06 5.18725e+06 5.05248e+06 4.99274e+06 4.9061e+06 4.80295e+06 4.72292e+06 4.66546e+06 4.62655e+06 4.52001e+06 4.41469e+06
threshold=4003.2850000000003 2783.8900000000003 5156.6000000000013 3417.6250000000005 5968.6750000000002 4553.5800000000008 2128.8100000000004 6661.6050000000005 3099.2350000000001 3699.8050000000007 5532.2700000000013 4272.5350000000008 2442.7800000000002 4835.4100000000008 1787.5000000000002 6291.3050000000012 7099.3650000000007 3256.7650000000008 5743.5550000000012 3843.2550000000006 3563.0200000000004 5338.9850000000015 2936.7000000000003 1955.2950000000003 2611.3400000000006 4980.8950000000013 4141.9550000000008 4409.7850000000008 4693.8950000000013 2265.1450000000004 1616.2150000000004 -141.49999999999952 -141.49999999999952 -141.49999999999952 6113.4700000000003 6439.0500000000011 -101.56000000000016 110.97000000000004 136.43999999999986 3926.5450000000005 3339.0450000000005 -1.0000000180025095e-35 7654.9600000000009 136.43999999999986 5648.7450000000008 6825.6000000000013 -101.56000000000016 -1.0000000180025095e-35 3486.0150000000008 -141.49999999999952 -141.49999999999952 3776.4150000000004 10.264999999999874 5851.9550000000008 136.43999999999986 -141.49999999999952 3.6000000000001369 3.6000000000001369 5259.5150000000003 25.330000000000158 5416.6450000000013 5.674999999999728
decision_type=2 2 2 2 2 2 2 2 2 2 2 2 2 2 2 2 2 2 2 2 2 2 2 2 2 2 2 2 2 2 2 2 2 2 2 2 2 2 2 2 2 2 2 2 2 2 2 2 2 2 2 2 2 2 2 2 2 2 2 2 2 2
left_child=1 6 5 8 10 11 14 15 22 20 21 26 29 28 30 33 36 41 44 38 48 49 -3 54 43 -15 57 50 -7 -8 -1 -17 -27 -6 -35 -33 -9 -25 51 -21 -19 -10 -18 -14 -12 -38 -20 -22 -5 -4 -13 -11 -24 -48 -16 -30 -29 -2 -51 -26 -23 -28
right_child=2 3 4 9 7 13 12 16 17 19 18 27 24 25 23 31 42 40 46 39 47 60 52 37 59 32 61 56 55 -31 -32 35 -34 34 -36 -37 45 -39 -40 -41 -42 -43 -44 -45 -46 -47 53 -49 -50 58 -52 -53 -54 -55 -56 -57 -58 -59 -60 -61 -62 -63
leaf_value=-85.080000205799706 6.9115240685153454 -36.144630077234488 25.954831431601281 -14.605739016741987 48.347426146412232 28.388557331087569 -60.688995236073112 78.118207445579941 -25.931411739948302 -4.1333255114054799 63.994842638810702 -7.776633434390547 -48.486084819163707 38.940499435412178 -72.607279261575144 52.793412196944125 124.53907071023042 -20.208297050702665 53.715660293874976 1.3121944087269719 -9.2995617624385556 56.134106672337786 -31.495237305512656 -66.451224383933081 -43.086476127032412 7.9880053465393761 11.902102284889057 21.866744928952116 9.481448798157027 -54.667574908136913 -78.785370515072742 92.346152007183591 44.883545438792012 80.572883156415656 86.570823005848681 99.045527414357238 106.5393767863041 -34.257985144468087 21.474340979406765 4.3689318978721117 -17.275404662712674 -22.962730609454383 136.12729395986005 -21.505909524509562 67.919799087456667 114.13030195762579 71.762664545264457 -6.5201930990022978 -11.831465395747747 50.063662181408702 18.181860821571284 -1.4082296688045375 -28.40682115011241 75.7644161815887 -48.285157782783337 33.768546670328917 25.038003700040765 9.8908452106901876 53.629143753832409 -38.992062587444153 59.633964367579409 14.943690854602949
leaf_weight=2191 3172 4477 21 3309 29 4360 2775 24 3701 3864 2232 20 3263 3746 4382 27 338 3835 36 3853 3616 1656 3935 3832 2988 26 2927 2878 21 3290 3216 1080 4325 1620 1624 1096 525 20 32 3281 3863 3475 208 20 1644 538 1655 3520 3842 2208 4856 3281 2100 1636 22 3877 2056 2293 1632 915 2229 2019
leaf_count=2191 3172 4477 21 3309 29 4360 2775 24 3701 3864 2232 20 3263 3746 4382 27 338 3835 36 3853 3616 1656 3935 3832 2988 26 2927 2878 21 3290 3216 1080 4325 1620 1624 1096 525 20 32 3281 3863 3475 208 20 1644 538 1655 3520 3842 2208 4856 3281 2100 1636 22 3877 2056 2293 1632 915 2229 2019
internal_value=0.00637961 -30.9283 42.6873 -15.1213 72.3386 24.8052 -62.6338 94.5204 -26.2123 -5.27592 61.7894 15.4377 -50.6641 36.3868 -74.242 88.07 116.144 -21.5146 69.3009 -0.0357674 -10.5248 54.8037 -32.859 -69.5941 -44.9584 42.0162 10.5288 20.6473 30.8668 -57.4236 -81.3376 95.2011 44.6633 83.2675 83.5781 95.7249 109.686 -66.285 -2.7731 2.71806 -18.7368 -24.4942 128.978 -48.3224 65.6613 110.392 73.539 -7.92868 -13.1154 51.4417 18.0752 -2.88199 -30.421 73.7542 -72.4869 33.638 23.1887 8.16174 51.5804 -42.1276 58.1436 13.144
internal_weight=139532 80898 58634 53984 22058 36576 26914 7109 25386 28598 14949 20221 13251 16355 13663 5476 1633 14874 7203 14311 14287 7746 10512 8256 7186 8097 10411 9810 8258 6065 5407 2203 4351 3273 3244 2176 1087 3852 7177 7134 7698 7176 546 3283 3876 1063 3327 7136 7151 3861 4876 7145 6035 3291 4404 3898 4934 5465 3840 3903 3885 4946
internal_count=139532 80898 58634 53984 22058 36576 26914 7109 25386 28598 14949 20221 13251 16355 13663 5476 1633 14874 7203 14311 14287 7746 10512 8256 7186 8097 10411 9810 8258 6065 5407 2203 4351 3273 3244 2176 1087 3852 7177 7134 7698 7176 546 3283 3876 1063 3327 7136 7151 3861 4876 7145 6035 3291 4404 3898 4934 5465 3840 3903 3885 4946
is_linear=0
shrinkage=0.05


Tree=7
num_leaves=63
num_cat=0
split_feature=54 54 54 54 56 54 57 56 57 54 57 57 54 57 13 56 56 57 56 13 56 57 57 54 56 57 54 57 54 57 56 57 57 58 74 57 56 76 57 58 57 56 57 57 54 57 57 58 76 10 56 13 76 56 76 76 76 57 76 14 13 76
split_gain=6.56734e+10 1.41936e+10 1.07698e+10 2.11427e+09 1.68216e+09 1.4895e+09 1.37835e+09 3.30038e+08 2.97303e+08 2.83649e+08 2.74392e+08 1.96477e+08 1.87907e+08 1.77533e+08 1.70599e+08 1.2743e+08 1.05694e+08 1.00056e+08 8.34002e+07 6.94365e+07 6.78324e+07 5.55304e+07 5.05892e+07 4.72705e+07 4.35698e+07 3.99464e+07 3.87056e+07 3.70601e+07 3.55211e+07 3.53263e+07 3.52301e+07 3.3991e+07 3.33127e+07 6.07835e+07 3.28869e+07 3.17735e+07 3.16868e+07 3.16602e+07 2.91761e+07 2.90281e+07 5.68368e+07 3.79545e+07 2.70212e+07 2.59878e+07 2.57471e+07 2.51471e+07 2.36186e+07 2.44787e+07 2.20724e+07 2.16e+07 2.07837e+07 2.01233e+07 1.88873e+07 1.85899e+07 1.82448e+07 1.76328e+07 1.69806e+07 1.56677e+07 1.56186e+07 1.42323e+07 1.4217e+07 1.41517e+07
threshold=4011.6495833333338 2791.5366666666669 5178.5662500000008 3425.4637500000003 5885.9650000000011 4569.1204166666676 2279.5300000000002 5479.9600000000009 3210.5200000000004 3706.9150000000004 6710.9250000000011 4386.1500000000005 4856.6066666666675 1884.4800000000002 0.78656609248549303 3224.3800000000006 3466.5950000000007 2649.4550000000004 2332.9200000000005 0.37940952255126048 3454.6550000000002 7285.0700000000006 5527.3000000000011 5806.5912500000004 2889.2850000000003 3394.0950000000007 3862.9225000000006 6393.8450000000012 3570.6250000000005 7285.0700000000006 3094.9900000000002 2951.7350000000006 3911.5650000000005 3520.0459722222226 3463.7950000000005 4555.5350000000008 3632.0900000000006 2.9449999999999368 5131.2450000000008 3295.6699826388895 3771.5550000000007 2576.3200000000002 2099.1950000000002 4825.1150000000007 4167.2204166666679 1704.8400000000001 5272.7650000000012 4742.2455902777792 -0.9100000000004228 1.0000000180025095e-35 2031.6800000000001 0.37940952255126048 -1.8099999999997178 3094.9900000000002 3.9299999999999504 10.264999999999874 11.464999999999693 4308.7450000000008 -2.1100000000000132 7.5000000000000009 0.78656609248549303 7.9399999999999418
decision_type=2 2 2 2 2 2 2 2 2 2 2 2 2 2 2 2 2 2 2 2 2 2 2 2 2 2 2 2 2 2 2 2 2 2 2 2 2 2 2 2 2 2 2 2 2 2 2 2 2 2 2 2 2 2 2 2 2 2 2 2 2 2
left_child=1 6 5 8 7 11 13 16 24 28 27 44 20 45 17 34 -4 -8 32 25 -7 -12 59 -9 51 -10 56 -6 55 37 39 -19 50 -34 -13 -17 -14 -24 -38 40 -21 -41 -15 -22 -2 -1 61 -48 -25 -27 -16 -3 -40 -28 -45 -5 -11 -55 -30 -18 -44 -37
right_child=2 3 4 9 10 12 14 23 19 26 21 15 36 42 18 35 22 31 -20 30 43 -23 29 48 -26 49 53 -29 58 -31 -32 -33 33 -35 -36 46 38 -39 52 41 -42 -43 60 54 -46 -47 47 -49 -50 -51 -52 -53 -54 57 -56 -57 -58 -59 -60 -61 -62 -63
leaf_value=-79.865648937381977 8.0244427643593994 -31.458453684826903 -53.120771016703024 -14.229531048163915 79.303740688713546 -49.003162690898151 -48.36647536461652 64.448583510646259 -20.883497502508053 -3.9877233243369883 101.85123413673266 17.77201047679085 -22.068551909033928 -67.41288855591776 -66.871533762894472 18.317708295861639 44.771461247411573 -38.637311769971738 -46.755246882178312 -29.032132696210468 27.590758004118953 121.41166780907177 54.064290786013771 69.103953160690864 -28.129262993711237 -17.784894050610912 -32.417496521068067 88.953548900709791 -9.7917048263477398 106.80432997546748 -21.80204072333779 -26.465718741539515 20.640414795657051 -64.557822346836019 -54.728577115129987 20.895851422625924 37.98150890518771 63.13815199816608 40.660677973684784 -59.241587209500587 11.776624872327233 -32.54556353224433 -58.15238670142304 30.156787620289307 13.055442948634933 -73.307982298426339 71.17895415841717 7.0200198801772862 77.536224507554294 -11.102655407814595 -57.187617627311312 -37.839439082328646 47.652335759343465 2.8044912697442776 37.060829735166898 -9.0306683509851737 0.98874634914203607 25.194236351717294 -5.1129999464457425 51.844576166439481 -64.716958459071165 27.039209928643931
leaf_weight=2740 5828 2465 23 4651 2116 27 3217 3476 6458 5200 1434 20 20 4407 707 5930 875 3121 2749 919 4338 491 2413 1736 5264 2809 37 1905 3522 37 2434 704 37 48 71 2133 4242 1609 2041 166 94 676 1671 2159 4513 3197 51 21 1428 2125 2642 2489 1848 6420 1726 2513 2557 79 3615 3948 1663 1677
leaf_count=2740 5828 2465 23 4651 2116 27 3217 3476 6458 5200 1434 20 20 4407 707 5930 875 3121 2749 919 4338 491 2413 1736 5264 2809 37 1905 3522 37 2434 704 37 48 71 2133 4242 1609 2041 166 94 676 1671 2159 4513 3197 51 21 1428 2125 2642 2489 1848 6420 1726 2513 2557 79 3615 3948 1663 1677
internal_value=0.00609683 -28.9839 40.5949 -14.3134 68.6964 24.1142 -58.6995 60.0441 -24.6618 -4.94026 91.3153 15.0407 35.3136 -69.8282 -47.189 20.0743 53.7513 -41.8661 -53.2507 -20.3372 29.9931 106.846 54.0286 68.4825 -31.2983 -18.2953 0.0410724 83.8776 -9.91877 58.146 -25.7601 -36.3979 -58.449 -27.4908 -38.7923 20.6206 40.6984 57.6958 40.853 -30.9522 -25.2445 -37.8151 -64.8363 30.253 10.2202 -76.3357 24.1379 52.5017 72.912 -14.9072 -59.2339 -34.6651 43.9842 2.87561 33.2249 -12.406 -2.3473 3.07704 -7.42197 50.5623 -61.4286 23.6005
internal_weight=139532 81396 58136 54493 21491 36645 26903 15545 25899 28594 5946 20244 16401 13678 13225 9903 8905 7042 6183 15681 8250 1925 8882 6640 10218 11392 14293 4021 14301 4059 4289 3825 3434 85 91 9812 8151 4022 8131 1855 1013 842 7741 8223 10341 5937 3882 72 3164 4934 3349 4954 3889 6536 3885 7164 7757 6499 7137 4823 3334 3810
internal_count=139532 81396 58136 54493 21491 36645 26903 15545 25899 28594 5946 20244 16401 13678 13225 9903 8905 7042 6183 15681 8250 1925 8882 6640 10218 11392 14293 4021 14301 4059 4289 3825 3434 85 91 9812 8151 4022 8131 1855 1013 842 7741 8223 10341 5937 3882 72 3164 4934 3349 4954 3889 6536 3885 7164 7757 6499 7137 4823 3334 3810
is_linear=0
shrinkage=0.05


Tree=8
num_leaves=63
num_cat=0
split_feature=56 57 57 56 56 57 57 57 57 57 56 57 57 57 57 57 10 77 77 56 13 57 56 77 77 13 57 56 57 13 76 10 56 57 77 57 56 61 77 57 57 56 56 76 76 56 57 56 57 56 57 57 57 77 57 60 56 13 56 76 74 56
split_gain=5.91093e+10 1.32004e+10 9.42778e+09 1.87538e+09 1.53211e+09 1.41324e+09 1.27129e+09 3.12139e+08 2.95664e+08 2.6749e+08 2.26616e+08 1.9731e+08 1.66752e+08 1.63669e+08 1.47824e+08 1.39502e+08 1.26368e+08 1.0146e+08 8.26341e+07 9.55612e+07 8.10386e+07 6.43042e+07 5.88514e+07 5.72456e+07 5.61295e+07 5.58618e+07 5.58584e+07 5.23295e+07 5.03882e+07 4.99344e+07 4.61476e+07 3.82445e+07 3.71842e+07 3.64753e+07 3.50811e+07 3.45332e+07 3.39377e+07 2.95313e+07 2.85934e+07 2.58582e+07 2.51507e+07 2.48716e+07 2.41663e+07 2.379e+07 2.27399e+07 2.22745e+07 2.17382e+07 2.16736e+07 2.155e+07 2.11659e+07 2.08491e+07 2.04356e+07 1.9438e+07 1.9343e+07 1.75436e+07 2.56392e+07 2.18306e+07 1.68633e+07 1.6803e+07 1.6544e+07 1.53045e+07 1.34768e+07
threshold=3936.7650000000008 2970.6900000000001 5300.6550000000007 3360.9750000000004 5804.7600000000011 2343.0300000000007 4671.2200000000003 6710.9250000000011 3867.0050000000006 3291.2600000000007 5420.4700000000003 1934.8400000000001 4386.1500000000005 4990.7750000000005 2703.4050000000002 4523.2650000000012 1.0000000180025095e-35 -2578.2099999999996 1812.5400000000002 2446.0400000000004 0.37940952255126048 3645.8300000000004 2173.8850000000007 268.30500000000035 2768.3500000000008 0.60355339059327384 6284.4500000000007 3542.8550000000005 7285.0700000000006 0.78656609248549303 2.2700000000002096 1.0000000180025095e-35 2277.4450000000002 5899.4950000000008 1553.6949999999999 1745.8350000000003 3167.9050000000002 6446.6250000000009 -1482.5649999999996 2128.6350000000007 4108.7850000000008 2904.9850000000001 4766.5700000000006 -0.9100000000004228 -2.4100000000000814 2576.3200000000002 4825.1150000000007 2223.1200000000003 4264.7000000000007 3726.9050000000002 4506.6250000000009 5583.9800000000005 3143.9400000000001 834.81000000000006 5937.255000000001 4025.1550000000002 5198.6250000000009 0.78656609248549303 4934.5900000000011 -6.9450000000001628 1871.8900000000001 2576.3200000000002
decision_type=2 2 2 2 2 2 2 2 2 2 2 2 2 2 2 2 2 2 2 2 2 2 2 2 2 2 2 2 2 2 2 2 2 2 2 2 2 2 2 2 2 2 2 2 2 2 2 2 2 2 2 2 2 2 2 2 2 2 2 2 2 2
left_child=1 5 6 9 10 11 12 26 27 20 24 35 48 46 29 31 17 45 19 23 52 -18 -22 -19 30 -16 -6 -5 -9 -7 38 49 -27 -12 -17 -1 53 -26 42 -13 -33 -24 -4 -35 58 -11 -8 -31 -2 -10 -14 -32 -3 -21 56 -56 -40 -41 -15 -28 -20 -34
right_child=2 3 4 8 7 14 13 28 15 16 33 39 50 44 25 34 21 18 60 36 22 -23 41 -25 37 32 59 -29 -30 47 51 40 61 43 -36 -37 -38 -39 54 57 -42 -43 -44 -45 -46 -47 -48 -49 -50 -51 -52 -53 -54 -55 55 -57 -58 -59 -60 -61 -62 -63
leaf_value=-75.307452119975153 7.9021068758466839 -27.165028166668819 12.740336047927075 -10.682268206450289 71.863385350455857 -43.906217246285514 26.346029228399189 96.575152241600804 -4.0593064023240304 -61.209275380528439 59.802193563709764 -62.8926771720852 16.566960360610505 33.314972292778684 -33.667374771281843 21.384901189643934 -13.456651980655849 -59.085811207726046 -1.7063071746165841 -24.869309966939131 -60.467596556247081 1.1901047346867124 -35.530407111570518 -5.8104031330709711 63.872728058876589 -61.465169014770566 78.708664356104038 -4.9673707886839331 115.14626066772237 -57.56835721077239 52.083792703836416 3.7743234568282773 -45.582107532791866 63.045278090672689 59.878721519166596 -68.270546532603333 -17.276623298328904 121.5042002842016 42.334850167218924 -53.805299084066192 14.315152367635683 -27.584903931489521 43.704544027695341 72.779933879797099 41.790389670080295 -31.350168167098708 31.380136445132564 -49.332684145100814 12.706659581901505 1.6430386956034888 21.312637693757583 61.275799163715639 -22.368094324939943 -7.219011272508979 71.182502274824856 42.767733868002303 49.784311343618398 -60.412196587470589 39.94193600432439 86.364452425487045 28.569423050429442 -38.361115790640682
leaf_weight=3280 5690 3853 111 8182 2259 3254 4313 1454 2168 174 4054 3845 4128 2142 3701 119 3163 238 75 2647 187 982 2078 64 51 247 1491 7848 493 1333 2515 1783 1067 1399 118 3769 6624 40 1715 1955 829 1878 146 1154 3648 98 4278 2019 3958 6524 5276 802 4686 165 182 142 2327 1938 1738 1382 94 1659
leaf_count=3280 5690 3853 111 8182 2259 3254 4313 1454 2168 174 4054 3845 4128 2142 3701 119 3163 238 75 2647 187 982 2078 64 51 247 1491 7848 493 1333 2515 1783 1067 1399 118 3769 6624 40 1715 1955 829 1878 146 1154 3648 98 4278 2019 3958 6524 5276 802 4686 165 182 142 2327 1938 1738 1382 94 1659
internal_value=0.00579739 -26.9943 39.2302 -12.6641 65.1335 -54.8596 23.2355 84.2313 -3.49105 -22.0291 55.8972 -65.4924 14.4916 33.5703 -43.0198 2.61116 -17.3466 -20.3435 -19.5159 -20.1175 -27.3176 -9.98671 -33.0565 -47.8013 50.2526 -37.7699 77.7603 -7.88441 101.283 -48.3231 49.8038 1.81501 -42.8757 62.7576 40.5678 -71.5459 -19.231 89.3109 46.5709 -59.977 7.12021 -31.7593 30.3411 67.4482 38.9531 -50.4667 28.8532 -52.6094 9.87324 0.220702 19.2297 54.3081 -24.5329 -23.8339 47.5255 58.7462 46.6247 -57.0958 36.2844 82.3942 15.1404 -41.1891
internal_weight=139532 82644 56888 54577 21717 28067 35171 7079 27571 27006 14638 14787 19052 16119 13280 11541 14324 10179 9907 9738 12682 4145 4143 302 8031 6674 5132 16030 1947 6606 7940 11304 2973 6607 237 7049 9436 91 4623 7738 2612 3956 257 2553 7528 272 8591 3352 9648 8692 9404 3317 8539 2812 4366 324 4042 3893 3880 2873 169 2726
internal_count=139532 82644 56888 54577 21717 28067 35171 7079 27571 27006 14638 14787 19052 16119 13280 11541 14324 10179 9907 9738 12682 4145 4143 302 8031 6674 5132 16030 1947 6606 7940 11304 2973 6607 237 7049 9436 91 4623 7738 2612 3956 257 2553 7528 272 8591 3352 9648 8692 9404 3317 8539 2812 4366 324 4042 3893 3880 2873 169 2726
is_linear=0
shrinkage=0.05


Tree=9
num_leaves=63
num_cat=0
split_feature=71 71 71 71 71 71 71 71 71 71 71 71 71 71 71 71 71 71 71 71 71 71 71 71 71 71 71 71 71 71 71 76 76 76 76 76 76 71 76 77 76 76 76 76 76 76 71 76 76 76 76 61 29 76 76 71 76 71 76 76 76 76
split_gain=5.4255e+10 1.23939e+10 8.68528e+09 1.76773e+09 1.35921e+09 1.248e+09 1.243e+09 2.45487e+08 2.38807e+08 2.27264e+08 2.23482e+08 1.84415e+08 1.71295e+08 1.44342e+08 1.26563e+08 4.13721e+07 3.50654e+07 3.41965e+07 3.17781e+07 3.02773e+07 2.90669e+07 2.77144e+07 2.70317e+07 2.67462e+07 2.63584e+07 2.24113e+07 2.23415e+07 2.01909e+07 1.60366e+07 1.55937e+07 1.44229e+07 1.18076e+07 1.0562e+07 8.29692e+06 7.78178e+06 7.66996e+06 7.46409e+06 7.42147e+06 7.12066e+06 6.12253e+06 6.0505e+06 6.03285e+06 5.96107e+06 5.92738e+06 5.78698e+06 5.60749e+06 5.55471e+06 5.44856e+06 5.3035e+06 5.30144e+06 5.18801e+06 5.14818e+06 5.07861e+06 5.02316e+06 5.01137e+06 4.97999e+06 4.65076e+06 4.63428e+06 4.60102e+06 4.53855e+06 4.5357e+06 4.27221e+06
threshold=4043.4000000000001 2826.3150000000005 5233.5850000000009 3462.5450000000005 6060.255000000001 2207.4750000000004 4622.7000000000016 3152.1550000000002 6661.6050000000005 5618.5900000000011 3753.8100000000009 1850.3050000000001 4333.7350000000006 4939.5950000000003 2529.9150000000004 7099.3650000000007 6361.4900000000007 3304.3500000000008 3627.0100000000007 2999.4300000000007 5814.7450000000008 1711.0250000000003 2023.8200000000002 5416.6450000000013 3901.6850000000004 4773.005000000001 4184.3850000000011 4487.4850000000006 5086.9250000000002 2383.3800000000006 2712.9250000000006 -141.49999999999952 -101.56000000000016 -141.49999999999952 -101.56000000000016 110.97000000000004 136.43999999999986 1584.6600000000003 136.43999999999986 464.5250000000006 9.8600000000003565 99.134999999999778 136.43999999999986 -10.540000000000644 -141.49999999999952 16.480000000000249 6227.630000000001 -4.1299999999999946 -141.49999999999952 -101.56000000000016 -0.60999999999978616 7654.9600000000009 38.45000000000001 9.4700000000000291 -1.0000000180025095e-35 5927.8850000000011 3.6000000000001369 6825.6000000000013 17.384999999999767 -101.56000000000016 -3.560000000000286 11.849999999999683
decision_type=2 2 2 2 2 2 2 2 2 2 2 2 2 2 2 2 2 2 2 2 2 2 2 2 2 2 2 2 2 2 2 2 2 2 2 2 2 2 2 2 2 2 2 2 2 2 2 2 2 2 2 2 2 2 2 2 2 2 2 2 2 2
left_child=1 5 6 7 9 11 12 19 16 23 18 21 26 25 29 34 33 45 43 56 59 37 39 -4 40 48 60 44 31 35 58 -15 -18 -6 -10 -7 -27 -1 54 -13 -12 -24 -20 -5 -14 -9 -35 -19 -8 -22 -28 -17 -42 -21 -26 -51 -3 -36 -16 -11 -2 -46
right_child=2 3 4 10 8 14 13 17 15 20 24 22 27 28 30 51 32 47 42 53 49 -23 41 -25 38 36 50 -29 -30 -31 -32 -33 -34 46 57 -37 -38 -39 -40 -41 52 -43 -44 -45 61 -47 -48 -49 -50 55 -52 -53 -54 -55 -56 -57 -58 -59 -60 -61 -62 -63
leaf_value=-73.941603892187644 6.8722868757741296 -30.61983386948889 46.554143108271099 -11.245192587758478 48.439001526639473 -49.099714156552416 1.6116464045375445 -20.43637543334458 65.561414929148569 41.163233186870897 -1.6632248972486661 -60.293823290536579 -6.817761192480063 0.085097244746005371 -39.647030616020636 107.24291986410734 54.516764439377837 -16.141540985903102 -4.9814616482907015 -25.346367111200124 44.224636322477728 -65.073323000638922 -54.572000143670223 52.443689601120155 2.4507159773089691 31.606392782380894 11.400838999335496 22.208153767855741 41.388949811096182 -43.7911396946756 -33.807137007037724 36.822428110313162 83.857052959959091 72.474456874511461 91.465263194380384 -17.924917800865362 60.181098653950222 -69.420655703866288 30.485436470670052 -35.237492972446155 26.401197643778218 -28.692734570523875 18.518872190929425 -8.4852380571125874 16.759574050288474 -17.374305142347566 77.221568823036648 -13.478776456227848 26.807474266982521 63.67710319303643 14.490395417290358 117.70855618448914 1.1690507952513447 -22.338980709929789 5.3467912630875007 67.642451421114743 -27.693457656189658 98.320163477125092 -35.834397193740749 59.015800519372377 9.756824064225551 19.733952891529931
leaf_weight=1652 2681 3196 3855 3148 32 3253 21 4979 24 37 4598 4393 24 22 2751 338 32 3586 6581 3858 30 3240 3857 3884 3213 4331 2872 4417 3286 2756 2773 3776 1630 1627 525 20 23 2142 25 25 20 23 27 5100 3586 2145 1057 4152 4349 1654 2585 208 2548 2185 2792 1623 2391 538 1131 3302 2775 1828
leaf_count=1652 2681 3196 3855 3148 32 3253 21 4979 24 37 4598 4393 24 22 2751 338 32 3586 6581 3858 30 3240 3857 3884 3213 4331 2872 4417 3286 2756 2773 3776 1630 1627 525 20 23 2142 25 25 20 23 27 5100 3586 2145 1057 4152 4349 1654 2585 208 2548 2185 2792 1623 2391 538 1131 3302 2775 1828
internal_value=0.00552541 -25.8944 37.5379 -12.0102 63.681 -52.9252 22.9596 -21.2727 83.6491 55.3365 -3.26278 -62.5239 14.9178 33.5245 -41.3222 99.9746 77.5575 -17.0147 -7.46886 -26.7138 62.1196 -68.482 -57.4726 49.5106 1.47242 29.2183 10.6024 19.6962 38.8271 -46.5707 -36.5668 36.6096 83.2955 74.0433 94.3009 -48.9098 31.7587 -71.3911 3.90845 -60.1528 -0.577461 -54.4193 -4.88516 -9.53875 17.6556 -19.5147 74.3468 -14.713 26.6864 65.4501 12.8646 111.251 1.36659 -24.2594 3.7973 65.643 -29.368 94.9436 -38.5372 58.8192 8.33956 17.7642
internal_weight=139532 82560 56972 54544 20396 28016 36576 26492 6011 14385 28052 15332 20768 15808 12684 1633 4378 14862 14856 11630 6646 7034 8298 7739 13196 8724 10913 9855 7084 6029 6655 3798 1662 2716 1087 3273 4354 3794 6030 4418 7166 3880 6608 8248 5438 7124 2684 7738 4370 3307 5457 546 2568 6043 6005 3277 5587 1063 3882 3339 5456 5414
internal_count=139532 82560 56972 54544 20396 28016 36576 26492 6011 14385 28052 15332 20768 15808 12684 1633 4378 14862 14856 11630 6646 7034 8298 7739 13196 8724 10913 9855 7084 6029 6655 3798 1662 2716 1087 3273 4354 3794 6030 4418 7166 3880 6608 8248 5438 7124 2684 7738 4370 3307 5457 546 2568 6043 6005 3277 5587 1063 3882 3339 5456 5414
is_linear=0
shrinkage=0.05


Tree=10
num_leaves=63
num_cat=0
split_feature=71 71 71 71 71 71 71 71 71 71 71 71 71 71 71 71 71 71 71 71 71 71 71 71 71 71 71 71 71 71 71 77 71 77 61 71 56 77 71 71 77 71 71 71 71 71 57 71 71 71 71 71 71 71 71 77 77 71 71 56 56 56
split_gain=4.88579e+10 1.13355e+10 7.70484e+09 1.62431e+09 1.22196e+09 1.12264e+09 1.08925e+09 2.19776e+08 2.13398e+08 2.133e+08 2.03801e+08 1.63387e+08 1.54933e+08 1.20634e+08 1.12588e+08 3.68493e+07 3.13652e+07 3.13549e+07 3.0151e+07 2.78245e+07 2.5919e+07 2.51121e+07 2.39231e+07 2.37785e+07 2.37735e+07 2.02477e+07 1.78871e+07 1.72093e+07 1.45826e+07 1.3584e+07 1.29424e+07 1.04909e+07 6.43569e+06 6.39281e+06 4.88934e+06 4.81878e+06 4.49985e+06 4.47198e+06 4.44257e+06 4.4307e+06 4.39656e+06 4.2525e+06 4.02462e+06 3.99857e+06 3.99115e+06 3.82808e+06 3.40042e+06 3.40024e+06 3.3478e+06 3.34313e+06 3.25156e+06 3.15739e+06 3.09389e+06 3.06168e+06 2.95719e+06 2.83972e+06 2.80282e+06 2.67658e+06 2.52838e+06 2.52389e+06 2.51665e+06 2.44671e+06
threshold=4056.6550000000002 2826.3150000000005 5233.5850000000009 3462.5450000000005 6060.255000000001 2207.4750000000004 4640.5700000000006 3164.3350000000005 3764.7850000000003 6661.6050000000005 5618.5900000000011 1850.3050000000001 4349.4050000000007 4939.5950000000003 2529.9150000000004 7099.3650000000007 3014.7800000000002 3627.0100000000007 6361.4900000000007 3315.9750000000004 5814.7450000000008 1711.0250000000003 5444.6350000000011 2023.8200000000002 3913.4750000000004 4212.7150000000011 4487.4850000000006 4792.9150000000009 5064.3900000000003 2353.3150000000005 2712.9250000000006 -1143.1849999999993 1549.8000000000002 -441.19499999999988 7654.9600000000009 6227.630000000001 2874.3150000000005 710.18999999999994 6825.6000000000013 3529.5050000000006 464.5250000000006 2918.7300000000005 3234.7950000000005 5927.8850000000011 5313.2150000000011 6530.1600000000008 4417.5350000000008 1932.0050000000003 3843.2550000000006 3394.7650000000008 4113.6650000000009 3085.6850000000004 2103.0950000000007 5711.0000000000009 3681.7650000000003 1004.5499999999998 351.87999999999994 3979.0400000000004 5132.0200000000013 4348.1250000000009 3632.0900000000006 3224.3800000000006
decision_type=2 2 2 2 2 2 2 2 2 2 2 2 2 2 2 2 2 2 2 2 2 2 2 2 2 2 2 2 2 2 2 2 2 2 2 2 2 2 2 2 2 2 2 2 2 2 2 2 2 2 2 2 2 2 2 2 2 2 2 2 2 2
left_child=1 5 6 7 10 11 12 16 17 18 22 21 25 27 29 33 41 39 35 42 53 32 44 40 48 50 61 60 59 37 55 -20 -1 -11 56 -6 -28 -7 -35 -5 47 -3 -9 -22 -4 -33 52 -13 -10 -21 -2 -18 -25 -12 -19 -16 -17 -26 -30 -15 -8 -14
right_child=2 3 4 8 9 14 13 19 24 15 20 23 26 28 30 34 51 54 31 49 43 -23 -24 46 57 -27 36 -29 58 -31 -32 45 -34 38 -36 -37 -38 -39 -40 -41 -42 -43 -44 -45 -46 -47 -48 -49 -50 -51 -52 -53 -54 -55 -56 -57 -58 -59 -60 -61 -62 -63
leaf_value=-71.059694032276369 7.0881043469156486 -29.15097624614079 42.647192714318123 -10.463553944884545 68.67851083901347 -46.989093588855226 9.0126013570241792 -19.454144745458134 -1.2498420711424649 60.62882002645464 54.287657903758557 -58.688316188941329 -0.37881364964727143 16.659181296884714 -36.757264657836053 87.234306096902117 -23.838221713612715 -5.8199669835791381 43.573334984078798 -14.775441429442294 60.413395766884634 -61.800410401684928 50.279960164936213 -53.520417953088263 2.8655811779220013 12.935725336351812 -1.7601875341334048 30.512881540686614 37.547151616845838 -42.035301324107529 -32.140843108371818 77.708116322715455 -66.457064785932047 86.575966632372612 111.11567918291314 73.030351759114026 21.425941983141986 -24.68099085159632 93.244441812977584 -8.1040380160096923 -35.54094763791413 -26.46364651009684 -17.081198713215201 63.965365598954833 45.793318832817675 83.062927398940218 -30.908207315473415 -55.844243074084659 0.91640038256206913 -12.614449204261234 9.5042668674181652 -21.548609882201603 -50.585329405105661 57.414899978743918 -3.7335989156286495 -19.376732890833463 102.80272267971144 4.9819870514002105 40.162386862505215 34.598574895015268 26.018256119086256 17.142819286872186
leaf_weight=1100 2188 2726 1633 3320 1662 2735 22 3312 3843 20 1607 2190 20 20 3772 37 2786 2759 21 3891 1655 3282 3277 1632 2748 4982 21 3849 1668 3298 2762 1078 2695 557 220 1101 4924 23 516 4974 24 3251 3908 1637 2776 531 20 2176 3328 3328 3839 3323 2157 1652 4421 24 310 3275 2188 3264 4389 4920
leaf_count=1100 2188 2726 1633 3320 1662 2735 22 3312 3843 20 1607 2190 20 20 3772 37 2786 2759 21 3891 1655 3282 3277 1632 2748 4982 21 3849 1668 3298 2762 1078 2695 557 220 1101 4924 23 516 4974 24 3251 3908 1637 2776 531 20 2176 3328 3328 3839 3323 2157 1652 4421 24 310 3275 2188 3264 4389 4920
internal_value=0.0546824 -24.3504 35.889 -11.2219 60.5653 -50.3311 22.0937 -20.1391 -2.97114 79.3843 52.5637 -59.447 14.6571 32.1831 -39.2911 94.6604 -25.1138 -6.95451 73.6099 -15.975 59.0449 -65.0148 47.039 -54.6404 1.70061 10.5771 19.2009 28.0678 36.9434 -44.2078 -34.7502 79.0205 -67.793 89.2632 105.047 70.4152 21.3274 -46.804 89.7912 -9.04864 -57.1542 -27.6898 -18.17 62.1816 44.6291 79.4804 -51.7418 -57.2722 -0.244508 -13.7794 8.62725 -22.5932 -51.8509 55.8746 -4.53538 -36.6479 101.168 4.01644 39.0321 34.4898 25.9336 17.0719
internal_weight=139667 83083 56584 55193 20290 27890 36294 26525 28668 6053 14237 15276 20894 15400 12614 1660 12086 15474 4393 14439 6551 7077 7686 8199 13194 11009 9885 8260 7140 6056 6558 1630 3795 1093 567 2763 4945 2758 1073 8294 4390 5977 7220 3292 4409 1609 3809 4366 7171 7219 6027 6109 3789 3259 7180 3796 347 6023 3856 3284 4411 4940
internal_count=139667 83083 56584 55193 20290 27890 36294 26525 28668 6053 14237 15276 20894 15400 12614 1660 12086 15474 4393 14439 6551 7077 7686 8199 13194 11009 9885 8260 7140 6056 6558 1630 3795 1093 567 2763 4945 2758 1073 8294 4390 5977 7220 3292 4409 1609 3809 4366 7171 7219 6027 6109 3789 3259 7180 3796 347 6023 3856 3284 4411 4940
is_linear=0
shrinkage=0.05


Tree=11
num_leaves=63
num_cat=0
split_feature=71 71 71 71 71 71 71 71 71 71 71 71 71 71 71 71 71 71 71 71 71 71 71 71 71 76 71 71 71 76 71 71 76 71 76 76 76 76 76 76 76 76 76 76 76 77 76 76 71 76 71 76 76 76 76 76 76 76 76 76 76 76
split_gain=4.40947e+10 9.98924e+09 7.20842e+09 1.4363e+09 1.19834e+09 9.52272e+08 9.44284e+08 2.21056e+08 2.04471e+08 1.92527e+08 1.80208e+08 1.25362e+08 1.21437e+08 1.18676e+08 1.1667e+08 3.32634e+07 3.23735e+07 2.87416e+07 2.72137e+07 2.63041e+07 2.42746e+07 2.34211e+07 2.3392e+07 2.2781e+07 1.75477e+07 1.66122e+07 1.63316e+07 1.59106e+07 1.55685e+07 1.45981e+07 1.24226e+07 1.16683e+07 1.14246e+07 1.1269e+07 6.97787e+06 6.0718e+06 5.8509e+06 5.6843e+06 5.68097e+06 5.48434e+06 5.37439e+06 5.33147e+06 5.32443e+06 5.24235e+06 5.19206e+06 5.08312e+06 4.83156e+06 4.81135e+06 4.72851e+06 4.68501e+06 4.55835e+06 4.52908e+06 4.47937e+06 4.4589e+06 4.32821e+06 4.29808e+06 4.25622e+06 4.13201e+06 4.12803e+06 4.04048e+06 4.03752e+06 3.98823e+06
threshold=4029.2100000000005 2805.8300000000004 5181.6450000000013 3451.2850000000003 6060.255000000001 2154.9250000000006 4586.8100000000004 5618.5900000000011 3139.7250000000004 6661.6050000000005 3731.4650000000006 4302.755000000001 1787.5000000000002 2501.9150000000004 4857.295000000001 7099.3650000000007 5390.170000000001 3292.7950000000005 6361.4900000000007 2984.7950000000005 3877.2000000000003 1955.2950000000003 5814.7450000000008 3604.8000000000006 5043.9700000000003 136.43999999999986 4439.5900000000011 4170.0250000000005 2322.8550000000005 -141.49999999999952 1584.6600000000003 2661.5050000000006 -141.49999999999952 4712.3700000000008 136.43999999999986 136.43999999999986 110.97000000000004 -141.49999999999952 -87.425000000000168 -6.3999999999999764 8.3200000000003929 136.43999999999986 136.43999999999986 -0.60999999999978616 -3.2750000000000905 442.16500000000025 -141.49999999999952 5.674999999999728 6227.630000000001 18.279999999999863 5502.0250000000005 -101.56000000000016 1.6200000000002321 18.279999999999863 -2.9950000000001178 10.264999999999874 19.259999999999881 -11.390000000000212 6.0400000000000782 -101.56000000000016 -2.4100000000000814 -101.56000000000016
decision_type=2 2 2 2 2 2 2 2 2 2 2 2 2 2 2 2 2 2 2 2 2 2 2 2 2 2 2 2 2 2 2 2 2 2 2 2 2 2 2 2 2 2 2 2 2 2 2 2 2 2 2 2 2 2 2 2 2 2 2 2 2 2
left_child=1 5 6 8 7 12 11 16 19 18 23 27 30 25 33 32 42 43 37 53 39 45 59 34 46 28 54 56 -7 -20 -1 -15 -11 41 52 60 -23 -6 -17 -12 -22 -8 -4 -10 -19 -14 -16 -21 -39 -29 -18 -24 -5 -3 -13 -48 -2 -25 -35 -9 -28 -33
right_child=2 3 4 10 9 13 14 22 17 15 20 26 21 31 24 38 50 44 29 47 40 36 51 57 -26 -27 35 49 -30 -31 -32 61 -34 58 -36 -37 -38 48 -40 -41 -42 -43 -44 -45 -46 -47 55 -49 -50 -51 -52 -53 -54 -55 -56 -57 -58 -59 -60 -61 -62 -63
leaf_value=-66.709626210097539 6.3171581277456887 -27.90449332964846 40.789299630083285 -10.243724149382837 45.974310328088862 -45.852509556490467 22.619283927679341 35.720964602920667 -19.257101259546779 51.700883197419039 -2.7998094973996546 13.362338518663515 -56.219924092392539 -35.838788070021167 7.3574550827532583 74.656363562381628 45.389295467061373 -14.921596702577141 32.392001798259678 -23.41559195115374 1.8764766949444445 -51.055981065746572 40.665743162764834 -6.7381157986681401 36.046165900354559 -10.646956824768536 17.37517111954406 10.085720362852573 -40.968053785821382 75.598176118961945 -61.461674733321253 -53.918703084917212 85.602759373618127 25.261673765636935 16.758269936348743 43.969967486749546 -25.602379073105848 65.421516854117669 100.84620865673028 -0.011800923426789052 4.8289787716750912 47.295873526318587 65.547899424004882 -16.561307117083171 -12.329892690496532 -30.707307213930349 30.312535078131386 -20.53716309401792 69.754008986606934 13.488114359563586 48.643046452020251 59.263507721695674 -7.825489318945138 -24.682439806730002 16.322929935742497 33.402997676844436 9.4863005490203847 -4.1298709667265872 28.621898687328809 53.262931344311816 20.250772756486072 -31.466299397067441
leaf_weight=1632 4039 3999 4370 4215 33 3275 3854 34 3688 26 3132 2484 4374 3240 21 23 2227 3669 20 3597 4156 4348 34 2364 3299 39 2505 3544 3282 1610 3804 20 1067 2344 26 24 23 1645 544 4038 2450 22 22 3546 4095 20 3135 2451 1085 1418 2163 3258 3514 1481 2464 1780 1437 4248 1515 3225 2397 3273
leaf_count=1632 4039 3999 4370 4215 33 3275 3854 34 3688 26 3132 2484 4374 3240 21 23 2227 3669 20 3597 4156 4348 34 2364 3299 39 2505 3544 3282 1610 3804 20 1067 2344 26 24 23 1645 544 4038 2450 22 22 3546 4095 20 3135 2451 1085 1418 2163 3258 3514 1481 2464 1780 1437 4248 1515 3225 2397 3273
internal_value=0.0519715 -23.5082 33.5526 -11.1692 56.5777 -48.1903 19.9806 49.1406 -19.5169 75.4158 -3.30102 12.8281 -57.1646 -38.4829 29.0776 89.929 43.954 -15.6681 69.9298 -24.5242 0.784937 -53.521 56.0928 -7.21887 33.2198 -43.2148 16.8668 9.00745 -43.4083 75.0701 -63.0384 -33.7049 84.8011 24.6672 -9.05733 18.9053 -50.9226 66.8947 99.7972 -1.22968 2.97154 22.7606 40.9148 -17.9359 -13.5548 -56.1045 31.3302 -22.2494 67.1459 11.0583 46.9935 59.0727 -9.14439 -27.0342 14.837 31.4324 7.14896 -5.06249 26.5816 53.081 18.7817 -31.6043
internal_weight=139667 81999 57668 54669 21386 27330 36282 15333 26526 6053 28143 20312 14201 13129 15970 1660 8782 14998 4393 11528 13776 8765 6551 14367 8235 6596 9874 10438 6557 1630 5436 6533 1093 7735 7755 4926 4371 2763 567 7170 6606 3876 4392 7234 7764 4394 4936 6048 2730 4962 4390 3292 7729 5480 4948 4915 5476 6612 3859 3259 4902 3293
internal_count=139667 81999 57668 54669 21386 27330 36282 15333 26526 6053 28143 20312 14201 13129 15970 1660 8782 14998 4393 11528 13776 8765 6551 14367 8235 6596 9874 10438 6557 1630 5436 6533 1093 7735 7755 4926 4371 2763 567 7170 6606 3876 4392 7234 7764 4394 4936 6048 2730 4962 4390 3292 7729 5480 4948 4915 5476 6612 3859 3259 4902 3293
is_linear=0
shrinkage=0.05


Tree=12
num_leaves=63
num_cat=0
split_feature=71 71 71 71 71 71 71 71 71 71 71 71 71 71 71 71 71 71 71 71 71 71 71 71 71 71 71 71 76 71 71 76 76 71 76 71 76 76 76 76 76 76 76 76 76 76 76 76 76 76 76 76 76 76 76 76 76 76 54 76 76 71
split_gain=3.98005e+10 8.69405e+09 6.85666e+09 1.27588e+09 1.12673e+09 8.99813e+08 7.55951e+08 1.95429e+08 1.91951e+08 1.75673e+08 1.70246e+08 1.22432e+08 1.11361e+08 9.93477e+07 9.70042e+07 3.17673e+07 3.00241e+07 2.70136e+07 2.58695e+07 2.52221e+07 2.32339e+07 1.86814e+07 1.86062e+07 1.84688e+07 1.70883e+07 1.44167e+07 1.43954e+07 1.36206e+07 1.31697e+07 1.14202e+07 1.13895e+07 1.03045e+07 9.92022e+06 7.96814e+06 7.58042e+06 7.28011e+06 6.45588e+06 5.60556e+06 5.50186e+06 5.4435e+06 5.26045e+06 5.12032e+06 5.00358e+06 4.98188e+06 4.90927e+06 4.84808e+06 4.81423e+06 4.77411e+06 4.66656e+06 4.54528e+06 4.49474e+06 4.20122e+06 4.1416e+06 4.0611e+06 4.03367e+06 3.99661e+06 3.96762e+06 3.95917e+06 3.94755e+06 3.92932e+06 3.80061e+06 3.76754e+06
threshold=3990.9000000000005 2761.1800000000007 5156.6000000000013 3406.7050000000004 6012.4600000000009 4537.3850000000011 2128.8100000000004 6661.6050000000005 5562.3750000000009 3085.6850000000004 3681.7650000000003 4813.4850000000015 4257.3750000000009 1787.5000000000002 2413.6800000000003 6361.4900000000007 7099.3650000000007 3234.7950000000005 5743.5550000000012 3831.6250000000005 5363.4500000000007 2936.7000000000003 3529.5050000000006 4960.295000000001 1932.0050000000003 4098.9300000000012 2558.0650000000005 4380.2400000000007 -141.49999999999952 4658.0750000000016 1616.2150000000004 -141.49999999999952 136.43999999999986 2265.1450000000004 136.43999999999986 6168.9500000000016 136.43999999999986 14.304999999999838 -141.49999999999952 136.43999999999986 -1.0000000180025095e-35 -87.425000000000168 110.97000000000004 -101.56000000000016 20.184999999999949 5.674999999999728 -141.49999999999952 17.830000000000158 10.65000000000032 136.43999999999986 -1.2099999999998088 -141.49999999999952 12.644999999999984 -101.56000000000016 -141.49999999999952 -101.56000000000016 24.759999999999881 110.97000000000004 5842.805416666668 136.43999999999986 7.1599999999999691 6825.6000000000013
decision_type=2 2 2 2 2 2 2 2 2 2 2 2 2 2 2 2 2 2 2 2 2 2 2 2 2 2 2 2 2 2 2 2 2 2 2 2 2 2 2 2 2 2 2 2 2 2 2 2 2 2 2 2 2 2 2 2 2 2 2 2 2 2
left_child=1 6 5 9 8 12 13 15 20 21 22 29 25 30 32 35 31 48 -10 47 49 43 -5 -13 57 -2 42 59 -17 -7 -1 -9 33 -8 -26 -6 53 -19 -28 54 -21 -18 -16 -3 -24 55 -22 -12 -11 60 -27 -37 -25 -29 -31 58 -40 -15 -20 -14 -4 -33
right_child=2 3 4 10 7 11 14 16 18 17 19 23 27 24 26 28 41 37 45 40 46 -23 44 52 34 50 38 36 -30 39 -32 61 -34 -35 -36 51 -38 -39 56 -41 -42 -43 -44 -45 -46 -47 -48 -49 -50 -51 -52 -53 -54 -55 -56 -57 -58 -59 -60 -61 -62 -63
leaf_value=-62.670100344439405 5.1919146245930534 -50.579092945772061 36.881300322039841 -10.262799444381049 60.395641471282801 20.203019229387742 -44.742973507009523 49.125742913023267 48.602115165168954 -19.511528990644223 -3.2399869297916846 28.076862857496305 12.615904834081144 -53.734299926166187 -36.870346308439714 30.780458900821742 70.939706196310212 -15.123351276074473 21.482682807884405 0.3642752228441925 19.515833096255623 -22.577943383803103 -7.3380857954388636 31.649210016003668 -49.180699600971124 7.6482887397875121 -55.934191261386481 1.0211462857275164 71.818502559132341 4.5230669084950135 -57.980785498656452 78.357830954845838 -13.435277742864338 -40.900334983056638 -19.63737461556137 43.538914995069632 40.814204660113006 -12.341659498156595 -32.726959748808717 48.738162300489613 3.0843579375574084 95.804825452241232 -15.548459980241768 -26.717291217517584 -4.5021450499028628 56.8068720813704 43.65250621708563 -0.46754598015467175 -16.749329327009033 61.499696068063173 10.370160985994632 65.443221048927043 34.713890752943435 16.45040064387177 23.927567845449218 53.46596951652041 -29.145295323017663 -31.702209270169948 51.710184007066914 34.262396153454532 39.917359222153713 84.509291223270623
leaf_weight=2208 4358 22 2635 6108 1656 3846 2711 26 3225 4229 5597 3843 4396 3817 2707 20 23 5673 20 3760 21 5477 5640 3237 4368 3149 24 43 1610 27 3228 554 29 2735 22 23 27 2666 3335 22 3371 544 28 4901 2093 1605 3850 2149 2406 21 2930 1625 1698 5423 4363 2208 1020 21 24 21 1736 513
leaf_count=2208 4358 22 2635 6108 1656 3846 2711 26 3225 4229 5597 3843 4396 3817 2707 20 23 5673 20 3760 21 5477 5640 3237 4368 3149 24 43 1610 27 3228 554 29 2735 22 23 27 2666 3335 22 3371 544 28 4901 2093 1605 3850 2149 2406 21 2930 1625 1698 5423 4363 2208 1020 21 24 21 1736 513
internal_value=0.0493978 -22.8854 31.1121 -11.427 53.3015 18.0896 -46.4945 70.5874 45.873 -19.5964 -4.20881 26.5673 10.9914 -54.6386 -37.6544 65.591 85.4335 -16.129 51.9145 -0.495523 40.6945 -24.5886 -8.20001 30.6788 -51.1708 7.38689 -33.8027 14.7875 71.3169 22.1965 -59.8866 80.5617 -42.6586 -42.814 -49.0331 62.7641 16.4501 -14.2342 -32.0218 23.9337 1.65015 94.8089 -36.6526 -26.825 -6.57058 54.6828 43.5221 -2.47084 -18.5102 38.2013 8.96035 65.1402 32.7044 16.329 23.8083 53.1665 -31.8888 -53.6146 38.0504 12.7196 38.088 81.323
internal_weight=139667 80345 59322 54092 21939 37383 26253 6594 15345 25374 28718 17036 20347 13664 12589 4934 1660 14974 7082 14877 8263 10400 13841 8778 8228 10437 7114 9910 1630 8258 5436 1093 5475 5446 4390 3304 5493 8339 4379 4412 7131 567 2735 4923 7733 3857 3871 7746 6635 4392 6079 1648 4935 5466 4390 2252 4355 3838 44 4417 4371 1067
internal_count=139667 80345 59322 54092 21939 37383 26253 6594 15345 25374 28718 17036 20347 13664 12589 4934 1660 14974 7082 14877 8263 10400 13841 8778 8228 10437 7114 9910 1630 8258 5436 1093 5475 5446 4390 3304 5493 8339 4379 4412 7131 567 2735 4923 7733 3857 3871 7746 6635 4392 6079 1648 4935 5466 4390 2252 4355 3838 44 4417 4371 1067
is_linear=0
shrinkage=0.05


Tree=13
num_leaves=63
num_cat=0
split_feature=71 71 71 71 71 71 71 71 71 71 71 71 71 71 71 71 71 71 71 71 71 71 71 71 71 71 76 71 71 71 76 71 71 76 76 76 71 76 76 76 76 76 76 76 76 76 76 76 77 76 76 29 76 71 76 76 76 76 76 76 61 76
split_gain=3.59226e+10 8.33694e+09 5.67024e+09 1.15068e+09 8.76131e+08 8.58147e+08 8.45459e+08 1.57714e+08 1.56663e+08 1.49197e+08 1.35639e+08 1.2116e+08 1.14061e+08 9.89322e+07 9.13281e+07 2.70988e+07 2.44138e+07 2.31186e+07 2.25324e+07 2.20683e+07 1.80672e+07 1.76729e+07 1.5545e+07 1.55402e+07 1.50767e+07 1.4997e+07 1.32629e+07 1.29985e+07 1.27324e+07 1.26258e+07 1.1881e+07 1.18725e+07 1.05808e+07 9.29438e+06 6.7326e+06 5.83444e+06 5.38845e+06 5.11078e+06 4.97002e+06 4.92514e+06 4.84534e+06 4.75764e+06 4.68037e+06 4.615e+06 4.45653e+06 4.40772e+06 4.27455e+06 4.23325e+06 4.11417e+06 4.06763e+06 4.01534e+06 3.99261e+06 3.94928e+06 3.92628e+06 3.85297e+06 3.84469e+06 3.81692e+06 3.75834e+06 3.75138e+06 3.70014e+06 3.67335e+06 3.64727e+06
threshold=4056.6550000000002 2846.9200000000005 5259.5150000000003 3474.3200000000006 2207.4750000000004 6060.255000000001 4640.5700000000006 3188.5450000000005 6661.6050000000005 3776.4150000000004 5648.7450000000008 1871.8900000000001 4333.7350000000006 4939.5950000000003 2529.9150000000004 7099.3650000000007 3029.5000000000005 3637.5350000000003 1711.0250000000003 6361.4900000000007 3350.1300000000006 5473.1350000000011 3913.4750000000004 4472.2800000000016 5851.9550000000008 2049.2250000000004 136.43999999999986 5086.9250000000002 4198.4900000000007 4792.9150000000009 -141.49999999999952 2712.9250000000006 2383.3800000000006 -141.49999999999952 -141.49999999999952 136.43999999999986 1501.9900000000002 110.97000000000004 29.319999999999826 -5.8400000000000309 8.3200000000003929 -141.49999999999952 -141.49999999999952 -87.425000000000168 15.569999999999824 7.9399999999999418 22.674999999999958 -8.8650000000002347 589.71500000000026 3.2700000000002096 28.724999999999913 33.45000000000001 -10.825000000000271 6227.630000000001 13.480000000000247 2.9449999999999368 5.320000000000392 -141.49999999999952 22.159999999999972 -101.56000000000016 7507.9850000000015 2.6050000000000186
decision_type=2 2 2 2 2 2 2 2 2 2 2 2 2 2 2 2 2 2 2 2 2 2 2 2 2 2 2 2 2 2 2 2 2 2 2 2 2 2 2 2 2 2 2 2 2 2 2 2 2 2 2 2 2 2 2 2 2 2 2 2 2 2
left_child=1 4 6 7 11 10 12 16 19 17 21 18 28 29 26 33 46 38 36 41 39 47 52 61 55 48 32 -15 54 40 -21 37 -6 -10 -25 56 -1 42 57 -9 -8 -7 -16 -17 -18 -24 -3 -4 -13 -30 -19 -42 -11 -43 -2 -12 -36 -5 -22 -26 -45 -14
right_child=2 3 5 9 14 8 13 20 15 22 24 25 23 27 31 43 44 50 -20 30 58 -23 45 34 59 -27 -28 -29 49 -31 -32 -33 -34 -35 35 -37 -38 -39 -40 -41 51 53 -44 60 -46 -47 -48 -49 -50 -51 -52 -53 -54 -55 -56 -57 -58 -59 -60 -61 -62 -63
leaf_value=-62.894389921787244 6.2963427909835445 -24.020779893386365 37.274564529044923 -27.40799960558158 -39.982655629194603 41.257537297827959 20.959071963660904 -16.253607625079333 46.678867300625512 -1.6307040107374242 47.279106921751087 -48.561724376667563 13.028382158171169 29.868735169611895 -53.250453094847174 67.408075618331054 -19.748667091422167 -4.186363662059879 -52.727168905162721 29.249092971270354 -11.947391017071666 43.852876008711952 2.4217465196164465 -10.12217406503397 34.015411516244981 -43.965147218706846 -6.2603750580387167 33.987887263059257 9.4918764502392516 26.151296780939482 68.227800260823045 -27.348126375401797 -35.762198192629477 77.257634930078467 16.994933806555956 40.953526300722174 -57.408789814326759 -13.843856315427164 -5.0056764945293342 -13.714848495310216 46.611599685896692 59.04819818698094 -31.494148865016083 86.83368483859698 -16.952757742885318 5.2176740837597073 -20.849006612769628 40.405795286190518 -27.164374269757953 12.386411262724408 -1.1729911914473923 24.121266490392003 0.89698237867990671 62.994769897404694 9.1287613620042993 50.77838086451353 19.694502175433534 -8.0169902278259997 -9.1317227626736628 54.000112750883915 95.416107901096893 15.775617598652659
leaf_weight=534 3699 4581 2003 25 3287 33 2784 3446 26 2463 1871 4371 2775 3821 25 23 4603 5799 3818 20 4521 3252 3772 21 24 3269 33 3864 2891 3849 1610 3318 2736 1067 3253 28 3261 41 1624 4304 20 1645 3730 280 2074 2251 1392 2415 23 2096 1366 1607 4147 1085 1779 1411 2204 6664 1605 2716 264 2148
leaf_count=534 3699 4581 2003 25 3287 33 2784 3446 26 2463 1871 4371 2775 3821 25 23 4603 5799 3818 20 4521 3252 3772 21 24 3269 33 3864 2891 3849 1610 3318 2736 1067 3253 28 3261 41 1624 4304 20 1645 3730 280 2074 2251 1392 2415 23 2096 1366 1607 4147 1085 1779 1411 2204 6664 1605 2716 264 2148
internal_value=0.0469521 -20.8796 30.7737 -9.4512 -42.8303 52.3933 19.1858 -16.9209 68.0712 -2.40259 45.4619 -50.9782 12.5687 27.8567 -33.3793 81.1629 -20.9589 -5.69342 -55.4472 63.1224 -13.2396 41.0507 1.62936 16.2694 51.0797 -46.5376 -37.8929 31.9403 8.88065 24.057 67.7514 -29.5365 -38.0661 76.5346 18.0949 18.2031 -58.1823 -31.4486 -7.48742 -14.8439 22.229 60.3892 -31.6404 90.0699 -18.8805 3.46675 -23.282 38.9871 -48.4503 10.7087 -3.61189 24.4006 -0.0448868 60.619 7.21633 48.785 18.0856 -8.08987 -11.2099 53.8263 91.0155 14.2274
internal_weight=139667 83083 56584 54637 28446 19745 36839 26526 6053 28111 13692 15276 20894 15945 13170 1660 12650 15478 7613 4393 13876 7670 12633 10429 6022 7663 6056 7685 10465 8260 1630 7114 6023 1093 5506 5485 3795 3796 8313 7750 4411 2763 3755 567 6677 6023 5973 4418 4394 4987 7165 1627 6610 2730 5478 3282 5457 6689 6126 2740 544 4923
internal_count=139667 83083 56584 54637 28446 19745 36839 26526 6053 28111 13692 15276 20894 15945 13170 1660 12650 15478 7613 4393 13876 7670 12633 10429 6022 7663 6056 7685 10465 8260 1630 7114 6023 1093 5506 5485 3795 3796 8313 7750 4411 2763 3755 567 6677 6023 5973 4418 4394 4987 7165 1627 6610 2730 5478 3282 5457 6689 6126 2740 544 4923
is_linear=0
shrinkage=0.05


Tree=14
num_leaves=63
num_cat=0
split_feature=71 71 71 71 71 71 71 71 71 71 71 71 71 71 71 71 71 71 71 71 71 71 71 71 71 71 71 71 71 71 71 71 56 56 61 71 56 57 71 71 71 71 71 71 71 71 85 71 56 71 71 73 56 12 12 71 56 71 71 71 71 56
split_gain=3.24233e+10 7.08188e+09 5.58602e+09 1.03939e+09 9.20035e+08 7.33259e+08 6.1619e+08 1.80175e+08 1.43478e+08 1.38972e+08 1.37024e+08 9.97547e+07 9.05354e+07 8.15635e+07 7.89245e+07 3.54776e+07 2.21061e+07 2.04291e+07 2.0044e+07 1.92636e+07 1.7034e+07 1.64853e+07 1.54667e+07 1.52935e+07 1.37781e+07 1.19688e+07 1.1829e+07 1.11571e+07 1.04764e+07 7.4617e+06 6.76649e+06 6.7649e+06 6.32057e+06 5.2041e+06 4.17642e+06 3.53656e+06 3.26126e+06 3.03699e+06 2.97824e+06 2.88736e+06 2.72747e+06 2.70706e+06 2.67548e+06 2.67372e+06 2.52605e+06 2.50153e+06 2.45578e+06 2.39363e+06 2.36147e+06 2.23777e+06 2.16026e+06 2.11764e+06 2.42008e+06 2.05469e+06 2.01068e+06 1.87239e+06 1.82115e+06 1.81018e+06 1.70033e+06 1.64386e+06 1.57206e+06 1.44341e+06
threshold=3990.9000000000005 2761.1800000000007 5156.6000000000013 3406.7050000000004 5968.6750000000002 4537.3850000000011 2128.8100000000004 6530.1600000000008 3085.6850000000004 3699.8050000000007 5532.2700000000013 4857.295000000001 4257.3750000000009 1763.0550000000001 2413.6800000000003 7099.3650000000007 3245.4350000000004 6227.630000000001 5711.0000000000009 3551.8750000000005 1909.6200000000001 3843.2550000000006 2918.7300000000005 5313.2150000000011 4693.8950000000013 2584.9650000000006 4113.6650000000009 4394.6900000000014 5001.5750000000007 1584.6600000000003 2265.1450000000004 6825.6000000000013 5357.9250000000002 4541.3100000000004 7654.9600000000009 2023.8200000000002 3293.6850000000004 3972.3200000000002 5814.7450000000008 3327.1250000000005 6113.4700000000003 5416.6450000000013 3014.7800000000002 3637.5350000000003 3176.3950000000004 3486.0150000000008 0.27982901403101951 3776.4150000000004 3245.8650000000002 6361.4900000000007 3939.2950000000005 2501.9150000000004 2526.0000000000005 0.91597561503675362 0.91597561503675362 4773.005000000001 2647.3950000000004 1501.9900000000002 4622.7000000000016 5064.3900000000003 2846.9200000000005 3856.3150000000005
decision_type=2 2 2 2 2 2 2 2 2 2 2 2 2 2 2 2 2 2 2 2 2 2 2 2 2 2 2 2 2 2 2 2 2 2 2 2 2 2 2 2 2 2 2 2 2 2 2 2 2 2 2 2 2 2 2 2 2 2 2 2 2 2
left_child=1 6 5 8 10 12 13 17 22 19 23 24 26 29 30 31 44 40 -12 45 -15 47 51 61 48 54 -2 -14 -13 57 -8 32 -9 -19 -17 -22 -29 -37 -20 -18 -6 -25 -24 -21 -10 -5 -36 -11 -7 -35 -23 -3 -53 56 -16 -26 -27 -1 -50 -30 -54 -4
right_child=2 3 4 9 7 11 14 15 16 21 18 28 27 20 25 34 39 33 38 43 35 50 42 41 55 53 -28 36 59 -31 -32 -33 -34 49 46 37 -38 -39 -40 -41 -42 -43 -44 -45 -46 -47 -48 -49 58 -51 -52 52 60 -55 -56 -57 -58 -59 -60 -61 -62 -63
leaf_value=-59.750258251505159 4.8886833532448319 -21.70477665012551 20.855065752262444 -9.852855455971989 53.36062840510737 1.5466210056893268 -40.269250295387138 40.539054827666405 -17.418313364554248 -2.6795888064655013 43.103878455513573 26.360307524094289 11.664828442316399 -48.936474220236391 -33.498409666753695 82.019098591014597 -13.668459994737709 39.472502315426219 46.824934425351699 -6.2012852496098958 -45.697146057215718 0.99334042341593709 -21.536001828062162 37.059942737146748 21.507752557031324 -30.5139540900127 8.2607614856555305 -3.3525319839414225 28.83419704202683 -53.104111590710914 -36.738352260962039 75.727784732188255 69.256755344157369 59.784500744414828 88.89041994614854 -43.153641306773011 15.110783442977581 -23.392149603544777 49.677223510797603 -11.73984782857967 56.646667158879076 39.55779780422985 -19.41788559844457 -4.3175632027384658 -15.5343116231194 -7.9881950471181717 105.50390327165218 -0.84468260398070472 17.933882816787051 63.105472418002662 2.9189233971966142 -41.493379563551684 -25.865014479311153 -26.609066021961993 -30.698665570711725 23.581098721728239 -27.964171142334006 -56.074819907103397 19.8095013969088 30.955263347639995 -23.797634973250748 33.878335324441252
leaf_weight=534 4926 604 22 3888 1656 20 2725 20 3886 3877 3227 3857 4958 3845 2377 347 3898 28 1652 4415 2742 4447 3251 2230 2195 1483 5511 24 1618 3248 2750 527 1083 1089 191 2177 4928 20 2203 3882 1095 2203 2786 3288 3308 3355 29 3282 2732 1077 2166 22 1835 975 904 2208 1375 1098 2199 2207 1902 3260
leaf_count=534 4926 604 22 3888 1656 20 2725 20 3886 3877 3227 3857 4958 3845 2377 347 3898 28 1652 4415 2742 4447 3251 2230 2195 1483 5511 24 1618 3248 2750 527 1083 1089 191 2177 4928 20 2203 3882 1095 2203 2786 3288 3308 3355 29 3282 2732 1077 2166 22 1835 975 904 2208 1375 1098 2199 2207 1902 3260
internal_value=0.0446254 -20.6558 28.0811 -10.3142 48.1092 16.327 -41.9638 62.8477 -17.6877 -3.79925 40.9951 23.9799 9.91935 -49.3166 -33.9826 74.7662 -14.5541 57.5511 46.018 -7.13805 -46.4352 -0.175805 -22.1993 36.3838 20.5121 -30.5083 6.66929 13.3422 28.2022 -54.5021 -38.4964 71.0036 68.7398 61.1601 85.5686 -44.4871 15.0212 -42.9748 48.4562 -12.7063 54.6706 38.3021 -20.5589 -5.39729 -16.5522 -8.98926 91.1273 -1.83841 18.7012 61.4386 1.62407 -24.4687 -24.9122 -28.6075 -32.728 22.548 -29.2883 -57.281 18.7707 30.0588 -24.8135 33.7917
internal_weight=139667 80345 59322 54092 21939 37383 26253 7142 25374 28718 14797 17036 20347 13664 12589 2197 14974 4945 7082 14946 8784 13772 10400 7715 9354 7114 10437 9910 7682 4880 5475 1630 1103 2194 567 4939 4952 2197 3855 7780 2751 4433 6037 7703 7194 7243 220 7159 4951 2166 6613 4363 3759 3833 3281 4403 2858 1632 4931 3825 3737 3282
internal_count=139667 80345 59322 54092 21939 37383 26253 7142 25374 28718 14797 17036 20347 13664 12589 2197 14974 4945 7082 14946 8784 13772 10400 7715 9354 7114 10437 9910 7682 4880 5475 1630 1103 2194 567 4939 4952 2197 3855 7780 2751 4433 6037 7703 7194 7243 220 7159 4951 2166 6613 4363 3759 3833 3281 4403 2858 1632 4931 3825 3737 3282
is_linear=0
shrinkage=0.05


Tree=15
num_leaves=63
num_cat=0
split_feature=54 57 54 54 56 57 57 54 54 54 56 56 57 57 57 57 56 13 73 56 13 57 73 57 76 56 77 56 73 57 13 57 73 73 76 76 57 56 56 76 56 73 76 57 57 76 73 56 56 57 57 57 76 57 57 54 56 73 57 56 57 56
split_gain=2.89445e+10 6.39362e+09 4.61879e+09 9.81149e+08 7.04259e+08 6.68506e+08 5.751e+08 1.47209e+08 1.33886e+08 1.19432e+08 1.15487e+08 9.94987e+07 9.45599e+07 8.13023e+07 7.96618e+07 6.7673e+07 6.07011e+07 6.00774e+07 4.40795e+07 6.52658e+07 2.99012e+07 2.73708e+07 2.69849e+07 4.09939e+07 2.65124e+07 2.49645e+07 2.49419e+07 2.46437e+07 2.36091e+07 2.73548e+07 2.31729e+07 2.1303e+07 2.31752e+07 2.10689e+07 1.9631e+07 1.92352e+07 1.92086e+07 1.91069e+07 1.89854e+07 1.78284e+07 1.7501e+07 1.61458e+07 1.50976e+07 1.50301e+07 1.45727e+07 1.43708e+07 1.41829e+07 1.77586e+07 1.39529e+07 1.38635e+07 1.36038e+07 1.32554e+07 1.28642e+07 1.25263e+07 1.24416e+07 1.15315e+07 1.08791e+07 1.08645e+07 1.05598e+07 1.05256e+07 1.0001e+07 9.81468e+06
threshold=4025.2883333333339 2913.3900000000008 5205.2879166666671 3448.5941666666672 5842.6850000000004 4707.6750000000011 2279.5300000000002 3128.1654166666672 6630.2795833333339 3727.6929166666673 5451.3000000000011 3245.8650000000002 4401.505000000001 5009.8700000000017 1858.075 2622.7350000000006 3466.5950000000007 0.37940952255126048 2867.5500000000006 2473.3650000000002 0.60355339059327384 6459.0850000000009 5001.5750000000007 5865.4100000000008 25.890000000000217 3224.3800000000006 2768.3500000000008 4873.6450000000013 5851.9550000000008 5899.4950000000008 0.78656609248549303 5971.5800000000008 5927.8850000000011 4155.7450000000008 -2.9950000000001178 1.3049999999998365 3232.8650000000002 3202.1100000000001 6848.9750000000013 -0.31500000000005451 2446.0400000000004 4349.7100000000009 -7.7699999999997535 3688.7450000000003 2068.2700000000004 136.43999999999986 3200.4550000000004 2669.7150000000006 4724.4700000000003 4007.5500000000006 6710.9250000000011 3738.5550000000007 -38.769999999999747 4539.7100000000009 3540.0150000000008 4167.2204166666679 2822.0550000000007 6439.0500000000011 5556.9600000000009 3477.4150000000004 1630.2150000000004 2173.8850000000007
decision_type=2 2 2 2 2 2 2 2 2 2 2 2 2 2 2 2 2 2 2 2 2 2 2 2 2 2 2 2 2 2 2 2 2 2 2 2 2 2 2 2 2 2 2 2 2 2 2 2 2 2 2 2 2 2 2 2 2 2 2 2 2 2
left_child=1 6 5 7 10 12 14 17 21 33 16 52 55 42 60 30 -4 36 43 -20 -17 -6 23 -15 37 -14 28 -24 29 34 -8 -12 -33 39 -18 41 -3 46 -10 59 -22 -11 -13 -19 -16 -25 -9 -48 -30 -37 -28 -41 -7 -27 -26 -2 -21 -23 -36 -5 -1 -32
right_child=2 3 4 9 8 11 15 24 38 35 31 13 25 22 44 20 26 18 19 56 40 57 27 45 54 53 50 -29 48 -31 61 32 -34 -35 58 49 -38 -39 -40 51 -42 -43 -44 -45 -46 -47 47 -49 -50 -51 -52 -53 -54 -55 -56 -57 -58 -59 -60 -61 -62 -63
leaf_value=-54.228030357913298 5.4492570275740109 -18.619805636365694 -47.218168350150684 -9.7913387774204121 52.740653020572317 -65.058196746681546 -32.27669061023029 -12.862847166715518 68.357436587922393 -1.0578684526085989 42.625324746468465 18.484980870704785 -29.489276215244999 30.554124616069899 -45.206286877706731 -24.794135675350162 32.987483105657269 -12.79650305937559 -42.708887899241176 -26.908859004318202 -36.947858823599525 64.176812279987601 19.629150685755778 53.735400390625003 -10.67769911150608 12.159238442773892 42.212575328859515 27.747701386734793 6.4603570492624875 52.785863173483598 -41.990785357364615 53.731389416304154 43.236978417435125 -35.160434778492998 36.286825138417576 0.65916127080588949 -11.472127526020662 -11.955898877431324 80.080667528636667 -5.6335377005661771 -29.0625035252625 -30.118191004195978 22.799256328211634 13.049546474622858 -40.993258761102034 101.60586283669544 -40.633713102742369 -17.264169149839955 29.165290948388133 5.5493665285087337 85.624854348650757 -0.87778247694259126 -19.508569248154284 15.6669862139223 -3.4311958655432906 8.8043681411752406 -21.491119110862968 56.302937026190023 42.209410217408298 -5.9903301987081301 -49.579474541955392 -36.189680345819859
leaf_weight=1664 5273 6317 22 3260 3190 21 2927 2372 1042 7589 4485 3709 33 3027 4412 3344 3647 201 519 1619 1022 948 1273 75 2396 4826 35 3531 98 238 1221 1106 1011 62 2251 3818 1105 5865 525 4573 2275 48 4485 78 3875 20 83 3863 219 2336 38 2156 59 5392 787 4981 2177 835 1140 4129 3930 1837
leaf_count=1664 5273 6317 22 3260 3190 21 2927 2372 1042 7589 4485 3709 33 3027 4412 3344 3647 201 519 1619 1022 948 1273 75 2396 4826 35 3531 98 238 1221 1106 1011 62 2251 3818 1105 5865 525 4573 2275 48 4485 78 3875 20 83 3863 219 2336 38 2156 59 5392 787 4981 2177 835 1140 4129 3930 1837
internal_value=-0.0326888 -19.1338 27.1441 -9.46401 45.9497 16.472 -39.3267 -16.192 59.5401 -2.87763 39.7294 24.0635 10.4741 24.3397 -46.3509 -31.604 35.5627 -20.3379 -24.832 -26.0774 -28.1277 55.5212 27.9504 31.5711 -12.9499 13.8701 35.8009 25.5968 35.5203 36.1025 -35.4607 44.581 48.7219 -6.09969 35.5376 0.435329 -17.5558 -14.0116 72.29 -5.97182 -31.5078 -1.24091 20.8467 -5.56862 -43.2368 63.9097 -15.9196 -17.7567 22.1504 2.5155 64.897 -4.10981 -31.5317 14.0104 -8.88616 7.07911 -23.8024 60.4928 38.2791 -7.66743 -50.9632 -38.5072
internal_weight=139395 81860 57535 55353 20830 36705 26507 27382 6540 27971 14290 16200 20505 16120 13881 12626 7688 12016 4594 4315 6641 4973 7926 3122 15366 10251 7666 4804 7593 7276 5985 6602 2117 14180 7038 13791 7422 12183 1567 14118 3297 7637 8194 279 8287 95 6318 3946 317 6154 73 6729 80 10218 3183 10254 3796 1783 3391 7389 5594 3058
internal_count=139395 81860 57535 55353 20830 36705 26507 27382 6540 27971 14290 16200 20505 16120 13881 12626 7688 12016 4594 4315 6641 4973 7926 3122 15366 10251 7666 4804 7593 7276 5985 6602 2117 14180 7038 13791 7422 12183 1567 14118 3297 7637 8194 279 8287 95 6318 3946 317 6154 73 6729 80 10218 3183 10254 3796 1783 3391 7389 5594 3058
is_linear=0
shrinkage=0.05


Tree=16
num_leaves=63
num_cat=0
split_feature=71 71 71 71 71 71 71 71 71 71 71 71 71 71 71 71 71 76 71 71 71 71 71 71 71 76 76 71 71 71 14 71 71 76 71 71 76 71 76 76 76 76 76 76 76 76 76 76 76 76 76 76 76 76 76 76 76 76 76 76 76 76
split_gain=2.65225e+10 5.68039e+09 4.68661e+09 8.02275e+08 7.42052e+08 6.37435e+08 5.09401e+08 1.29734e+08 1.27916e+08 1.12256e+08 1.04483e+08 8.83877e+07 7.76158e+07 7.35721e+07 6.10065e+07 2.85352e+07 1.85784e+07 1.70674e+07 1.57947e+07 1.47766e+07 1.44533e+07 1.37835e+07 1.32299e+07 1.25878e+07 1.16744e+07 1.09694e+07 1.08737e+07 1.04603e+07 1.04088e+07 9.75769e+06 8.93084e+06 8.76348e+06 7.46529e+06 6.99304e+06 6.53973e+06 6.2857e+06 5.53887e+06 5.00611e+06 4.82253e+06 4.28742e+06 4.11283e+06 4.01878e+06 4.00143e+06 3.94831e+06 3.8567e+06 3.85659e+06 3.83286e+06 3.80922e+06 3.69141e+06 3.64853e+06 3.57035e+06 3.56904e+06 3.51975e+06 3.4079e+06 3.35446e+06 3.33701e+06 3.27465e+06 3.15467e+06 3.12053e+06 3.11963e+06 3.01892e+06 2.98085e+06
